<?xml version="1.0"?>
<opencv_storage>
<stage1>
  <maxWeakCount>35</maxWeakCount>
  <stageThreshold>-2.4388122558593750e+00</stageThreshold>
  <weakClassifiers>
    <_>
      <internalNodes>
        0 -1 11226 -800000016 -570425857 1077998421 -570556417 -524289
        -1 -9043969 -1025</internalNodes>
      <leafValues>
        -5.6851851940155029e-01 4.8207873106002808e-01</leafValues></_>
    <_>
      <internalNodes>
        0 -1 92 -151060506 -16842753 -16842768 -851970 -3 -134742017
        -33554435 -541697</internalNodes>
      <leafValues>
        -3.5405662655830383e-01 4.3994817137718201e-01</leafValues></_>
    <_>
      <internalNodes>
        0 -1 9045 -285216785 -285282321 -50332674 -487653378 -137
        -8392841 -156 -151062544</internalNodes>
      <leafValues>
        -3.1234115362167358e-01 3.5397139191627502e-01</leafValues></_>
    <_>
      <internalNodes>
        0 -1 20610 -1090748427 -16973826 -3 -65540 -4194315 -1 -3
        -4669960</internalNodes>
      <leafValues>
        -2.3983629047870636e-01 4.2553979158401489e-01</leafValues></_>
    <_>
      <internalNodes>
        0 -1 25602 -268435465 -286855169 -4432 -290521182 -973621327
        1155657719 -721993728 -991431261</internalNodes>
      <leafValues>
        -3.0356442928314209e-01 2.8353148698806763e-01</leafValues></_>
    <_>
      <internalNodes>
        0 -1 12229 -44761155 890612503 -1 867807035 -152177 -4194305
        -1073772406 952042667</internalNodes>
      <leafValues>
        -2.2426465153694153e-01 3.6179071664810181e-01</leafValues></_>
    <_>
      <internalNodes>
        0 -1 25110 -1360053483 -1359060993 -16385 -83951618 -176
        -234881665 -528 -84222468</internalNodes>
      <leafValues>
        -2.7386432886123657e-01 2.6134315133094788e-01</leafValues></_>
    <_>
      <internalNodes>
        0 -1 11226 1839564823 -220690700 -1114292997 -488660231
        -267865680 -659375144 831175579 -3166581</internalNodes>
      <leafValues>
        -1.9712080061435699e-01 3.4061762690544128e-01</leafValues></_>
    <_>
      <internalNodes>
        0 -1 15000 -136335441 1064810295 -134370645 -1073894804
        1157566399 2147483639 -67130706 -1064052</internalNodes>
      <leafValues>
        -1.7749874293804169e-01 3.6154961585998535e-01</leafValues></_>
    <_>
      <internalNodes>
        0 -1 20550 1328 -1661843536 -553959427 -1140965634 -1361822219
        -1073792257 1073231870 -1078263624</internalNodes>
      <leafValues>
        -2.6555666327476501e-01 2.4103909730911255e-01</leafValues></_>
    <_>
      <internalNodes>
        0 -1 18820 774843191 -1359069699 -149505 -386105858 -1073774795
        -134 -458891 -21433100</internalNodes>
      <leafValues>
        -2.8580772876739502e-01 2.2058849036693573e-01</leafValues></_>
    <_>
      <internalNodes>
        0 -1 1324 -9 -67109249 -501154118 572580506 -33624748 -9142665
        -17707816 -261882161</internalNodes>
      <leafValues>
        -2.1215112507343292e-01 2.8229853510856628e-01</leafValues></_>
    <_>
      <internalNodes>
        0 -1 19692 -1641015952 -238756 -1107296385 -67223560 -1166491948
        -289636487 -1074479112 -1079370640</internalNodes>
      <leafValues>
        -2.2902962565422058e-01 2.5514110922813416e-01</leafValues></_>
    <_>
      <internalNodes>
        0 -1 538 -421462048 -520557330 770583311 803931179 1683357525
        1677066175 1305214475 1811893599</internalNodes>
      <leafValues>
        -3.1730034947395325e-01 1.7119848728179932e-01</leafValues></_>
    <_>
      <internalNodes>
        0 -1 25266 -4833 1937731391 -2097185 -520159233 -164604
        2004320119 -16777268 -218890261</internalNodes>
      <leafValues>
        -1.9441448152065277e-01 2.6889422535896301e-01</leafValues></_>
    <_>
      <internalNodes>
        0 -1 24372 -2009463760 -352579843 2142764799 -755214860
        -16983020 -8573162 -1627606532 -1432871492</internalNodes>
      <leafValues>
        -2.6793900132179260e-01 1.9293004274368286e-01</leafValues></_>
    <_>
      <internalNodes>
        0 -1 21711 1548004492 282128191 -268464390 -1147966686
        1568408973 1878913021 1878986410 1073154867</internalNodes>
      <leafValues>
        -2.7003481984138489e-01 1.7834450304508209e-01</leafValues></_>
    <_>
      <internalNodes>
        0 -1 24247 -1561593167 -1366644806 -134225935 -8586244
        -1414547521 -1359151118 536868785 -539042332</internalNodes>
      <leafValues>
        -1.8635776638984680e-01 2.5430414080619812e-01</leafValues></_>
    <_>
      <internalNodes>
        0 -1 11037 -1364578767 -324260680 -1158152201 -87044 -1348207439
        -840192276 -1082329611 -522892</internalNodes>
      <leafValues>
        -2.1131698787212372e-01 2.1396008133888245e-01</leafValues></_>
    <_>
      <internalNodes>
        0 -1 221 -286265361 -1532170578 -1384518 -18157906 1711273983
        100655095 -138414735 -671091201</internalNodes>
      <leafValues>
        -1.9894474744796753e-01 2.2122311592102051e-01</leafValues></_>
    <_>
      <internalNodes>
        0 -1 16598 -198831 -2086621505 -1636544783 136422138 2092188944
        472931440 -537584624 70457395</internalNodes>
      <leafValues>
        -2.8694486618041992e-01 1.5570048987865448e-01</leafValues></_>
    <_>
      <internalNodes>
        0 -1 25956 -1975547391 -1997628890 -1162088530 -756088962
        -145844368 637455735 -226576400 -1301611076</internalNodes>
      <leafValues>
        -2.3749786615371704e-01 1.7789265513420105e-01</leafValues></_>
    <_>
      <internalNodes>
        0 -1 9882 1364325216 823180320 -25936284 925205506 1953881925
        -43712599 -1599067620 733675662</internalNodes>
      <leafValues>
        -2.5053933262825012e-01 1.7107152938842773e-01</leafValues></_>
    <_>
      <internalNodes>
        0 -1 18720 -2003565488 1928335214 -50430236 956055026 1053690388
        -1688543242 -1074511980 -1080418562</internalNodes>
      <leafValues>
        -2.5246006250381470e-01 1.6609112918376923e-01</leafValues></_>
    <_>
      <internalNodes>
        0 -1 20535 -2001668880 -21481480 -1074465802 -8601604
        -1161363728 -1342505483 -1208421894 -1145431878</internalNodes>
      <leafValues>
        -1.6352787613868713e-01 2.5380170345306396e-01</leafValues></_>
    <_>
      <internalNodes>
        0 -1 3049 -151000017 1518301039 -1963004312 -1293893978
        -537044365 1467832133 -319353852 1882676855</internalNodes>
      <leafValues>
        -2.6965388655662537e-01 1.4746680855751038e-01</leafValues></_>
    <_>
      <internalNodes>
        0 -1 22887 135795728 -1599832272 -563086224 -1627605776
        -1108525652 -1903239188 230674916 -1412757320</internalNodes>
      <leafValues>
        -2.4867418408393860e-01 1.5779489278793335e-01</leafValues></_>
    <_>
      <internalNodes>
        0 -1 2219 -255526976 4647482 -1074872600 -1059019282 1948775812
        1345387863 -219025324 -447481110</internalNodes>
      <leafValues>
        -3.2613557577133179e-01 1.2041570991277695e-01</leafValues></_>
    <_>
      <internalNodes>
        0 -1 21009 1346691268 1350606743 -990101539 -35713210 13633021
        -587432290 -1544745778 2093762602</internalNodes>
      <leafValues>
        -2.4901083111763000e-01 1.6720671951770782e-01</leafValues></_>
    <_>
      <internalNodes>
        0 -1 26990 -360731613 -1476494616 -1602394558 -220200962
        1870526291 92006362 -1233651840 -136314897</internalNodes>
      <leafValues>
        -1.7167256772518158e-01 2.2060984373092651e-01</leafValues></_>
    <_>
      <internalNodes>
        0 -1 16841 -1359992043 -827703811 1073725407 -1397961880
        531586421 -21123083 2100638532 -1930681192</internalNodes>
      <leafValues>
        -2.6555612683296204e-01 1.4306871592998505e-01</leafValues></_>
    <_>
      <internalNodes>
        0 -1 21300 236454928 -1841295368 -1082228944 -1679020292
        1067259392 -1963920004 -1886079072 -1075108680</internalNodes>
      <leafValues>
        -2.2953741252422333e-01 1.6283227503299713e-01</leafValues></_>
    <_>
      <internalNodes>
        0 -1 13615 1416667956 -916159403 -456808649 1164880413
        -231604545 1177497463 1588935224 1940882059</internalNodes>
      <leafValues>
        -2.2018995881080627e-01 1.7075783014297485e-01</leafValues></_>
    <_>
      <internalNodes>
        0 -1 14438 -51640504 -47314627 -268664834 1073221503 -567275556
        -42439325 -187130500 1042951512</internalNodes>
      <leafValues>
        -3.1220376491546631e-01 1.1866495013237000e-01</leafValues></_>
    <_>
      <internalNodes>
        0 -1 24426 -1361573888 -839631645 -327291201 -61154435
        -1345284320 -1745016052 -17763083 -1427626780</internalNodes>
      <leafValues>
        -2.3892174661159515e-01 1.4880897104740143e-01</leafValues></_></weakClassifiers></stage1>
</opencv_storage>
