<?xml version="1.0"?>
<opencv_storage>
<stage8>
  <maxWeakCount>123</maxWeakCount>
  <stageThreshold>-2.0559151172637939e+00</stageThreshold>
  <weakClassifiers>
    <_>
      <internalNodes>
        0 -1 10939 -17409 -20481 -134239557 -21829 -17473 -1 -67130693
        -21573</internalNodes>
      <leafValues>
        -3.4607100486755371e-01 4.0662303566932678e-01</leafValues></_>
    <_>
      <internalNodes>
        0 -1 5516 -252641292 -251957761 -924798977 -117463105 -135987772
        -4195397 -1065025 -1066017</internalNodes>
      <leafValues>
        -3.1134682893753052e-01 2.0707572996616364e-01</leafValues></_>
    <_>
      <internalNodes>
        0 -1 15737 -300 -2099369 -16777476 -17 -2604 -167774347
        -50463632 -33554433</internalNodes>
      <leafValues>
        -2.1787001192569733e-01 2.4711498618125916e-01</leafValues></_>
    <_>
      <internalNodes>
        0 -1 21392 -196611 -65539 -1 -65539 -262147 -1 -67108865 -1</internalNodes>
      <leafValues>
        -1.1694017797708511e-01 3.9457058906555176e-01</leafValues></_>
    <_>
      <internalNodes>
        0 -1 26010 -217 -269484129 -402653758 -357646386 -9438395
        13630355 -403704000 -671090716</internalNodes>
      <leafValues>
        -2.2282864153385162e-01 1.6256374120712280e-01</leafValues></_>
    <_>
      <internalNodes>
        0 -1 20550 67113204 -504866 -1074167811 -183041 -1084702755
        -49223 -1074022401 -1074066214</internalNodes>
      <leafValues>
        -1.3314828276634216e-01 2.6045104861259460e-01</leafValues></_>
    <_>
      <internalNodes>
        0 -1 7765 -620761393 -8392977 -496578818 1927474890 1149224013
        -598782370 -731718450 -143130625</internalNodes>
      <leafValues>
        -1.9685676693916321e-01 1.6655628383159637e-01</leafValues></_>
    <_>
      <internalNodes>
        0 -1 20144 1077988556 1360063108 -354024330 -649854976 5522685
        -1304867 -504610050 2073297610</internalNodes>
      <leafValues>
        -2.4394905567169189e-01 1.4328949153423309e-01</leafValues></_>
    <_>
      <internalNodes>
        0 -1 10939 2114576 -1592004588 546599748 2710348 14700136
        -854390270 109056260 168762958</internalNodes>
      <leafValues>
        -3.1647616624832153e-01 8.6354166269302368e-02</leafValues></_>
    <_>
      <internalNodes>
        0 -1 17237 -4177 1060437943 -237638998 -571609370 1451190783
        -1074790937 -133426 -1050930</internalNodes>
      <leafValues>
        -1.2086059153079987e-01 2.6248884201049805e-01</leafValues></_>
    <_>
      <internalNodes>
        0 -1 19692 -64946192 -98341 -262657 -49153 -1148387336 -4259860
        -1073741825 -1145356998</internalNodes>
      <leafValues>
        -1.1916925013065338e-01 2.6174110174179077e-01</leafValues></_>
    <_>
      <internalNodes>
        0 -1 4970 -269488145 -1360105602 -1074266169 -285442054
        -537919493 1207697326 -152045705 -671097353</internalNodes>
      <leafValues>
        -2.0802365243434906e-01 1.3869550824165344e-01</leafValues></_>
    <_>
      <internalNodes>
        0 -1 20125 -285675740 -990058512 -16777554 -956433475 -160396761
        -18028604 -151525529 -83918557</internalNodes>
      <leafValues>
        -1.3213028013706207e-01 1.9118270277976990e-01</leafValues></_>
    <_>
      <internalNodes>
        0 -1 24221 -1048669 254278562 -138414256 -1141378078 -1476395025
        -1959481927 -201329216 -2048918273</internalNodes>
      <leafValues>
        -1.5384031832218170e-01 1.5570124983787537e-01</leafValues></_>
    <_>
      <internalNodes>
        0 -1 18631 -596574732 -168282147 -1277165697 -135449243
        -1106199564 -6127765 -76750913 -1078252229</internalNodes>
      <leafValues>
        -1.1761764436960220e-01 2.0149004459381104e-01</leafValues></_>
    <_>
      <internalNodes>
        0 -1 22297 -299219945 2129558895 -553746561 -590463105 -89274283
        2078750539 -1392514868 678477695</internalNodes>
      <leafValues>
        -1.7257529497146606e-01 1.3750773668289185e-01</leafValues></_>
    <_>
      <internalNodes>
        0 -1 12708 1979705255 833746865 -1393569999 -34086919 1441687295
        -1078853649 -453649732 -1446642145</internalNodes>
      <leafValues>
        -1.1760814487934113e-01 1.9093263149261475e-01</leafValues></_>
    <_>
      <internalNodes>
        0 -1 17527 -714741298 -626989905 1668775162 -1347428634
        -176816195 796014591 -25198773 185532447</internalNodes>
      <leafValues>
        -1.4153616130352020e-01 1.5485204756259918e-01</leafValues></_>
    <_>
      <internalNodes>
        0 -1 9811 1432223228 866236327 -4575247 800061987 1415861588
        -33290 -1362367509 800028843</internalNodes>
      <leafValues>
        -1.5411463379859924e-01 1.4099825918674469e-01</leafValues></_>
    <_>
      <internalNodes>
        0 -1 2850 -18879509 -359665681 1056950946 1625225930 -402918841
        1112489837 -134614046 1946154494</internalNodes>
      <leafValues>
        -1.5229952335357666e-01 1.4237804710865021e-01</leafValues></_>
    <_>
      <internalNodes>
        0 -1 22563 -53152532 -1000013826 -1528897580 -285409346
        -185272412 1995896567 1056283146 1057484670</internalNodes>
      <leafValues>
        -1.7966452240943909e-01 1.1834863573312759e-01</leafValues></_>
    <_>
      <internalNodes>
        0 -1 17830 771961143 -1362480644 -272812033 -1428160787 -1049289
        -605045220 -72679885 -1147644184</internalNodes>
      <leafValues>
        -1.6916792094707489e-01 1.2712493538856506e-01</leafValues></_>
    <_>
      <internalNodes>
        0 -1 17790 -866235311 -620806321 -83927377 2121940223
        -1090893760 -69335769 -1342276612 -14008328</internalNodes>
      <leafValues>
        -1.4405706524848938e-01 1.4056700468063354e-01</leafValues></_>
    <_>
      <internalNodes>
        0 -1 18321 1945628559 286326303 -17109371 -46401593 1702711292
        -236456307 -135958851 -1603287377</internalNodes>
      <leafValues>
        -1.1443396657705307e-01 1.7611216008663177e-01</leafValues></_>
    <_>
      <internalNodes>
        0 -1 23855 -1742682076 -554648138 -1347502091 -671548936
        -1189037440 -1628979201 -37962305 -1412951040</internalNodes>
      <leafValues>
        -1.2998190522193909e-01 1.5163537859916687e-01</leafValues></_>
    <_>
      <internalNodes>
        0 -1 26470 -69234929 -763892225 1987477290 1116562379 2147446528
        1717007121 -19217536 1915944395</internalNodes>
      <leafValues>
        -1.7412967979907990e-01 1.1354118585586548e-01</leafValues></_>
    <_>
      <internalNodes>
        0 -1 3177 -87493138 -755058722 -134222931 -269489169 -160043022
        -185073674 -16529 2147450879</internalNodes>
      <leafValues>
        -1.1895086616277695e-01 1.5984891355037689e-01</leafValues></_>
    <_>
      <internalNodes>
        0 -1 9095 -419446801 -84939009 -286327074 -218464514 595547983
        -149720297 1961972020 -134224910</internalNodes>
      <leafValues>
        -1.4770108461380005e-01 1.2509025633335114e-01</leafValues></_>
    <_>
      <internalNodes>
        0 -1 14992 1487397807 836106003 -122344267 -1782187295
        1393626284 -1254278403 -100308533 820736800</internalNodes>
      <leafValues>
        -1.3974983990192413e-01 1.3158193230628967e-01</leafValues></_>
    <_>
      <internalNodes>
        0 -1 17702 -26805007 -2044265312 620375729 -1373442384 324846705
        -667894475 1454888003 70175755</internalNodes>
      <leafValues>
        -1.7551186680793762e-01 1.0350533574819565e-01</leafValues></_>
    <_>
      <internalNodes>
        0 -1 22265 908871713 -1108862614 2141552501 1939625980
        -1078996067 -1411477530 528349117 -1145408004</internalNodes>
      <leafValues>
        -1.3089157640933990e-01 1.3911673426628113e-01</leafValues></_>
    <_>
      <internalNodes>
        0 -1 20431 -696977932 1566089820 -672208460 -1912699892
        2130748976 -1204779536 1680099883 61016411</internalNodes>
      <leafValues>
        -1.5996980667114258e-01 1.1197709292173386e-01</leafValues></_>
    <_>
      <internalNodes>
        0 -1 26877 -3161 -341115666 -928005408 -606145882 -1611665497
        9876395 1926878452 1171257341</internalNodes>
      <leafValues>
        -1.2439487874507904e-01 1.4075341820716858e-01</leafValues></_>
    <_>
      <internalNodes>
        0 -1 17664 -904918416 -738455992 -4260934 -67345292 592469316
        -1116180619 -1111728392 -1086717560</internalNodes>
      <leafValues>
        -1.5062338113784790e-01 1.1476634442806244e-01</leafValues></_>
    <_>
      <internalNodes>
        0 -1 12135 -1440210127 -287167364 2079800311 -286478700
        -1376182923 -877675036 398226295 -544124555</internalNodes>
      <leafValues>
        -1.6988565027713776e-01 1.0254042595624924e-01</leafValues></_>
    <_>
      <internalNodes>
        0 -1 13399 483305152 1701137655 2138439667 574442199 1600780169
        -405295251 1073729817 1940556419</internalNodes>
      <leafValues>
        -1.5939334034919739e-01 1.0974080860614777e-01</leafValues></_>
    <_>
      <internalNodes>
        0 -1 5553 1721429659 1001055122 787787580 -243521738 1972731765
        1721958388 -419562151 1977898240</internalNodes>
      <leafValues>
        -1.4226730167865753e-01 1.2461396306753159e-01</leafValues></_>
    <_>
      <internalNodes>
        0 -1 22816 -30091848 -588767520 2067689141 -106021700
        -1149307984 -1351558621 -1617366086 -1416952629</internalNodes>
      <leafValues>
        -1.1394524574279785e-01 1.5051808953285217e-01</leafValues></_>
    <_>
      <internalNodes>
        0 -1 14457 -625317277 -209762709 -1157966614 1377712895
        980877380 -1911661489 -186612268 -12945552</internalNodes>
      <leafValues>
        -1.4395207166671753e-01 1.1948734521865845e-01</leafValues></_>
    <_>
      <internalNodes>
        0 -1 21512 -903683951 -76925681 -558018593 -39143437 -83915692
        -536922113 -832598839 719616835</internalNodes>
      <leafValues>
        -1.3853769004344940e-01 1.2420939654111862e-01</leafValues></_>
    <_>
      <internalNodes>
        0 -1 13386 -1460205007 -387404587 -11580453 -1918833334
        -1889663695 -273695745 132492603 -1355112748</internalNodes>
      <leafValues>
        -1.4566491544246674e-01 1.1620544642210007e-01</leafValues></_>
    <_>
      <internalNodes>
        0 -1 9941 624911460 1352985830 1609559148 -40846611 1902589429
        -1309442507 -310937364 139820919</internalNodes>
      <leafValues>
        -1.4520867168903351e-01 1.2026061862707138e-01</leafValues></_>
    <_>
      <internalNodes>
        0 -1 15144 1090512551 -1850676285 779024896 -1244017436
        -177442626 -1082463003 -721587316 -1706989429</internalNodes>
      <leafValues>
        -1.1353123933076859e-01 1.5339760482311249e-01</leafValues></_>
    <_>
      <internalNodes>
        0 -1 23474 -1356861953 -930817288 -855638788 -34544464
        1140778431 -1934168603 -843622152 -638060326</internalNodes>
      <leafValues>
        -1.0159531235694885e-01 1.6691973805427551e-01</leafValues></_>
    <_>
      <internalNodes>
        0 -1 22863 -560934752 -611518648 -2571 -804427 -1623475028
        -1445546508 -1140852738 -1612768785</internalNodes>
      <leafValues>
        -8.4661886096000671e-02 2.0306560397148132e-01</leafValues></_>
    <_>
      <internalNodes>
        0 -1 6327 -86119185 -607187443 -967686069 1381662718 1811917312
        2049331310 -15466510 1464008446</internalNodes>
      <leafValues>
        -1.2896323204040527e-01 1.3269948959350586e-01</leafValues></_>
    <_>
      <internalNodes>
        0 -1 17417 -641546362 1080164205 -932253836 -492654658
        -2141442291 397704183 -721974460 1079290858</internalNodes>
      <leafValues>
        -1.9241370260715485e-01 9.0812884271144867e-02</leafValues></_>
    <_>
      <internalNodes>
        0 -1 27059 -1424658261 715381418 1917009474 1082056132
        -1307581125 104773994 396358075 1407180255</internalNodes>
      <leafValues>
        -1.3047610223293304e-01 1.2762248516082764e-01</leafValues></_>
    <_>
      <internalNodes>
        0 -1 26400 -606141873 1954538478 -353996050 1377303551
        -539355568 1477748044 2054356874 1917049038</internalNodes>
      <leafValues>
        -1.3798341155052185e-01 1.1927868425846100e-01</leafValues></_>
    <_>
      <internalNodes>
        0 -1 19995 -1943401967 -827710982 2076096509 -614565643
        -1180986124 -282083350 1876882888 -1148579424</internalNodes>
      <leafValues>
        -1.3853053748607635e-01 1.2043257057666779e-01</leafValues></_>
    <_>
      <internalNodes>
        0 -1 25968 -1909472251 -537507017 -492106886 -222392324
        -1283459097 -354541737 -1073875024 -91553810</internalNodes>
      <leafValues>
        -1.0607991367578506e-01 1.5466463565826416e-01</leafValues></_>
    <_>
      <internalNodes>
        0 -1 15370 -411900030 551729126 1868753894 -202189100 1330841510
        6584171 -47885415 22492791</internalNodes>
      <leafValues>
        -1.8334306776523590e-01 8.7622910737991333e-02</leafValues></_>
    <_>
      <internalNodes>
        0 -1 14513 -422624805 -33593477 1257167815 -136349201 -29221286
        -605983410 -144247361 -13959204</internalNodes>
      <leafValues>
        -8.6230605840682983e-02 1.8948665261268616e-01</leafValues></_>
    <_>
      <internalNodes>
        0 -1 15810 754723632 1140886140 -1881732271 -1605531410
        -379619548 812676880 1071819555 792496222</internalNodes>
      <leafValues>
        -2.3650425672531128e-01 6.9385908544063568e-02</leafValues></_>
    <_>
      <internalNodes>
        0 -1 22720 368288650 22336950 2147219240 1303940756 894374092
        -2064425037 -1140983072 809629683</internalNodes>
      <leafValues>
        -1.7474354803562164e-01 9.2126749455928802e-02</leafValues></_>
    <_>
      <internalNodes>
        0 -1 5516 -270565367 -271253778 1063219781 -2014304614 -42229461
        -1864729676 -1465621695 -1980813362</internalNodes>
      <leafValues>
        -9.5350101590156555e-02 1.6934339702129364e-01</leafValues></_>
    <_>
      <internalNodes>
        0 -1 9758 553160276 1085032396 -1436278475 13495768 -452678783
        1156079613 849525821 1473219647</internalNodes>
      <leafValues>
        -2.1451212465763092e-01 7.8046239912509918e-02</leafValues></_>
    <_>
      <internalNodes>
        0 -1 4973 -969235165 -98393798 1860140851 -41417934 -1344874060
        -439114577 -1746964523 -721619904</internalNodes>
      <leafValues>
        -1.3303267955780029e-01 1.2418577075004578e-01</leafValues></_>
    <_>
      <internalNodes>
        0 -1 13063 -589758542 1688521718 -546902512 -1565394319
        -1430332076 1277229684 2087862848 1579638273</internalNodes>
      <leafValues>
        -1.8688219785690308e-01 8.4191568195819855e-02</leafValues></_>
    <_>
      <internalNodes>
        0 -1 18179 2119495555 1562046143 1995696619 1367797674
        1449477363 1030558967 1190202542 1373991651</internalNodes>
      <leafValues>
        -1.3117741048336029e-01 1.2076538056135178e-01</leafValues></_>
    <_>
      <internalNodes>
        0 -1 13806 -2073262572 -1392466176 1862207798 688040998
        -1561805010 -1895432323 1672851996 1587578830</internalNodes>
      <leafValues>
        -1.8635034561157227e-01 8.8493265211582184e-02</leafValues></_>
    <_>
      <internalNodes>
        0 -1 111 -269486161 -391466328 -68161601 -892180 -1350566913
        1325127214 2013242215 -978323481</internalNodes>
      <leafValues>
        -1.0379827022552490e-01 1.5643107891082764e-01</leafValues></_>
    <_>
      <internalNodes>
        0 -1 23455 -1563817984 -661210603 1056209852 306229208 33493636
        -1393674985 382707108 -1145346630</internalNodes>
      <leafValues>
        -1.4083994925022125e-01 1.1110074818134308e-01</leafValues></_>
    <_>
      <internalNodes>
        0 -1 24095 -855735094 -8446171 -353452332 303200958 -1501603612
        -855739371 -1292127300 -131437060</internalNodes>
      <leafValues>
        -1.2228807806968689e-01 1.2997521460056305e-01</leafValues></_>
    <_>
      <internalNodes>
        0 -1 24645 250741766 238179630 1572817425 811101826 -1410659804
        1186690328 1958212736 -1687489282</internalNodes>
      <leafValues>
        -1.7142499983310699e-01 9.3913629651069641e-02</leafValues></_>
    <_>
      <internalNodes>
        0 -1 970 2088484211 960192119 1297153469 -1692205506 -1075110660
        -110797452 -824404516 -849095536</internalNodes>
      <leafValues>
        -1.0418277233839035e-01 1.5520231425762177e-01</leafValues></_>
    <_>
      <internalNodes>
        0 -1 22969 -788632035 1075212088 -344212481 24685678 -33583187
        1975893431 -1896933732 935019658</internalNodes>
      <leafValues>
        -1.2860275804996490e-01 1.2337642163038254e-01</leafValues></_>
    <_>
      <internalNodes>
        0 -1 18702 1258031328 1531723124 800974523 -17944196 1038302884
        -1344645317 -1224853058 -1145358902</internalNodes>
      <leafValues>
        -1.1960207670927048e-01 1.3202911615371704e-01</leafValues></_>
    <_>
      <internalNodes>
        0 -1 8875 544091412 -794022930 -268619796 -332098 1467287460
        -991903792 1811603044 1526570765</internalNodes>
      <leafValues>
        -1.5943279862403870e-01 9.8167948424816132e-02</leafValues></_>
    <_>
      <internalNodes>
        0 -1 21735 -836712287 -834657148 2063069039 -102141556
        -1156806743 -21236524 1047657106 -1158716271</internalNodes>
      <leafValues>
        -1.0096805542707443e-01 1.5262074768543243e-01</leafValues></_>
    <_>
      <internalNodes>
        0 -1 25703 -579121221 -48300064 1837021653 -67437448 -340267601
        -1901068353 1568494989 -841484805</internalNodes>
      <leafValues>
        -7.7305398881435394e-02 2.0015783607959747e-01</leafValues></_>
    <_>
      <internalNodes>
        0 -1 12650 1910619524 288488709 -931126972 -1241655546
        1414591438 -330650058 2034285722 388956170</internalNodes>
      <leafValues>
        -1.4265601336956024e-01 1.0854438692331314e-01</leafValues></_>
    <_>
      <internalNodes>
        0 -1 19810 -923681357 -419763235 -687998981 -389173255
        -1075773872 -1344102917 -269640845 -1086663498</internalNodes>
      <leafValues>
        -1.1774721741676331e-01 1.3122023642063141e-01</leafValues></_>
    <_>
      <internalNodes>
        0 -1 20383 -791158978 -798953644 1576198076 1638726189
        1347489924 -1322690911 1685052634 184776207</internalNodes>
      <leafValues>
        -1.3819326460361481e-01 1.1170678585767746e-01</leafValues></_>
    <_>
      <internalNodes>
        0 -1 10685 -1025840501 -92313158 217756386 1920104431 -671353524
        -1804916922 -1216945424 2134047550</internalNodes>
      <leafValues>
        -1.2971010804176331e-01 1.1997149139642715e-01</leafValues></_>
    <_>
      <internalNodes>
        0 -1 12285 -1440612096 -832423198 -544345133 -812340647
        1005954032 -1916077145 -1414400027 536478953</internalNodes>
      <leafValues>
        -1.6564711928367615e-01 9.4713009893894196e-02</leafValues></_>
    <_>
      <internalNodes>
        0 -1 27025 -79737085 2144010018 205885002 1221115448 1867376130
        51345464 1940361540 1439954140</internalNodes>
      <leafValues>
        -1.7013914883136749e-01 9.1394729912281036e-02</leafValues></_>
    <_>
      <internalNodes>
        0 -1 18091 110007249 -1829863535 -46236833 -276382174 -185132924
        -2130841601 -1375780914 1372389258</internalNodes>
      <leafValues>
        -1.1035566031932831e-01 1.3859654963016510e-01</leafValues></_>
    <_>
      <internalNodes>
        0 -1 20535 -487402332 -1631658910 -57347342 -1150521138
        -1398886696 -1559429912 -1367803760 -1145367866</internalNodes>
      <leafValues>
        -1.1126838624477386e-01 1.3817781209945679e-01</leafValues></_>
    <_>
      <internalNodes>
        0 -1 9186 1568650815 309459965 -311244193 721679103 1540676828
        -26308993 -843199272 -10236325</internalNodes>
      <leafValues>
        -7.8635811805725098e-02 1.9250036776065826e-01</leafValues></_>
    <_>
      <internalNodes>
        0 -1 1749 929014574 317434722 2053544260 -257163781 602404046
        1348472004 -43812 1975624995</internalNodes>
      <leafValues>
        -1.4030922949314117e-01 1.0691989213228226e-01</leafValues></_>
    <_>
      <internalNodes>
        0 -1 5016 -2097478347 -1377997700 -1460238567 746049076
        -997425919 16430780 2133391642 1757985652</internalNodes>
      <leafValues>
        -1.5957777202129364e-01 9.4773948192596436e-02</leafValues></_>
    <_>
      <internalNodes>
        0 -1 15002 1438514670 -781802092 -453205980 -143251150
        1883164148 1890735015 -201938423 1435012739</internalNodes>
      <leafValues>
        -1.2110455334186554e-01 1.2766857445240021e-01</leafValues></_>
    <_>
      <internalNodes>
        0 -1 12813 1954539431 -1113479248 -1359012211 -4328808
        1600206519 -3035418 -108571156 -850574115</internalNodes>
      <leafValues>
        -8.7954007089138031e-02 1.7191113531589508e-01</leafValues></_>
    <_>
      <internalNodes>
        0 -1 25245 -1090550665 -570474497 720691707 -625066803
        -1143593450 -696841120 -97075206 -83165254</internalNodes>
      <leafValues>
        -9.5201075077056885e-02 1.6047759354114532e-01</leafValues></_>
    <_>
      <internalNodes>
        0 -1 22370 408971216 291286684 -299716 1064192906 -172127056
        -570953729 1535066254 916669902</internalNodes>
      <leafValues>
        -1.8318092823028564e-01 8.3037272095680237e-02</leafValues></_>
    <_>
      <internalNodes>
        0 -1 23163 -98391008 -957055439 -168558934 -661782540
        -1315902024 -1079201979 -1168048419 -1361361599</internalNodes>
      <leafValues>
        -1.1213208734989166e-01 1.3121339678764343e-01</leafValues></_>
    <_>
      <internalNodes>
        0 -1 11387 2004740806 269544944 -17306199 -574686625 1484211908
        -1109166128 -1159332626 -1730841265</internalNodes>
      <leafValues>
        -9.9157020449638367e-02 1.4924755692481995e-01</leafValues></_>
    <_>
      <internalNodes>
        0 -1 13045 -1360289097 -366694722 80637688 -218482120
        -2031141532 -1890173635 1604269301 -10832456</internalNodes>
      <leafValues>
        -1.3155640661716461e-01 1.1416881531476974e-01</leafValues></_>
    <_>
      <internalNodes>
        0 -1 9551 116007249 -1426166276 1636083469 -286359329
        -1430121712 -793842699 2120374018 -1967122377</internalNodes>
      <leafValues>
        -1.6379952430725098e-01 9.1789118945598602e-02</leafValues></_>
    <_>
      <internalNodes>
        0 -1 26064 -75836509 -347755796 -226504092 -86149434 -1216352851
        -1498493210 1070577657 1540347132</internalNodes>
      <leafValues>
        -9.7697228193283081e-02 1.5337300300598145e-01</leafValues></_>
    <_>
      <internalNodes>
        0 -1 19668 -256319808 -78886708 -1094795902 -634626040
        -247667248 -1210675377 -1879589159 -1079374422</internalNodes>
      <leafValues>
        -1.0822001844644547e-01 1.3521885871887207e-01</leafValues></_>
    <_>
      <internalNodes>
        0 -1 19118 1506405764 893112251 -35936724 -39784800 1618282229
        -1208127553 -436615446 686088931</internalNodes>
      <leafValues>
        -1.2756785750389099e-01 1.1674872040748596e-01</leafValues></_>
    <_>
      <internalNodes>
        0 -1 2380 -344201686 -1029577022 -1536212478 -798103302
        872393351 75863566 865461202 1469015836</internalNodes>
      <leafValues>
        -1.3891629874706268e-01 1.0563447326421738e-01</leafValues></_>
    <_>
      <internalNodes>
        0 -1 21471 -1026487739 -291966977 -1415577633 1625912801
        -1278222795 -170934724 -1090676147 -1550746311</internalNodes>
      <leafValues>
        -1.3251958787441254e-01 1.1131859570741653e-01</leafValues></_>
    <_>
      <internalNodes>
        0 -1 22584 1096280737 416873983 -810209476 -2894110 1147620520
        2112042940 -693252948 1057408631</internalNodes>
      <leafValues>
        -1.2559878826141357e-01 1.2012391537427902e-01</leafValues></_>
    <_>
      <internalNodes>
        0 -1 17961 -557939149 -17902613 -1344282737 -548421638
        -1715733551 -1145405454 -801669331 -1980811321</internalNodes>
      <leafValues>
        -9.2505827546119690e-02 1.6872699558734894e-01</leafValues></_>
    <_>
      <internalNodes>
        0 -1 21275 -970679647 -658218023 1006493623 -1212391682
        -289589763 -1435216323 804830716 -1142223624</internalNodes>
      <leafValues>
        -9.9596388638019562e-02 1.5362542867660522e-01</leafValues></_>
    <_>
      <internalNodes>
        0 -1 15151 1163912966 858187696 2126081056 -186581370 1970610363
        -1830576338 -321015858 -800013558</internalNodes>
      <leafValues>
        -1.4095130562782288e-01 1.0586530715227127e-01</leafValues></_>
    <_>
      <internalNodes>
        0 -1 17172 -857553887 945554736 1449846627 -539113609 -92803104
        -153391283 -1083119822 -1162185593</internalNodes>
      <leafValues>
        -1.0470666736364365e-01 1.4043064415454865e-01</leafValues></_>
    <_>
      <internalNodes>
        0 -1 7605 180759078 1649553385 787985954 1649815072 658401796
        642415180 1392210176 1959975920</internalNodes>
      <leafValues>
        -2.7583301067352295e-01 5.4041739553213120e-02</leafValues></_>
    <_>
      <internalNodes>
        0 -1 9311 -92588039 -587300994 -1229553667 857947751 -1931754044
        -17506443 -2064671722 -716976557</internalNodes>
      <leafValues>
        -9.3873374164104462e-02 1.5980981290340424e-01</leafValues></_>
    <_>
      <internalNodes>
        0 -1 18 1252146788 2097204372 1708981805 497565412 1820288251
        1043406103 1798638300 644174048</internalNodes>
      <leafValues>
        -1.8997710943222046e-01 7.7390432357788086e-02</leafValues></_>
    <_>
      <internalNodes>
        0 -1 19653 -1807746524 -921425368 -302035093 -1347441944
        1414978737 -1272673804 -135793533 254755723</internalNodes>
      <leafValues>
        -1.3309735059738159e-01 1.1060940474271774e-01</leafValues></_>
    <_>
      <internalNodes>
        0 -1 9121 984028828 -56217602 1306586956 -500269401 -302525196
        -254360075 -1645006258 2080340431</internalNodes>
      <leafValues>
        -1.4108054339885712e-01 1.0502836108207703e-01</leafValues></_>
    <_>
      <internalNodes>
        0 -1 14342 1291841207 1933446054 -822154116 -42103177
        -1942659724 -2025955 -285846660 -67156901</internalNodes>
      <leafValues>
        -8.6668491363525391e-02 1.6955579817295074e-01</leafValues></_>
    <_>
      <internalNodes>
        0 -1 23315 1703970 165941222 518978499 384474447 1983578176
        -1291890691 -1677936940 -1152758380</internalNodes>
      <leafValues>
        -1.9767028093338013e-01 7.2921335697174072e-02</leafValues></_>
    <_>
      <internalNodes>
        0 -1 24278 -50620737 862191441 535821923 858042082 -1485832779
        -104863949 -1627529588 -111810750</internalNodes>
      <leafValues>
        -8.2967914640903473e-02 1.7546971142292023e-01</leafValues></_>
    <_>
      <internalNodes>
        0 -1 26330 2000358403 703264578 259335408 841150078 -255859440
        217626520 76017796 -724633348</internalNodes>
      <leafValues>
        -1.5689939260482788e-01 9.1255813837051392e-02</leafValues></_>
    <_>
      <internalNodes>
        0 -1 19728 -121843212 -58306648 -17219908 -1075085570
        -1774407955 -1076174890 -1130921987 -1085337862</internalNodes>
      <leafValues>
        -8.2129627466201782e-02 1.7768868803977966e-01</leafValues></_>
    <_>
      <internalNodes>
        0 -1 18787 -1419795664 237285295 259468797 -1354713574 395803745
        -1995866309 368002380 148361251</internalNodes>
      <leafValues>
        -1.5649342536926270e-01 9.2616371810436249e-02</leafValues></_>
    <_>
      <internalNodes>
        0 -1 2454 -1367937450 922681212 -1343222484 -1154826304
        1434449852 -1125520526 -538050753 1023823619</internalNodes>
      <leafValues>
        -1.2311428785324097e-01 1.1850656569004059e-01</leafValues></_>
    <_>
      <internalNodes>
        0 -1 19465 1346553350 -234562851 -790342516 78707182 1630004533
        884982253 896526212 87151635</internalNodes>
      <leafValues>
        -1.8946203589439392e-01 7.8145310282707214e-02</leafValues></_>
    <_>
      <internalNodes>
        0 -1 17880 -1370748879 -1362584328 1349580798 250598128
        -1075179693 -1476985610 -1442991497 -1976015490</internalNodes>
      <leafValues>
        -1.6905759274959564e-01 8.5962295532226562e-02</leafValues></_>
    <_>
      <internalNodes>
        0 -1 20141 -629676347 -1662716285 -541427733 -707035155
        1199004590 -1510848816 -1093214326 -559305</internalNodes>
      <leafValues>
        -7.7334754168987274e-02 1.9570291042327881e-01</leafValues></_>
    <_>
      <internalNodes>
        0 -1 19345 1920984615 335474678 -17892118 -136970644 393678190
        -1310312460 2037177520 -303041436</internalNodes>
      <leafValues>
        -1.1865089833736420e-01 1.2426802515983582e-01</leafValues></_>
    <_>
      <internalNodes>
        0 -1 27070 -230700450 1911538105 285165291 1917288190 -213441726
        -146884780 -547160102 1531699167</internalNodes>
      <leafValues>
        -1.0329134017229080e-01 1.4084042608737946e-01</leafValues></_>
    <_>
      <internalNodes>
        0 -1 10634 1291586173 1023153068 -296043011 1065379579
        -663528196 2126267236 -152114992 -1154297077</internalNodes>
      <leafValues>
        -1.2863820791244507e-01 1.1537219583988190e-01</leafValues></_>
    <_>
      <internalNodes>
        0 -1 6823 839853170 -1865775233 -537923889 653176738 1089705540
        -1503758722 -138827196 1638192004</internalNodes>
      <leafValues>
        -1.7737804353237152e-01 8.2861907780170441e-02</leafValues></_>
    <_>
      <internalNodes>
        0 -1 5040 -1347901949 -865412504 -678337104 -565325564
        1061155501 149589645 1471510423 1165874424</internalNodes>
      <leafValues>
        -1.5237422287464142e-01 9.5487751066684723e-02</leafValues></_>
    <_>
      <internalNodes>
        0 -1 21268 -296885096 -435891529 800840992 185120834 165625279
        1679837843 -1538305726 1160379747</internalNodes>
      <leafValues>
        -1.6459287703037262e-01 8.8114559650421143e-02</leafValues></_>
    <_>
      <internalNodes>
        0 -1 25584 -279757 1073386279 -3212419 -604045764 1788327659
        -858525761 -975176552 -773658966</internalNodes>
      <leafValues>
        -8.1617861986160278e-02 1.8381552398204803e-01</leafValues></_>
    <_>
      <internalNodes>
        0 -1 10106 1626235972 -1596577296 -2013385980 -445587840
        -1247431660 -1219063901 -534466047 587902787</internalNodes>
      <leafValues>
        -2.5925007462501526e-01 5.7746827602386475e-02</leafValues></_></weakClassifiers></stage8>
</opencv_storage>
