<?xml version="1.0"?>
<opencv_storage>
<stage6>
  <maxWeakCount>101</maxWeakCount>
  <stageThreshold>-2.1254489421844482e+00</stageThreshold>
  <weakClassifiers>
    <_>
      <internalNodes>
        0 -1 10780 -17409 -21505 -33707333 -67130693 -17473 -16385
        -67130693 -21845</internalNodes>
      <leafValues>
        -3.6118975281715393e-01 4.7544637322425842e-01</leafValues></_>
    <_>
      <internalNodes>
        0 -1 13800 -255790864 -704657961 1074798641 -167927617
        -231686209 -67387973 1937095355 -21845</internalNodes>
      <leafValues>
        -3.3250549435615540e-01 2.3710912466049194e-01</leafValues></_>
    <_>
      <internalNodes>
        0 -1 7808 -83887122 -51970050 -67134481 -72876081 -721420348
        -187375627 -33820721 -1</internalNodes>
      <leafValues>
        -1.8409325182437897e-01 3.2258936762809753e-01</leafValues></_>
    <_>
      <internalNodes>
        0 -1 3321 -273682449 -1561661457 2147475455 -286593814
        -805306369 1184890591 -941623297 -939526657</internalNodes>
      <leafValues>
        -2.4696378409862518e-01 1.8041355907917023e-01</leafValues></_>
    <_>
      <internalNodes>
        0 -1 10840 2111692733 827417973 -2359301 857295411 -2248821
        -35668515 -282070 993757739</internalNodes>
      <leafValues>
        -1.7779025435447693e-01 2.3746249079704285e-01</leafValues></_>
    <_>
      <internalNodes>
        0 -1 25267 -545263851 1935671167 -671352001 1651244927 -8660220
        1431795541 -33818212 1935933243</internalNodes>
      <leafValues>
        -1.7005084455013275e-01 2.3510009050369263e-01</leafValues></_>
    <_>
      <internalNodes>
        0 -1 10780 36718256 576672977 4478324 741299012 1525833587
        -38211 1189105990 175067508</internalNodes>
      <leafValues>
        -3.3402270078659058e-01 1.1151196062564850e-01</leafValues></_>
    <_>
      <internalNodes>
        0 -1 21836 1347485694 1364515324 -232751632 -183370434
        -733676308 -579862791 -235540501 -15995189</internalNodes>
      <leafValues>
        -1.4804625511169434e-01 2.5714895129203796e-01</leafValues></_>
    <_>
      <internalNodes>
        0 -1 20495 137410036 -541567504 1070481407 -246532 -1276076040
        -204803 -1141325912 -1078261576</internalNodes>
      <leafValues>
        -1.9990083575248718e-01 1.8023741245269775e-01</leafValues></_>
    <_>
      <internalNodes>
        0 -1 17285 1977608111 926021555 -185274710 -2752537 1415925759
        -151962377 -4370 -67109937</internalNodes>
      <leafValues>
        -1.1942814290523529e-01 2.6181825995445251e-01</leafValues></_>
    <_>
      <internalNodes>
        0 -1 4781 -27275633 -8521177 -1297942786 805502554 -721990068
        -10007209 -85532962 -217841945</internalNodes>
      <leafValues>
        -1.7283563315868378e-01 1.8589599430561066e-01</leafValues></_>
    <_>
      <internalNodes>
        0 -1 18678 -197468684 -237577 -4194305 -166401 -1163346180
        -163843 -1078411527 -1078257158</internalNodes>
      <leafValues>
        -1.2535208463668823e-01 2.6485943794250488e-01</leafValues></_>
    <_>
      <internalNodes>
        0 -1 25610 -217 -285736977 -1074807066 1781465038 -201590921
        1475342335 -402656284 -522195974</internalNodes>
      <leafValues>
        -1.9773523509502411e-01 1.6343371570110321e-01</leafValues></_>
    <_>
      <internalNodes>
        0 -1 17973 1373816052 -553586769 -4915203 -81088862 1440085943
        -4718593 803678112 2141654690</internalNodes>
      <leafValues>
        -1.8945458531379700e-01 1.5445929765701294e-01</leafValues></_>
    <_>
      <internalNodes>
        0 -1 19782 181697301 -84117185 -16779265 -1090879489 -16957707
        -269485315 -1052675 -1078321672</internalNodes>
      <leafValues>
        -1.6241523623466492e-01 1.7075134813785553e-01</leafValues></_>
    <_>
      <internalNodes>
        0 -1 9945 1901459444 285323172 -654797964 -178059670 1953888581
        821538230 -1440699650 126312655</internalNodes>
      <leafValues>
        -1.8366724252700806e-01 1.5546451508998871e-01</leafValues></_>
    <_>
      <internalNodes>
        0 -1 22200 136892784 -1134157892 -1090519565 -1107501576
        -1892222467 -1094780049 -1343308869 -1073806177</internalNodes>
      <leafValues>
        -1.4123964309692383e-01 1.8721984326839447e-01</leafValues></_>
    <_>
      <internalNodes>
        0 -1 14530 796470067 -1393558273 -67307521 -319578113
        -1082671241 -537986051 -4201164 -16932935</internalNodes>
      <leafValues>
        -1.7125602066516876e-01 1.5315124392509460e-01</leafValues></_>
    <_>
      <internalNodes>
        0 -1 21360 -132075232 -3641568 -1610875039 -81988 -1098974788
        -570757131 -1074937923 -1077990262</internalNodes>
      <leafValues>
        -1.2729102373123169e-01 2.0939201116561890e-01</leafValues></_>
    <_>
      <internalNodes>
        0 -1 24712 -286266461 -1039991389 -413150896 -710421280
        1610046635 -1967130191 1104631217 -704645649</internalNodes>
      <leafValues>
        -1.5201823413372040e-01 1.6096998751163483e-01</leafValues></_>
    <_>
      <internalNodes>
        0 -1 16725 -938474476 -536998210 -159715594 1929015914 238026756
        -1090583687 1048215544 -1153812673</internalNodes>
      <leafValues>
        -1.8326027691364288e-01 1.3280129432678223e-01</leafValues></_>
    <_>
      <internalNodes>
        0 -1 1354 -528401 -889717049 -285284698 -486605204 2134326566
        592936823 -59640832 1951924167</internalNodes>
      <leafValues>
        -2.4903167784214020e-01 9.1816619038581848e-02</leafValues></_>
    <_>
      <internalNodes>
        0 -1 18279 -754974988 -999972623 -994251724 -319951937
        1885640564 2069629985 1959107191 1551205931</internalNodes>
      <leafValues>
        -1.8336550891399384e-01 1.2834721803665161e-01</leafValues></_>
    <_>
      <internalNodes>
        0 -1 21231 -707277572 -787464812 -1413517682 922846344
        1686438029 942671288 686130314 160105611</internalNodes>
      <leafValues>
        -1.6031089425086975e-01 1.4508384466171265e-01</leafValues></_>
    <_>
      <internalNodes>
        0 -1 19644 -658749376 -24377412 -1619034643 -249380 -1073992496
        -1358955011 -1377172008 -1141177158</internalNodes>
      <leafValues>
        -1.3217332959175110e-01 1.6744358837604523e-01</leafValues></_>
    <_>
      <internalNodes>
        0 -1 18880 117377075 -1896059145 1879014299 -534876675
        -1152445131 -1896153384 -85993101 -1954005900</internalNodes>
      <leafValues>
        -1.9830389320850372e-01 1.1198846995830536e-01</leafValues></_>
    <_>
      <internalNodes>
        0 -1 20142 1525739182 983731343 -1176507866 -1880691038
        1080315068 -1142085122 1811312398 717448290</internalNodes>
      <leafValues>
        -1.9208255410194397e-01 1.1656589806079865e-01</leafValues></_>
    <_>
      <internalNodes>
        0 -1 9784 -1392722124 -489362404 -1527509731 -276854499
        -23660800 -1239650473 -1879204035 536590271</internalNodes>
      <leafValues>
        -1.8597938120365143e-01 1.1778221279382706e-01</leafValues></_>
    <_>
      <internalNodes>
        0 -1 13996 1105192870 296811447 -327160090 -168692798 1978492159
        -1297457875 -705305649 -1341041075</internalNodes>
      <leafValues>
        -1.4671581983566284e-01 1.4538148045539856e-01</leafValues></_>
    <_>
      <internalNodes>
        0 -1 26373 -100860255 172228407 -826286558 -962270134 -843056241
        1222440959 -671623692 368572127</internalNodes>
      <leafValues>
        -1.8182258307933807e-01 1.1475905776023865e-01</leafValues></_>
    <_>
      <internalNodes>
        0 -1 7520 -1033908433 -91242498 -151130138 -218170634 2104436584
        1968602407 1994217280 2012705378</internalNodes>
      <leafValues>
        -1.9337190687656403e-01 1.0738454759120941e-01</leafValues></_>
    <_>
      <internalNodes>
        0 -1 14121 237446944 -1364576746 -18088460 -125919300
        -1611846607 -1393299713 -1745922572 -907131420</internalNodes>
      <leafValues>
        -2.0485167205333710e-01 9.8588302731513977e-02</leafValues></_>
    <_>
      <internalNodes>
        0 -1 22165 -755968816 -25899156 -536879410 -537995028
        -1893224484 -1902602800 -1611939848 -1615129170</internalNodes>
      <leafValues>
        -1.0829943418502808e-01 1.9301374256610870e-01</leafValues></_>
    <_>
      <internalNodes>
        0 -1 11325 -234952018 279248014 -153121618 -1646926898 942621927
        -1174995303 -19171092 149286727</internalNodes>
      <leafValues>
        -1.4310188591480255e-01 1.3803105056285858e-01</leafValues></_>
    <_>
      <internalNodes>
        0 -1 7942 -399513325 -22364253 -33554945 -4392137 -336592907
        -1481328905 1205425541 -570592041</internalNodes>
      <leafValues>
        -1.0825455188751221e-01 1.8362778425216675e-01</leafValues></_>
    <_>
      <internalNodes>
        0 -1 20565 -567227148 -591893260 -622694410 -554139973
        -1807381308 -805453972 -1094969356 -1145434886</internalNodes>
      <leafValues>
        -1.2478151917457581e-01 1.5928326547145844e-01</leafValues></_>
    <_>
      <internalNodes>
        0 -1 22945 -830788305 -286459681 1996455935 -88351777
        -1073746603 -3613864 -17044034 -1162192129</internalNodes>
      <leafValues>
        -1.2143194675445557e-01 1.5940698981285095e-01</leafValues></_>
    <_>
      <internalNodes>
        0 -1 16603 -713689348 -354025489 -2071007568 -290725205
        -766239408 1496618260 -169983981 377011</internalNodes>
      <leafValues>
        -1.8562883138656616e-01 1.0634888708591461e-01</leafValues></_>
    <_>
      <internalNodes>
        0 -1 21300 -1004221440 -623898980 -547693084 -100765704
        -1477077220 -1904763532 -1361466996 -1686168438</internalNodes>
      <leafValues>
        -1.2502847611904144e-01 1.5594935417175293e-01</leafValues></_>
    <_>
      <internalNodes>
        0 -1 25125 335494913 -296845441 2130689846 -252002710 -1053227
        117406993 -1208355600 -1426396998</internalNodes>
      <leafValues>
        -1.4217756688594818e-01 1.3659301400184631e-01</leafValues></_>
    <_>
      <internalNodes>
        0 -1 20323 -788534330 1363188144 -371859484 1839247206
        1886737397 -1246466187 -1107955794 -1962575098</internalNodes>
      <leafValues>
        -1.3923925161361694e-01 1.3871808350086212e-01</leafValues></_>
    <_>
      <internalNodes>
        0 -1 3895 -844697939 -220009522 -103412 -269693440 1910206463
        1356251057 -1075886866 1978629555</internalNodes>
      <leafValues>
        -1.4292271435260773e-01 1.3497032225131989e-01</leafValues></_>
    <_>
      <internalNodes>
        0 -1 18054 203424256 -1494612558 1799305075 2071747198
        -1365328656 -318966125 1056892591 -1164434272</internalNodes>
      <leafValues>
        -1.8386721611022949e-01 1.0320541262626648e-01</leafValues></_>
    <_>
      <internalNodes>
        0 -1 21487 857423386 1163716098 452918135 2013309550 -185092478
        1131901735 350135178 1399886858</internalNodes>
      <leafValues>
        -1.6691066324710846e-01 1.1598381400108337e-01</leafValues></_>
    <_>
      <internalNodes>
        0 -1 26990 -1201674713 -474185745 812441600 1380972911
        -411052282 89390916 -219679168 1933572091</internalNodes>
      <leafValues>
        -1.6265739500522614e-01 1.1946925520896912e-01</leafValues></_>
    <_>
      <internalNodes>
        0 -1 13312 1557547729 2079918907 -696369537 2065330967
        -593769320 -848406663 -721895432 -1089832622</internalNodes>
      <leafValues>
        -1.2011091411113739e-01 1.6088515520095825e-01</leafValues></_>
    <_>
      <internalNodes>
        0 -1 14944 -244915325 1966796335 2010949929 -136795461
        1280819444 275987895 -177739124 854059724</internalNodes>
      <leafValues>
        -1.3557609915733337e-01 1.4262914657592773e-01</leafValues></_>
    <_>
      <internalNodes>
        0 -1 18702 1186257056 -537116883 -1090853187 -1081345 1056024540
        -4498306 -212993 -1145368581</internalNodes>
      <leafValues>
        -8.9362360537052155e-02 2.1103879809379578e-01</leafValues></_>
    <_>
      <internalNodes>
        0 -1 3600 -1573330039 -829489430 1823799170 -1026573128
        -1094992973 1149952211 2004317058 1171232509</internalNodes>
      <leafValues>
        -1.6584815084934235e-01 1.1526601761579514e-01</leafValues></_>
    <_>
      <internalNodes>
        0 -1 27060 -67135929 -33591575 1919666722 1348172927 -1084325306
        -1308263853 -231932722 1919941615</internalNodes>
      <leafValues>
        -1.1407066136598587e-01 1.6403166949748993e-01</leafValues></_>
    <_>
      <internalNodes>
        0 -1 23746 -234895475 -571101345 -303776259 1967147178
        -268466787 1459485538 1301111944 2104970431</internalNodes>
      <leafValues>
        -1.0105498135089874e-01 1.8732297420501709e-01</leafValues></_>
    <_>
      <internalNodes>
        0 -1 7070 648023860 -464721074 -1477170380 -1394334038 265174292
        -657916457 -20136679 1965252652</internalNodes>
      <leafValues>
        -2.1897515654563904e-01 8.7577775120735168e-02</leafValues></_>
    <_>
      <internalNodes>
        0 -1 6130 1862232678 712994799 -1361123646 1927716462 357004871
        788874083 1909466208 1912043383</internalNodes>
      <leafValues>
        -3.0294609069824219e-01 5.8516472578048706e-02</leafValues></_>
    <_>
      <internalNodes>
        0 -1 22908 -1910309791 -1673859844 1287648765 -538003480
        -1233929239 -1145125387 -1548870481 -1343599304</internalNodes>
      <leafValues>
        -1.5478965640068054e-01 1.1534504592418671e-01</leafValues></_>
    <_>
      <internalNodes>
        0 -1 21225 -757675520 -889574233 778939374 -4670216 -1158343355
        -2078267563 861798020 -1145367106</internalNodes>
      <leafValues>
        -1.3249962031841278e-01 1.3823761045932770e-01</leafValues></_>
    <_>
      <internalNodes>
        0 -1 14176 -43792970 810592959 267863678 -748595642 -1849369360
        -1263483921 -551264438 50676487</internalNodes>
      <leafValues>
        -1.5179587900638580e-01 1.1941877752542496e-01</leafValues></_>
    <_>
      <internalNodes>
        0 -1 22355 -1506800587 -289521814 -2130758021 -1565229059
        -1120397548 -90531 -1078119397 -1140957731</internalNodes>
      <leafValues>
        -1.5611420571804047e-01 1.1378904432058334e-01</leafValues></_>
    <_>
      <internalNodes>
        0 -1 19710 -600782896 -185319474 -22118984 -1107660130 503054021
        -1955763341 -1077184514 -1078258694</internalNodes>
      <leafValues>
        -1.0004515200853348e-01 1.7588452994823456e-01</leafValues></_>
    <_>
      <internalNodes>
        0 -1 20580 67126896 -1905776400 -1900663245 -1094156292
        -559149484 -878689417 -1208076330 -1075104556</internalNodes>
      <leafValues>
        -1.7086495459079742e-01 1.0094922035932541e-01</leafValues></_>
    <_>
      <internalNodes>
        0 -1 10709 2126449315 -172065 -1158774981 2138767355 -22584768
        1584158227 -68356170 2134043736</internalNodes>
      <leafValues>
        -1.3446180522441864e-01 1.2934237718582153e-01</leafValues></_>
    <_>
      <internalNodes>
        0 -1 13398 -1599629561 -293700789 830454777 846375426
        -1174939763 -1220841529 -1109424243 887587471</internalNodes>
      <leafValues>
        -1.3099302351474762e-01 1.3375046849250793e-01</leafValues></_>
    <_>
      <internalNodes>
        0 -1 12297 1442901428 -608563537 -50530311 2109501214 -67226443
        -402792449 -331379572 1006926890</internalNodes>
      <leafValues>
        -1.5644817054271698e-01 1.1813836544752121e-01</leafValues></_>
    <_>
      <internalNodes>
        0 -1 19266 2020863398 813235878 -453351503 -443165295 1078282925
        -1393985545 -253204737 1728537986</internalNodes>
      <leafValues>
        -1.4650884270668030e-01 1.2294615060091019e-01</leafValues></_>
    <_>
      <internalNodes>
        0 -1 17766 -837655451 -551942657 1493058303 1345732190
        -1092924972 -1210156251 -808042524 -1148575938</internalNodes>
      <leafValues>
        -1.3155707716941833e-01 1.3344308733940125e-01</leafValues></_>
    <_>
      <internalNodes>
        0 -1 0 697036458 137226912 168272322 1206857954 601468851
        44918438 1381987954 98169813</internalNodes>
      <leafValues>
        -1.9819220900535583e-01 8.9945860207080841e-02</leafValues></_>
    <_>
      <internalNodes>
        0 -1 17469 1617716551 -998842650 -553687193 -1365230940
        1978998533 -807964063 -194587404 1962208802</internalNodes>
      <leafValues>
        -1.7314757406711578e-01 1.0085293650627136e-01</leafValues></_>
    <_>
      <internalNodes>
        0 -1 12066 -928904191 -823476683 -537985157 -318493648
        -1893224607 1308598265 -302123505 -1937957351</internalNodes>
      <leafValues>
        -1.5304085612297058e-01 1.1292007565498352e-01</leafValues></_>
    <_>
      <internalNodes>
        0 -1 22796 -285541412 -80694084 -96567683 196235692 -1248662864
        -1104363810 2024191998 -1076115745</internalNodes>
      <leafValues>
        -1.0183794051408768e-01 1.7461687326431274e-01</leafValues></_>
    <_>
      <internalNodes>
        0 -1 15094 -747248095 324795311 -61089778 -1612891427 757430202
        -1124567627 -46694657 -1196820529</internalNodes>
      <leafValues>
        -9.7401164472103119e-02 1.8348403275012970e-01</leafValues></_>
    <_>
      <internalNodes>
        0 -1 18504 -352434656 -2098417714 -228184217 -453625858
        -541591787 -2061077129 -134767113 -672463654</internalNodes>
      <leafValues>
        -1.4528737962245941e-01 1.2353787571191788e-01</leafValues></_>
    <_>
      <internalNodes>
        0 -1 3156 -558897427 2101346247 -130153794 -251986305 1455901515
        2026794543 1969684022 -176718499</internalNodes>
      <leafValues>
        -1.5023086965084076e-01 1.1772947013378143e-01</leafValues></_>
    <_>
      <internalNodes>
        0 -1 21792 1993378688 363655088 -598086038 -1182538272
        1609830064 -1344599052 -52990069 1329610987</internalNodes>
      <leafValues>
        -1.5639428794384003e-01 1.1749643087387085e-01</leafValues></_>
    <_>
      <internalNodes>
        0 -1 33 1269753779 -5328946 -413173889 -35246362 1106738141
        1639417063 536761092 -973221681</internalNodes>
      <leafValues>
        -1.0940702259540558e-01 1.5921401977539062e-01</leafValues></_>
    <_>
      <internalNodes>
        0 -1 19590 -1368852184 1478232116 805191414 2067806904
        -1906405940 -1435622300 868873624 -1080097126</internalNodes>
      <leafValues>
        -1.1591370403766632e-01 1.4882735908031464e-01</leafValues></_>
    <_>
      <internalNodes>
        0 -1 24071 -880818381 -998200293 -102914296 -458575894
        1834436487 238090049 1439027584 1621156570</internalNodes>
      <leafValues>
        -1.8071268498897552e-01 9.4621419906616211e-02</leafValues></_>
    <_>
      <internalNodes>
        0 -1 17814 -1397292829 -543486450 243094675 1910919675
        -1296207067 -805488902 902559477 -1089843816</internalNodes>
      <leafValues>
        -1.3026216626167297e-01 1.2800197303295135e-01</leafValues></_>
    <_>
      <internalNodes>
        0 -1 14991 -438843198 269503475 -45949140 300770030 1346656640
        -1258986140 2071111374 -1191971050</internalNodes>
      <leafValues>
        -1.2955182790756226e-01 1.3046006858348846e-01</leafValues></_>
    <_>
      <internalNodes>
        0 -1 18226 -609288497 -1869615706 -538020370 -37552154
        1735882665 -1871286348 2137021614 -1140885517</internalNodes>
      <leafValues>
        -9.4201155006885529e-02 1.8154636025428772e-01</leafValues></_>
    <_>
      <internalNodes>
        0 -1 5922 -426250461 -490833937 -895612028 -486632196 2033765830
        1103224676 1509495782 1440015604</internalNodes>
      <leafValues>
        -1.7363427579402924e-01 1.0054143518209457e-01</leafValues></_>
    <_>
      <internalNodes>
        0 -1 22027 1108779248 -105885708 1940979706 -1885295886
        1154811052 -1768747532 -253248304 -1459393298</internalNodes>
      <leafValues>
        -1.4904306828975677e-01 1.1468412727117538e-01</leafValues></_>
    <_>
      <internalNodes>
        0 -1 5350 -1125893552 -419811859 -1393684201 602878517
        -970978527 -1529546803 -2033310951 2125422012</internalNodes>
      <leafValues>
        -1.6926334798336029e-01 1.0037595033645630e-01</leafValues></_>
    <_>
      <internalNodes>
        0 -1 24002 -869824912 1479986960 -1399354440 -43340056
        1341609122 -1901662699 1559168074 1570934226</internalNodes>
      <leafValues>
        -1.4860765635967255e-01 1.1155186593532562e-01</leafValues></_>
    <_>
      <internalNodes>
        0 -1 17611 -1612120716 -388227943 938261241 2102283298
        -1341121772 -1645052455 -1162850527 -30208429</internalNodes>
      <leafValues>
        -1.3740272819995880e-01 1.2177535891532898e-01</leafValues></_>
    <_>
      <internalNodes>
        0 -1 24741 -1502635231 -1951472576 -634166927 1421786612
        -1090520437 749829770 468702645 -674310952</internalNodes>
      <leafValues>
        -1.3945312798023224e-01 1.2219528108835220e-01</leafValues></_>
    <_>
      <internalNodes>
        0 -1 1932 -1863903402 2070843175 800034094 1868443555 618884543
        -1527350475 -840991912 1148677717</internalNodes>
      <leafValues>
        -1.4855583012104034e-01 1.1499748378992081e-01</leafValues></_>
    <_>
      <internalNodes>
        0 -1 14566 800730642 55569639 -62522369 1252516689 -12387049
        -314769444 1416738562 1444721160</internalNodes>
      <leafValues>
        -1.8175603449344635e-01 9.7659096121788025e-02</leafValues></_>
    <_>
      <internalNodes>
        0 -1 16900 107882803 -1363271061 -21020745 721106929 -488426188
        -1374413697 1405991446 -1171258116</internalNodes>
      <leafValues>
        -1.8729259073734283e-01 9.7621373832225800e-02</leafValues></_>
    <_>
      <internalNodes>
        0 -1 27133 -236092884 1682869290 -254539698 44777087 1407092480
        1645344324 2079761088 911719978</internalNodes>
      <leafValues>
        -1.8764516711235046e-01 9.1789327561855316e-02</leafValues></_>
    <_>
      <internalNodes>
        0 -1 23751 -1159590720 -25545090 988739839 2078273511
        -1634812136 -17133753 -1090522230 -1364715059</internalNodes>
      <leafValues>
        -1.3105842471122742e-01 1.3144241273403168e-01</leafValues></_>
    <_>
      <internalNodes>
        0 -1 14205 246394145 -12056786 -951333098 -654673964 -1074344451
        846104509 905720804 -201337416</internalNodes>
      <leafValues>
        -1.2061151862144470e-01 1.4149302244186401e-01</leafValues></_>
    <_>
      <internalNodes>
        0 -1 9824 1499591164 1518065372 -818661099 -1846418241
        1932117436 1148949557 1030029263 -853418071</internalNodes>
      <leafValues>
        -1.2224916368722916e-01 1.3696292042732239e-01</leafValues></_>
    <_>
      <internalNodes>
        0 -1 26844 -740646365 -549030660 -1191186912 340450992
        1929086464 1348106060 -143264896 544661182</internalNodes>
      <leafValues>
        -1.6431233286857605e-01 1.0095369070768356e-01</leafValues></_>
    <_>
      <internalNodes>
        0 -1 22100 -164959440 -1646469553 -1142253628 -235050564
        -1234551651 -1401273316 1073198252 -1615131461</internalNodes>
      <leafValues>
        -9.4681039452552795e-02 1.7690853774547577e-01</leafValues></_>
    <_>
      <internalNodes>
        0 -1 18571 -570512276 955829308 -1543913868 988553044 47716261
        -1300332803 -1509521624 -1371664350</internalNodes>
      <leafValues>
        -1.7102086544036865e-01 9.9157623946666718e-02</leafValues></_>
    <_>
      <internalNodes>
        0 -1 4920 -228898129 -67408007 1264419479 1920626685 -23119030
        1233021531 -680725782 1997733881</internalNodes>
      <leafValues>
        -1.2026580423116684e-01 1.3689690828323364e-01</leafValues></_>
    <_>
      <internalNodes>
        0 -1 24356 -167278411 -530059281 -1484829441 922419071
        -176323443 -58778249 -1393116772 575011395</internalNodes>
      <leafValues>
        -1.1861928552389145e-01 1.3925606012344360e-01</leafValues></_>
    <_>
      <internalNodes>
        0 -1 20939 996489184 -996620051 -2065679215 -218739945 41007014
        -228786391 1682259979 867979019</internalNodes>
      <leafValues>
        -1.7231439054012299e-01 9.6858732402324677e-02</leafValues></_>
    <_>
      <internalNodes>
        0 -1 17448 1408102147 7399919 -324078624 -152502554 29299941
        819328487 -1065990163 -705169599</internalNodes>
      <leafValues>
        -1.5008796751499176e-01 1.1135751008987427e-01</leafValues></_>
    <_>
      <internalNodes>
        0 -1 19668 -899485904 -264971132 -1094783436 1375462875
        -1059279116 -1358979759 -1481214248 -1615132993</internalNodes>
      <leafValues>
        -1.0251667350530624e-01 1.7240239679813385e-01</leafValues></_>
    <_>
      <internalNodes>
        0 -1 26068 -1367136765 -1897104373 888137059 -698483068
        -1151600776 -1947213857 456127487 354147805</internalNodes>
      <leafValues>
        -1.3573417067527771e-01 1.2173200398683548e-01</leafValues></_>
    <_>
      <internalNodes>
        0 -1 9789 -1348411279 -298919698 1069872851 -537131676
        -1098989575 -944780041 1073321935 -1946221384</internalNodes>
      <leafValues>
        -1.0528178513050079e-01 1.5740649402141571e-01</leafValues></_></weakClassifiers></stage6>
</opencv_storage>
