<?xml version="1.0"?>
<opencv_storage>
<stage5>
  <maxWeakCount>88</maxWeakCount>
  <stageThreshold>-2.1636464595794678e+00</stageThreshold>
  <weakClassifiers>
    <_>
      <internalNodes>
        0 -1 10038 -1543560385 -55425 569713471 -21569 -1342197825 -1
        -1140872273 -20561</internalNodes>
      <leafValues>
        -3.9366701245307922e-01 4.7052994370460510e-01</leafValues></_>
    <_>
      <internalNodes>
        0 -1 18964 -539361281 -536875009 -4194369 -4223317 -639281729
        -536871425 532612619 1610547883</internalNodes>
      <leafValues>
        -2.8317710757255554e-01 3.4858283400535583e-01</leafValues></_>
    <_>
      <internalNodes>
        0 -1 7049 -3866642 -178199072 -26673932 -3148085 -749404163
        -9043979 -879759393 -2101553</internalNodes>
      <leafValues>
        -2.3698747158050537e-01 3.1665477156639099e-01</leafValues></_>
    <_>
      <internalNodes>
        0 -1 4828 -68419602 -143724561 -1342181393 -1048593 -134217916
        1430781567 -177 -3145745</internalNodes>
      <leafValues>
        -2.0137013494968414e-01 2.7472233772277832e-01</leafValues></_>
    <_>
      <internalNodes>
        0 -1 14947 -254477574 1375535364 1624549937 1375535627
        -500121665 -103112709 -67653717 -1073894774</internalNodes>
      <leafValues>
        -2.5443252921104431e-01 2.0217365026473999e-01</leafValues></_>
    <_>
      <internalNodes>
        0 -1 25771 -12529 -203456673 -16777697 1928855551 -142653184
        1970765655 -16794848 -210501765</internalNodes>
      <leafValues>
        -1.9858980178833008e-01 2.4342936277389526e-01</leafValues></_>
    <_>
      <internalNodes>
        0 -1 13309 -553661697 -59793 -18940162 1920630527 -620869108
        -27302826 -16844034 -98895106</internalNodes>
      <leafValues>
        -1.5122322738170624e-01 2.6881057024002075e-01</leafValues></_>
    <_>
      <internalNodes>
        0 -1 3310 -272633857 -353439766 -8390797 -4 -18875393 250347455
        -134219785 -671090689</internalNodes>
      <leafValues>
        -1.3741895556449890e-01 2.7118107676506042e-01</leafValues></_>
    <_>
      <internalNodes>
        0 -1 21360 -1742678800 -99076 -262145 -51971 -1430339652
        -1090584577 -1073759233 -1078262529</internalNodes>
      <leafValues>
        -1.3532365858554840e-01 2.8775152564048767e-01</leafValues></_>
    <_>
      <internalNodes>
        0 -1 20515 -671031440 -491532 -2162689 -98852 -1128464452
        -25641988 -1074201604 -1078328136</internalNodes>
      <leafValues>
        -1.4757747948169708e-01 2.4307303130626678e-01</leafValues></_>
    <_>
      <internalNodes>
        0 -1 10038 1545641152 38076292 -51716160 755791458 1416581184
        202141305 -440019368 201380432</internalNodes>
      <leafValues>
        -3.1478708982467651e-01 1.1414470523595810e-01</leafValues></_>
    <_>
      <internalNodes>
        0 -1 21725 -547361030 1078781942 -332100400 -842664193
        -1060338520 213054968 -597374822 -570425345</internalNodes>
      <leafValues>
        -1.4605545997619629e-01 2.3745204508304596e-01</leafValues></_>
    <_>
      <internalNodes>
        0 -1 14602 -935139327 -561449694 -33689601 -6281132 -318774051
        -1 -352322355 -1465586112</internalNodes>
      <leafValues>
        -2.2243940830230713e-01 1.4542734622955322e-01</leafValues></_>
    <_>
      <internalNodes>
        0 -1 17808 -1430369699 -47105 -83959809 2071887871 -378379
        -17575 -2097155 -1145423624</internalNodes>
      <leafValues>
        -1.3638247549533844e-01 2.2224183380603790e-01</leafValues></_>
    <_>
      <internalNodes>
        0 -1 25647 -405804381 -1964445981 -303045376 78296610 1157097379
        10874103 1105687584 1156051923</internalNodes>
      <leafValues>
        -2.5410819053649902e-01 1.1528031527996063e-01</leafValues></_>
    <_>
      <internalNodes>
        0 -1 13947 2011162499 301063991 -285225161 -236588139 1975862735
        -1124795210 -17302131 -2133461430</internalNodes>
      <leafValues>
        -1.3942447304725647e-01 2.0687206089496613e-01</leafValues></_>
    <_>
      <internalNodes>
        0 -1 22081 -187375624 -712976108 956205852 -1660898048 270568940
        -1635752192 -2136429910 151722379</internalNodes>
      <leafValues>
        -1.7361497879028320e-01 1.6003446280956268e-01</leafValues></_>
    <_>
      <internalNodes>
        0 -1 4440 -285218901 -386945041 -1100427646 -251724052 -8431082
        1663557478 -134219966 -134217729</internalNodes>
      <leafValues>
        -1.5662306547164917e-01 1.8187224864959717e-01</leafValues></_>
    <_>
      <internalNodes>
        0 -1 22250 -2045051119 -1496388624 -8913419 -134291460
        -1073770507 -1426128926 -1075087371 -1610690312</internalNodes>
      <leafValues>
        -1.5514972805976868e-01 1.7092542350292206e-01</leafValues></_>
    <_>
      <internalNodes>
        0 -1 20550 -600772496 -1095215660 -83984394 -1076142339
        -1427837004 -1359643969 1073248253 -1145365318</internalNodes>
      <leafValues>
        -1.3223624229431152e-01 2.0076394081115723e-01</leafValues></_>
    <_>
      <internalNodes>
        0 -1 15685 -1434964685 -319497251 2147448831 -285476875 -139
        -335562321 -6314127 -8454406</internalNodes>
      <leafValues>
        -1.6667695343494415e-01 1.6189235448837280e-01</leafValues></_>
    <_>
      <internalNodes>
        0 -1 21834 1346437094 1355869172 -1967449232 -212849900
        1357906318 -17822106 -1224997958 978848522</internalNodes>
      <leafValues>
        -1.9652272760868073e-01 1.3028758764266968e-01</leafValues></_>
    <_>
      <internalNodes>
        0 -1 14562 -2102459627 -55693537 -1140880385 -140103699
        -1140873739 -67158017 -151016547 -72372337</internalNodes>
      <leafValues>
        -1.1701046675443649e-01 2.1622911095619202e-01</leafValues></_>
    <_>
      <internalNodes>
        0 -1 18320 -228595957 834396911 -134447570 -35130388 1400264703
        620133881 -160039186 -268437786</internalNodes>
      <leafValues>
        -1.3595081865787506e-01 1.8445824086666107e-01</leafValues></_>
    <_>
      <internalNodes>
        0 -1 9050 1181688423 -1359532121 -20201818 -152118034 1065306919
        1735880545 1425764932 2004054626</internalNodes>
      <leafValues>
        -2.6805594563484192e-01 9.3170113861560822e-02</leafValues></_>
    <_>
      <internalNodes>
        0 -1 17641 -698824452 -239334415 -725505 2063141960 -831514376
        -50156291 -38238056 -1078260213</internalNodes>
      <leafValues>
        -1.4271475374698639e-01 1.8450012803077698e-01</leafValues></_>
    <_>
      <internalNodes>
        0 -1 22185 -2012185552 774383136 -2017792428 -1812185148
        -1902264844 -1480590404 -1481010764 -1883568904</internalNodes>
      <leafValues>
        -1.8805184960365295e-01 1.2736208736896515e-01</leafValues></_>
    <_>
      <internalNodes>
        0 -1 11059 1560672268 1907451041 -17056577 1073703682 1380238508
        -50470915 -1393898326 767522491</internalNodes>
      <leafValues>
        -1.5811775624752045e-01 1.4916856586933136e-01</leafValues></_>
    <_>
      <internalNodes>
        0 -1 23605 -327340771 -286193825 -20054017 1650253055 -6394028
        -8472002 -270734628 -91554305</internalNodes>
      <leafValues>
        -1.5016931295394897e-01 1.5867458283901215e-01</leafValues></_>
    <_>
      <internalNodes>
        0 -1 16681 -798958412 -663197968 1996381932 1018139384
        2095338640 -30241027 -289452534 1070276363</internalNodes>
      <leafValues>
        -1.6363826394081116e-01 1.4338879287242889e-01</leafValues></_>
    <_>
      <internalNodes>
        0 -1 27003 -604010973 -525382678 -1965055456 -486625714
        -23202489 19817058 -1291979184 2011151274</internalNodes>
      <leafValues>
        -1.8344022333621979e-01 1.3016226887702942e-01</leafValues></_>
    <_>
      <internalNodes>
        0 -1 4690 -151002353 -352590006 -1568790868 1658498774
        1583347206 1680832323 2011102818 1400569806</internalNodes>
      <leafValues>
        -1.8864749372005463e-01 1.1976500600576401e-01</leafValues></_>
    <_>
      <internalNodes>
        0 -1 21340 -366938448 -137857828 -1122318 -229636 -1460488524
        -1344225563 -1346569222 -1145372374</internalNodes>
      <leafValues>
        -1.1487956345081329e-01 2.0073981583118439e-01</leafValues></_>
    <_>
      <internalNodes>
        0 -1 17581 -554631180 -1729094152 -1478564100 1006911024
        -2005918568 -1327268420 -1238360850 1073686330</internalNodes>
      <leafValues>
        -1.6420492529869080e-01 1.3090226054191589e-01</leafValues></_>
    <_>
      <internalNodes>
        0 -1 13469 1886160852 -1058902537 -1382418437 1935863696
        1992671017 -202379267 2013043080 1403752106</internalNodes>
      <leafValues>
        -1.4889624714851379e-01 1.4450415968894958e-01</leafValues></_>
    <_>
      <internalNodes>
        0 -1 24223 -414716382 101706402 -489953504 -1534526726 -20977749
        215797319 1978496400 79687475</internalNodes>
      <leafValues>
        -2.6959446072578430e-01 7.9673990607261658e-02</leafValues></_>
    <_>
      <internalNodes>
        0 -1 18830 -336355031 -830587585 -673251329 -324085890
        -1577616555 -268439714 -1628381900 -813156684</internalNodes>
      <leafValues>
        -1.8183444440364838e-01 1.1515094339847565e-01</leafValues></_>
    <_>
      <internalNodes>
        0 -1 19692 -660063228 -20422704 -1090560924 -1291966472
        -1078608108 -981717124 1066549216 -1078249542</internalNodes>
      <leafValues>
        -1.5224693715572357e-01 1.4411051571369171e-01</leafValues></_>
    <_>
      <internalNodes>
        0 -1 24763 1819771925 1941648975 -786433 1400045487 -604012403
        -679795401 -1461875316 572652099</internalNodes>
      <leafValues>
        -1.4069476723670959e-01 1.5263964235782623e-01</leafValues></_>
    <_>
      <internalNodes>
        0 -1 18654 -95619612 -728224904 -20971874 -103252172 -1356948012
        -1615143049 -1342636804 -1078256230</internalNodes>
      <leafValues>
        -1.0681793093681335e-01 1.9421727955341339e-01</leafValues></_>
    <_>
      <internalNodes>
        0 -1 20220 2122837935 861138910 -286331337 1904521042 1895118333
        -1110358023 -17499429 -104563253</internalNodes>
      <leafValues>
        -1.1003179103136063e-01 1.8978145718574524e-01</leafValues></_>
    <_>
      <internalNodes>
        0 -1 18964 2013604592 2031726082 1542694523 1198083124 605335123
        1876317685 -2754058 -1491874746</internalNodes>
      <leafValues>
        -1.3429082930088043e-01 1.6007383167743683e-01</leafValues></_>
    <_>
      <internalNodes>
        0 -1 19501 -649396732 375968755 -690107750 -1376992514
        -130937547 874208741 -1652734872 137568378</internalNodes>
      <leafValues>
        -2.0506605505943298e-01 1.0302381962537766e-01</leafValues></_>
    <_>
      <internalNodes>
        0 -1 24247 -1568035037 -1964610006 928972533 -541269772
        -1277166085 -1430263556 132642745 -811936264</internalNodes>
      <leafValues>
        -1.3168962299823761e-01 1.5742795169353485e-01</leafValues></_>
    <_>
      <internalNodes>
        0 -1 9577 -836718829 -609573974 1610575799 -677348512 1073706237
        -29360401 -2013612053 -924040185</internalNodes>
      <leafValues>
        -1.2682834267616272e-01 1.6260989010334015e-01</leafValues></_>
    <_>
      <internalNodes>
        0 -1 26895 -142129561 -112812148 460290798 1080022749
        -1275159296 1998459970 -94515510 1935408107</internalNodes>
      <leafValues>
        -1.3152597844600677e-01 1.5414696931838989e-01</leafValues></_>
    <_>
      <internalNodes>
        0 -1 9300 -118331825 -142904661 -285577618 -1293879186 778378496
        1330281325 -493598128 1934835516</internalNodes>
      <leafValues>
        -2.0362204313278198e-01 9.8525911569595337e-02</leafValues></_>
    <_>
      <internalNodes>
        0 -1 21390 -597648208 -1431799956 -1396901148 -69984264
        230078357 -1348534853 1061106612 -1074066180</internalNodes>
      <leafValues>
        -1.3781015574932098e-01 1.4471726119518280e-01</leafValues></_>
    <_>
      <internalNodes>
        0 -1 588 -335303125 552250350 1793994244 1065354402 1186885119
        1150810494 1960195627 500005750</internalNodes>
      <leafValues>
        -1.8390424549579620e-01 1.1114142090082169e-01</leafValues></_>
    <_>
      <internalNodes>
        0 -1 25409 -2110077 -203432001 -1493176668 -202453130 -67663987
        1432751633 -1627403128 922188782</internalNodes>
      <leafValues>
        -1.1334062367677689e-01 1.8089164793491364e-01</leafValues></_>
    <_>
      <internalNodes>
        0 -1 10745 -289886943 -355858357 634904439 -286334979
        -1514217615 -807161000 -4295307 -1103149344</internalNodes>
      <leafValues>
        -1.7462666332721710e-01 1.1589998751878738e-01</leafValues></_>
    <_>
      <internalNodes>
        0 -1 22863 -626606927 -695846994 -137364482 -537231916 791855103
        -1412500557 -1426073602 -1145366018</internalNodes>
      <leafValues>
        -9.1468825936317444e-02 2.2360813617706299e-01</leafValues></_>
    <_>
      <internalNodes>
        0 -1 12343 112470576 -997424572 778996023 -1398929321 718517556
        34893637 1593384739 252589173</internalNodes>
      <leafValues>
        -2.9047858715057373e-01 7.1614049375057220e-02</leafValues></_>
    <_>
      <internalNodes>
        0 -1 3522 -324360541 -561861470 -537250041 -1170910 -2030082057
        937948158 -827370206 -957520794</internalNodes>
      <leafValues>
        -1.4246134459972382e-01 1.3688360154628754e-01</leafValues></_>
    <_>
      <internalNodes>
        0 -1 24867 -1728967659 -203661313 641677279 -741474433 -21168636
        -176427739 -13304646 -1146594824</internalNodes>
      <leafValues>
        -1.2714405357837677e-01 1.5488177537918091e-01</leafValues></_>
    <_>
      <internalNodes>
        0 -1 25130 805292582 67416036 1740303680 4783906 -992237820
        7634885 -1245190528 11926750</internalNodes>
      <leafValues>
        -3.1054064631462097e-01 6.5050542354583740e-02</leafValues></_>
    <_>
      <internalNodes>
        0 -1 15047 -672403481 355708607 2046687974 299743222 2051409295
        -1109764648 2054387948 -1191741597</internalNodes>
      <leafValues>
        -1.1219920963048935e-01 1.7879672348499298e-01</leafValues></_>
    <_>
      <internalNodes>
        0 -1 23538 1423887232 93287950 -176432192 1539839398 -1142190717
        -1952055906 805278162 -1377853969</internalNodes>
      <leafValues>
        -1.4212295413017273e-01 1.3999411463737488e-01</leafValues></_>
    <_>
      <internalNodes>
        0 -1 17194 -894307150 1292908004 217593456 1724245933 1952738896
        2130590947 930610035 1592763138</internalNodes>
      <leafValues>
        -1.7130915820598602e-01 1.1658257246017456e-01</leafValues></_>
    <_>
      <internalNodes>
        0 -1 3300 -1953912917 -1494405960 -1100529663 1324869354
        -1075068934 14837622 1991484787 1469051389</internalNodes>
      <leafValues>
        -1.6239833831787109e-01 1.2074436992406845e-01</leafValues></_>
    <_>
      <internalNodes>
        0 -1 20737 -764752825 960127875 -1081409 -135571677 -576742244
        -1091618177 -272642627 -1595193853</internalNodes>
      <leafValues>
        -1.0780538618564606e-01 1.7923027276992798e-01</leafValues></_>
    <_>
      <internalNodes>
        0 -1 13349 2123976431 -538220737 2029780727 1937141471
        -1146620338 -70054434 -265222 -13968452</internalNodes>
      <leafValues>
        -9.6034787595272064e-02 2.0198838412761688e-01</leafValues></_>
    <_>
      <internalNodes>
        0 -1 22101 -52386060 -6774676 -8724745 -1646446439 -1501504003
        -1346441260 -1074354996 -1346693141</internalNodes>
      <leafValues>
        -1.1438346654176712e-01 1.6535708308219910e-01</leafValues></_>
    <_>
      <internalNodes>
        0 -1 15185 68308000 -2101723892 -1896439200 -454664856 652477728
        -1361244675 887549232 -1127610140</internalNodes>
      <leafValues>
        -2.5385507941246033e-01 7.5267530977725983e-02</leafValues></_>
    <_>
      <internalNodes>
        0 -1 27042 -675569013 -290758234 1626731168 1938666220
        -427821089 1141169235 1062450871 1472189610</internalNodes>
      <leafValues>
        -1.1539624631404877e-01 1.6445825994014740e-01</leafValues></_>
    <_>
      <internalNodes>
        0 -1 1478 -352378323 319269435 -353734627 839056383 340936988
        1514102361 -637996952 858912759</internalNodes>
      <leafValues>
        -1.6423261165618896e-01 1.1717773228883743e-01</leafValues></_>
    <_>
      <internalNodes>
        0 -1 12765 1987180452 833630865 851246893 -1247774774 1888584104
        -1226785580 -992187320 130826378</internalNodes>
      <leafValues>
        -1.6259303689002991e-01 1.1699689179658890e-01</leafValues></_>
    <_>
      <internalNodes>
        0 -1 20146 -548020826 1144357536 1793354704 1441611831
        -1871393298 -1355045152 -1336619093 1778856174</internalNodes>
      <leafValues>
        -1.3460354506969452e-01 1.4578528702259064e-01</leafValues></_>
    <_>
      <internalNodes>
        0 -1 10357 1349843449 -314057137 600964847 -521813827 -548012657
        -1362108851 -135967615 -740317249</internalNodes>
      <leafValues>
        -1.0184183716773987e-01 1.8934293091297150e-01</leafValues></_>
    <_>
      <internalNodes>
        0 -1 138 -497735530 821620362 -271134876 -1616212468 1617900892
        2017226578 -826848228 1516633834</internalNodes>
      <leafValues>
        -1.7222005128860474e-01 1.1428480595350266e-01</leafValues></_>
    <_>
      <internalNodes>
        0 -1 24051 213257734 549064199 -153477518 850422558 -107347900
        -681628324 -42010704 -1307428400</internalNodes>
      <leafValues>
        -2.3291358351707458e-01 8.1437051296234131e-02</leafValues></_>
    <_>
      <internalNodes>
        0 -1 21710 1419832486 959770033 2109291967 1470164499 1971261101
        1543008231 -184791924 1024518978</internalNodes>
      <leafValues>
        -1.5824039280414581e-01 1.1824589222669601e-01</leafValues></_>
    <_>
      <internalNodes>
        0 -1 23535 -635782128 -655461959 -1487102640 -38900516
        -1784872979 -1922351459 -1246431757 -1078256485</internalNodes>
      <leafValues>
        -1.0239423066377640e-01 1.8464663624763489e-01</leafValues></_>
    <_>
      <internalNodes>
        0 -1 22286 -1460236515 -833089801 2004745807 -964970633
        -1078088699 -8409217 -1761810087 -80135061</internalNodes>
      <leafValues>
        -1.2596610188484192e-01 1.4999900758266449e-01</leafValues></_>
    <_>
      <internalNodes>
        0 -1 16768 1553485888 2140933245 -197845 1979342805 -688108440
        -287696519 1590707968 1057102852</internalNodes>
      <leafValues>
        -2.3329204320907593e-01 8.0896884202957153e-02</leafValues></_>
    <_>
      <internalNodes>
        0 -1 17891 211550208 -393576897 -1115710281 -856901903
        -290644912 -559218725 -1478248945 704644164</internalNodes>
      <leafValues>
        -2.5026869773864746e-01 7.4689134955406189e-02</leafValues></_>
    <_>
      <internalNodes>
        0 -1 22560 -2642432 496871477 -1342445399 -384392214 1570705321
        1895724735 2147364360 1088813763</internalNodes>
      <leafValues>
        -1.6948261857032776e-01 1.0892036557197571e-01</leafValues></_>
    <_>
      <internalNodes>
        0 -1 11837 -210835919 -500539514 647658678 -265377794 795702040
        -587823303 634450324 -1956368</internalNodes>
      <leafValues>
        -1.5282650291919708e-01 1.2204619497060776e-01</leafValues></_>
    <_>
      <internalNodes>
        0 -1 9968 644754772 -520191972 133578557 -378928691 -1435522668
        -62906411 -254963964 1487210791</internalNodes>
      <leafValues>
        -1.8664547801017761e-01 9.9044628441333771e-02</leafValues></_>
    <_>
      <internalNodes>
        0 -1 18219 2027340970 809038133 -288883316 770375402 1994474157
        1071611628 2084728047 1011901444</internalNodes>
      <leafValues>
        -1.8413542211055756e-01 1.0429388284683228e-01</leafValues></_>
    <_>
      <internalNodes>
        0 -1 12082 171388546 1362488820 -151732613 1485691616 -180090070
        1704877339 2101120899 1365365802</internalNodes>
      <leafValues>
        -1.7476494610309601e-01 1.0710350424051285e-01</leafValues></_>
    <_>
      <internalNodes>
        0 -1 1560 -739792983 1890389951 851255972 1916007359 -40103324
        288583280 1063242439 1969155272</internalNodes>
      <leafValues>
        -1.4422823488712311e-01 1.2560673058032990e-01</leafValues></_>
    <_>
      <internalNodes>
        0 -1 20450 1784997312 -221229456 -1080605835 1006391420
        743464080 -54700049 -1192315736 -1153761046</internalNodes>
      <leafValues>
        -1.2215362489223480e-01 1.4896202087402344e-01</leafValues></_>
    <_>
      <internalNodes>
        0 -1 21401 662627248 -100615968 -373852079 1588487408 -895580495
        -1993705413 769093657 -845975345</internalNodes>
      <leafValues>
        -1.3719382882118225e-01 1.3004966080188751e-01</leafValues></_>
    <_>
      <internalNodes>
        0 -1 10725 -1432418317 -422905096 -71313967 -69208076
        -1153436868 -878706802 1610278322 -541092643</internalNodes>
      <leafValues>
        -1.1081062257289886e-01 1.6351978480815887e-01</leafValues></_>
    <_>
      <internalNodes>
        0 -1 11318 2055622178 1027395252 -17006790 -7541378 1454203228
        -1409845259 -327390980 679753951</internalNodes>
      <leafValues>
        -1.6208651661872864e-01 1.1127991229295731e-01</leafValues></_>
    <_>
      <internalNodes>
        0 -1 16403 -664840274 812955607 -1357514956 -159318406
        1632937680 -1471086785 -1082839195 156292611</internalNodes>
      <leafValues>
        -1.8089814484119415e-01 1.0034260898828506e-01</leafValues></_>
    <_>
      <internalNodes>
        0 -1 19728 681067620 1023704970 -858014031 -102736466
        -1120137611 -690978857 -51221312 -1080425816</internalNodes>
      <leafValues>
        -1.6856600344181061e-01 1.0919608175754547e-01</leafValues></_></weakClassifiers></stage5>
</opencv_storage>
