<?xml version="1.0"?>
<opencv_storage>
<stage9>
  <maxWeakCount>126</maxWeakCount>
  <stageThreshold>-2.0502362251281738e+00</stageThreshold>
  <weakClassifiers>
    <_>
      <internalNodes>
        0 -1 8134 -1 1065349103 1073741823 799485871 -1 -513 -4437
        800046779</internalNodes>
      <leafValues>
        -4.1622805595397949e-01 2.5525769591331482e-01</leafValues></_>
    <_>
      <internalNodes>
        0 -1 19245 -253888280 -704774147 -145358881 -161 -184552272
        -721951489 -1077 -4194353</internalNodes>
      <leafValues>
        -2.8595337271690369e-01 2.5528442859649658e-01</leafValues></_>
    <_>
      <internalNodes>
        0 -1 12606 -447438537 -9097453 1979556797 -1200731 -1946186817
        -1990726019 -160849 -3358290</internalNodes>
      <leafValues>
        -1.6665710508823395e-01 3.0674967169761658e-01</leafValues></_>
    <_>
      <internalNodes>
        0 -1 7698 -17893377 -596241 -357896450 -1646418 -94961665
        -14260377 -446368769 -8948361</internalNodes>
      <leafValues>
        -1.3807688653469086e-01 3.2138258218765259e-01</leafValues></_>
    <_>
      <internalNodes>
        0 -1 7807 -452986298 1713831406 -286261937 -269484049 -413145532
        1145372652 -1048753 1339031387</internalNodes>
      <leafValues>
        -2.7189323306083679e-01 1.2180197238922119e-01</leafValues></_>
    <_>
      <internalNodes>
        0 -1 5220 -1414533205 -1431379254 1791942786 -487594776
        -471861333 105638396 1743779715 1473246719</internalNodes>
      <leafValues>
        -1.7623336613178253e-01 1.9669727981090546e-01</leafValues></_>
    <_>
      <internalNodes>
        0 -1 25780 -45953 -536896513 2061472383 -201326625 -256
        1937750106 -7669134 -73401349</internalNodes>
      <leafValues>
        -1.2860715389251709e-01 2.5081795454025269e-01</leafValues></_>
    <_>
      <internalNodes>
        0 -1 19620 8388660 -1695797256 -1092804803 2138840316 687084720
        -288605292 731396090 -1078263621</internalNodes>
      <leafValues>
        -1.8751050531864166e-01 1.6261772811412811e-01</leafValues></_>
    <_>
      <internalNodes>
        0 -1 19265 2069360559 991035303 -50332109 -1835133 1683312127
        -1392809219 -42632449 -1607710</internalNodes>
      <leafValues>
        -1.3338291645050049e-01 2.2697952389717102e-01</leafValues></_>
    <_>
      <internalNodes>
        0 -1 21375 -567223824 -246284 -1611089153 -49667 -1363624452
        -1091633430 -1079051009 -1077998337</internalNodes>
      <leafValues>
        -1.0971885174512863e-01 2.6141220331192017e-01</leafValues></_>
    <_>
      <internalNodes>
        0 -1 23575 -1205144655 -1945447520 -1613242895 -67178820
        -1350588753 -1426067514 -1749027419 -1879048996</internalNodes>
      <leafValues>
        -1.3063107430934906e-01 2.0174214243888855e-01</leafValues></_>
    <_>
      <internalNodes>
        0 -1 16972 -800603257 -89459837 -1250972673 -1192841330 -8915547
        -1073743889 -101193755 820278020</internalNodes>
      <leafValues>
        -1.8799263238906860e-01 1.3700295984745026e-01</leafValues></_>
    <_>
      <internalNodes>
        0 -1 4777 -621286809 -12591361 1927478990 1891294958 -823177915
        -8954781 -20573484 -143130657</internalNodes>
      <leafValues>
        -1.6750088334083557e-01 1.5692135691642761e-01</leafValues></_>
    <_>
      <internalNodes>
        0 -1 8134 994093192 -526118346 -302372321 -797388045 796231081
        661880179 210178458 -796966482</internalNodes>
      <leafValues>
        -1.4741051197052002e-01 1.7500333487987518e-01</leafValues></_>
    <_>
      <internalNodes>
        0 -1 21360 -53161744 -17006860 -9 -134147 -1346766339 -84267268
        -1140852738 -1141168897</internalNodes>
      <leafValues>
        -1.0071215033531189e-01 2.5013092160224915e-01</leafValues></_>
    <_>
      <internalNodes>
        0 -1 14945 -715346524 1428272917 -179265504 -170480126
        1115643327 2097018863 -254579032 2001719176</internalNodes>
      <leafValues>
        -1.8284714221954346e-01 1.3205325603485107e-01</leafValues></_>
    <_>
      <internalNodes>
        0 -1 13893 1476388643 825293617 -151655295 502653639 1418087599
        1071281334 -16979314 -1862436083</internalNodes>
      <leafValues>
        -1.5087932348251343e-01 1.5302290022373199e-01</leafValues></_>
    <_>
      <internalNodes>
        0 -1 24597 148505092 654274365 1002331134 544373630 -26751152
        -310954148 -4194668 -99418118</internalNodes>
      <leafValues>
        -2.0959532260894775e-01 1.0517617315053940e-01</leafValues></_>
    <_>
      <internalNodes>
        0 -1 19245 1610544983 1209416950 608458272 1360134053 1542937455
        2071584452 -1570483394 2001400696</internalNodes>
      <leafValues>
        -1.1948599666357040e-01 1.8594522774219513e-01</leafValues></_>
    <_>
      <internalNodes>
        0 -1 9416 -269844549 -290783809 -608306177 -269740289
        -1073875075 -805373953 939253759 -805322625</internalNodes>
      <leafValues>
        -1.0350877791643143e-01 2.1622936427593231e-01</leafValues></_>
    <_>
      <internalNodes>
        0 -1 13727 -41943110 1485880624 -1967388144 1433424305 789607772
        -1472307784 -101384353 -572129281</internalNodes>
      <leafValues>
        -1.3886635005474091e-01 1.5746416151523590e-01</leafValues></_>
    <_>
      <internalNodes>
        0 -1 26056 -1086330205 -1413821554 -1703423680 -540160800
        -1623198326 -1945296221 628614565 1171247556</internalNodes>
      <leafValues>
        -1.6253964602947235e-01 1.2677104771137238e-01</leafValues></_>
    <_>
      <internalNodes>
        0 -1 21340 -665518864 -122136578 -458753 -235779 -1078396931
        -1075347466 -1078067217 -1075113733</internalNodes>
      <leafValues>
        -8.6435332894325256e-02 2.2390498220920563e-01</leafValues></_>
    <_>
      <internalNodes>
        0 -1 6120 -537926677 -965758993 1123762222 1929314250 -85066234
        1399501673 2008471044 2004874740</internalNodes>
      <leafValues>
        -1.6225108504295349e-01 1.2161422520875931e-01</leafValues></_>
    <_>
      <internalNodes>
        0 -1 13764 -2011160464 -588774144 -204031489 -1238895
        -1149749515 -9636873 -1682647075 -1164434347</internalNodes>
      <leafValues>
        -1.5219256281852722e-01 1.2856434285640717e-01</leafValues></_>
    <_>
      <internalNodes>
        0 -1 22766 1434450826 -1530069095 -103023416 629784481
        -1660977938 11590058 -201595200 8640395</internalNodes>
      <leafValues>
        -1.8383882939815521e-01 1.0292363911867142e-01</leafValues></_>
    <_>
      <internalNodes>
        0 -1 15661 -83927809 -69259425 1996252925 2071620447 -270797244
        -43159989 -65553 -14001286</internalNodes>
      <leafValues>
        -9.6874058246612549e-02 1.9592374563217163e-01</leafValues></_>
    <_>
      <internalNodes>
        0 -1 22443 1216401296 -1097663085 -1342439428 -33358206
        -134509639 -25 -1242100599 1053052802</internalNodes>
      <leafValues>
        -1.6076326370239258e-01 1.1734836548566818e-01</leafValues></_>
    <_>
      <internalNodes>
        0 -1 20495 -595525648 -72847910 -1385447460 -101931284
        -1285375020 -1150355527 -71057445 -1078259477</internalNodes>
      <leafValues>
        -9.8275057971477509e-02 1.9509063661098480e-01</leafValues></_>
    <_>
      <internalNodes>
        0 -1 19870 -1896371393 -1904920709 -308285763 -295792897
        -1082992555 -18371585 -1080259019 -616804061</internalNodes>
      <leafValues>
        -1.5752325952053070e-01 1.2257236242294312e-01</leafValues></_>
    <_>
      <internalNodes>
        0 -1 16257 1374144399 324074452 -252657663 -169349179 1640777165
        -2047211106 -161096212 -773461564</internalNodes>
      <leafValues>
        -1.1373510956764221e-01 1.5606802701950073e-01</leafValues></_>
    <_>
      <internalNodes>
        0 -1 13248 -891100444 -17939605 -489632514 1895480046 67391238
        1602111351 2082628346 -11065569</internalNodes>
      <leafValues>
        -1.5654544532299042e-01 1.1139521747827530e-01</leafValues></_>
    <_>
      <internalNodes>
        0 -1 3475 8922420 -324614938 -1360220873 1614654036 1254373124
        1662236413 -2057585869 418149213</internalNodes>
      <leafValues>
        -2.1711991727352142e-01 7.9654417932033539e-02</leafValues></_>
    <_>
      <internalNodes>
        0 -1 18183 -639774726 -1784592475 -320670672 1705227689
        812959287 1874227732 808752743 1461936687</internalNodes>
      <leafValues>
        -1.3427704572677612e-01 1.2740854918956757e-01</leafValues></_>
    <_>
      <internalNodes>
        0 -1 20425 15779328 -925096644 805122030 2045814442 -1078551275
        -1116988555 134002940 -1147462408</internalNodes>
      <leafValues>
        -1.3873134553432465e-01 1.2270192056894302e-01</leafValues></_>
    <_>
      <internalNodes>
        0 -1 25503 1876946691 1474297759 -1882724828 -520096004
        1710170520 626097691 -100804480 -220857868</internalNodes>
      <leafValues>
        -1.3138508796691895e-01 1.2826365232467651e-01</leafValues></_>
    <_>
      <internalNodes>
        0 -1 15949 -796865371 -3643327 -268830725 -542221693 -32535413
        -1065029 -1091875489 -1440611325</internalNodes>
      <leafValues>
        -1.1970246583223343e-01 1.3953302800655365e-01</leafValues></_>
    <_>
      <internalNodes>
        0 -1 730 -278290038 -825444414 -2097200030 -1023437584
        -1290814686 105491462 326071058 1365234329</internalNodes>
      <leafValues>
        -1.7071601748466492e-01 9.6784718334674835e-02</leafValues></_>
    <_>
      <internalNodes>
        0 -1 16840 -432521415 -355140163 -1075912737 -352780295
        -1367392909 -832587672 2006571863 -834666300</internalNodes>
      <leafValues>
        -1.5525038540363312e-01 1.0644007474184036e-01</leafValues></_>
    <_>
      <internalNodes>
        0 -1 8004 -1540227056 559096696 -436228568 -449900937 -671654019
        301411893 301599507 157782333</internalNodes>
      <leafValues>
        -2.2184921801090240e-01 7.2451777756214142e-02</leafValues></_>
    <_>
      <internalNodes>
        0 -1 16728 -799349520 -87947653 -84670210 1056705134 74072212
        -1104000177 985688747 1066079347</internalNodes>
      <leafValues>
        -1.3564851880073547e-01 1.1871271580457687e-01</leafValues></_>
    <_>
      <internalNodes>
        0 -1 24905 -1077953243 373085111 -1342328987 963568313
        2003763217 894901745 -1897025640 584612831</internalNodes>
      <leafValues>
        -1.5714175999164581e-01 1.0166503489017487e-01</leafValues></_>
    <_>
      <internalNodes>
        0 -1 7893 -617665821 -2160947 173472338 1382710269 -1694866942
        1194290946 -152898638 2064710270</internalNodes>
      <leafValues>
        -1.4181281626224518e-01 1.1327693611383438e-01</leafValues></_>
    <_>
      <internalNodes>
        0 -1 20852 -606735622 1090320316 -285459147 -47962623 -386539602
        -1227826241 -1075679477 2046500827</internalNodes>
      <leafValues>
        -1.1070443689823151e-01 1.4412017166614532e-01</leafValues></_>
    <_>
      <internalNodes>
        0 -1 22395 36709521 -20033922 -1161865349 -67119139 -1146438060
        -1625332873 -1275463683 -1682237192</internalNodes>
      <leafValues>
        -1.1517757177352905e-01 1.3794796168804169e-01</leafValues></_>
    <_>
      <internalNodes>
        0 -1 17622 1055718380 -1393759932 1313779706 -1462835512
        -168879839 78915153 -170037406 67463235</internalNodes>
      <leafValues>
        -2.1354544162750244e-01 7.4053272604942322e-02</leafValues></_>
    <_>
      <internalNodes>
        0 -1 14256 -546049025 -587400280 1188998876 2143888103
        -1066074956 -2072992524 -1152213205 255791691</internalNodes>
      <leafValues>
        -1.0831587761640549e-01 1.4907282590866089e-01</leafValues></_>
    <_>
      <internalNodes>
        0 -1 2683 -386997748 2420654 654192336 -252910368 2119527749
        1685088069 1545549604 1423277396</internalNodes>
      <leafValues>
        -2.9539060592651367e-01 5.4098758846521378e-02</leafValues></_>
    <_>
      <internalNodes>
        0 -1 17791 238816292 -1279374481 -567650309 2104917823
        -1954932879 -156336250 -1610809380 252333328</internalNodes>
      <leafValues>
        -2.3682656884193420e-01 6.5841555595397949e-02</leafValues></_>
    <_>
      <internalNodes>
        0 -1 21073 1633150887 -1851732299 -420829308 -47857757 551643133
        -374400067 -1266946161 -1652071769</internalNodes>
      <leafValues>
        -9.6442356705665588e-02 1.6437032818794250e-01</leafValues></_>
    <_>
      <internalNodes>
        0 -1 16146 -746139669 274496690 2071722434 427294551 2119316867
        -1737459787 -160209269 -117999673</internalNodes>
      <leafValues>
        -1.0119787603616714e-01 1.5520238876342773e-01</leafValues></_>
    <_>
      <internalNodes>
        0 -1 14531 -1434313421 -358044167 1599553151 -309267211
        239021333 -805586570 1065444951 -1900960319</internalNodes>
      <leafValues>
        -1.5366117656230927e-01 1.0179826617240906e-01</leafValues></_>
    <_>
      <internalNodes>
        0 -1 12582 1417029160 363915026 -363759070 -37355648 1572817100
        -57584743 1881207946 952328259</internalNodes>
      <leafValues>
        -1.5496204793453217e-01 1.0405001044273376e-01</leafValues></_>
    <_>
      <internalNodes>
        0 -1 27080 -2366769 -68453414 1887040104 -117479238 -143137278
        1381330712 1378089658 1900280575</internalNodes>
      <leafValues>
        -1.0404989123344421e-01 1.5454971790313721e-01</leafValues></_>
    <_>
      <internalNodes>
        0 -1 5867 105686340 -512694657 -855282232 1885514698 1618464732
        -143262554 -791325568 -180882723</internalNodes>
      <leafValues>
        -1.6379632055759430e-01 9.3889608979225159e-02</leafValues></_>
    <_>
      <internalNodes>
        0 -1 33 -632379969 -76895321 -10543755 -35633562 1169666911
        1854383613 1476351268 -840055346</internalNodes>
      <leafValues>
        -9.8750650882720947e-02 1.6037543118000031e-01</leafValues></_>
    <_>
      <internalNodes>
        0 -1 18600 -923236832 -69598914 -1108574338 -67618310 104118684
        -1885983131 -1096942120 -74768710</internalNodes>
      <leafValues>
        -9.7414009273052216e-02 1.6074883937835693e-01</leafValues></_>
    <_>
      <internalNodes>
        0 -1 15234 730144 -2136459598 921108004 -51577252 1058416401
        32369093 536216580 -1914822172</internalNodes>
      <leafValues>
        -2.3373243212699890e-01 6.7120879888534546e-02</leafValues></_>
    <_>
      <internalNodes>
        0 -1 17856 1597769465 1603661476 -36931 1273924300 -432734309
        -2580525 918943635 1343284650</internalNodes>
      <leafValues>
        -1.2405208498239517e-01 1.2320383638143539e-01</leafValues></_>
    <_>
      <internalNodes>
        0 -1 21276 -583991812 -117948875 -1514222667 -1947335235
        1064885688 -1363646084 -1288000708 -1431623445</internalNodes>
      <leafValues>
        -1.1840272694826126e-01 1.3067248463630676e-01</leafValues></_>
    <_>
      <internalNodes>
        0 -1 10008 1886713852 849384996 -1464698346 -1477244558
        1894019441 -1174487209 -1037705208 564404972</internalNodes>
      <leafValues>
        -1.7048938572406769e-01 9.0414561331272125e-02</leafValues></_>
    <_>
      <internalNodes>
        0 -1 24642 -420535392 -524505308 -268461024 70021376 1744698787
        1154572848 1173869696 9433854</internalNodes>
      <leafValues>
        -2.0583717525005341e-01 7.6945856213569641e-02</leafValues></_>
    <_>
      <internalNodes>
        0 -1 22503 -559890400 -733185515 1073696379 -604020895
        -1283411736 -285412611 782041087 -1092926223</internalNodes>
      <leafValues>
        -9.5687530934810638e-02 1.6376845538616180e-01</leafValues></_>
    <_>
      <internalNodes>
        0 -1 3120 -209737041 -536872785 -822193578 1881141983 -604333234
        455030614 2013061866 1937496031</internalNodes>
      <leafValues>
        -9.5767296850681305e-02 1.6106899082660675e-01</leafValues></_>
    <_>
      <internalNodes>
        0 -1 18738 -566341900 -1658048853 -186950160 989814653
        -1230365964 -1361790372 -163678318 -1143267462</internalNodes>
      <leafValues>
        -1.0805460810661316e-01 1.3876777887344360e-01</leafValues></_>
    <_>
      <internalNodes>
        0 -1 24744 -1422199901 -293012510 -365174863 -240199208
        -1346437713 -1895908044 228585977 -539045636</internalNodes>
      <leafValues>
        -1.0120362788438797e-01 1.4983721077442169e-01</leafValues></_>
    <_>
      <internalNodes>
        0 -1 12325 -16975116 -437664441 -465180299 1672276895
        -1036976625 -848691435 1894085131 1540330953</internalNodes>
      <leafValues>
        -1.1423954367637634e-01 1.3613383471965790e-01</leafValues></_>
    <_>
      <internalNodes>
        0 -1 22075 -890001520 -61298904 -1677952194 -50929744
        -1150320380 215253478 636986360 -1681210182</internalNodes>
      <leafValues>
        -1.1370351910591125e-01 1.3331988453865051e-01</leafValues></_>
    <_>
      <internalNodes>
        0 -1 16845 1016988050 -1775227265 2147286900 1353779934
        125154737 -68420385 872415106 547570882</internalNodes>
      <leafValues>
        -2.0677077770233154e-01 7.4248626828193665e-02</leafValues></_>
    <_>
      <internalNodes>
        0 -1 23491 774244352 36707352 -1259374832 404258032 -1910722688
        -1524859376 647483600 -1820290840</internalNodes>
      <leafValues>
        -1.9799797236919403e-01 7.3926419019699097e-02</leafValues></_>
    <_>
      <internalNodes>
        0 -1 27015 -807476477 -621904210 1392295948 1255102190
        2013234688 115414797 -1212442812 1414965224</internalNodes>
      <leafValues>
        -1.7838035523891449e-01 8.4523245692253113e-02</leafValues></_>
    <_>
      <internalNodes>
        0 -1 12874 1494218662 833644374 -822247473 -583927614 74877181
        -777603121 -152998178 -2126166201</internalNodes>
      <leafValues>
        -1.1504334956407547e-01 1.3088792562484741e-01</leafValues></_>
    <_>
      <internalNodes>
        0 -1 19811 -98640777 -859145289 2008803839 -838255893 -139731179
        -277955209 -1375733457 -613947609</internalNodes>
      <leafValues>
        -9.1098390519618988e-02 1.6848589479923248e-01</leafValues></_>
    <_>
      <internalNodes>
        0 -1 16525 2043673542 1924329269 -1073750032 -1612267798
        1977970348 -1326424459 -42476551 1844671863</internalNodes>
      <leafValues>
        -1.1901246011257172e-01 1.2604348361492157e-01</leafValues></_>
    <_>
      <internalNodes>
        0 -1 9645 -1406663903 -823473420 1806168888 -824779536
        -1275330654 -957957969 1609200499 1342001644</internalNodes>
      <leafValues>
        -1.6611762344837189e-01 8.9991085231304169e-02</leafValues></_>
    <_>
      <internalNodes>
        0 -1 24803 -87062761 1532489591 -1346392321 -261034066
        1801426829 -1057497 -1396864888 -1150816510</internalNodes>
      <leafValues>
        -9.5783397555351257e-02 1.5782420337200165e-01</leafValues></_>
    <_>
      <internalNodes>
        0 -1 16704 -231830288 -381738 -151879682 1961757948 -11119600
        -850036721 -366700596 -1145436680</internalNodes>
      <leafValues>
        -1.2529249489307404e-01 1.1948119848966599e-01</leafValues></_>
    <_>
      <internalNodes>
        0 -1 769 -396739558 451010426 -2048881076 -2060338246 -620893436
        -45611628 -50360360 -1919824648</internalNodes>
      <leafValues>
        -1.4163257181644440e-01 1.0800790786743164e-01</leafValues></_>
    <_>
      <internalNodes>
        0 -1 15827 -1202786943 -123556273 -822610021 -142413997
        -100938849 1067429175 -268972535 684188231</internalNodes>
      <leafValues>
        -1.1205971240997314e-01 1.3355566561222076e-01</leafValues></_>
    <_>
      <internalNodes>
        0 -1 22296 -1905546235 -364216561 -151109633 -2110906370
        -1120429803 -79704262 -291714295 -1356165313</internalNodes>
      <leafValues>
        -1.3027802109718323e-01 1.1283479630947113e-01</leafValues></_>
    <_>
      <internalNodes>
        0 -1 14444 -797256396 251187009 -635814307 237518439 -590952420
        -1124281291 -100742124 1264780899</internalNodes>
      <leafValues>
        -1.5499655902385712e-01 9.4856329262256622e-02</leafValues></_>
    <_>
      <internalNodes>
        0 -1 11309 -835687248 -671301144 -1141153868 -112201220
        -1353741335 -353456786 -194043905 -1613938431</internalNodes>
      <leafValues>
        -9.4875641167163849e-02 1.5484964847564697e-01</leafValues></_>
    <_>
      <internalNodes>
        0 -1 11973 -83934581 -739303578 578204274 1377988607 -566410482
        1054101327 -2043945316 -15012888</internalNodes>
      <leafValues>
        -1.1174367368221283e-01 1.2744657695293427e-01</leafValues></_>
    <_>
      <internalNodes>
        0 -1 12581 -384893753 342159910 -167871262 -44048786 -160087611
        -1326062843 -134909240 -1461363353</internalNodes>
      <leafValues>
        -1.0119669884443283e-01 1.3968522846698761e-01</leafValues></_>
    <_>
      <internalNodes>
        0 -1 15712 62333470 -1855337242 1812774909 2079188108 1683026698
        -537009665 639608730 1584694432</internalNodes>
      <leafValues>
        -1.4627981185913086e-01 9.9033631384372711e-02</leafValues></_>
    <_>
      <internalNodes>
        0 -1 26526 1164880640 654214903 -1216387931 -1929708306
        1550919074 46428433 -1478167160 832952730</internalNodes>
      <leafValues>
        -1.5594929456710815e-01 9.2177845537662506e-02</leafValues></_>
    <_>
      <internalNodes>
        0 -1 1794 997109566 -274551873 1878863485 -274716109 189113777
        1739388407 234729600 1560193195</internalNodes>
      <leafValues>
        -1.3477149605751038e-01 1.0616634041070938e-01</leafValues></_>
    <_>
      <internalNodes>
        0 -1 1535 138879011 991899103 -1268205603 856306669 1922783068
        2075022672 -227376 1060296564</internalNodes>
      <leafValues>
        -1.4910952746868134e-01 9.4551675021648407e-02</leafValues></_>
    <_>
      <internalNodes>
        0 -1 15104 1449107430 1693460341 -1527042272 -286493906
        -176945271 -1627849732 -941642946 143125680</internalNodes>
      <leafValues>
        -1.3686743378639221e-01 1.0505769401788712e-01</leafValues></_>
    <_>
      <internalNodes>
        0 -1 23523 2120653840 203965600 789298336 -650347652 -1533101899
        -1394653275 632731092 -1816456980</internalNodes>
      <leafValues>
        -1.3501362502574921e-01 1.0655026137828827e-01</leafValues></_>
    <_>
      <internalNodes>
        0 -1 19699 -900217639 1949888385 -2132992333 -1380061475
        1560288405 -291903775 -974161189 800063471</internalNodes>
      <leafValues>
        -9.2554152011871338e-02 1.5831442177295685e-01</leafValues></_>
    <_>
      <internalNodes>
        0 -1 19987 -1034051322 1988007182 -1090519265 1211002758
        -100712572 1130290950 788315728 549777262</internalNodes>
      <leafValues>
        -1.9011709094047546e-01 7.5900115072727203e-02</leafValues></_>
    <_>
      <internalNodes>
        0 -1 1850 715760554 -1968524568 -1616949950 -857940746
        1058468859 -2142639115 1463939719 1430754699</internalNodes>
      <leafValues>
        -1.5444716811180115e-01 9.3258261680603027e-02</leafValues></_>
    <_>
      <internalNodes>
        0 -1 18510 1315358886 37269270 -290446676 1895181530 1625016160
        652499316 359127972 18329634</internalNodes>
      <leafValues>
        -2.3091970384120941e-01 5.9788499027490616e-02</leafValues></_>
    <_>
      <internalNodes>
        0 -1 18963 80762262 -584323283 2112827323 -139801050 -1602624347
        -805310608 -1395169375 1891437195</internalNodes>
      <leafValues>
        -1.3103787600994110e-01 1.0706982016563416e-01</leafValues></_>
    <_>
      <internalNodes>
        0 -1 27048 -103026037 -282071314 1591958211 -377495822
        -1343240793 116057248 1362358453 1439691931</internalNodes>
      <leafValues>
        -1.0052868723869324e-01 1.4087887108325958e-01</leafValues></_>
    <_>
      <internalNodes>
        0 -1 20496 -307454576 -1410324681 -329742 464370678 -52929456
        -1093366788 -269763307 -1616955309</internalNodes>
      <leafValues>
        -1.1717158555984497e-01 1.2123852223157883e-01</leafValues></_>
    <_>
      <internalNodes>
        0 -1 3758 -1606023596 552601326 -1532099259 146612791 259002624
        1409309687 1338318679 -1611849857</internalNodes>
      <leafValues>
        -2.2898817062377930e-01 6.4156107604503632e-02</leafValues></_>
    <_>
      <internalNodes>
        0 -1 12029 -540063509 -61587 -1265575170 2111798495 -1105258920
        1398229568 -1688291552 -15017666</internalNodes>
      <leafValues>
        -9.5204092562198639e-02 1.5150472521781921e-01</leafValues></_>
    <_>
      <internalNodes>
        0 -1 22165 -1104478592 -323072522 -1619601686 -538670868
        -1611616835 -1477525516 -1104825350 -1079309844</internalNodes>
      <leafValues>
        -1.0316529870033264e-01 1.4168037474155426e-01</leafValues></_>
    <_>
      <internalNodes>
        0 -1 6167 -1325421361 2128580447 -1832846429 991584463
        -536913747 -8423843 -1879695703 2136088156</internalNodes>
      <leafValues>
        -1.2113571166992188e-01 1.1976621299982071e-01</leafValues></_>
    <_>
      <internalNodes>
        0 -1 14586 788340283 1849437674 781618763 -489748468 -1260918154
        -1243570426 2051930499 -1153422472</internalNodes>
      <leafValues>
        -1.2514117360115051e-01 1.1285710334777832e-01</leafValues></_>
    <_>
      <internalNodes>
        0 -1 21754 1556407456 284227477 -270484560 -636950704 1425277824
        1064847796 -420565463 585960458</internalNodes>
      <leafValues>
        -1.7823065817356110e-01 8.4558129310607910e-02</leafValues></_>
    <_>
      <internalNodes>
        0 -1 16852 -863895535 -27087895 -1107300865 1531378534 -44131323
        -608174345 -1427653247 682897156</internalNodes>
      <leafValues>
        -1.5861134231090546e-01 9.0130567550659180e-02</leafValues></_>
    <_>
      <internalNodes>
        0 -1 24075 1116671496 2147380607 251018106 810221375 -897825152
        -404855343 -1411386380 -211091494</internalNodes>
      <leafValues>
        -1.2778376042842865e-01 1.1296933889389038e-01</leafValues></_>
    <_>
      <internalNodes>
        0 -1 7474 245803558 765739 750713578 -253467482 -842958979
        -1233426962 -598383552 1430611009</internalNodes>
      <leafValues>
        -2.2814069688320160e-01 6.2062747776508331e-02</leafValues></_>
    <_>
      <internalNodes>
        0 -1 21933 1345840514 32621732 2062216621 2064186273 1880097932
        -34263835 -178652084 -1458877546</internalNodes>
      <leafValues>
        -1.2354405224323273e-01 1.1602310091257095e-01</leafValues></_>
    <_>
      <internalNodes>
        0 -1 1712 -1301351822 -668270785 -537643105 -1275943626
        118466045 -1067023428 132992956 1844921759</internalNodes>
      <leafValues>
        -1.0870364308357239e-01 1.2962211668491364e-01</leafValues></_>
    <_>
      <internalNodes>
        0 -1 6628 753413011 1737370618 -403741324 -673961110 1694465716
        1355145191 1120526594 233071108</internalNodes>
      <leafValues>
        -1.8943718075752258e-01 7.8768283128738403e-02</leafValues></_>
    <_>
      <internalNodes>
        0 -1 14813 1817839238 879897350 -552044996 -1872467326
        1532103305 -1786873865 1977052809 1888775714</internalNodes>
      <leafValues>
        -1.8317797780036926e-01 7.9112656414508820e-02</leafValues></_>
    <_>
      <internalNodes>
        0 -1 19781 1229792002 545279506 1824517344 -1595752728 371679045
        25020149 15945732 14938339</internalNodes>
      <leafValues>
        -3.5323333740234375e-01 4.0771160274744034e-02</leafValues></_>
    <_>
      <internalNodes>
        0 -1 19208 -186127956 -788924979 -1191182616 -571998741
        1682996662 -1396550432 -622499858 -119801869</internalNodes>
      <leafValues>
        -8.9977301657199860e-02 1.6113007068634033e-01</leafValues></_>
    <_>
      <internalNodes>
        0 -1 18780 37225028 -5624086 -286296845 977174133 -1161947099
        1341643868 -41714200 170525784</internalNodes>
      <leafValues>
        -2.0390534400939941e-01 7.1490921080112457e-02</leafValues></_>
    <_>
      <internalNodes>
        0 -1 13988 1542971554 10487219 -1494495694 -708511989 1951666376
        -1124565701 -134924844 -1408895161</internalNodes>
      <leafValues>
        -1.3267907500267029e-01 1.0609014332294464e-01</leafValues></_>
    <_>
      <internalNodes>
        0 -1 13 715794825 455795250 1608461306 -576683484 251617653
        75358631 120556084 1074585844</internalNodes>
      <leafValues>
        -1.8636724352836609e-01 7.5259603559970856e-02</leafValues></_>
    <_>
      <internalNodes>
        0 -1 12439 -167326587 -622277920 1020211053 -776444408
        -138997532 -268605197 -159458227 977756679</internalNodes>
      <leafValues>
        -1.1783961206674576e-01 1.2241071462631226e-01</leafValues></_>
    <_>
      <internalNodes>
        0 -1 26730 -6484210 1506451194 -1820657102 -252121474 1997677058
        408342600 528116350 1914371327</internalNodes>
      <leafValues>
        -1.5225440263748169e-01 9.3857847154140472e-02</leafValues></_>
    <_>
      <internalNodes>
        0 -1 3199 -1493242070 1692168171 -321466705 1659020939
        1291310918 -797761673 -268736761 -203981978</internalNodes>
      <leafValues>
        -1.8103490769863129e-01 7.8739143908023834e-02</leafValues></_>
    <_>
      <internalNodes>
        0 -1 22154 -780668193 1342602788 -1217927824 364871392 352289467
        129528571 -243271542 42958299</internalNodes>
      <leafValues>
        -1.0412644594907761e-01 1.3949857652187347e-01</leafValues></_>
    <_>
      <internalNodes>
        0 -1 22972 -102412770 99003942 -1380276225 -416223362 1441985591
        1960637206 -1511476766 1567745174</internalNodes>
      <leafValues>
        -1.2947703897953033e-01 1.1109346896409988e-01</leafValues></_>
    <_>
      <internalNodes>
        0 -1 16620 1654302468 -1294595303 -1227163873 -167886874
        789868176 1856006699 711386996 -46460422</internalNodes>
      <leafValues>
        -1.1797177791595459e-01 1.2244094908237457e-01</leafValues></_>
    <_>
      <internalNodes>
        0 -1 22535 -1036482048 104376164 -1426357315 -922966098
        -1493167016 -1392628543 -43927790 -1160969787</internalNodes>
      <leafValues>
        -1.4851847290992737e-01 9.5515437424182892e-02</leafValues></_>
    <_>
      <internalNodes>
        0 -1 17580 -1972715260 -386914904 -52188220 -42190084 1868051604
        -835555501 938906108 -616868358</internalNodes>
      <leafValues>
        -1.1166488379240036e-01 1.2843616306781769e-01</leafValues></_>
    <_>
      <internalNodes>
        0 -1 25069 -578945225 1979506906 -1091682012 502184634
        1941268111 1349509079 -1191196800 -1332873222</internalNodes>
      <leafValues>
        -1.0243575274944305e-01 1.3977465033531189e-01</leafValues></_>
    <_>
      <internalNodes>
        0 -1 19540 1475864428 834882902 -144245414 -1644626001
        1446343937 -1594502475 -176838240 -1997013021</internalNodes>
      <leafValues>
        -1.3422095775604248e-01 1.0706119239330292e-01</leafValues></_>
    <_>
      <internalNodes>
        0 -1 21947 46647814 38862779 243158884 1788571453 1171739648
        1089959798 -385883688 544472337</internalNodes>
      <leafValues>
        -2.3799416422843933e-01 6.1820544302463531e-02</leafValues></_></weakClassifiers></stage9>
</opencv_storage>
