<?xml version="1.0"?>
<opencv_storage>
<stage3>
  <maxWeakCount>55</maxWeakCount>
  <stageThreshold>-2.8120603561401367e+00</stageThreshold>
  <weakClassifiers>
    <_>
      <internalNodes>
        0 -1 13341 -1 -32769 -1 -65537 -1 -8193 -1 -4521985</internalNodes>
      <leafValues>
        -6.8842178583145142e-01 1.7525981366634369e-01</leafValues></_>
    <_>
      <internalNodes>
        0 -1 11274 -267062188 -178924428 -420544684 -257 -45810188
        -15665868 -2294529 -1</internalNodes>
      <leafValues>
        -4.6919348835945129e-01 2.2270472347736359e-01</leafValues></_>
    <_>
      <internalNodes>
        0 -1 4807 -1 -16842817 -16777473 840105598 -8193 -18055217
        -554898212 -93257986</internalNodes>
      <leafValues>
        -3.1148165464401245e-01 2.9833143949508667e-01</leafValues></_>
    <_>
      <internalNodes>
        0 -1 18246 -44304928 -185335842 -177340561 1154477695 -145246221
        -1310200385 -1187921 -536870981</internalNodes>
      <leafValues>
        -2.6411527395248413e-01 3.0002298951148987e-01</leafValues></_>
    <_>
      <internalNodes>
        0 -1 19 135442106 414232566 -587252235 -4538886 -1090519041
        -1318917 -840966145 -17</internalNodes>
      <leafValues>
        -3.0387616157531738e-01 2.4085277318954468e-01</leafValues></_>
    <_>
      <internalNodes>
        0 -1 14751 -176894241 -550424921 -572596747 1058079284 -35805201
        -1073758209 1173816489 150929571</internalNodes>
      <leafValues>
        -2.0808419585227966e-01 2.9084259271621704e-01</leafValues></_>
    <_>
      <internalNodes>
        0 -1 19150 -269484049 99614715 1868540842 -839909393 -975747085
        -2119997705 -69215489 -134743113</internalNodes>
      <leafValues>
        -1.5205885469913483e-01 3.6583551764488220e-01</leafValues></_>
    <_>
      <internalNodes>
        0 -1 11589 -285275305 -1359048723 -18980873 -420823050
        -1073776844 -135178 -98316 -16847632</internalNodes>
      <leafValues>
        -2.7227631211280823e-01 2.0245294272899628e-01</leafValues></_>
    <_>
      <internalNodes>
        0 -1 17239 -262082866 -247402620 -1594873088 -169754665
        1635557548 991262678 1811721982 832504970</internalNodes>
      <leafValues>
        -2.2128194570541382e-01 2.0947438478469849e-01</leafValues></_>
    <_>
      <internalNodes>
        0 -1 10450 -352334041 748662079 -289407172 -355532822 -17469644
        -803083 -487099212 -16843852</internalNodes>
      <leafValues>
        -2.9519492387771606e-01 1.5552458167076111e-01</leafValues></_>
    <_>
      <internalNodes>
        0 -1 9363 1089865471 939460375 -270761985 1060667263 -990491628
        -17011341 -1896325124 -1440731600</internalNodes>
      <leafValues>
        -2.7033808827400208e-01 1.6101118922233582e-01</leafValues></_>
    <_>
      <internalNodes>
        0 -1 20526 1235201988 -1945583968 1765180832 -1886126544
        1165395380 72893825 1425409024 1375205187</internalNodes>
      <leafValues>
        -2.9579028487205505e-01 1.4910222589969635e-01</leafValues></_>
    <_>
      <internalNodes>
        0 -1 6906 1548021502 917743278 1593462325 992739367 1427172796
        402358256 2134793373 1034581432</internalNodes>
      <leafValues>
        -2.2601331770420074e-01 1.8947261571884155e-01</leafValues></_>
    <_>
      <internalNodes>
        0 -1 94 -164104926 548908855 -543283454 586134022 -3738114
        -269549825 -276857046 1282797436</internalNodes>
      <leafValues>
        -3.3670720458030701e-01 1.2328484654426575e-01</leafValues></_>
    <_>
      <internalNodes>
        0 -1 14366 -1500516617 -890838610 -92374017 -285410680
        -105912347 -1889337358 1434350068 -18332428</internalNodes>
      <leafValues>
        -2.3610855638980865e-01 1.6750527918338776e-01</leafValues></_>
    <_>
      <internalNodes>
        0 -1 757 1316417270 286584431 -1434542132 796412620 1861353333
        1540671217 -421048452 -71205031</internalNodes>
      <leafValues>
        -2.1205508708953857e-01 1.8387080729007721e-01</leafValues></_>
    <_>
      <internalNodes>
        0 -1 21141 -164631002 845670050 -527537108 -760808470 2144294668
        359854066 -136382742 -1041762537</internalNodes>
      <leafValues>
        -2.4371078610420227e-01 1.5309286117553711e-01</leafValues></_>
    <_>
      <internalNodes>
        0 -1 13274 549113845 953704317 -1078018049 -1113424137
        -2006147140 -237585 482106588 -1440741357</internalNodes>
      <leafValues>
        -2.4780654907226562e-01 1.5245889127254486e-01</leafValues></_>
    <_>
      <internalNodes>
        0 -1 9086 -141518 -496187649 2080329007 1837974223 -135011099
        -1325727757 1710448455 1333788447</internalNodes>
      <leafValues>
        -2.2942277789115906e-01 1.6721090674400330e-01</leafValues></_>
    <_>
      <internalNodes>
        0 -1 16473 204350261 -1565868296 -830808178 -826350514 758785845
        -1947534350 245118548 -188046124</internalNodes>
      <leafValues>
        -3.1762048602104187e-01 1.1642122268676758e-01</leafValues></_>
    <_>
      <internalNodes>
        0 -1 21172 -789058676 -805127436 -2072583794 -173867474
        1160213964 343241610 -1136845890 828732971</internalNodes>
      <leafValues>
        -2.0125569403171539e-01 1.8217886984348297e-01</leafValues></_>
    <_>
      <internalNodes>
        0 -1 22 109487010 707325482 -34933861 -277938640 268303337
        -268505089 804640238 -908733242</internalNodes>
      <leafValues>
        -2.4302308261394501e-01 1.4692236483097076e-01</leafValues></_>
    <_>
      <internalNodes>
        0 -1 17478 44705296 -1368867658 -151196097 -17655816 -1086380783
        -295866473 -573645360 -925317948</internalNodes>
      <leafValues>
        -2.9394719004631042e-01 1.2326595932245255e-01</leafValues></_>
    <_>
      <internalNodes>
        0 -1 15741 1979711285 618968429 1993010960 1187390166 1802447654
        1919070203 -1073928670 635285311</internalNodes>
      <leafValues>
        -2.8456538915634155e-01 1.2246862798929214e-01</leafValues></_>
    <_>
      <internalNodes>
        0 -1 23998 -1881176278 1574426623 2147345864 1304747402
        1313022896 96731123 332760826 542424754</internalNodes>
      <leafValues>
        -2.2485017776489258e-01 1.5597483515739441e-01</leafValues></_>
    <_>
      <internalNodes>
        0 -1 1580 -571013537 1793001143 416822638 1351802879 -426656
        -1082232982 -16521 -78448002</internalNodes>
      <leafValues>
        -1.9018910825252533e-01 1.8718987703323364e-01</leafValues></_>
    <_>
      <internalNodes>
        0 -1 3197 -553661698 520715783 2028531199 857929218 -581312836
        -302809875 -1932722984 -281936269</internalNodes>
      <leafValues>
        -1.5129414200782776e-01 2.3103685677051544e-01</leafValues></_>
    <_>
      <internalNodes>
        0 -1 24027 -84686326 485830612 113028794 820312292 -4218100
        1686105960 -1499670082 -385876501</internalNodes>
      <leafValues>
        -1.6268259286880493e-01 2.0083710551261902e-01</leafValues></_>
    <_>
      <internalNodes>
        0 -1 13221 1846210179 -1368740134 -763363566 -388038682
        779182933 -1433337868 1162937458 -21617412</internalNodes>
      <leafValues>
        -2.4337515234947205e-01 1.3534055650234222e-01</leafValues></_>
    <_>
      <internalNodes>
        0 -1 3906 1985540082 853517992 -285446564 -201372113 1601502950
        478017518 1056390636 1825463334</internalNodes>
      <leafValues>
        -2.0503151416778564e-01 1.6737689077854156e-01</leafValues></_>
    <_>
      <internalNodes>
        0 -1 16130 -1942451036 -426099524 -285396079 -44931140
        -1638179080 -838893965 -1238810627 -1074850800</internalNodes>
      <leafValues>
        -1.7655110359191895e-01 1.8604855239391327e-01</leafValues></_>
    <_>
      <internalNodes>
        0 -1 18594 -1402818910 -1495224918 1288104834 1671464448
        225833824 -870666332 1739915268 1081439815</internalNodes>
      <leafValues>
        -3.9165818691253662e-01 8.1958629190921783e-02</leafValues></_>
    <_>
      <internalNodes>
        0 -1 3044 -822104785 149142511 -948011625 1626537790 -27837853
        1450491733 -145260972 -185147532</internalNodes>
      <leafValues>
        -3.0132123827934265e-01 1.0319184511899948e-01</leafValues></_>
    <_>
      <internalNodes>
        0 -1 19055 -533689212 839035767 -33755594 -1080679904 1039075757
        -1166166083 1207768076 216875010</internalNodes>
      <leafValues>
        -2.6390215754508972e-01 1.2771335244178772e-01</leafValues></_>
    <_>
      <internalNodes>
        0 -1 12250 887897778 841919566 -298288827 1626270286 -80434766
        -1183515199 -353421046 734868012</internalNodes>
      <leafValues>
        -2.4364957213401794e-01 1.2469073385000229e-01</leafValues></_>
    <_>
      <internalNodes>
        0 -1 22056 -461063252 -1297941844 -268636486 -1381521366
        205338909 964377517 1089282602 559379235</internalNodes>
      <leafValues>
        -2.1633212268352509e-01 1.4172507822513580e-01</leafValues></_>
    <_>
      <internalNodes>
        0 -1 15570 -466737226 -293721116 -303313162 -289652742 854421492
        -363888650 1896167908 -3529228</internalNodes>
      <leafValues>
        -2.1677732467651367e-01 1.4179460704326630e-01</leafValues></_>
    <_>
      <internalNodes>
        0 -1 20919 -1038770006 281196212 -1426708350 -35992028
        -570481495 229668348 614758412 1355105346</internalNodes>
      <leafValues>
        -2.2264303267002106e-01 1.3603165745735168e-01</leafValues></_>
    <_>
      <internalNodes>
        0 -1 5877 215879287 150611532 -385975937 717906636 1961508704
        -319397674 -809738600 -332375968</internalNodes>
      <leafValues>
        -3.2694491744041443e-01 9.4063416123390198e-02</leafValues></_>
    <_>
      <internalNodes>
        0 -1 1541 1819248947 -260840331 446496508 -1155334337 2030036308
        -571777978 -17708804 -116304269</internalNodes>
      <leafValues>
        -1.6178585588932037e-01 1.9743247330188751e-01</leafValues></_>
    <_>
      <internalNodes>
        0 -1 21360 -89883472 -796729176 -1481642055 -642875654
        -1754224971 -1929678347 1071496959 -1613036312</internalNodes>
      <leafValues>
        -1.3274358212947845e-01 2.3007594048976898e-01</leafValues></_>
    <_>
      <internalNodes>
        0 -1 20039 -1913737946 110798574 -9952480 1081916258 912257200
        1357964913 2011155540 1557736538</internalNodes>
      <leafValues>
        -2.9067590832710266e-01 1.0655979812145233e-01</leafValues></_>
    <_>
      <internalNodes>
        0 -1 1475 1757898663 1532705367 -16782403 1026189135 2121817180
        -1695438852 2113845370 -1440686224</internalNodes>
      <leafValues>
        -2.1087628602981567e-01 1.5243393182754517e-01</leafValues></_>
    <_>
      <internalNodes>
        0 -1 17697 -11552457 -442606738 -151116089 -172112348 -653867011
        -1392981337 74319923 1063998235</internalNodes>
      <leafValues>
        -1.4915806055068970e-01 2.0805579423904419e-01</leafValues></_>
    <_>
      <internalNodes>
        0 -1 55 109719202 573713030 -1675227387 753862162 365410207
        -285351179 132913080 762070190</internalNodes>
      <leafValues>
        -3.8187837600708008e-01 8.0545574426651001e-02</leafValues></_>
    <_>
      <internalNodes>
        0 -1 16444 820241134 318781359 -358423926 -1595906382 1435891124
        558161265 2138527704 1968526599</internalNodes>
      <leafValues>
        -2.4860051274299622e-01 1.2155470997095108e-01</leafValues></_>
    <_>
      <internalNodes>
        0 -1 23740 813633058 -855772715 -104339486 82900740 1283214578
        1350385588 -604303382 1690595890</internalNodes>
      <leafValues>
        -2.4736109375953674e-01 1.2162012606859207e-01</leafValues></_>
    <_>
      <internalNodes>
        0 -1 13398 2104424336 -1314896845 -269533218 -1124583821
        937309828 -134763209 -1073803382 497891214</internalNodes>
      <leafValues>
        -1.8066795170307159e-01 1.7016462981700897e-01</leafValues></_>
    <_>
      <internalNodes>
        0 -1 16291 168165426 -1940248752 -289447821 -132207759 775884625
        1071579004 414451096 -1695013804</internalNodes>
      <leafValues>
        -2.9132813215255737e-01 1.0540554672479630e-01</leafValues></_>
    <_>
      <internalNodes>
        0 -1 14490 452910066 -1141110817 -50692705 1064872959 2086262164
        -50628737 1845414109 -1453236973</internalNodes>
      <leafValues>
        -1.4368362724781036e-01 2.1082706749439240e-01</leafValues></_>
    <_>
      <internalNodes>
        0 -1 5678 2136944004 69689774 -1074094146 -527593994 1962893025
        83230134 1148671252 -847773840</internalNodes>
      <leafValues>
        -2.8830590844154358e-01 1.0383304953575134e-01</leafValues></_>
    <_>
      <internalNodes>
        0 -1 13641 -1359869916 -1111737202 -18926089 -1082782104
        184426429 -221218 452230768 761280576</internalNodes>
      <leafValues>
        -4.2131143808364868e-01 6.7490950226783752e-02</leafValues></_>
    <_>
      <internalNodes>
        0 -1 300 -1442082640 -1903765466 -1543801528 -1179194128
        -1815107656 142602217 -1879902289 1573901486</internalNodes>
      <leafValues>
        -1.8922357261180878e-01 1.6057184338569641e-01</leafValues></_>
    <_>
      <internalNodes>
        0 -1 21572 -714282577 817749951 -549737718 1257963118 1425770913
        368604726 -1526872192 25249642</internalNodes>
      <leafValues>
        -2.0497728884220123e-01 1.4778263866901398e-01</leafValues></_>
    <_>
      <internalNodes>
        0 -1 15360 549393201 -353716360 -69206298 -286344706 -1101193376
        -493227321 373106640 -325127960</internalNodes>
      <leafValues>
        -2.3347409069538116e-01 1.2574750185012817e-01</leafValues></_></weakClassifiers></stage3>
</opencv_storage>
