<?xml version="1.0"?>
<opencv_storage>
<stage0>
  <maxWeakCount>15</maxWeakCount>
  <stageThreshold>-3.1552886962890625e+00</stageThreshold>
  <weakClassifiers>
    <_>
      <internalNodes>
        0 -1 443 -16843012 -17105154 -285672964 -50659330 -131588 -1
        -33620738 -1</internalNodes>
      <leafValues>
        -8.5486501455307007e-01 9.2277429997920990e-02</leafValues></_>
    <_>
      <internalNodes>
        0 -1 3186 -1 -285212673 -16777474 -218431746 -1 -16777345 -65540
        -252248330</internalNodes>
      <leafValues>
        -5.9810948371887207e-01 3.4509739279747009e-01</leafValues></_>
    <_>
      <internalNodes>
        0 -1 8421 -727190528 1110048 -707887804 29753295 -172100192
        1358231024 -810549875 -838860833</internalNodes>
      <leafValues>
        -6.1539494991302490e-01 3.0405971407890320e-01</leafValues></_>
    <_>
      <internalNodes>
        0 -1 15276 136447488 -2102366302 -50429962 -822281092 1043674912
        -1073893921 -21728144 -17005068</internalNodes>
      <leafValues>
        -5.8533400297164917e-01 2.5225293636322021e-01</leafValues></_>
    <_>
      <internalNodes>
        0 -1 43 -2027229278 2797098 -1048798 -1516108512 -269484033
        -271781969 -1073872897 -276332557</internalNodes>
      <leafValues>
        -3.7670591473579407e-01 3.0951341986656189e-01</leafValues></_>
    <_>
      <internalNodes>
        0 -1 7875 -1359008005 -67489793 -186712065 -262505094 -104048816
        -67633899 -214188 -99549328</internalNodes>
      <leafValues>
        -3.6167487502098083e-01 3.1627658009529114e-01</leafValues></_>
    <_>
      <internalNodes>
        0 -1 13430 -50333761 813015999 -1359069694 548703804 -67371718
        -1738686469 -1163261174 146775850</internalNodes>
      <leafValues>
        -3.7172758579254150e-01 2.9769617319107056e-01</leafValues></_>
    <_>
      <internalNodes>
        0 -1 16389 70124036 -1470091600 -184652716 -286494754 243024964
        -1906682625 -806073020 -856112952</internalNodes>
      <leafValues>
        -5.2217757701873779e-01 1.8460814654827118e-01</leafValues></_>
    <_>
      <internalNodes>
        0 -1 17471 -201345049 -2013530141 1641361248 -2014839251
        447082421 1291452361 618075393 1168604439</internalNodes>
      <leafValues>
        -3.3803895115852356e-01 2.7610224485397339e-01</leafValues></_>
    <_>
      <internalNodes>
        0 -1 14163 712835589 -83951626 2129620479 -159449093 906847296
        -822083841 -1586100748 -19081228</internalNodes>
      <leafValues>
        -3.2542592287063599e-01 2.6175341010093689e-01</leafValues></_>
    <_>
      <internalNodes>
        0 -1 7880 1325344767 968829559 -4292611 991993715 1878351828
        -295077 -1077871124 -1154418910</internalNodes>
      <leafValues>
        -2.4852046370506287e-01 3.1784114241600037e-01</leafValues></_>
    <_>
      <internalNodes>
        0 -1 14947 -196806750 1350608804 -1562069388 -1331327235
        -881541697 -1262136074 -1074390850 817701551</internalNodes>
      <leafValues>
        -2.8189909458160400e-01 2.4051862955093384e-01</leafValues></_>
    <_>
      <internalNodes>
        0 -1 16795 180880920 -1396949151 -1073848624 -1124147242
        -1367478860 -20531202 -1476600579 -21484496</internalNodes>
      <leafValues>
        -3.3466237783432007e-01 1.9823509454727173e-01</leafValues></_>
    <_>
      <internalNodes>
        0 -1 20308 -270536793 -2033393950 -1275130080 -437883162
        -419436809 -991564043 1978074887 -1057495325</internalNodes>
      <leafValues>
        -2.7199956774711609e-01 2.4857251346111298e-01</leafValues></_>
    <_>
      <internalNodes>
        0 -1 13085 -1908472013 -1964069638 -268501012 -423849474
        -157864606 -806986890 -201460591 -554674880</internalNodes>
      <leafValues>
        -3.3949887752532959e-01 1.8455328047275543e-01</leafValues></_></weakClassifiers></stage0>
</opencv_storage>
