<?xml version="1.0"?>
<opencv_storage>
<stage5>
  <maxWeakCount>77</maxWeakCount>
  <stageThreshold>-2.5552890300750732e+00</stageThreshold>
  <weakClassifiers>
    <_>
      <internalNodes>
        0 -1 4808 -1 -1 -65537 -1157431457 -1 -1 -327681 -81592326</internalNodes>
      <leafValues>
        -7.1557796001434326e-01 -2.0931980013847351e-01</leafValues></_>
    <_>
      <internalNodes>
        0 -1 15058 1896936432 -247405468 824556337 -168427553 2002059199
        2004219133 -82945 -6481</internalNodes>
      <leafValues>
        -3.8413447141647339e-01 1.8857751786708832e-01</leafValues></_>
    <_>
      <internalNodes>
        0 -1 17 14987006 249360126 -1074036739 -537084290 -285474817
        -131074 -271581185 -4353</internalNodes>
      <leafValues>
        -3.0492791533470154e-01 1.9506321847438812e-01</leafValues></_>
    <_>
      <internalNodes>
        0 -1 19835 -50331905 1524629439 -287363318 1794041838 1455373071
        426605679 805243658 1263503887</internalNodes>
      <leafValues>
        -2.5598880648612976e-01 2.1534062922000885e-01</leafValues></_>
    <_>
      <internalNodes>
        0 -1 7529 -1 -1472807180 -272703748 749390556 -572531475 -69665
        1576943836 -21439288</internalNodes>
      <leafValues>
        -2.8052607178688049e-01 1.9015827775001526e-01</leafValues></_>
    <_>
      <internalNodes>
        0 -1 13595 -173280783 -247796063 -24747 -41115616 -205522963
        -1140854789 2113824142 13394020</internalNodes>
      <leafValues>
        -1.8840914964675903e-01 2.4940516054630280e-01</leafValues></_>
    <_>
      <internalNodes>
        0 -1 21188 1742711723 -1494302802 -962155136 -1346408730
        1132367855 1289092407 1978090834 1165227875</internalNodes>
      <leafValues>
        -2.4528278410434723e-01 1.7749752104282379e-01</leafValues></_>
    <_>
      <internalNodes>
        0 -1 16809 -553756673 -21037129 -229505 -2203649 -8193 -3211393
        -536936961 -4526338</internalNodes>
      <leafValues>
        -1.2470205873250961e-01 3.2936477661132812e-01</leafValues></_>
    <_>
      <internalNodes>
        0 -1 15234 707920177 -1170327066 1824292725 -285450796
        -1698733003 -1107644675 2122088436 -18158852</internalNodes>
      <leafValues>
        -2.4618551135063171e-01 1.4179347455501556e-01</leafValues></_>
    <_>
      <internalNodes>
        0 -1 23343 -202380150 1928490556 551987934 -253638402
        -1093473268 2066583120 -1394807106 -383789825</internalNodes>
      <leafValues>
        -1.5301030874252319e-01 2.1906012296676636e-01</leafValues></_>
    <_>
      <internalNodes>
        0 -1 15512 -1435520030 -1945180562 1291734624 662293200
        -1001915140 212989333 1147621696 23327555</internalNodes>
      <leafValues>
        -3.0178859829902649e-01 1.1101002246141434e-01</leafValues></_>
    <_>
      <internalNodes>
        0 -1 15668 101717089 -33379 -1093894145 -69304331 -1216581699
        -561219713 -1615306307 -1086714312</internalNodes>
      <leafValues>
        -1.7468252778053284e-01 1.8505398929119110e-01</leafValues></_>
    <_>
      <internalNodes>
        0 -1 20406 -527106052 -1671119437 968549438 799277090 1410673913
        -1309650379 1039676842 728977411</internalNodes>
      <leafValues>
        -1.9553494453430176e-01 1.6213209927082062e-01</leafValues></_>
    <_>
      <internalNodes>
        0 -1 10405 -365068481 719282943 -286394373 751726591 -1175486635
        -542 -1366130892 -83970828</internalNodes>
      <leafValues>
        -2.2848181426525116e-01 1.3867670297622681e-01</leafValues></_>
    <_>
      <internalNodes>
        0 -1 2179 239905442 552445102 214040612 736963079 1987375036
        942929912 2145672825 1560237822</internalNodes>
      <leafValues>
        -3.2716202735900879e-01 9.3209750950336456e-02</leafValues></_>
    <_>
      <internalNodes>
        0 -1 9676 1993667326 -98251131 -268939440 -39303033 1599403951
        -566624262 1541349385 1066291705</internalNodes>
      <leafValues>
        -1.7503499984741211e-01 1.8373608589172363e-01</leafValues></_>
    <_>
      <internalNodes>
        0 -1 1435 -346077297 243269431 -671957202 841144943 -50471052
        -1612980379 -10764 -95223960</internalNodes>
      <leafValues>
        -2.1929384768009186e-01 1.3042096793651581e-01</leafValues></_>
    <_>
      <internalNodes>
        0 -1 23931 1609542562 263826738 467939232 -2060667594 1154222500
        1083706603 1401162592 1741147866</internalNodes>
      <leafValues>
        -1.8461279571056366e-01 1.4813208580017090e-01</leafValues></_>
    <_>
      <internalNodes>
        0 -1 14240 -1904520649 -1399937345 -2063828257 -288456870
        787101605 -69572610 1971311956 -85428996</internalNodes>
      <leafValues>
        -2.1795102953910828e-01 1.2655338644981384e-01</leafValues></_>
    <_>
      <internalNodes>
        0 -1 4814 1522515967 1058528947 988462333 1528954471 -54804020
        -850526889 -896603908 -81527689</internalNodes>
      <leafValues>
        -1.0520318150520325e-01 2.7051153779029846e-01</leafValues></_>
    <_>
      <internalNodes>
        0 -1 20213 1079501454 875626262 -2145084887 -196806002
        1338668428 766836603 -306132338 -551525078</internalNodes>
      <leafValues>
        -1.7240248620510101e-01 1.6249187290668488e-01</leafValues></_>
    <_>
      <internalNodes>
        0 -1 96 402106151 150974405 -277983484 1623161422 -454230929
        -168101513 -268984566 -1697054785</internalNodes>
      <leafValues>
        -2.1423810720443726e-01 1.2490779906511307e-01</leafValues></_>
    <_>
      <internalNodes>
        0 -1 13934 -28418955 -1075691781 -285442049 -1610974084
        2112239308 -269520906 -229971 -16902576</internalNodes>
      <leafValues>
        -1.8204216659069061e-01 1.4864136278629303e-01</leafValues></_>
    <_>
      <internalNodes>
        0 -1 21375 -1644102096 -595165841 1069004533 -6441250 769044126
        -71362633 703788987 -1079044674</internalNodes>
      <leafValues>
        -1.1312139034271240e-01 2.4576950073242188e-01</leafValues></_>
    <_>
      <internalNodes>
        0 -1 17597 -187335684 -390742282 1451818609 -194707713
        -523994700 -994777675 271721539 396226599</internalNodes>
      <leafValues>
        -2.1084181964397430e-01 1.2263284623622894e-01</leafValues></_>
    <_>
      <internalNodes>
        0 -1 18120 1309705860 823134961 -3081604 -13360492 1014531513
        -1080573961 2075950206 678912550</internalNodes>
      <leafValues>
        -2.2331605851650238e-01 1.1436147242784500e-01</leafValues></_>
    <_>
      <internalNodes>
        0 -1 3230 -947961117 2145343487 -856366358 846887516 -2269660
        -377790625 -545720426 -79503494</internalNodes>
      <leafValues>
        -1.5650387108325958e-01 1.6283093392848969e-01</leafValues></_>
    <_>
      <internalNodes>
        0 -1 34 42609698 2418222 1878674736 766248448 80331991 268300282
        267708370 1223442548</internalNodes>
      <leafValues>
        -4.1211888194084167e-01 6.1692021787166595e-02</leafValues></_>
    <_>
      <internalNodes>
        0 -1 3904 -30414081 -1276910966 -88846561 -1118750 2009296564
        448786429 934661370 2007889908</internalNodes>
      <leafValues>
        -1.2070110440254211e-01 2.1445286273956299e-01</leafValues></_>
    <_>
      <internalNodes>
        0 -1 912 241608686 8662900 -898091252 12218094 -612510459
        -923402890 -1091969984 -121474876</internalNodes>
      <leafValues>
        -3.5128208994865417e-01 7.6251298189163208e-02</leafValues></_>
    <_>
      <internalNodes>
        0 -1 12099 -2055282954 293726925 -840464594 1145372343 -17990243
        -146931713 -18168 1599470255</internalNodes>
      <leafValues>
        -1.6269250214099884e-01 1.5752434730529785e-01</leafValues></_>
    <_>
      <internalNodes>
        0 -1 18446 -589241666 1955870335 -186645970 -291215782 410475952
        -1657505932 -530250214 937391183</internalNodes>
      <leafValues>
        -1.8338793516159058e-01 1.3547977805137634e-01</leafValues></_>
    <_>
      <internalNodes>
        0 -1 13081 -1162182878 1727836078 -1145278609 -269228433
        -303597724 -189431817 2147430231 226454703</internalNodes>
      <leafValues>
        -2.3651312291622162e-01 1.0933675616979599e-01</leafValues></_>
    <_>
      <internalNodes>
        0 -1 19045 -2044678048 -1195751109 1027239479 -138479317
        2105255716 -1140885573 41546809 -1896988672</internalNodes>
      <leafValues>
        -2.2461265325546265e-01 1.1371473222970963e-01</leafValues></_>
    <_>
      <internalNodes>
        0 -1 24023 67053470 1533524848 1073690474 -1343326462 2061610740
        1156970471 -67780902 1101112311</internalNodes>
      <leafValues>
        -1.7156052589416504e-01 1.4763179421424866e-01</leafValues></_>
    <_>
      <internalNodes>
        0 -1 1630 -364969941 -606120707 -163579649 1370718198 -5883648
        -618824331 2138505078 -13445281</internalNodes>
      <leafValues>
        -1.3876378536224365e-01 1.8763802945613861e-01</leafValues></_>
    <_>
      <internalNodes>
        0 -1 22185 2080432352 -562558072 2138865269 -574462356
        -1776507212 -1936786036 513226234 -1344335703</internalNodes>
      <leafValues>
        -1.2490085512399673e-01 2.0207619667053223e-01</leafValues></_>
    <_>
      <internalNodes>
        0 -1 9270 -633652561 -361278731 -1098975501 -889267218
        -110628781 -1369637139 374748880 -33512612</internalNodes>
      <leafValues>
        -2.0404677093029022e-01 1.2557582557201385e-01</leafValues></_>
    <_>
      <internalNodes>
        0 -1 22714 1129835402 -804131226 -1095342714 -1260370048
        1147053064 83721308 -7942962 827716418</internalNodes>
      <leafValues>
        -1.8967436254024506e-01 1.3168080151081085e-01</leafValues></_>
    <_>
      <internalNodes>
        0 -1 3400 -1397510008 -1433472790 595202178 -545938984
        -1486976582 -476062016 -747444322 1435218172</internalNodes>
      <leafValues>
        -1.7274992167949677e-01 1.4465980231761932e-01</leafValues></_>
    <_>
      <internalNodes>
        0 -1 7878 1816071243 -1145291213 -2187337 993156927 -824418732
        -201697057 1006116196 -1423936208</internalNodes>
      <leafValues>
        -2.1054977178573608e-01 1.1986099183559418e-01</leafValues></_>
    <_>
      <internalNodes>
        0 -1 27038 2012927743 -202379875 2137744109 2145367167
        -100688961 -54738949 -8716289 2078252283</internalNodes>
      <leafValues>
        -8.1791602075099945e-02 3.1039667129516602e-01</leafValues></_>
    <_>
      <internalNodes>
        0 -1 12565 -435507536 -295032264 2099163071 -52437952 1058557929
        268088822 776298712 -1611725616</internalNodes>
      <leafValues>
        -1.5724119544029236e-01 1.6072197258472443e-01</leafValues></_>
    <_>
      <internalNodes>
        0 -1 15087 171582992 -1397855824 1877896788 -55830476 850669073
        733474524 798653642 -1363394283</internalNodes>
      <leafValues>
        -2.6024919748306274e-01 9.6013724803924561e-02</leafValues></_>
    <_>
      <internalNodes>
        0 -1 22793 -1729746134 1744830446 2126502440 -1411600454
        2011993934 82902959 1688729466 1693799559</internalNodes>
      <leafValues>
        -2.0162673294544220e-01 1.2247481942176819e-01</leafValues></_>
    <_>
      <internalNodes>
        0 -1 16800 -53072412 1005515765 -4837571 -1355233421 -520300623
        -579405961 1568427448 -1358224329</internalNodes>
      <leafValues>
        -1.3469423353672028e-01 1.8494829535484314e-01</leafValues></_>
    <_>
      <internalNodes>
        0 -1 16585 2138730425 779025268 -623952164 -419496736 739126611
        -896924713 13194741 -30253640</internalNodes>
      <leafValues>
        -2.0255485177040100e-01 1.2347266077995300e-01</leafValues></_>
    <_>
      <internalNodes>
        0 -1 21498 120549299 23896911 -551605820 -1025503234 -1044442703
        13696567 1568636114 1893711538</internalNodes>
      <leafValues>
        -1.9246041774749756e-01 1.2417478114366531e-01</leafValues></_>
    <_>
      <internalNodes>
        0 -1 20535 -132065536 -103407748 -1074867720 -135369172
        790167193 -1541522444 702100424 -1147468616</internalNodes>
      <leafValues>
        -1.2817072868347168e-01 1.9099704921245575e-01</leafValues></_>
    <_>
      <internalNodes>
        0 -1 756 1593241292 324398827 -1292447906 -1150606458 1995120631
        746520548 -167936007 -165072</internalNodes>
      <leafValues>
        -1.3458271324634552e-01 1.7994256317615509e-01</leafValues></_>
    <_>
      <internalNodes>
        0 -1 14140 -1837650194 891429543 -1091899650 1961157862
        875885804 611636708 1984855918 2096117058</internalNodes>
      <leafValues>
        -2.0527982711791992e-01 1.2091215699911118e-01</leafValues></_>
    <_>
      <internalNodes>
        0 -1 7611 1218637387 46026604 -134220037 10679854 887047989
        1171840501 1558531424 -130488972</internalNodes>
      <leafValues>
        -2.8798222541809082e-01 8.5356675088405609e-02</leafValues></_>
    <_>
      <internalNodes>
        0 -1 2040 -1559310166 -861232510 1060565030 -112728352
        -1616315986 -2065505212 1004860870 1540084925</internalNodes>
      <leafValues>
        -1.6246981918811798e-01 1.5107940137386322e-01</leafValues></_>
    <_>
      <internalNodes>
        0 -1 22577 1150272036 273719159 716256810 339147407 978589869
        -1909178427 985812794 583154714</internalNodes>
      <leafValues>
        -2.2703827917575836e-01 1.0599698126316071e-01</leafValues></_>
    <_>
      <internalNodes>
        0 -1 3261 -926947594 -335027647 1996111710 -1222581718
        -1224793919 -629450874 -662899500 -364810921</internalNodes>
      <leafValues>
        -1.6189193725585938e-01 1.5250352025032043e-01</leafValues></_>
    <_>
      <internalNodes>
        0 -1 17779 -2038775919 -1083555917 -72815105 -1749124684
        -1132564235 -410523859 -1939286051 -1363518190</internalNodes>
      <leafValues>
        -1.8633660674095154e-01 1.3313604891300201e-01</leafValues></_>
    <_>
      <internalNodes>
        0 -1 16072 -1510035678 13823662 -1417490 -521810198 1290183220
        1961914619 -658669516 -1779024301</internalNodes>
      <leafValues>
        -2.7914947271347046e-01 9.0474575757980347e-02</leafValues></_>
    <_>
      <internalNodes>
        0 -1 22731 -1167415136 -1142625566 178972408 -108944384
        669953248 -1720293553 513727994 -1615396609</internalNodes>
      <leafValues>
        -1.2625320255756378e-01 1.9952028989791870e-01</leafValues></_>
    <_>
      <internalNodes>
        0 -1 4860 -1702919825 -52746745 -1398873857 979880446 -587736000
        -1640858092 -336142374 -99424386</internalNodes>
      <leafValues>
        -1.4315174520015717e-01 1.6762503981590271e-01</leafValues></_>
    <_>
      <internalNodes>
        0 -1 17664 799184112 -1369246180 -1879130462 -456622088
        2028995332 -805372307 368072176 -1611779360</internalNodes>
      <leafValues>
        -2.2595211863517761e-01 1.0469026863574982e-01</leafValues></_>
    <_>
      <internalNodes>
        0 -1 21340 -508648144 -95367480 767491752 -25264914 -848055084
        -848511060 -806055430 -1702163302</internalNodes>
      <leafValues>
        -1.2648494541645050e-01 1.8694801628589630e-01</leafValues></_>
    <_>
      <internalNodes>
        0 -1 19654 1272862568 -389100152 930796991 -1620087192
        1413506677 211179440 124002131 360138243</internalNodes>
      <leafValues>
        -2.1252280473709106e-01 1.1627563834190369e-01</leafValues></_>
    <_>
      <internalNodes>
        0 -1 15697 -1316826351 -1157595341 -1107396657 -318964973
        -1343233660 -1753433236 -1107375188 434938119</internalNodes>
      <leafValues>
        -1.6550104320049286e-01 1.4700512588024139e-01</leafValues></_>
    <_>
      <internalNodes>
        0 -1 829 251601743 888470260 -17506372 -48218373 2073467384
        265829878 -656220423 -4623243</internalNodes>
      <leafValues>
        -1.4921373128890991e-01 1.5728171169757843e-01</leafValues></_>
    <_>
      <internalNodes>
        0 -1 10269 1253527859 650031038 -151519235 -185156881 -38191308
        -193036299 -8506155 -159488010</internalNodes>
      <leafValues>
        -1.7857836186885834e-01 1.2929455935955048e-01</leafValues></_>
    <_>
      <internalNodes>
        0 -1 22935 -21110771 -2065764369 -564630878 1090238959
        -1757562608 1736916846 -294691138 2145116106</internalNodes>
      <leafValues>
        -1.4976362884044647e-01 1.5863254666328430e-01</leafValues></_>
    <_>
      <internalNodes>
        0 -1 16084 1412442148 389327413 1849298643 -1376372208
        1249778832 -1382388738 2061135736 508378130</internalNodes>
      <leafValues>
        -2.4811649322509766e-01 9.6083067357540131e-02</leafValues></_>
    <_>
      <internalNodes>
        0 -1 18270 -868833698 321976148 611503894 -1066043468 -582183748
        -1099858476 2129804664 436089408</internalNodes>
      <leafValues>
        -2.0468322932720184e-01 1.1797320097684860e-01</leafValues></_>
    <_>
      <internalNodes>
        0 -1 1445 1340543679 -231671373 -1083520239 -385259785
        -319060804 -1711600516 -1258637064 -1166965165</internalNodes>
      <leafValues>
        -1.2297511100769043e-01 1.9319036602973938e-01</leafValues></_>
    <_>
      <internalNodes>
        0 -1 12055 639805475 686460666 1329522903 -825820988 1877676854
        -1632389264 -413554823 -612205289</internalNodes>
      <leafValues>
        -2.1811652183532715e-01 1.0706953704357147e-01</leafValues></_>
    <_>
      <internalNodes>
        0 -1 26838 -35788305 -80884495 -269820372 -168883717 -1212224289
        1951767671 -427823173 2070937083</internalNodes>
      <leafValues>
        -8.3400681614875793e-02 2.8118243813514709e-01</leafValues></_>
    <_>
      <internalNodes>
        0 -1 10897 615694353 -1220923598 -268974087 -173214139
        -1628605984 -1879458321 -1538382564 100475941</internalNodes>
      <leafValues>
        -1.9861985743045807e-01 1.2159424275159836e-01</leafValues></_>
    <_>
      <internalNodes>
        0 -1 24005 1915398030 692341947 1755762574 -1088172422 685999260
        -151060649 1613910986 227737891</internalNodes>
      <leafValues>
        -1.5427581965923309e-01 1.4883807301521301e-01</leafValues></_>
    <_>
      <internalNodes>
        0 -1 18654 1550319664 -298948760 1784684210 -2100530704
        -49010832 -1343717794 894575972 -1372977392</internalNodes>
      <leafValues>
        -2.6677858829498291e-01 8.6213573813438416e-02</leafValues></_>
    <_>
      <internalNodes>
        0 -1 8542 661708882 552924242 -220045771 -706458385 829797884
        1755233776 536009881 1068496904</internalNodes>
      <leafValues>
        -2.0463174581527710e-01 1.1151348799467087e-01</leafValues></_>
    <_>
      <internalNodes>
        0 -1 20370 -298163156 -1367202014 -50921474 -24846340 1063920756
        698377180 1945612770 -2034354951</internalNodes>
      <leafValues>
        -2.0728665590286255e-01 1.1161661893129349e-01</leafValues></_>
    <_>
      <internalNodes>
        0 -1 19962 1439203456 -144659855 2122279515 -646650692
        2130149309 -1347240660 258246280 1576256514</internalNodes>
      <leafValues>
        -1.5201707184314728e-01 1.5550787746906281e-01</leafValues></_></weakClassifiers></stage5>
</opencv_storage>
