<?xml version="1.0"?>
<opencv_storage>
<stage6>
  <maxWeakCount>92</maxWeakCount>
  <stageThreshold>-2.6894087791442871e+00</stageThreshold>
  <weakClassifiers>
    <_>
      <internalNodes>
        0 -1 14499 -16777217 -513 -1 -65537 -8193 -4194305 -1 -4521985</internalNodes>
      <leafValues>
        -6.7578697204589844e-01 -1.0359504073858261e-01</leafValues></_>
    <_>
      <internalNodes>
        0 -1 13469 2147483647 -75521293 -33610337 990843711 -33607793
        -148009 2143224459 1002373803</internalNodes>
      <leafValues>
        -3.5135784745216370e-01 1.8051114678382874e-01</leafValues></_>
    <_>
      <internalNodes>
        0 -1 6330 -1 -16777217 -33554689 -227868674 -1056769 -1149248673
        -536875012 -25886764</internalNodes>
      <leafValues>
        -2.3472473025321960e-01 2.3739726841449738e-01</leafValues></_>
    <_>
      <internalNodes>
        0 -1 20931 -546965792 -990520842 -400178388 1155523886
        1884602784 1083557567 -228080117 -370147413</internalNodes>
      <leafValues>
        -2.7378386259078979e-01 2.0121066272258759e-01</leafValues></_>
    <_>
      <internalNodes>
        0 -1 42 749643682 145401518 -1880298733 -1897648864 788517887
        -1913987073 2044656639 -823180033</internalNodes>
      <leafValues>
        -3.1323209404945374e-01 1.8553858995437622e-01</leafValues></_>
    <_>
      <internalNodes>
        0 -1 14221 -143198209 -143430785 -288038358 -1743258 1146144228
        -43575980 1450247690 2136294471</internalNodes>
      <leafValues>
        -2.1608239412307739e-01 2.1501086652278900e-01</leafValues></_>
    <_>
      <internalNodes>
        0 -1 4827 -252052498 -287900161 1326354409 -276856897 2065593093
        1417671606 2142986063 2133850975</internalNodes>
      <leafValues>
        -2.2310660779476166e-01 1.7141479253768921e-01</leafValues></_>
    <_>
      <internalNodes>
        0 -1 4883 -428407193 -897353 -19407105 956463487 -17019563
        -299689 -2426500 -80707805</internalNodes>
      <leafValues>
        -2.0737440884113312e-01 1.6445496678352356e-01</leafValues></_>
    <_>
      <internalNodes>
        0 -1 15414 -1343228001 -1387550934 741240510 -1394278682
        -1645218424 -1945585502 1291076608 1279512577</internalNodes>
      <leafValues>
        -2.6261696219444275e-01 1.3777363300323486e-01</leafValues></_>
    <_>
      <internalNodes>
        0 -1 9951 1444409039 923905574 -16904417 1610559105 2121752573
        1039515637 2143256383 935032507</internalNodes>
      <leafValues>
        -1.7201067507266998e-01 1.8708929419517517e-01</leafValues></_>
    <_>
      <internalNodes>
        0 -1 13125 -1363153165 650833875 2147483505 -857160846
        -831539214 -825185288 2003613044 -19991376</internalNodes>
      <leafValues>
        -2.2249713540077209e-01 1.4018793404102325e-01</leafValues></_>
    <_>
      <internalNodes>
        0 -1 2996 -86245650 -1573204562 -1074991121 -272629785
        -1070077964 -189428737 1341019983 1333776159</internalNodes>
      <leafValues>
        -1.8265473842620850e-01 1.7332577705383301e-01</leafValues></_>
    <_>
      <internalNodes>
        0 -1 1611 -360722433 -1077697651 -1364001164 990045995 -26306068
        -67215516 -336405284 -79600639</internalNodes>
      <leafValues>
        -1.3233835995197296e-01 2.3835769295692444e-01</leafValues></_>
    <_>
      <internalNodes>
        0 -1 22156 -67194901 -1930493980 -16785134 -270293394 316837551
        83871717 368317266 1106769587</internalNodes>
      <leafValues>
        -1.8721215426921844e-01 1.6860808432102203e-01</leafValues></_>
    <_>
      <internalNodes>
        0 -1 19211 -663688986 -1321140394 -1461417932 -172970000
        226254013 491880085 641219434 804203598</internalNodes>
      <leafValues>
        -1.9650691747665405e-01 1.5033392608165741e-01</leafValues></_>
    <_>
      <internalNodes>
        0 -1 23373 -572002418 -239079450 749689376 -792008025 1769461516
        879256447 -269505304 -2047346689</internalNodes>
      <leafValues>
        -1.7889831960201263e-01 1.5916565060615540e-01</leafValues></_>
    <_>
      <internalNodes>
        0 -1 13764 -1439659856 -360127768 -805470211 -33784592
        -1145962503 -1343569927 1601205755 -1346698223</internalNodes>
      <leafValues>
        -1.6187880933284760e-01 1.7282366752624512e-01</leafValues></_>
    <_>
      <internalNodes>
        0 -1 15465 -75615305 -293692173 -71565323 -355534090 -1086343433
        -290529476 394262001 -17894160</internalNodes>
      <leafValues>
        -1.6420361399650574e-01 1.6637776792049408e-01</leafValues></_>
    <_>
      <internalNodes>
        0 -1 19822 -158734458 816884535 -1140967538 -523829762
        -432299260 -1242974345 -405996664 -1175733318</internalNodes>
      <leafValues>
        -1.7732976377010345e-01 1.5463216602802277e-01</leafValues></_>
    <_>
      <internalNodes>
        0 -1 9 106564766 1024114292 -505435299 -1282080781 -1350583653
        -1093665066 2147482619 -3158294</internalNodes>
      <leafValues>
        -1.9808202981948853e-01 1.3486598432064056e-01</leafValues></_>
    <_>
      <internalNodes>
        0 -1 10370 1718842203 -17409 -268962305 -155256074 -1887467195
        -8060939 -543116 -17367308</internalNodes>
      <leafValues>
        -1.4900897443294525e-01 1.7264601588249207e-01</leafValues></_>
    <_>
      <internalNodes>
        0 -1 21744 -742659452 -703926626 -1129375715 2146365158
        360150955 216457119 2126629386 1097847040</internalNodes>
      <leafValues>
        -1.5941244363784790e-01 1.6204993426799774e-01</leafValues></_>
    <_>
      <internalNodes>
        0 -1 7417 750411623 -1203851276 2147416959 -1080496516
        -1192972572 -927301722 -38232296 -811023204</internalNodes>
      <leafValues>
        -2.2429850697517395e-01 1.0919000208377838e-01</leafValues></_>
    <_>
      <internalNodes>
        0 -1 2326 -285225222 973074055 -52539557 -103011767 2144303863
        74382246 1979277131 2042654261</internalNodes>
      <leafValues>
        -1.4710840582847595e-01 1.6806913912296295e-01</leafValues></_>
    <_>
      <internalNodes>
        0 -1 18581 -190514188 -722142164 -957976834 -4331865 1414904312
        -105313921 1933731963 1061111123</internalNodes>
      <leafValues>
        -1.3789667189121246e-01 1.7846506834030151e-01</leafValues></_>
    <_>
      <internalNodes>
        0 -1 15193 2050944695 271764450 2063211998 -387664146 1878425596
        -1358979146 -186753892 -321465266</internalNodes>
      <leafValues>
        -1.4719505608081818e-01 1.6723650693893433e-01</leafValues></_>
    <_>
      <internalNodes>
        0 -1 5867 1330490372 203705088 -167907332 -1594381118 1593145268
        80606715 1096221700 -990937397</internalNodes>
      <leafValues>
        -3.0402871966362000e-01 7.9744152724742889e-02</leafValues></_>
    <_>
      <internalNodes>
        0 -1 15318 673122163 -1508447903 2136718170 -287394818
        1056917349 -1344341026 -1191299324 -19999500</internalNodes>
      <leafValues>
        -2.2977462410926819e-01 1.0231164097785950e-01</leafValues></_>
    <_>
      <internalNodes>
        0 -1 22775 -1466001244 -1875868148 804714230 -762569512
        -1079538296 -1338335906 -1007172422 -1883632470</internalNodes>
      <leafValues>
        -1.4449444413185120e-01 1.6929835081100464e-01</leafValues></_>
    <_>
      <internalNodes>
        0 -1 18639 -457376540 -725298520 -269582353 -575227281
        1414849268 -1864974875 -495962830 421482503</internalNodes>
      <leafValues>
        -1.8344815075397491e-01 1.3442768156528473e-01</leafValues></_>
    <_>
      <internalNodes>
        0 -1 27125 1976359911 -35807249 -1144599049 1575737087
        -100929537 2012929011 1867758383 862962939</internalNodes>
      <leafValues>
        -1.0710905492305756e-01 2.2864837944507599e-01</leafValues></_>
    <_>
      <internalNodes>
        0 -1 9360 250562755 -52465761 -232102737 1593503663 -16777916
        -559981758 -294585388 -100630624</internalNodes>
      <leafValues>
        -1.9534777104854584e-01 1.2325824052095413e-01</leafValues></_>
    <_>
      <internalNodes>
        0 -1 21250 -163148800 -226973520 1073457918 -621791912
        -1213845827 -1905108609 -2038497556 -1082457925</internalNodes>
      <leafValues>
        -1.2586411833763123e-01 1.8904647231101990e-01</leafValues></_>
    <_>
      <internalNodes>
        0 -1 18074 -66804056 -1834827861 -1376116172 -168025436
        1610452412 971505663 1525629952 428204045</internalNodes>
      <leafValues>
        -1.8995454907417297e-01 1.2222147732973099e-01</leafValues></_>
    <_>
      <internalNodes>
        0 -1 19097 -1883329242 15257274 393514146 -936596856 494027474
        10569459 2113228414 1414593783</internalNodes>
      <leafValues>
        -2.5675797462463379e-01 9.3545690178871155e-02</leafValues></_>
    <_>
      <internalNodes>
        0 -1 14441 -1939458763 -1080398473 -1633784083 -1726846377
        406598900 -564461604 167550205 -1442837469</internalNodes>
      <leafValues>
        -2.0610855519771576e-01 1.1178889125585556e-01</leafValues></_>
    <_>
      <internalNodes>
        0 -1 2677 1222591562 238136103 576607228 1816177341 2127497316
        225765328 -121752666 -128451040</internalNodes>
      <leafValues>
        -2.4161913990974426e-01 9.5895856618881226e-02</leafValues></_>
    <_>
      <internalNodes>
        0 -1 5330 2062533811 1604906668 1725325079 -36952014 883834609
        1459084509 -2030084289 1978413938</internalNodes>
      <leafValues>
        -1.3552054762840271e-01 1.7570969462394714e-01</leafValues></_>
    <_>
      <internalNodes>
        0 -1 20165 -54927360 -1732190925 -1736442179 -537265218
        -1321294964 410943223 -701990422 -269282459</internalNodes>
      <leafValues>
        -1.1736101657152176e-01 1.9595354795455933e-01</leafValues></_>
    <_>
      <internalNodes>
        0 -1 17514 -86071757 -1531942914 -1124073509 -822821642 -9210
        -1897001277 -605740 -676425482</internalNodes>
      <leafValues>
        -1.5644347667694092e-01 1.5084569156169891e-01</leafValues></_>
    <_>
      <internalNodes>
        0 -1 1850 -1960578902 -932283736 1968161508 -574794264
        -1173245270 -1984506398 -1289889794 1469044879</internalNodes>
      <leafValues>
        -1.4040808379650116e-01 1.6524095833301544e-01</leafValues></_>
    <_>
      <internalNodes>
        0 -1 21230 -235935552 851994870 -1244471772 -39263508 1917975988
        67136278 351790744 -2061277325</internalNodes>
      <leafValues>
        -1.6622322797775269e-01 1.4259178936481476e-01</leafValues></_>
    <_>
      <internalNodes>
        0 -1 14788 1825695540 73029620 -320055514 1726496262 -102023388
        502263794 -370725086 1798909806</internalNodes>
      <leafValues>
        -2.8507989645004272e-01 7.8570507466793060e-02</leafValues></_>
    <_>
      <internalNodes>
        0 -1 15549 -1573674429 -932266908 2094481118 -825321514
        521811957 -1359630497 895547344 -1099410256</internalNodes>
      <leafValues>
        -2.0969192683696747e-01 1.0438098013401031e-01</leafValues></_>
    <_>
      <internalNodes>
        0 -1 22863 402829312 -801314775 -1410375744 -641393736
        -1114000218 -2073938441 936668601 466556078</internalNodes>
      <leafValues>
        -1.4366927742958069e-01 1.5884721279144287e-01</leafValues></_>
    <_>
      <internalNodes>
        0 -1 15661 -1573252080 -27388953 1862000350 301874751 532429300
        -1360323912 -1109107560 -1086846608</internalNodes>
      <leafValues>
        -1.8976205587387085e-01 1.1854381859302521e-01</leafValues></_>
    <_>
      <internalNodes>
        0 -1 21864 1750126278 1347862162 288967 -454759933 2003972280
        687292281 -17565830 2118526214</internalNodes>
      <leafValues>
        -1.8510453402996063e-01 1.2160698324441910e-01</leafValues></_>
    <_>
      <internalNodes>
        0 -1 1617 -1360052700 250541998 -807498944 728341153 -218607196
        -184780091 -1208177664 542610787</internalNodes>
      <leafValues>
        -2.5386124849319458e-01 8.9549705386161804e-02</leafValues></_>
    <_>
      <internalNodes>
        0 -1 6334 -319345109 710901285 -96535845 979531527 -556819116
        -19116170 -2240424 -96407941</internalNodes>
      <leafValues>
        -2.0184533298015594e-01 1.1714802682399750e-01</leafValues></_>
    <_>
      <internalNodes>
        0 -1 9830 888255668 1627090092 -352963324 1978580719 476328316
        -490768804 1591580063 953096074</internalNodes>
      <leafValues>
        -1.9340962171554565e-01 1.1634831130504608e-01</leafValues></_>
    <_>
      <internalNodes>
        0 -1 15712 375850026 3520034 1170483072 1612590664 -5965278
        -63572660 980332706 268732032</internalNodes>
      <leafValues>
        -2.7286460995674133e-01 8.5144162178039551e-02</leafValues></_>
    <_>
      <internalNodes>
        0 -1 10747 144753921 -1627722885 800063195 -274289291 994039477
        -5259521 -1116644067 -1381208449</internalNodes>
      <leafValues>
        -1.5896698832511902e-01 1.4128015935420990e-01</leafValues></_>
    <_>
      <internalNodes>
        0 -1 15151 1493164670 286584599 -89863106 -254476766 -581468172
        567618629 2136341406 -1084981440</internalNodes>
      <leafValues>
        -1.5391193330287933e-01 1.4491574466228485e-01</leafValues></_>
    <_>
      <internalNodes>
        0 -1 669 -623382529 469036789 -151233034 -1281339422 -876888582
        -1947942978 1945788367 -72496212</internalNodes>
      <leafValues>
        -9.7298733890056610e-02 2.2896170616149902e-01</leafValues></_>
    <_>
      <internalNodes>
        0 -1 22627 -352590840 308678243 515537526 -121000972 -453098496
        838138491 -21496134 -270917</internalNodes>
      <leafValues>
        -1.3455249369144440e-01 1.6480554640293121e-01</leafValues></_>
    <_>
      <internalNodes>
        0 -1 9207 -422616465 -893419602 -92603770 142278156 1584864354
        1970589284 -1849163212 -64430128</internalNodes>
      <leafValues>
        -2.3366175591945648e-01 9.5027752220630646e-02</leafValues></_>
    <_>
      <internalNodes>
        0 -1 9190 -1397919457 -1509611024 -16884532 974188084 349444540
        -589596526 5636164 -578728891</internalNodes>
      <leafValues>
        -2.0969423651695251e-01 1.0645698010921478e-01</leafValues></_>
    <_>
      <internalNodes>
        0 -1 8604 1679090934 890364545 -423227524 1273702146 1948286644
        1337442300 1055673864 1073682396</internalNodes>
      <leafValues>
        -1.8230660259723663e-01 1.2331147491931915e-01</leafValues></_>
    <_>
      <internalNodes>
        0 -1 18754 -1009859808 1794741758 -4805536 -1494455308 550781764
        283213385 400967243 905403763</internalNodes>
      <leafValues>
        -2.7874028682708740e-01 8.0049097537994385e-02</leafValues></_>
    <_>
      <internalNodes>
        0 -1 9576 -1507817167 -1431638496 1065049460 -387834272
        -1615259915 -1629706525 788876989 -1898101679</internalNodes>
      <leafValues>
        -2.1857468783855438e-01 9.9783226847648621e-02</leafValues></_>
    <_>
      <internalNodes>
        0 -1 26943 2034890415 -570437737 559603759 577627609 2043018479
        110281310 661602107 391469017</internalNodes>
      <leafValues>
        -1.4683282375335693e-01 1.5542313456535339e-01</leafValues></_>
    <_>
      <internalNodes>
        0 -1 14936 950739648 343944832 1304313460 -174839264 285279221
        -1126761027 2124394315 435962439</internalNodes>
      <leafValues>
        -1.8616393208503723e-01 1.2324097007513046e-01</leafValues></_>
    <_>
      <internalNodes>
        0 -1 9461 719921981 856475364 -1408587990 1659837463 -1317087438
        819846893 -1429327352 988288826</internalNodes>
      <leafValues>
        -2.1191382408142090e-01 1.0665661841630936e-01</leafValues></_>
    <_>
      <internalNodes>
        0 -1 20248 -570431762 1934685287 1143398975 -42599922 1999595404
        -196936752 -632004978 -37269449</internalNodes>
      <leafValues>
        -1.1127597093582153e-01 2.1137116849422455e-01</leafValues></_>
    <_>
      <internalNodes>
        0 -1 18720 237528464 -1362473438 -1163597314 -84124232 774362069
        -1397047504 590632434 -1077398400</internalNodes>
      <leafValues>
        -1.9726969301700592e-01 1.1389952152967453e-01</leafValues></_>
    <_>
      <internalNodes>
        0 -1 23697 -977293913 834219967 -177704998 -1040908830
        1407188373 1375203319 2046480000 1171376110</internalNodes>
      <leafValues>
        -1.4536626636981964e-01 1.4874050021171570e-01</leafValues></_>
    <_>
      <internalNodes>
        0 -1 4920 -491057565 -100705169 -1963213085 1920103903 -84132592
        -59408600 -99549204 -620568717</internalNodes>
      <leafValues>
        -1.4717237651348114e-01 1.5078476071357727e-01</leafValues></_>
    <_>
      <internalNodes>
        0 -1 23415 -355929978 -224350696 -290145494 -209080692
        -1006559078 1140258064 -355482434 -1345625873</internalNodes>
      <leafValues>
        -1.0358694195747375e-01 2.1275976300239563e-01</leafValues></_>
    <_>
      <internalNodes>
        0 -1 18689 1598990012 -2002720730 1434193392 901155546
        1079809340 215661542 85197908 495044103</internalNodes>
      <leafValues>
        -2.2221514582633972e-01 9.7686521708965302e-02</leafValues></_>
    <_>
      <internalNodes>
        0 -1 20515 674520192 -424398726 2144788205 1848386896 904443056
        -1469653121 96114173 -1174929176</internalNodes>
      <leafValues>
        -1.8498492240905762e-01 1.2426738440990448e-01</leafValues></_>
    <_>
      <internalNodes>
        0 -1 6035 1852252879 786673406 921599396 548993714 2129282157
        904879951 1200853972 -18547082</internalNodes>
      <leafValues>
        -2.5825327634811401e-01 8.5894346237182617e-02</leafValues></_>
    <_>
      <internalNodes>
        0 -1 20085 -121977824 -558744149 2062415960 -573243676
        -642387792 -1476985377 -622527013 -341086987</internalNodes>
      <leafValues>
        -1.1090755462646484e-01 1.9820387661457062e-01</leafValues></_>
    <_>
      <internalNodes>
        0 -1 137 75171680 345046740 1868058452 536750806 158203894
        -1134626276 494475077 -1509929760</internalNodes>
      <leafValues>
        -2.5077709555625916e-01 8.7442763149738312e-02</leafValues></_>
    <_>
      <internalNodes>
        0 -1 10379 745536547 -1569294244 -14881729 -222642442 188708756
        936672062 1080820876 1536312320</internalNodes>
      <leafValues>
        -2.2251826524734497e-01 9.6537008881568909e-02</leafValues></_>
    <_>
      <internalNodes>
        0 -1 22707 1789586468 -1197174624 -2046409122 -232655274
        623615488 -1216983321 -185295634 -1581435505</internalNodes>
      <leafValues>
        -1.5798993408679962e-01 1.3890582323074341e-01</leafValues></_>
    <_>
      <internalNodes>
        0 -1 20016 1380297392 -663698520 -935280 -407753212 1289040563
        234284719 1819774474 1586882446</internalNodes>
      <leafValues>
        -1.6013288497924805e-01 1.3996830582618713e-01</leafValues></_>
    <_>
      <internalNodes>
        0 -1 4993 1916162547 -745845617 -1480849801 -144292525 268113855
        -1073741836 1609193052 1305343487</internalNodes>
      <leafValues>
        -1.0344450175762177e-01 2.1399103105068207e-01</leafValues></_>
    <_>
      <internalNodes>
        0 -1 16841 -440663275 -300273697 -137223 -1461278985 -1209346779
        -771895306 -1099104775 -1962075379</internalNodes>
      <leafValues>
        -1.6167707741260529e-01 1.4160847663879395e-01</leafValues></_>
    <_>
      <internalNodes>
        0 -1 22081 1101330820 346086932 -411144683 -39995865 608287208
        -997451548 -1953486354 973036803</internalNodes>
      <leafValues>
        -1.4158228039741516e-01 1.6093011200428009e-01</leafValues></_>
    <_>
      <internalNodes>
        0 -1 22380 -465457660 238354350 -60526992 1687197260 -856450028
        249788198 919532102 1630923559</internalNodes>
      <leafValues>
        -2.3745235800743103e-01 9.7989656031131744e-02</leafValues></_>
    <_>
      <internalNodes>
        0 -1 155 245637770 577151662 1545525780 -978376170 626390716
        -1361053994 508301725 1336808662</internalNodes>
      <leafValues>
        -2.8500068187713623e-01 7.6688125729560852e-02</leafValues></_>
    <_>
      <internalNodes>
        0 -1 3210 -101497749 1207384825 41675498 1918795226 -67705024
        -1420067544 1600913338 -83689522</internalNodes>
      <leafValues>
        -1.4203791320323944e-01 1.5730713307857513e-01</leafValues></_>
    <_>
      <internalNodes>
        0 -1 27025 -677593601 -34607883 -335548437 -8542241 -1097339954
        1943993341 -270205953 401456831</internalNodes>
      <leafValues>
        -8.7542064487934113e-02 2.5751775503158569e-01</leafValues></_>
    <_>
      <internalNodes>
        0 -1 15185 974528564 -1433882784 16651634 -1943512580
        -1425985712 -1847230667 1022623476 -23192112</internalNodes>
      <leafValues>
        -2.4316717684268951e-01 9.1331273317337036e-02</leafValues></_>
    <_>
      <internalNodes>
        0 -1 24058 1609011118 -1820067915 -94027862 -442730912 100138429
        -1808393566 -151135318 7679982</internalNodes>
      <leafValues>
        -1.3719269633293152e-01 1.6294752061367035e-01</leafValues></_>
    <_>
      <internalNodes>
        0 -1 17790 2122724595 -352704559 -587277709 -793055300
        -1848111180 -1344471045 1058931124 -5090972</internalNodes>
      <leafValues>
        -1.7095910012722015e-01 1.3046380877494812e-01</leafValues></_>
    <_>
      <internalNodes>
        0 -1 6829 1600092091 1944052342 -1108042635 2071248590 393262463
        -1105801284 184697979 994002571</internalNodes>
      <leafValues>
        -8.6735136806964874e-02 2.5553971529006958e-01</leafValues></_>
    <_>
      <internalNodes>
        0 -1 11309 -836106976 -458611056 -1276175959 -18055596
        -1624333672 -105467910 1823838397 268387716</internalNodes>
      <leafValues>
        -1.7879886925220490e-01 1.2315767258405685e-01</leafValues></_>
    <_>
      <internalNodes>
        0 -1 17707 -1956312570 74116994 -17548014 -1898394904 -598522571
        83285811 83248480 1098219138</internalNodes>
      <leafValues>
        -3.3970969915390015e-01 6.3029736280441284e-02</leafValues></_>
    <_>
      <internalNodes>
        0 -1 12029 653918329 -587518469 -743047817 -1276747854 -91054236
        -104972688 -2018705684 -1153811496</internalNodes>
      <leafValues>
        -1.5653723478317261e-01 1.4145238697528839e-01</leafValues></_>
    <_>
      <internalNodes>
        0 -1 22200 1889551264 280523815 1071963122 -135348816 255829944
        -1982414855 234759400 -1145105010</internalNodes>
      <leafValues>
        -1.2785872817039490e-01 1.7811208963394165e-01</leafValues></_>
    <_>
      <internalNodes>
        0 -1 14217 -1285782778 738370576 -1427493908 -391583128
        1148493652 -178799360 2121290052 -549191616</internalNodes>
      <leafValues>
        -2.7534839510917664e-01 7.9359993338584900e-02</leafValues></_></weakClassifiers></stage6>
</opencv_storage>
