<?xml version="1.0"?>
<opencv_storage>
<stage7>
  <maxWeakCount>102</maxWeakCount>
  <stageThreshold>-2.5715160369873047e+00</stageThreshold>
  <weakClassifiers>
    <_>
      <internalNodes>
        0 -1 7880 -1 -53441 -1 991058271 -8193 -10497 -1114113
        -1155498141</internalNodes>
      <leafValues>
        -7.0387679338455200e-01 -2.9238760471343994e-01</leafValues></_>
    <_>
      <internalNodes>
        0 -1 15066 -262867984 -254477825 -176818859 -167774209 -10158145
        -168382561 -212993 -17409</internalNodes>
      <leafValues>
        -3.3652919530868530e-01 1.9256687164306641e-01</leafValues></_>
    <_>
      <internalNodes>
        0 -1 4735 -553652225 -293667009 -16842753 -265224450 -538972435
        -87237649 -537133828 -26148868</internalNodes>
      <leafValues>
        -2.7050194144248962e-01 1.8013340234756470e-01</leafValues></_>
    <_>
      <internalNodes>
        0 -1 13794 2035609712 1433789668 -463417007 1436545775
        -246352812 830272880 -135932673 2079317135</internalNodes>
      <leafValues>
        -2.7905160188674927e-01 1.6150008141994476e-01</leafValues></_>
    <_>
      <internalNodes>
        0 -1 21326 1802501027 69769992 1463217282 -818984312 208655743
        68468403 24326451 120542723</internalNodes>
      <leafValues>
        -2.0575471222400665e-01 2.0929981768131256e-01</leafValues></_>
    <_>
      <internalNodes>
        0 -1 92 -223609094 -228164137 -1086968030 -156829761 -33705985
        -69 -1610629121 -8225</internalNodes>
      <leafValues>
        -1.7837806046009064e-01 2.1823181211948395e-01</leafValues></_>
    <_>
      <internalNodes>
        0 -1 17527 -990314770 -775809794 1625321198 -47911314 1347771580
        7634017 -1106162245 2000766479</internalNodes>
      <leafValues>
        -1.8614059686660767e-01 1.7231772840023041e-01</leafValues></_>
    <_>
      <internalNodes>
        0 -1 6116 -629497938 -353702289 1543429999 -269786003 -554041898
        -1069613079 1325326151 1196391311</internalNodes>
      <leafValues>
        -2.3351606726646423e-01 1.3033992052078247e-01</leafValues></_>
    <_>
      <internalNodes>
        0 -1 12862 -16875531 -687931397 -1173505 -22231105 -39956524
        -4097 -1610680836 -83958660</internalNodes>
      <leafValues>
        -1.6908386349678040e-01 1.9514553248882294e-01</leafValues></_>
    <_>
      <internalNodes>
        0 -1 209 170000574 489697124 -1159781377 -1288650027 -4726353
        -17878054 -18896197 -4215061</internalNodes>
      <leafValues>
        -2.1079266071319580e-01 1.4119440317153931e-01</leafValues></_>
    <_>
      <internalNodes>
        0 -1 11725 -419709221 778747135 1874843007 -318833417
        -1073795600 -1260651605 -3156496 -85000268</internalNodes>
      <leafValues>
        -1.9417393207550049e-01 1.5588423609733582e-01</leafValues></_>
    <_>
      <internalNodes>
        0 -1 8301 -570097928 -608966939 -29852073 -7899343 -598651460
        -318963716 1982618716 2108192255</internalNodes>
      <leafValues>
        -1.4059250056743622e-01 2.1422936022281647e-01</leafValues></_>
    <_>
      <internalNodes>
        0 -1 20764 -1048585 195016542 1442354665 -1979711553 -797031184
        1086362803 -1093671 -33554481</internalNodes>
      <leafValues>
        -1.2692336738109589e-01 2.2911471128463745e-01</leafValues></_>
    <_>
      <internalNodes>
        0 -1 12022 1253984213 2120040381 2120187903 977302495 2113690629
        -35003 -553878276 -98503300</internalNodes>
      <leafValues>
        -1.9491371512413025e-01 1.3750384747982025e-01</leafValues></_>
    <_>
      <internalNodes>
        0 -1 19629 -1067189260 -655579772 -8368498 -326176178
        -1329220208 -1865370507 -1353434101 198120719</internalNodes>
      <leafValues>
        -1.7823776602745056e-01 1.4547151327133179e-01</leafValues></_>
    <_>
      <internalNodes>
        0 -1 21360 671097856 -561354720 -420478985 -4427862 -1078941964
        -1930791129 536164088 -1140910952</internalNodes>
      <leafValues>
        -1.5330073237419128e-01 1.6068032383918762e-01</leafValues></_>
    <_>
      <internalNodes>
        0 -1 22663 1917841034 1890843763 611108016 -731447573 1576962060
        2027988820 -1513236566 -1931428061</internalNodes>
      <leafValues>
        -1.7820477485656738e-01 1.3654819130897522e-01</leafValues></_>
    <_>
      <internalNodes>
        0 -1 1550 2120204190 252565418 1587207912 990047777 -728772468
        -992641460 -288015160 1076983575</internalNodes>
      <leafValues>
        -1.8442451953887939e-01 1.2260901182889938e-01</leafValues></_>
    <_>
      <internalNodes>
        0 -1 22020 -903173630 -1540585952 82489014 -252673936 447467021
        708715877 -1094013698 -1950673413</internalNodes>
      <leafValues>
        -1.5376006066799164e-01 1.4632320404052734e-01</leafValues></_>
    <_>
      <internalNodes>
        0 -1 16550 800767795 -1569931642 1073053681 -420943932 796880886
        -1881486979 360592596 -556083720</internalNodes>
      <leafValues>
        -1.8458478152751923e-01 1.2113466113805771e-01</leafValues></_>
    <_>
      <internalNodes>
        0 -1 21231 -463149260 -765690830 493792376 -1650120030
        1551017404 726694708 2004527338 721634819</internalNodes>
      <leafValues>
        -1.6509467363357544e-01 1.3785609602928162e-01</leafValues></_>
    <_>
      <internalNodes>
        0 -1 26968 -69337617 -67391031 -187745844 -671091457 -72089601
        -134641681 -2113 1943881199</internalNodes>
      <leafValues>
        -8.2940541207790375e-02 2.7769240736961365e-01</leafValues></_>
    <_>
      <internalNodes>
        0 -1 677 1324805886 299691757 -25538730 -8845690 1599660020
        754966501 -285779112 -10387758</internalNodes>
      <leafValues>
        -1.4595523476600647e-01 1.6054540872573853e-01</leafValues></_>
    <_>
      <internalNodes>
        0 -1 7694 2147482591 720301527 -290522374 -20522242 1336639103
        -97157145 1165387764 -29886476</internalNodes>
      <leafValues>
        -1.9972136616706848e-01 1.2008454650640488e-01</leafValues></_>
    <_>
      <internalNodes>
        0 -1 14856 -2102872016 -5601344 -579339333 -8592 2132581105
        -1880296006 998807295 -1359014855</internalNodes>
      <leafValues>
        -1.2888976931571960e-01 1.8037900328636169e-01</leafValues></_>
    <_>
      <internalNodes>
        0 -1 3250 -270579461 1923043935 980084601 444234685 -1155518
        -556049307 -539691048 -82641381</internalNodes>
      <leafValues>
        -1.3771088421344757e-01 1.6509534418582916e-01</leafValues></_>
    <_>
      <internalNodes>
        0 -1 23884 265629098 366983163 -67842932 -842776874 1727340515
        73180670 -1261792598 814028786</internalNodes>
      <leafValues>
        -1.7860709130764008e-01 1.2984746694564819e-01</leafValues></_>
    <_>
      <internalNodes>
        0 -1 12716 4254410 831541236 -22090772 -487832036 1962827005
        -1128988682 2146569514 1066157068</internalNodes>
      <leafValues>
        -1.9625680148601532e-01 1.1513557285070419e-01</leafValues></_>
    <_>
      <internalNodes>
        0 -1 14453 -554194386 -2030403878 -805524034 -1414041981
        -858299212 74813397 257360916 71564403</internalNodes>
      <leafValues>
        -2.6918271183967590e-01 8.7029360234737396e-02</leafValues></_>
    <_>
      <internalNodes>
        0 -1 18862 -50335773 292681215 2147467182 -487179266 1425799072
        283635191 -1644167704 -1325428805</internalNodes>
      <leafValues>
        -1.4189352095127106e-01 1.5496408939361572e-01</leafValues></_>
    <_>
      <internalNodes>
        0 -1 1675 208416562 883994324 805240701 -1159660 -536945701
        -296764422 921691515 -1914170256</internalNodes>
      <leafValues>
        -2.3308636248111725e-01 9.3938894569873810e-02</leafValues></_>
    <_>
      <internalNodes>
        0 -1 13330 2063525271 -1074355364 2137685975 891337237
        -155284231 -33716779 1509760735 -1356773033</internalNodes>
      <leafValues>
        -1.0293884575366974e-01 2.1218430995941162e-01</leafValues></_>
    <_>
      <internalNodes>
        0 -1 15413 -2689 -274416450 648541919 -185205046 -379740745
        -860899350 1474126851 1608515159</internalNodes>
      <leafValues>
        -1.2247380614280701e-01 1.8258345127105713e-01</leafValues></_>
    <_>
      <internalNodes>
        0 -1 14682 -1341983838 -475345266 -540033217 2147412518
        -1087699771 -1078018113 267343375 233267270</internalNodes>
      <leafValues>
        -1.6348688304424286e-01 1.3355188071727753e-01</leafValues></_>
    <_>
      <internalNodes>
        0 -1 7236 1853243989 3845253 -16873601 747130163 2146336116
        -1510604808 -68255764 1726622576</internalNodes>
      <leafValues>
        -2.3926185071468353e-01 8.8419094681739807e-02</leafValues></_>
    <_>
      <internalNodes>
        0 -1 21890 -689967956 384238866 -1560487250 -129172827 -1653528
        -1890511327 -17761570 -9711875</internalNodes>
      <leafValues>
        -1.0299012809991837e-01 2.0462478697299957e-01</leafValues></_>
    <_>
      <internalNodes>
        0 -1 20875 -399581056 948085428 1914564128 430204576 -268687968
        548627445 2077574400 29848576</internalNodes>
      <leafValues>
        -2.3079355061054230e-01 9.2263318598270416e-02</leafValues></_>
    <_>
      <internalNodes>
        0 -1 6372 -369129313 -621335461 -1897668886 1918795675
        -1098945260 -222539950 -171384908 -8732814</internalNodes>
      <leafValues>
        -1.4205114543437958e-01 1.4950929582118988e-01</leafValues></_>
    <_>
      <internalNodes>
        0 -1 8096 1315321124 149564002 -287408596 648852686 1542857488
        342508020 -314763776 720732030</internalNodes>
      <leafValues>
        -3.5950389504432678e-01 5.9360817074775696e-02</leafValues></_>
    <_>
      <internalNodes>
        0 -1 570 -886316158 -2037894552 -1362754880 -138027808
        -1280855669 -1027105826 590717886 1405082617</internalNodes>
      <leafValues>
        -1.4394232630729675e-01 1.4637927711009979e-01</leafValues></_>
    <_>
      <internalNodes>
        0 -1 16746 555877028 -328450208 -697319684 1722578134 741807248
        -1900609546 1823634644 -25680776</internalNodes>
      <leafValues>
        -2.4031144380569458e-01 8.7329410016536713e-02</leafValues></_>
    <_>
      <internalNodes>
        0 -1 23315 -740562390 910729085 510569514 -798359818 -33715060
        1867922795 -370606165 -361049397</internalNodes>
      <leafValues>
        -1.1661989241838455e-01 1.8292786180973053e-01</leafValues></_>
    <_>
      <internalNodes>
        0 -1 20316 1593821858 853993378 -2130806552 -17321222 1967198220
        91631206 1819607208 -572034778</internalNodes>
      <leafValues>
        -1.8775196373462677e-01 1.1621066182851791e-01</leafValues></_>
    <_>
      <internalNodes>
        0 -1 2641 337546751 994836439 -1627734020 -1611399958 796392843
        -1915161256 -1666470691 -1615655718</internalNodes>
      <leafValues>
        -1.0361155122518539e-01 2.0395238697528839e-01</leafValues></_>
    <_>
      <internalNodes>
        0 -1 16091 1558956772 353249792 1723006949 -8123296 1072903653
        -1665274305 800869387 426624077</internalNodes>
      <leafValues>
        -1.5178917348384857e-01 1.3608644902706146e-01</leafValues></_>
    <_>
      <internalNodes>
        0 -1 14205 -1594393547 -2039550006 -1383672081 -1907577120
        989806356 -1898124557 2012640612 -700811804</internalNodes>
      <leafValues>
        -2.4001394212245941e-01 8.7441474199295044e-02</leafValues></_>
    <_>
      <internalNodes>
        0 -1 26728 -69641746 -142760359 1046974534 -739378487 -103879953
        1379108699 -1275201809 332398399</internalNodes>
      <leafValues>
        -9.5896497368812561e-02 2.1656091511249542e-01</leafValues></_>
    <_>
      <internalNodes>
        0 -1 22165 1143514784 -660068112 -310925320 -51507988 218951312
        -1658522374 1416642236 -1700068181</internalNodes>
      <leafValues>
        -1.3281750679016113e-01 1.5547989308834076e-01</leafValues></_>
    <_>
      <internalNodes>
        0 -1 18706 1349841440 -2131951938 -557950426 -6361392 273698560
        -1611599112 104072528 1067259451</internalNodes>
      <leafValues>
        -2.0593240857124329e-01 1.0084903985261917e-01</leafValues></_>
    <_>
      <internalNodes>
        0 -1 9324 -2032981889 -890295761 -88133058 1391211731 -270633969
        -578924710 2128016760 -230658240</internalNodes>
      <leafValues>
        -2.0972183346748352e-01 1.0107601433992386e-01</leafValues></_>
    <_>
      <internalNodes>
        0 -1 17730 -627901186 -288477498 788324308 -20021868 -1975607299
        -1342542217 1737512413 -1075182340</internalNodes>
      <leafValues>
        -1.3455520570278168e-01 1.5665307641029358e-01</leafValues></_>
    <_>
      <internalNodes>
        0 -1 22691 1866965678 71626286 -1381728766 -1377725758
        1162239720 1220504245 859041794 1696811554</internalNodes>
      <leafValues>
        -1.8248058855533600e-01 1.1349868029356003e-01</leafValues></_>
    <_>
      <internalNodes>
        0 -1 5086 872283903 -1304429828 -39952811 -1108572598 2134163385
        -589824071 1252318714 1269506042</internalNodes>
      <leafValues>
        -1.1064594984054565e-01 1.8992902338504791e-01</leafValues></_>
    <_>
      <internalNodes>
        0 -1 1750 42643986 -1966987230 1086933138 -782132752 708551598
        204201606 388805599 499901647</internalNodes>
      <leafValues>
        -1.7112714052200317e-01 1.1918497085571289e-01</leafValues></_>
    <_>
      <internalNodes>
        0 -1 10907 1563149363 -106240338 1023343735 -1392810 947868665
        -1114113 216880207 753878375</internalNodes>
      <leafValues>
        -1.2219305336475372e-01 1.6870202124118805e-01</leafValues></_>
    <_>
      <internalNodes>
        0 -1 18890 1819135244 -1963873694 -141590610 -520855826
        2112716096 1962015735 -909742290 -1862534066</internalNodes>
      <leafValues>
        -2.5050702691078186e-01 8.6343012750148773e-02</leafValues></_>
    <_>
      <internalNodes>
        0 -1 23984 -948984318 1363214316 1004558250 18179960 -168460152
        1190275007 -948721106 1619377966</internalNodes>
      <leafValues>
        -1.4954298734664917e-01 1.3876986503601074e-01</leafValues></_>
    <_>
      <internalNodes>
        0 -1 20284 1086775710 1881208758 944830314 -2049169 1281625292
        -109760531 -63619780 2128941622</internalNodes>
      <leafValues>
        -1.6444686055183411e-01 1.2815091013908386e-01</leafValues></_>
    <_>
      <internalNodes>
        0 -1 15685 24865285 -1468245062 1607446417 -2030547009
        -1074798768 -1296375972 -210840487 -851946002</internalNodes>
      <leafValues>
        -1.9546702504158020e-01 1.1117474734783173e-01</leafValues></_>
    <_>
      <internalNodes>
        0 -1 7911 -1429535949 -8766606 1859710579 1400585161 -141925632
        -956731072 -537238236 1060139072</internalNodes>
      <leafValues>
        -1.9570142030715942e-01 1.0637849569320679e-01</leafValues></_>
    <_>
      <internalNodes>
        0 -1 20989 1403957042 397684370 -42029024 -889258022 290933875
        79521015 -45328044 -723124402</internalNodes>
      <leafValues>
        -2.0109018683433533e-01 1.0508412122726440e-01</leafValues></_>
    <_>
      <internalNodes>
        0 -1 18390 640548864 10884656 -21102366 -117701962 1022768132
        384196403 1310354752 -98503600</internalNodes>
      <leafValues>
        -3.0639365315437317e-01 6.4982488751411438e-02</leafValues></_>
    <_>
      <internalNodes>
        0 -1 19056 1983949952 -1303343766 -296687498 -49920481
        1589381102 -1636339715 1341869120 751659066</internalNodes>
      <leafValues>
        -1.9978530704975128e-01 1.0261060297489166e-01</leafValues></_>
    <_>
      <internalNodes>
        0 -1 16055 50307700 -2011174239 1614960804 1217031598 -267012988
        1491963341 800799888 -1846694645</internalNodes>
      <leafValues>
        -2.3096923530101776e-01 8.8985912501811981e-02</leafValues></_>
    <_>
      <internalNodes>
        0 -1 25271 131931917 821481149 -1073875176 1664280963
        -1511137715 14749405 1937732744 1456767364</internalNodes>
      <leafValues>
        -1.8357948958873749e-01 1.1500851064920425e-01</leafValues></_>
    <_>
      <internalNodes>
        0 -1 22862 1845431814 -885293090 -157422016 -1472722792
        -737858068 16163566 -825959173 1083446999</internalNodes>
      <leafValues>
        -1.8727868795394897e-01 1.1049760133028030e-01</leafValues></_>
    <_>
      <internalNodes>
        0 -1 21815 -971576188 -1180528910 549214900 -71434596
        -1199651623 -472552218 972876252 -301612</internalNodes>
      <leafValues>
        -1.0449413210153580e-01 1.9785630702972412e-01</leafValues></_>
    <_>
      <internalNodes>
        0 -1 11991 -1000190369 -1363157025 -120619459 846397182
        -268475371 -760332493 2122055796 -569359310</internalNodes>
      <leafValues>
        -2.2028698027133942e-01 9.7339667379856110e-02</leafValues></_>
    <_>
      <internalNodes>
        0 -1 21065 -31686144 83019795 1985789661 -64001702 -1275171764
        -1359563244 -1098412566 -876379671</internalNodes>
      <leafValues>
        -1.4531490206718445e-01 1.4604656398296356e-01</leafValues></_>
    <_>
      <internalNodes>
        0 -1 27141 -1147797525 -1206408 -337180123 1875639949 364691259
        -759730276 1599458425 434711194</internalNodes>
      <leafValues>
        -1.2778401374816895e-01 1.6609257459640503e-01</leafValues></_>
    <_>
      <internalNodes>
        0 -1 513 251439094 475200246 -1107927568 -33911586 2126819321
        -380175439 2012061156 -1212979579</internalNodes>
      <leafValues>
        -1.9349245727062225e-01 1.0652535408735275e-01</leafValues></_>
    <_>
      <internalNodes>
        0 -1 12520 1824848592 1360393863 -625459874 -11432709 1467240444
        -1128399884 -1231132354 1070226706</internalNodes>
      <leafValues>
        -1.5440985560417175e-01 1.4181628823280334e-01</leafValues></_>
    <_>
      <internalNodes>
        0 -1 14194 -156774634 -1167135315 -286331025 -274290002
        -1084885579 -1279853131 -17360257 2138527001</internalNodes>
      <leafValues>
        -1.2334490567445755e-01 1.6849824786186218e-01</leafValues></_>
    <_>
      <internalNodes>
        0 -1 7650 -355998169 -1359350289 -293876917 -1233232962
        1566432830 1564470864 2000316340 -83952136</internalNodes>
      <leafValues>
        -1.6023311018943787e-01 1.2712608277797699e-01</leafValues></_>
    <_>
      <internalNodes>
        0 -1 19794 279467040 -1661026510 -94441792 929329103 1063757088
        -1461781180 291372505 230701084</internalNodes>
      <leafValues>
        -2.2468020021915436e-01 9.3327611684799194e-02</leafValues></_>
    <_>
      <internalNodes>
        0 -1 11883 -1507068333 -1435537689 1048471123 -98317719 72164697
        -1445528010 1684296790 -537702825</internalNodes>
      <leafValues>
        -1.4734226465225220e-01 1.5395405888557434e-01</leafValues></_>
    <_>
      <internalNodes>
        0 -1 8866 1980212127 1906753534 1850013407 -33620250 -43665537
        -8929680 268371023 -574683054</internalNodes>
      <leafValues>
        -9.8745554685592651e-02 2.0804475247859955e-01</leafValues></_>
    <_>
      <internalNodes>
        0 -1 16582 1741595334 -352518420 -1728123666 -403853388
        1308139349 -1326072431 1594299991 123205255</internalNodes>
      <leafValues>
        -2.5544545054435730e-01 7.9818442463874817e-02</leafValues></_>
    <_>
      <internalNodes>
        0 -1 21390 -658450812 -31275831 -961120263 -1526536 265205695
        -1113594457 645871611 -1079042626</internalNodes>
      <leafValues>
        -9.2888303101062775e-02 2.2556209564208984e-01</leafValues></_>
    <_>
      <internalNodes>
        0 -1 18540 -441830880 -1598509934 -252182812 -17908752
        -818320075 -1429785097 2011535092 -155257396</internalNodes>
      <leafValues>
        -1.8548941612243652e-01 1.1217787116765976e-01</leafValues></_>
    <_>
      <internalNodes>
        0 -1 330 1458556601 1363192496 1860853553 -242415853 -1711671814
        -1913651203 -1343326213 -172461192</internalNodes>
      <leafValues>
        -1.0073272883892059e-01 2.0839516818523407e-01</leafValues></_>
    <_>
      <internalNodes>
        0 -1 1544 636464847 -702472273 -1699816193 -75473165 -868377140
        -901938 -1326661944 -346982106</internalNodes>
      <leafValues>
        -1.1388906091451645e-01 1.7548489570617676e-01</leafValues></_>
    <_>
      <internalNodes>
        0 -1 9989 -357899079 -294719052 -19992093 -26432474 -2051739654
        -1342234919 1809315275 -4237915</internalNodes>
      <leafValues>
        -1.1036091297864914e-01 1.8368682265281677e-01</leafValues></_>
    <_>
      <internalNodes>
        0 -1 27053 -128591702 -1183803 4434956 1157451518 -85458996
        -173950598 -193 358420671</internalNodes>
      <leafValues>
        -1.2352235615253448e-01 1.6475103795528412e-01</leafValues></_>
    <_>
      <internalNodes>
        0 -1 20475 -1205586144 -490076868 -391201852 -152556426
        1060123709 -1833296004 -1645435140 -1158995522</internalNodes>
      <leafValues>
        -1.4791101217269897e-01 1.3627050817012787e-01</leafValues></_>
    <_>
      <internalNodes>
        0 -1 10491 707586097 -2000922650 -1359188380 -1565485972
        1316957092 2146844462 1102976276 1579302912</internalNodes>
      <leafValues>
        -3.1273061037063599e-01 6.4355656504631042e-02</leafValues></_>
    <_>
      <internalNodes>
        0 -1 21351 155854688 6204880 1417449280 -1496404960 876486936
        14845865 259397974 341026707</internalNodes>
      <leafValues>
        -2.6116088032722473e-01 7.7171415090560913e-02</leafValues></_>
    <_>
      <internalNodes>
        0 -1 22100 -461462364 1396735700 979957421 -609420556
        -2048575256 -21086668 -2120221205 -1409605446</internalNodes>
      <leafValues>
        -1.0625336319208145e-01 1.9812074303627014e-01</leafValues></_>
    <_>
      <internalNodes>
        0 -1 19422 245522466 616224426 -1225903434 -21875600 -411429084
        -1443103937 -555846445 -844999594</internalNodes>
      <leafValues>
        -2.1523609757423401e-01 9.5538511872291565e-02</leafValues></_>
    <_>
      <internalNodes>
        0 -1 22513 2061018630 1345578542 1343289897 -114230212 914198205
        469701490 -270564856 1094609158</internalNodes>
      <leafValues>
        -1.6168320178985596e-01 1.2745296955108643e-01</leafValues></_>
    <_>
      <internalNodes>
        0 -1 14634 -446351118 1348839797 1811645020 1956512511
        2054921533 -195297988 -96215 329820831</internalNodes>
      <leafValues>
        -1.5852807462215424e-01 1.2777313590049744e-01</leafValues></_>
    <_>
      <internalNodes>
        0 -1 1530 -1883257617 -832881817 -558962454 1885395566
        -541112238 -691086000 -1091109126 -615317509</internalNodes>
      <leafValues>
        -1.3313482701778412e-01 1.5460608899593353e-01</leafValues></_>
    <_>
      <internalNodes>
        0 -1 6479 572794528 646278658 1548144178 246027814 209466524
        -1091440904 1874329868 209213084</internalNodes>
      <leafValues>
        -3.4573322534561157e-01 5.8145910501480103e-02</leafValues></_>
    <_>
      <internalNodes>
        0 -1 5162 -542654413 1005252558 1056579379 -290554318 559902930
        -786725 1316831869 -589381546</internalNodes>
      <leafValues>
        -1.3065554201602936e-01 1.5290983021259308e-01</leafValues></_>
    <_>
      <internalNodes>
        0 -1 22106 -974266908 -1115234686 -709463507 1437383842
        813607616 -1498368428 -1528501894 831509810</internalNodes>
      <leafValues>
        -1.4385907351970673e-01 1.4266967773437500e-01</leafValues></_>
    <_>
      <internalNodes>
        0 -1 5040 -2098546640 -2111139672 1206682640 -1399717652
        454618812 -1912258352 1131733387 132029884</internalNodes>
      <leafValues>
        -2.3420378565788269e-01 8.8609486818313599e-02</leafValues></_>
    <_>
      <internalNodes>
        0 -1 16180 1823754500 548698092 1647584846 779841063 1382947380
        608640955 1924732200 1136578370</internalNodes>
      <leafValues>
        -3.4174716472625732e-01 5.8916617184877396e-02</leafValues></_>
    <_>
      <internalNodes>
        0 -1 19710 1896355760 -621876752 1130649330 -53922320
        -1129644076 -1640058371 115566579 -1145567812</internalNodes>
      <leafValues>
        -1.4352548122406006e-01 1.4179298281669617e-01</leafValues></_>
    <_>
      <internalNodes>
        0 -1 15595 1210763831 565202455 -299308115 -1145381137
        1559102229 -289984697 1626657908 -5553853</internalNodes>
      <leafValues>
        -1.3374394178390503e-01 1.5547522902488708e-01</leafValues></_>
    <_>
      <internalNodes>
        0 -1 452 -1386568548 1847098950 -1409500680 1493325338
        1573745916 1085098234 1547962620 955843598</internalNodes>
      <leafValues>
        -2.4453280866146088e-01 8.4038682281970978e-02</leafValues></_>
    <_>
      <internalNodes>
        0 -1 16402 1181386862 268550822 -1436242374 -1800094038
        1163732724 347403895 -1382657090 357847303</internalNodes>
      <leafValues>
        -2.2845026850700378e-01 9.2513814568519592e-02</leafValues></_>
    <_>
      <internalNodes>
        0 -1 26440 1862391242 -335588610 1702328992 -621942451
        -140121339 1188605027 1766029122 1395414975</internalNodes>
      <leafValues>
        -1.6738519072532654e-01 1.2301030755043030e-01</leafValues></_></weakClassifiers></stage7>
</opencv_storage>
