<?xml version="1.0"?>
<opencv_storage>
<stage1>
  <maxWeakCount>33</maxWeakCount>
  <stageThreshold>-3.0022189617156982e+00</stageThreshold>
  <weakClassifiers>
    <_>
      <internalNodes>
        0 -1 9298 -1 -1 -1 -65537 -1 -1 -1 -4521986</internalNodes>
      <leafValues>
        -7.3530006408691406e-01 2.5578045845031738e-01</leafValues></_>
    <_>
      <internalNodes>
        0 -1 149 -889524484 -1464795138 -66052 -84345090 -1 -2097153
        -2097153 -1</internalNodes>
      <leafValues>
        -5.7232874631881714e-01 3.0432546138763428e-01</leafValues></_>
    <_>
      <internalNodes>
        0 -1 16119 -168299056 -1059785260 -574620395 1089863639
        -134744079 -184680973 -1 -1</internalNodes>
      <leafValues>
        -4.2434820532798767e-01 3.6121502518653870e-01</leafValues></_>
    <_>
      <internalNodes>
        0 -1 12239 2136338095 1057591055 2137919359 1068435493
        2139074479 -2097153 1068434091 968818719</internalNodes>
      <leafValues>
        -3.1313744187355042e-01 3.1984171271324158e-01</leafValues></_>
    <_>
      <internalNodes>
        0 -1 21 -1398296657 183431151 -2097665 -286327554 1879031807
        -1379926017 -269484033 -855638785</internalNodes>
      <leafValues>
        -2.9573029279708862e-01 3.3007395267486572e-01</leafValues></_>
    <_>
      <internalNodes>
        0 -1 18859 -537919625 225437639 -8646716 1291120558 -1040890272
        1156892149 -858960784 -457179550</internalNodes>
      <leafValues>
        -2.6790344715118408e-01 3.3190348744392395e-01</leafValues></_>
    <_>
      <internalNodes>
        0 -1 14506 788404081 -122881 -1180673 -50446338 -1090617988
        -536949025 -1073938504 -1105187656</internalNodes>
      <leafValues>
        -3.1696462631225586e-01 2.7418479323387146e-01</leafValues></_>
    <_>
      <internalNodes>
        0 -1 13005 -1430831307 -1426182254 1979710973 -285542658
        -1077985488 -1562951698 -134266892 -16976400</internalNodes>
      <leafValues>
        -3.4734150767326355e-01 2.2647692263126373e-01</leafValues></_>
    <_>
      <internalNodes>
        0 -1 17634 -1350845526 -1393644632 -1881727520 -1879195674
        -573243428 -1929581124 -998828976 -973603001</internalNodes>
      <leafValues>
        -3.1478917598724365e-01 2.1787329018115997e-01</leafValues></_>
    <_>
      <internalNodes>
        0 -1 14079 244459089 -1565652070 2079752181 -52531240 1073487204
        -1493245954 -293962820 -17273420</internalNodes>
      <leafValues>
        -3.3464080095291138e-01 1.9537737965583801e-01</leafValues></_>
    <_>
      <internalNodes>
        0 -1 7619 -536870915 -1097810183 -1073811457 993143326
        -822815251 2004352991 -537651716 -1976515436</internalNodes>
      <leafValues>
        -2.9179069399833679e-01 1.9713531434535980e-01</leafValues></_>
    <_>
      <internalNodes>
        0 -1 12117 -218105934 808728563 -1073746524 -2135235798
        -1254296396 -455747651 -34750532 -1258299413</internalNodes>
      <leafValues>
        -2.4952068924903870e-01 2.1816752851009369e-01</leafValues></_>
    <_>
      <internalNodes>
        0 -1 17192 1880139264 1346432772 -530274700 -705574225
        1967439791 1058068342 930028084 1001988151</internalNodes>
      <leafValues>
        -3.3298921585083008e-01 1.6167703270912170e-01</leafValues></_>
    <_>
      <internalNodes>
        0 -1 20989 -2014400734 99004330 -1107351262 -1880690734
        544686129 1169648887 -581993161 1557659599</internalNodes>
      <leafValues>
        -3.1689769029617310e-01 1.6217352449893951e-01</leafValues></_>
    <_>
      <internalNodes>
        0 -1 17802 -823230923 -621013639 -1157705729 -68010000
        -1073958409 -102826053 -8472584 -5571336</internalNodes>
      <leafValues>
        -1.7939403653144836e-01 3.0021163821220398e-01</leafValues></_>
    <_>
      <internalNodes>
        0 -1 15465 720249367 -1368521994 -318821772 -288425218
        -1374280155 -298942634 1467312096 -26733328</internalNodes>
      <leafValues>
        -3.3533814549446106e-01 1.5813173353672028e-01</leafValues></_>
    <_>
      <internalNodes>
        0 -1 125 144715290 842312908 -2697348 -258468 1867513343
        -33558547 919586122 -302431226</internalNodes>
      <leafValues>
        -3.0389624834060669e-01 1.6814558207988739e-01</leafValues></_>
    <_>
      <internalNodes>
        0 -1 6725 -433066317 -1448431702 -805699785 -5755278 -1392542211
        -1627406849 182216447 -842242991</internalNodes>
      <leafValues>
        -2.0738734304904938e-01 2.4068102240562439e-01</leafValues></_>
    <_>
      <internalNodes>
        0 -1 17597 -18481242 -458440787 1940586032 -975044930 1625616820
        13692720 1157313539 1103097191</internalNodes>
      <leafValues>
        -2.9096165299415588e-01 1.6448171436786652e-01</leafValues></_>
    <_>
      <internalNodes>
        0 -1 6372 -54589385 -622100937 -1887445013 2021310463 -193058732
        -501317804 -672333836 -18170006</internalNodes>
      <leafValues>
        -2.1010905504226685e-01 2.3060241341590881e-01</leafValues></_>
    <_>
      <internalNodes>
        0 -1 149 889567491 1463422648 -898501515 131542685 -573202980
        -160628801 -185062952 -386601242</internalNodes>
      <leafValues>
        -1.6880744695663452e-01 2.6726689934730530e-01</leafValues></_>
    <_>
      <internalNodes>
        0 -1 7567 1157525365 245039039 -622849 -1363744586 -671688735
        -327757839 2147378544 -398920624</internalNodes>
      <leafValues>
        -3.1817609071731567e-01 1.3897776603698730e-01</leafValues></_>
    <_>
      <internalNodes>
        0 -1 13559 -58788720 812952413 -939579901 1157507119 -1419043400
        -1331691723 -287631350 196579098</internalNodes>
      <leafValues>
        -2.6096439361572266e-01 1.7669455707073212e-01</leafValues></_>
    <_>
      <internalNodes>
        0 -1 22707 -88683006 1895087268 -822292924 -228018476
        -1343502784 619850821 -153235970 -525126166</internalNodes>
      <leafValues>
        -2.0630368590354919e-01 2.1508444845676422e-01</leafValues></_>
    <_>
      <internalNodes>
        0 -1 1544 1693421303 381242991 -1092440514 721477347 -46358564
        -1619633043 -235340328 -344861581</internalNodes>
      <leafValues>
        -1.9029334187507629e-01 2.3586010932922363e-01</leafValues></_>
    <_>
      <internalNodes>
        0 -1 14030 613943585 -353867778 -621367307 -16844890 1995453440
        -18875659 2013165308 -89212808</internalNodes>
      <leafValues>
        -2.6284852623939514e-01 1.6850481927394867e-01</leafValues></_>
    <_>
      <internalNodes>
        0 -1 20494 -324391422 684375974 -302526968 -308027842 1438035491
        142012385 47584259 1080513795</internalNodes>
      <leafValues>
        -3.6130258440971375e-01 1.1682429164648056e-01</leafValues></_>
    <_>
      <internalNodes>
        0 -1 6983 1447358176 851160741 2129288221 -508622922 2100618685
        -50987782 497841564 1035958204</internalNodes>
      <leafValues>
        -2.3120249807834625e-01 1.8220713734626770e-01</leafValues></_>
    <_>
      <internalNodes>
        0 -1 11725 649803375 -285466388 1241364221 -831587073 1073702244
        -218726469 938832240 -51448664</internalNodes>
      <leafValues>
        -2.6294517517089844e-01 1.6642940044403076e-01</leafValues></_>
    <_>
      <internalNodes>
        0 -1 21202 -1020278876 -123420946 2062821066 -1630411030
        70718972 -1560395819 1442256298 219371011</internalNodes>
      <leafValues>
        -2.2798815369606018e-01 1.8255610764026642e-01</leafValues></_>
    <_>
      <internalNodes>
        0 -1 137 71870240 282111700 -520844 928262860 829226736
        -1401946499 1736138069 1183960080</internalNodes>
      <leafValues>
        -3.7274581193923950e-01 1.0736653208732605e-01</leafValues></_>
    <_>
      <internalNodes>
        0 -1 17640 -1366676428 -521789644 -833001003 -956526612
        -1350890240 -808144190 1071466212 -1090624032</internalNodes>
      <leafValues>
        -2.8770372271537781e-01 1.3769575953483582e-01</leafValues></_>
    <_>
      <internalNodes>
        0 -1 8993 1340575490 648052326 1743544284 15568356 238193844
        -1937965102 1156908368 1145392707</internalNodes>
      <leafValues>
        -4.2444452643394470e-01 9.3448124825954437e-02</leafValues></_></weakClassifiers></stage1>
</opencv_storage>
