<?xml version="1.0"?>
<opencv_storage>
<stage3>
  <maxWeakCount>71</maxWeakCount>
  <stageThreshold>-2.7529377937316895e+00</stageThreshold>
  <weakClassifiers>
    <_>
      <internalNodes>
        0 -1 24741 -1 -1 -1 -3 -1 -1 -3 -8707</internalNodes>
      <leafValues>
        -6.8698805570602417e-01 7.4799239635467529e-02</leafValues></_>
    <_>
      <internalNodes>
        0 -1 16103 -725289732 -706875404 -1000013827 -570949633
        -2143225878 -623583245 -134742021 -1</internalNodes>
      <leafValues>
        -4.4735717773437500e-01 2.4963477253913879e-01</leafValues></_>
    <_>
      <internalNodes>
        0 -1 21542 -562606516 -2621441 -452989236 -1 1826571272 -5311490
        -353989620 -23199874</internalNodes>
      <leafValues>
        -3.4715536236763000e-01 2.1288508176803589e-01</leafValues></_>
    <_>
      <internalNodes>
        0 -1 26368 -4194377 -72155145 -262153 -983054 -268435465
        -5244419 501044724 -572664588</internalNodes>
      <leafValues>
        -2.4818310141563416e-01 2.5765174627304077e-01</leafValues></_>
    <_>
      <internalNodes>
        0 -1 7538 -524530 -11010113 -365519298 546287295 -92967852
        -193612173 -30998929 1887436655</internalNodes>
      <leafValues>
        -2.4246382713317871e-01 2.3655925691127777e-01</leafValues></_>
    <_>
      <internalNodes>
        0 -1 24597 -1967177931 -1427480743 -2097185 -21037206 -184558731
        -4101 -140 -84213772</internalNodes>
      <leafValues>
        -2.8695809841156006e-01 1.6300655901432037e-01</leafValues></_>
    <_>
      <internalNodes>
        0 -1 15779 1356653306 -1646418517 791648957 598682250 -796000837
        -74080577 950352265 1002766891</internalNodes>
      <leafValues>
        -2.1525798738002777e-01 2.2874544560909271e-01</leafValues></_>
    <_>
      <internalNodes>
        0 -1 13839 -991894816 26225282 -1600066272 267849513 1968551349
        2046062580 -236587629 2146372483</internalNodes>
      <leafValues>
        -3.0136665701866150e-01 1.3781519234180450e-01</leafValues></_>
    <_>
      <internalNodes>
        0 -1 26892 -1441812685 -1362186243 -813727779 -268435490
        -1150288401 -1345585735 534757877 -838871811</internalNodes>
      <leafValues>
        -1.7195405066013336e-01 2.3118530213832855e-01</leafValues></_>
    <_>
      <internalNodes>
        0 -1 23367 242880307 719994751 2113863584 -1364267032
        -1124110220 -33785929 -82064 -352649308</internalNodes>
      <leafValues>
        -2.8098183870315552e-01 1.2637345492839813e-01</leafValues></_>
    <_>
      <internalNodes>
        0 -1 13106 -405080092 -795805968 -42205219 636481267 -143132683
        -195756492 -638124097 1333780463</internalNodes>
      <leafValues>
        -1.6324761509895325e-01 2.2771072387695312e-01</leafValues></_>
    <_>
      <internalNodes>
        0 -1 10754 1082097166 -84892504 -1135042 -1895788872 1886740294
        2087760191 476392996 2131881762</internalNodes>
      <leafValues>
        -2.4784857034683228e-01 1.4019612967967987e-01</leafValues></_>
    <_>
      <internalNodes>
        0 -1 23223 -589433056 -1864577036 -1078405580 -1158676750
        1074796210 1741750000 -1078669511 -1078133778</internalNodes>
      <leafValues>
        -2.2305722534656525e-01 1.5696568787097931e-01</leafValues></_>
    <_>
      <internalNodes>
        0 -1 25155 -897897945 217988988 -415562186 822017718 1065297172
        -1615861827 -1078067616 -352395788</internalNodes>
      <leafValues>
        -2.4295656383037567e-01 1.3347685337066650e-01</leafValues></_>
    <_>
      <internalNodes>
        0 -1 20936 1419636608 531660726 -1359114251 799399925 1114919080
        2138340982 -1358985560 551944147</internalNodes>
      <leafValues>
        -2.0804141461849213e-01 1.6016587615013123e-01</leafValues></_>
    <_>
      <internalNodes>
        0 -1 15289 -647495934 1345516706 1575230560 231028260
        -1005081339 28351959 -840566272 15586083</internalNodes>
      <leafValues>
        -2.8283011913299561e-01 1.1386379599571228e-01</leafValues></_>
    <_>
      <internalNodes>
        0 -1 9851 -900305158 -1171227009 -1390348902 -1163096517
        1986494002 -143554781 1863665478 -14699665</internalNodes>
      <leafValues>
        -2.5614067912101746e-01 1.2721681594848633e-01</leafValues></_>
    <_>
      <internalNodes>
        0 -1 25734 740503847 782935912 -714219591 -497353484 -1078067201
        -1678868995 1845360125 -1879292676</internalNodes>
      <leafValues>
        -1.9645167887210846e-01 1.6110792756080627e-01</leafValues></_>
    <_>
      <internalNodes>
        0 -1 6477 -126948698 1356122878 -16784148 -17142564 1156922869
        806725615 -1258334348 -168474633</internalNodes>
      <leafValues>
        -2.2392976284027100e-01 1.3674044609069824e-01</leafValues></_>
    <_>
      <internalNodes>
        0 -1 21434 -38292942 2083188090 -17440783 2141362960 -931195516
        -1472725213 1491943449 134697195</internalNodes>
      <leafValues>
        -1.8164581060409546e-01 1.6972072422504425e-01</leafValues></_>
    <_>
      <internalNodes>
        0 -1 25666 1785723687 14745597 -21766174 682421362 1568651093
        360574959 -201394384 -789196336</internalNodes>
      <leafValues>
        -3.1292697787284851e-01 9.7407981753349304e-02</leafValues></_>
    <_>
      <internalNodes>
        0 -1 19673 -327221484 1376799540 -16912783 589761265 1727995688
        -1135715 775749272 721104042</internalNodes>
      <leafValues>
        -1.9554497301578522e-01 1.5665163099765778e-01</leafValues></_>
    <_>
      <internalNodes>
        0 -1 22683 774505474 783974040 871300976 -1428013064 -1247322524
        -555160197 -1104218976 -1088356752</internalNodes>
      <leafValues>
        -3.0868107080459595e-01 9.7231894731521606e-02</leafValues></_>
    <_>
      <internalNodes>
        0 -1 17191 1423487264 1448618788 -304075148 263044001
        -1066862368 -52908036 -390549496 702947978</internalNodes>
      <leafValues>
        -2.1756805479526520e-01 1.3404449820518494e-01</leafValues></_>
    <_>
      <internalNodes>
        0 -1 26522 -623120889 -209787426 -193828098 2054614880
        2028693070 -1140854924 -1342767398 -85730573</internalNodes>
      <leafValues>
        -1.4710292220115662e-01 1.9537021219730377e-01</leafValues></_>
    <_>
      <internalNodes>
        0 -1 21542 1140822931 1943944963 1731804895 1677623254 -11272319
        862318437 1654482641 -13391915</internalNodes>
      <leafValues>
        -1.2216230481863022e-01 2.2586698830127716e-01</leafValues></_>
    <_>
      <internalNodes>
        0 -1 9196 -273199242 -228970498 -354418777 745373423 -192938076
        -235425035 -270541302 1193273019</internalNodes>
      <leafValues>
        -1.8893980979919434e-01 1.4641714096069336e-01</leafValues></_>
    <_>
      <internalNodes>
        0 -1 22795 587173679 -1637929153 1849262078 2046975954
        -1632686767 -1424509572 -475005104 -1140855692</internalNodes>
      <leafValues>
        -1.8374462425708771e-01 1.5197932720184326e-01</leafValues></_>
    <_>
      <internalNodes>
        0 -1 24399 -1405744107 -1275195437 -93856898 397952507
        -986702244 -1116277185 -1099528484 -1430634793</internalNodes>
      <leafValues>
        -1.7112088203430176e-01 1.5659476816654205e-01</leafValues></_>
    <_>
      <internalNodes>
        0 -1 19169 -51319640 850721203 -1212043894 631274370 1165231492
        1034631142 -1957343864 574975655</internalNodes>
      <leafValues>
        -2.1566200256347656e-01 1.1875175684690475e-01</leafValues></_>
    <_>
      <internalNodes>
        0 -1 10765 -268572885 -806362626 -141042057 -3 502248739
        1601961981 -545483467 -534529</internalNodes>
      <leafValues>
        -1.8014939129352570e-01 1.5191826224327087e-01</leafValues></_>
    <_>
      <internalNodes>
        0 -1 16521 -732565696 824334182 -1442845791 -1313774695
        -1101726288 -1359599651 -354955894 682578155</internalNodes>
      <leafValues>
        -1.5092866122722626e-01 1.7458462715148926e-01</leafValues></_>
    <_>
      <internalNodes>
        0 -1 2419 -922775889 -595902660 -332716291 -1875656741
        -614467623 2080502647 -8668340 -717228038</internalNodes>
      <leafValues>
        -1.3188461959362030e-01 2.0434357225894928e-01</leafValues></_>
    <_>
      <internalNodes>
        0 -1 19394 -390074461 44498937 -1083441168 -111215690 1406485879
        1239868874 -167920144 -257986505</internalNodes>
      <leafValues>
        -2.1677167713642120e-01 1.2195856124162674e-01</leafValues></_>
    <_>
      <internalNodes>
        0 -1 27065 590555953 -50881 -5123 -1118388230 -1082245240
        -1169376516 905727676 855195530</internalNodes>
      <leafValues>
        -2.6180171966552734e-01 9.6553266048431396e-02</leafValues></_>
    <_>
      <internalNodes>
        0 -1 5063 1950658111 1348920927 -69230794 -156048789 627555711
        1748301951 -1376728052 1885388810</internalNodes>
      <leafValues>
        -1.7921474575996399e-01 1.4421264827251434e-01</leafValues></_>
    <_>
      <internalNodes>
        0 -1 26388 -286282974 -2099183826 -1077969136 -297356378
        796901223 204471989 366400993 215799264</internalNodes>
      <leafValues>
        -3.1745296716690063e-01 8.4868937730789185e-02</leafValues></_>
    <_>
      <internalNodes>
        0 -1 20143 1417210274 1554706354 -1360569676 -1075267544
        1090000059 -1763881987 -101296458 62997166</internalNodes>
      <leafValues>
        -1.8733644485473633e-01 1.3849592208862305e-01</leafValues></_>
    <_>
      <internalNodes>
        0 -1 23849 1596975538 1971042150 -1427247180 796385140
        1736263610 1072525175 -270013560 2054551678</internalNodes>
      <leafValues>
        -1.4633756875991821e-01 1.7656570672988892e-01</leafValues></_>
    <_>
      <internalNodes>
        0 -1 22174 -872520779 1908816177 2113911936 67134544 1064166145
        -1358368328 -841229312 146525504</internalNodes>
      <leafValues>
        -2.5615626573562622e-01 1.0534400492906570e-01</leafValues></_>
    <_>
      <internalNodes>
        0 -1 13378 1926940719 174778922 -1111534081 -643150782 627396821
        55901628 1851094437 1080410763</internalNodes>
      <leafValues>
        -1.7402701079845428e-01 1.4379276335239410e-01</leafValues></_>
    <_>
      <internalNodes>
        0 -1 14170 2078735848 494202222 2079272222 -1208494432
        -1453110128 539233414 -562623284 204687951</internalNodes>
      <leafValues>
        -1.6784618794918060e-01 1.4920641481876373e-01</leafValues></_>
    <_>
      <internalNodes>
        0 -1 3565 754853682 117108147 787375013 732914239 1975533360
        281927679 -1422595580 768560662</internalNodes>
      <leafValues>
        -2.9459428787231445e-01 8.4898233413696289e-02</leafValues></_>
    <_>
      <internalNodes>
        0 -1 15798 1993302620 479782460 -1981286516 794832574 1912592136
        -1103173683 753892157 436504418</internalNodes>
      <leafValues>
        -2.1620182693004608e-01 1.1903636902570724e-01</leafValues></_>
    <_>
      <internalNodes>
        0 -1 25620 1612649259 -425824330 -1120993290 -803800065
        -549489356 -1409286155 -1050396 -355808028</internalNodes>
      <leafValues>
        -1.8837495148181915e-01 1.3537493348121643e-01</leafValues></_>
    <_>
      <internalNodes>
        0 -1 21430 -156550159 -138223701 -689964043 -6258753 449261309
        -1129255427 1222465021 -2012210161</internalNodes>
      <leafValues>
        -1.2328184396028519e-01 2.1077245473861694e-01</leafValues></_>
    <_>
      <internalNodes>
        0 -1 18306 -130822880 464463648 -1094754320 -75843648 1987448879
        2111642904 -763521102 -707045446</internalNodes>
      <leafValues>
        -1.4378361403942108e-01 1.7858223617076874e-01</leafValues></_>
    <_>
      <internalNodes>
        0 -1 15905 1936100513 445394555 -281108999 -471023930 -589331019
        -536912401 -1361060404 1615317194</internalNodes>
      <leafValues>
        -1.5237945318222046e-01 1.6782487928867340e-01</leafValues></_>
    <_>
      <internalNodes>
        0 -1 17408 -767302878 172277718 -174994352 -42147920 1394292
        -937203728 -395969199 -1981456532</internalNodes>
      <leafValues>
        -2.0711608231067657e-01 1.1909132450819016e-01</leafValues></_>
    <_>
      <internalNodes>
        0 -1 18295 4822288 273722705 -1432336112 439548554 -1537196878
        -923208480 -1252524788 1066073778</internalNodes>
      <leafValues>
        -2.4302564561367035e-01 1.0145830363035202e-01</leafValues></_>
    <_>
      <internalNodes>
        0 -1 24257 -1609037263 -37553262 721147262 1945042940 -134593032
        1876901790 1593144749 -1505489648</internalNodes>
      <leafValues>
        -2.6175278425216675e-01 9.0497873723506927e-02</leafValues></_>
    <_>
      <internalNodes>
        0 -1 25712 -7896069 -546900166 -2099215 -786768 -1096048213
        -21299203 -1931586145 -855653121</internalNodes>
      <leafValues>
        -8.3838537335395813e-02 2.8983306884765625e-01</leafValues></_>
    <_>
      <internalNodes>
        0 -1 26855 -114299097 -1435866425 -395838624 -225509516
        -1359534575 -2030535790 2003786548 -453253640</internalNodes>
      <leafValues>
        -1.8641331791877747e-01 1.3379193842411041e-01</leafValues></_>
    <_>
      <internalNodes>
        0 -1 13413 679456331 -290805022 -1677807772 -31939015 779291441
        716268916 1582166804 2132882134</internalNodes>
      <leafValues>
        -1.9238306581974030e-01 1.2932711839675903e-01</leafValues></_>
    <_>
      <internalNodes>
        0 -1 14867 1492429226 870628122 -403337591 1823057626 886899863
        1601900538 -60286840 678291531</internalNodes>
      <leafValues>
        -1.8295793235301971e-01 1.3721285760402679e-01</leafValues></_>
    <_>
      <internalNodes>
        0 -1 11241 -227487728 1693460469 804044069 -1355653208 400569970
        -1862863001 -1343341809 1071486694</internalNodes>
      <leafValues>
        -2.2775754332542419e-01 1.0561598092317581e-01</leafValues></_>
    <_>
      <internalNodes>
        0 -1 26597 1852565030 853697711 -1912867168 -1091650886
        1975215459 365264747 -1430424944 1614804471</internalNodes>
      <leafValues>
        -2.6600164175033569e-01 8.9087903499603271e-02</leafValues></_>
    <_>
      <internalNodes>
        0 -1 23583 -2010240480 573109749 535588525 1310342066 -66062380
        -1850754193 1879005168 -1967501140</internalNodes>
      <leafValues>
        -2.2247049212455750e-01 1.0794188827276230e-01</leafValues></_>
    <_>
      <internalNodes>
        0 -1 14079 2091829154 -947192344 1843091232 -36145946 1709094023
        -1134500542 1408677104 2068019158</internalNodes>
      <leafValues>
        -1.6228415071964264e-01 1.4701902866363525e-01</leafValues></_>
    <_>
      <internalNodes>
        0 -1 20671 2078096029 -70177060 -1946292993 1232759551
        2077586306 2120220664 1073667738 1515776656</internalNodes>
      <leafValues>
        -1.3969424366950989e-01 1.7122741043567657e-01</leafValues></_>
    <_>
      <internalNodes>
        0 -1 22285 586231041 -1362307462 1845349053 1073684051
        -1396818827 -1426237659 -1955326190 764985149</internalNodes>
      <leafValues>
        -2.2689150273799896e-01 1.0531672835350037e-01</leafValues></_>
    <_>
      <internalNodes>
        0 -1 9193 1776494120 575054975 -404230546 42763874 879752769
        1698985062 -1359507702 1078719751</internalNodes>
      <leafValues>
        -3.5182532668113708e-01 6.7421503365039825e-02</leafValues></_>
    <_>
      <internalNodes>
        0 -1 26364 -2128622749 -456232540 1826424565 -1150484668
        -8397547 -1982960149 -1644177531 -1782803312</internalNodes>
      <leafValues>
        -1.8947677314281464e-01 1.2793928384780884e-01</leafValues></_>
    <_>
      <internalNodes>
        0 -1 17334 1501386720 420481921 1282585632 1057056763 144241328
        -767508482 -1513840044 795784328</internalNodes>
      <leafValues>
        -1.9180746376514435e-01 1.2644208967685699e-01</leafValues></_>
    <_>
      <internalNodes>
        0 -1 12814 1797162634 354594486 -1427538524 -861673438
        -1040904236 938765789 1834311490 138771523</internalNodes>
      <leafValues>
        -2.1956311166286469e-01 1.0952238738536835e-01</leafValues></_>
    <_>
      <internalNodes>
        0 -1 3634 741811892 339196998 -178193698 489291518 1769289588
        1882478386 -177233288 586541994</internalNodes>
      <leafValues>
        -2.0393021404743195e-01 1.1543998867273331e-01</leafValues></_>
    <_>
      <internalNodes>
        0 -1 22199 -305136329 -39290956 531591157 -1188758590
        -1152935206 -326696970 -637936405 -841090645</internalNodes>
      <leafValues>
        -8.9109875261783600e-02 2.7831107378005981e-01</leafValues></_>
    <_>
      <internalNodes>
        0 -1 16389 -72619902 1806363104 -1217302432 -67295 -327793631
        -536969410 -1277303402 -650680614</internalNodes>
      <leafValues>
        -1.3923746347427368e-01 1.7354482412338257e-01</leafValues></_>
    <_>
      <internalNodes>
        0 -1 24498 -1463134160 -1175580677 -1216430160 -1275285542
        519909744 -1239089282 -1561926992 -1148664583</internalNodes>
      <leafValues>
        -1.8296559154987335e-01 1.3470938801765442e-01</leafValues></_>
    <_>
      <internalNodes>
        0 -1 26507 -67795453 993905754 -1158254855 254795767 -457615943
        1864268853 -1360632296 673441503</internalNodes>
      <leafValues>
        -1.4730206131935120e-01 1.5725679695606232e-01</leafValues></_>
    <_>
      <internalNodes>
        0 -1 17550 -1032532024 -220017490 1677492013 -68000514
        -295131756 -828444905 519869434 -1142226866</internalNodes>
      <leafValues>
        -1.1268272250890732e-01 2.1188290417194366e-01</leafValues></_></weakClassifiers></stage3>
</opencv_storage>
