<?xml version="1.0"?>
<opencv_storage>
<stage2>
  <maxWeakCount>54</maxWeakCount>
  <stageThreshold>-2.8017368316650391e+00</stageThreshold>
  <weakClassifiers>
    <_>
      <internalNodes>
        0 -1 25714 -1 -1 -1 -3 -1 -1 -3 -8707</internalNodes>
      <leafValues>
        -7.1787196397781372e-01 1.3772922754287720e-01</leafValues></_>
    <_>
      <internalNodes>
        0 -1 17249 -1061093640 -791613968 -790823427 -570556481
        -1069486086 -657400072 -3014689 -1048597</internalNodes>
      <leafValues>
        -5.3688645362854004e-01 2.4522629380226135e-01</leafValues></_>
    <_>
      <internalNodes>
        0 -1 23667 -151040499 -2097281 -2363393 -33 -541112316 -129
        -286389236 -3145861</internalNodes>
      <leafValues>
        -3.2988956570625305e-01 2.9948151111602783e-01</leafValues></_>
    <_>
      <internalNodes>
        0 -1 8605 -59311362 -262083034 -1114225 -373 -148373641
        -261030057 -8913113 -161</internalNodes>
      <leafValues>
        -2.6799637079238892e-01 3.0051738023757935e-01</leafValues></_>
    <_>
      <internalNodes>
        0 -1 17914 -2236929 -574755845 -1096810497 1001336511 -822113365
        -5 1052708283 1006571435</internalNodes>
      <leafValues>
        -2.0151492953300476e-01 3.5182082653045654e-01</leafValues></_>
    <_>
      <internalNodes>
        0 -1 26888 -1344290889 -1343230518 -201326601 -3148076
        -1073741901 -287309910 364901877 -570436108</internalNodes>
      <leafValues>
        -1.7318184673786163e-01 3.4071987867355347e-01</leafValues></_>
    <_>
      <internalNodes>
        0 -1 25123 -18571 -17391883 -1573452 -64422160 1740600693
        -18022409 1573277968 -861872976</internalNodes>
      <leafValues>
        -3.4005105495452881e-01 1.6269029676914215e-01</leafValues></_>
    <_>
      <internalNodes>
        0 -1 4999 -495456977 -1599954198 -23138322 -1877833074
        1970630463 873791389 2088086060 -184554545</internalNodes>
      <leafValues>
        -2.3547898232936859e-01 2.3543807864189148e-01</leafValues></_>
    <_>
      <internalNodes>
        0 -1 23580 -1073758415 -1280676944 -1048587 -537067536 218048929
        -1398210591 -1912775171 -1929815895</internalNodes>
      <leafValues>
        -2.0412313938140869e-01 2.5677230954170227e-01</leafValues></_>
    <_>
      <internalNodes>
        0 -1 18148 1557984976 1574301684 1861134644 973004797 1953806240
        2112749567 854011818 1072558571</internalNodes>
      <leafValues>
        -2.3783008754253387e-01 2.1521899104118347e-01</leafValues></_>
    <_>
      <internalNodes>
        0 -1 25110 -1901380075 -1359061974 -1705136331 -285280302
        -1494777998 -386223255 -559600 -17242476</internalNodes>
      <leafValues>
        -2.9873269796371460e-01 1.5756689012050629e-01</leafValues></_>
    <_>
      <internalNodes>
        0 -1 11743 -56348890 913637151 -458266108 539455023 1901485124
        1747998583 -815464950 1078456155</internalNodes>
      <leafValues>
        -3.3570569753646851e-01 1.3580527901649475e-01</leafValues></_>
    <_>
      <internalNodes>
        0 -1 16258 -730468064 1497955560 892384564 1440575140 1080350189
        1962172244 -168312892 -393647990</internalNodes>
      <leafValues>
        -2.2855673730373383e-01 1.9465540349483490e-01</leafValues></_>
    <_>
      <internalNodes>
        0 -1 23475 772933393 -1440862659 -822411284 846751718 -302030988
        -302172811 -67114156 -1163209248</internalNodes>
      <leafValues>
        -2.8151550889015198e-01 1.4410458505153656e-01</leafValues></_>
    <_>
      <internalNodes>
        0 -1 27220 -1413764573 -1502617990 511643825 -840041988
        -1367606281 -1607535254 1440740592 -537934628</internalNodes>
      <leafValues>
        -1.8022231757640839e-01 2.1051470935344696e-01</leafValues></_>
    <_>
      <internalNodes>
        0 -1 23975 -1363267535 -1426424159 -1157738639 -1074478864
        -1080080528 -1084784802 -345647116 -1409353744</internalNodes>
      <leafValues>
        -2.2777126729488373e-01 1.6621139645576477e-01</leafValues></_>
    <_>
      <internalNodes>
        0 -1 12077 -756617993 -91820098 -69275666 -1642802 -716206851
        -168722433 -251667979 -586037</internalNodes>
      <leafValues>
        -1.3801737129688263e-01 2.6887392997741699e-01</leafValues></_>
    <_>
      <internalNodes>
        0 -1 25333 201721616 495984434 -806740716 -1657995820 -369861200
        -458785 -44269848 -474097414</internalNodes>
      <leafValues>
        -2.9573476314544678e-01 1.2069460749626160e-01</leafValues></_>
    <_>
      <internalNodes>
        0 -1 18181 1440087968 366930932 -1344518688 803053777 1083491770
        2146729710 -105104385 686501578</internalNodes>
      <leafValues>
        -2.0205609500408173e-01 1.7233788967132568e-01</leafValues></_>
    <_>
      <internalNodes>
        0 -1 4020 -522793658 -2139902625 -1704154 1319549743 -176718479
        -1305299457 -167772592 -113836205</internalNodes>
      <leafValues>
        -3.1215569376945496e-01 1.1910449713468552e-01</leafValues></_>
    <_>
      <internalNodes>
        0 -1 21445 1048455537 -58720515 -2085 -67200644 -1162279451
        -1074325521 -402720775 -1145564936</internalNodes>
      <leafValues>
        -1.6575351357460022e-01 2.0297011733055115e-01</leafValues></_>
    <_>
      <internalNodes>
        0 -1 22839 -991953998 113047851 -13193296 1625878128 -377495739
        -822611730 -403185788 -990904833</internalNodes>
      <leafValues>
        -2.6629421114921570e-01 1.2404667586088181e-01</leafValues></_>
    <_>
      <internalNodes>
        0 -1 15242 -511715354 867364066 267787524 1308453076 -886763647
        1634140111 -1009423360 140984387</internalNodes>
      <leafValues>
        -2.2673512995243073e-01 1.4924748241901398e-01</leafValues></_>
    <_>
      <internalNodes>
        0 -1 27090 -95746976 -605069448 855539450 -739281551 -205839360
        -590577858 -959007510 -213194274</internalNodes>
      <leafValues>
        -1.6378521919250488e-01 2.0506598055362701e-01</leafValues></_>
    <_>
      <internalNodes>
        0 -1 16092 1884663713 401271028 -1393778251 1663943080
        1093970877 2011529213 -528620888 1643328010</internalNodes>
      <leafValues>
        -1.8996214866638184e-01 1.7329567670822144e-01</leafValues></_>
    <_>
      <internalNodes>
        0 -1 842 1593777325 813690828 -135074818 -139481346 -8915011
        1886752087 1877971720 -167777108</internalNodes>
      <leafValues>
        -1.4886502921581268e-01 2.1997548639774323e-01</leafValues></_>
    <_>
      <internalNodes>
        0 -1 20515 146580608 1912101276 -755310601 -67592263 -1121650160
        -61546531 -1098977324 -1414393604</internalNodes>
      <leafValues>
        -1.9169911742210388e-01 1.7679899930953979e-01</leafValues></_>
    <_>
      <internalNodes>
        0 -1 19943 1477954696 993819933 805300213 595258888 1466770824
        -63341185 732667833 871600091</internalNodes>
      <leafValues>
        -1.9214817881584167e-01 1.7292843759059906e-01</leafValues></_>
    <_>
      <internalNodes>
        0 -1 24450 -1900672987 -721664160 -1074045025 2046474494
        -1401086860 -1728120931 -515047468 -1430767904</internalNodes>
      <leafValues>
        -2.1924556791782379e-01 1.5298062562942505e-01</leafValues></_>
    <_>
      <internalNodes>
        0 -1 10346 -68732641 -59066050 -210830565 40959671 -537528818
        1024780140 1741135152 -165167929</internalNodes>
      <leafValues>
        -1.9898883998394012e-01 1.7107285559177399e-01</leafValues></_>
    <_>
      <internalNodes>
        0 -1 18697 -412614699 -684429520 2141943760 2099312144
        -384360908 -950403087 -578856695 -844630541</internalNodes>
      <leafValues>
        -1.6670079529285431e-01 1.8524751067161560e-01</leafValues></_>
    <_>
      <internalNodes>
        0 -1 26060 -1355285469 204394424 -1352188461 -575095300
        598719411 -1343259017 725603316 -1948332804</internalNodes>
      <leafValues>
        -1.8069981038570404e-01 1.7126159369945526e-01</leafValues></_>
    <_>
      <internalNodes>
        0 -1 17527 2038396266 426834292 133477664 225289096 1149220028
        -2131477011 -459982592 76149931</internalNodes>
      <leafValues>
        -2.2625012695789337e-01 1.4128479361534119e-01</leafValues></_>
    <_>
      <internalNodes>
        0 -1 6826 -119087190 1313285927 652955554 1805985672 1953526644
        57953716 -712788044 770641758</internalNodes>
      <leafValues>
        -2.5464510917663574e-01 1.2218004465103149e-01</leafValues></_>
    <_>
      <internalNodes>
        0 -1 25930 -2066534655 195850212 -1075848784 452902708
        1885215265 2088335182 -216368 -1192691980</internalNodes>
      <leafValues>
        -2.5997287034988403e-01 1.1942659318447113e-01</leafValues></_>
    <_>
      <internalNodes>
        0 -1 3533 -17252545 874899231 -1493175761 -1900911058 392649661
        1962152446 768853612 1424033002</internalNodes>
      <leafValues>
        -1.9515955448150635e-01 1.5778657793998718e-01</leafValues></_>
    <_>
      <internalNodes>
        0 -1 24702 1735383015 78700398 2080370162 211876528 -1210062061
        8319999 -1765805216 83099056</internalNodes>
      <leafValues>
        -3.6382800340652466e-01 8.1715077161788940e-02</leafValues></_>
    <_>
      <internalNodes>
        0 -1 22229 -4824270 -4948176 2145889905 -73213898 -896548919
        -1092092943 -306231093 -929041013</internalNodes>
      <leafValues>
        -1.2558157742023468e-01 2.6152914762496948e-01</leafValues></_>
    <_>
      <internalNodes>
        0 -1 20947 -262642892 1289289695 -1392627828 2043822076
        1366635810 -1628146821 1072160138 -1146817424</internalNodes>
      <leafValues>
        -2.4536383152008057e-01 1.2301093339920044e-01</leafValues></_>
    <_>
      <internalNodes>
        0 -1 23947 -2102879200 1022901370 -1175027996 -1224743427
        -1182988780 -1212188730 -40503628 -1108428848</internalNodes>
      <leafValues>
        -2.1000652015209198e-01 1.4733187854290009e-01</leafValues></_>
    <_>
      <internalNodes>
        0 -1 19699 1793456928 68184804 -1003749584 687946784 1063227152
        -43057406 -1472597120 -1932788013</internalNodes>
      <leafValues>
        -2.3245251178741455e-01 1.3196863234043121e-01</leafValues></_>
    <_>
      <internalNodes>
        0 -1 15366 -338236128 457203666 -143007268 500916926 -1672157792
        1006425013 1484016364 7028891</internalNodes>
      <leafValues>
        -1.9330118596553802e-01 1.5501244366168976e-01</leafValues></_>
    <_>
      <internalNodes>
        0 -1 565 1739728230 653454454 1327419143 1845473269 1626832180
        544656693 2093993828 1090215898</internalNodes>
      <leafValues>
        -3.4741768240928650e-01 8.7438203394412994e-02</leafValues></_>
    <_>
      <internalNodes>
        0 -1 23120 -555891064 1928306559 -1363169675 -395740348
        664645005 2021418775 -1359442296 785411853</internalNodes>
      <leafValues>
        -1.8621627986431122e-01 1.6758769750595093e-01</leafValues></_>
    <_>
      <internalNodes>
        0 -1 20656 79101957 -432091777 -537692195 -273416385 1144878356
        -83927209 -822617035 706081111</internalNodes>
      <leafValues>
        -2.5200724601745605e-01 1.2086587399244308e-01</leafValues></_>
    <_>
      <internalNodes>
        0 -1 25730 1005565715 -1480655406 -1378147340 -805769496
        -270022667 -1362378817 1102927325 -1929395031</internalNodes>
      <leafValues>
        -1.5608853101730347e-01 1.9201132655143738e-01</leafValues></_>
    <_>
      <internalNodes>
        0 -1 13365 -1365119513 -389290050 2079930226 -169899524
        -1342259401 1153260880 -134237213 1467917800</internalNodes>
      <leafValues>
        -1.7485882341861725e-01 1.7372846603393555e-01</leafValues></_>
    <_>
      <internalNodes>
        0 -1 22522 248020624 896202748 -420665935 -1414162795 1156926896
        2104844277 -1399017840 724327998</internalNodes>
      <leafValues>
        -2.5240963697433472e-01 1.1639511585235596e-01</leafValues></_>
    <_>
      <internalNodes>
        0 -1 14985 1898900898 -1624972496 -952785488 -404732324
        2088043732 -1073940525 -989862487 1252219787</internalNodes>
      <leafValues>
        -1.7771539092063904e-01 1.6675350069999695e-01</leafValues></_>
    <_>
      <internalNodes>
        0 -1 16472 1316445440 1613118420 -1092551040 572550850
        -546412976 -1749950470 -278580160 134432578</internalNodes>
      <leafValues>
        -4.2952495813369751e-01 6.8481832742691040e-02</leafValues></_>
    <_>
      <internalNodes>
        0 -1 18504 -290291572 -832168030 -621413088 -100729372
        -1021572080 -1933611012 -757591392 -1308940934</internalNodes>
      <leafValues>
        -1.8845915794372559e-01 1.5538159012794495e-01</leafValues></_>
    <_>
      <internalNodes>
        0 -1 23823 -2000154608 1021464370 -1434704455 947854557
        -1294454972 -63963593 -429740336 -1364575584</internalNodes>
      <leafValues>
        -2.3287777602672577e-01 1.2796607613563538e-01</leafValues></_>
    <_>
      <internalNodes>
        0 -1 27213 -1213338053 -1966151058 937947778 -207242044
        -1500514314 -806356070 1400762865 -603991572</internalNodes>
      <leafValues>
        -1.4324016869068146e-01 2.0032900571823120e-01</leafValues></_>
    <_>
      <internalNodes>
        0 -1 10801 620432173 1824821116 1861191052 -1899229692
        1987262256 2013091829 663426824 844903973</internalNodes>
      <leafValues>
        -3.0391138792037964e-01 9.5315076410770416e-02</leafValues></_></weakClassifiers></stage2>
</opencv_storage>
