<?xml version="1.0"?>
<opencv_storage>
<stage5>
  <maxWeakCount>103</maxWeakCount>
  <stageThreshold>-2.6702835559844971e+00</stageThreshold>
  <weakClassifiers>
    <_>
      <internalNodes>
        0 -1 26377 -1 -1 -1 -1 -1 -2097153 -3 -8707</internalNodes>
      <leafValues>
        -6.9581341743469238e-01 -1.7967781424522400e-01</leafValues></_>
    <_>
      <internalNodes>
        0 -1 16213 1355076828 1440071677 -2064855299 -1 -2134583304
        -1634403084 -184811525 -1057</internalNodes>
      <leafValues>
        -3.8684576749801636e-01 1.7691540718078613e-01</leafValues></_>
    <_>
      <internalNodes>
        0 -1 15443 -1025 -942683569 -268439893 7334635 -3158450
        2117551189 -89677841 1249889999</internalNodes>
      <leafValues>
        -2.1387828886508942e-01 2.5966992974281311e-01</leafValues></_>
    <_>
      <internalNodes>
        0 -1 25542 -11 -589867 -1090589707 -538247184 2142729712
        -5245441 -546255500 -9897904</internalNodes>
      <leafValues>
        -2.9522335529327393e-01 1.7114540934562683e-01</leafValues></_>
    <_>
      <internalNodes>
        0 -1 9450 -2363393 -268441873 -878403031 -269538774 1941487543
        2147307451 -3689721 -280034773</internalNodes>
      <leafValues>
        -1.5330882370471954e-01 2.7044701576232910e-01</leafValues></_>
    <_>
      <internalNodes>
        0 -1 22927 1042218869 -1610694929 -201326603 -8716386
        -1078019137 -344065 -1140884499 -1074133576</internalNodes>
      <leafValues>
        -1.6301205754280090e-01 2.2962500154972076e-01</leafValues></_>
    <_>
      <internalNodes>
        0 -1 20665 1706946081 -2116769 530251711 -8397825 -1110020332
        -444038 -1141703305 -76359298</internalNodes>
      <leafValues>
        -2.3016065359115601e-01 1.5327017009258270e-01</leafValues></_>
    <_>
      <internalNodes>
        0 -1 20976 1292894080 782035868 -1901080860 -1479082031
        1615718287 2129944062 -421097553 719976651</internalNodes>
      <leafValues>
        -2.0962519943714142e-01 1.8179844319820404e-01</leafValues></_>
    <_>
      <internalNodes>
        0 -1 13779 -965536250 1482687492 -63175596 1846823936 1179655263
        -1489996716 -396396161 -67638689</internalNodes>
      <leafValues>
        -1.9620956480503082e-01 1.6219744086265564e-01</leafValues></_>
    <_>
      <internalNodes>
        0 -1 18606 -581895340 896565200 -1216889416 -1178746895
        -881542179 -1087082511 -335574360 -1349817425</internalNodes>
      <leafValues>
        -1.3686718046665192e-01 2.3012769222259521e-01</leafValues></_>
    <_>
      <internalNodes>
        0 -1 24242 -1009795293 -1498482774 -302556815 -30754384
        1237256111 -1360921113 1289352413 -922756901</internalNodes>
      <leafValues>
        -1.4582514762878418e-01 2.0033417642116547e-01</leafValues></_>
    <_>
      <internalNodes>
        0 -1 24095 251603765 712390985 2142371805 984251730 2071336452
        -98819 -50667916 -84226832</internalNodes>
      <leafValues>
        -2.4169434607028961e-01 1.2163826823234558e-01</leafValues></_>
    <_>
      <internalNodes>
        0 -1 15194 -536875196 1395713640 1231376720 -572160924
        -1001020032 -934764826 1616215040 5718096</internalNodes>
      <leafValues>
        -2.3068842291831970e-01 1.2161660939455032e-01</leafValues></_>
    <_>
      <internalNodes>
        0 -1 4531 -1359806996 1890760638 -806486035 1794073319 -35193484
        -206245993 -272630005 1601960751</internalNodes>
      <leafValues>
        -2.0672571659088135e-01 1.3451862335205078e-01</leafValues></_>
    <_>
      <internalNodes>
        0 -1 23415 1856967735 1862100817 -687870344 -1570572164
        -1680003532 -1629672140 -201984496 -82641548</internalNodes>
      <leafValues>
        -2.2006990015506744e-01 1.1716365814208984e-01</leafValues></_>
    <_>
      <internalNodes>
        0 -1 20015 1387058304 312638858 1308083965 778395184 -22657664
        -1671169 -1569027448 575680003</internalNodes>
      <leafValues>
        -2.3413208127021790e-01 1.1815189570188522e-01</leafValues></_>
    <_>
      <internalNodes>
        0 -1 24426 -1398272992 -553908623 -134973537 834235879
        -273110000 -14803075 -18567272 -1431683613</internalNodes>
      <leafValues>
        -1.8342672288417816e-01 1.3688930869102478e-01</leafValues></_>
    <_>
      <internalNodes>
        0 -1 27218 -1280083037 -1364268024 -272780384 -572522544
        -1413513801 788331757 331175393 -973089576</internalNodes>
      <leafValues>
        -1.6572238504886627e-01 1.5074588358402252e-01</leafValues></_>
    <_>
      <internalNodes>
        0 -1 14752 1503440554 -1647204527 -392103751 755215338
        1078305032 1573123577 1298520488 721920939</internalNodes>
      <leafValues>
        -1.8185788393020630e-01 1.3443405926227570e-01</leafValues></_>
    <_>
      <internalNodes>
        0 -1 10652 2046687526 -215580682 -318960414 -1360888267
        2105498948 -936247529 1039813711 1414002223</internalNodes>
      <leafValues>
        -2.2564767301082611e-01 1.0277806967496872e-01</leafValues></_>
    <_>
      <internalNodes>
        0 -1 18702 10519776 2145006207 -4571500 -250627 -1429205808
        -1093258915 -2184532 -1079374085</internalNodes>
      <leafValues>
        -1.2937894463539124e-01 1.7733357846736908e-01</leafValues></_>
    <_>
      <internalNodes>
        0 -1 12757 1114104354 589334528 769943328 -637720536 1417101412
        1962409780 341128528 74806737</internalNodes>
      <leafValues>
        -2.8744819760322571e-01 8.2208499312400818e-02</leafValues></_>
    <_>
      <internalNodes>
        0 -1 27108 -218643445 -103060739 -227082246 1910484923
        -268574400 -10716034 -217645400 -214180353</internalNodes>
      <leafValues>
        -1.0572487115859985e-01 2.1275621652603149e-01</leafValues></_>
    <_>
      <internalNodes>
        0 -1 22020 -487906267 -1976148118 -2517018 -17418306 1467966578
        -637864577 -1090634652 -1205671312</internalNodes>
      <leafValues>
        -2.0417925715446472e-01 1.0663704574108124e-01</leafValues></_>
    <_>
      <internalNodes>
        0 -1 25300 575480880 2138799379 -1363345539 899395043 1945974944
        -176934916 749628984 699211578</internalNodes>
      <leafValues>
        -2.7220514416694641e-01 7.9896323382854462e-02</leafValues></_>
    <_>
      <internalNodes>
        0 -1 17521 -546903680 48265787 2008062624 234739380 1211709780
        -1730593547 -42342384 144655915</internalNodes>
      <leafValues>
        -2.1563316881656647e-01 1.0142195224761963e-01</leafValues></_>
    <_>
      <internalNodes>
        0 -1 26390 -1367425789 -1365052362 -285985264 -1737461776
        -1342636361 -1429302420 -1091584617 -1933785860</internalNodes>
      <leafValues>
        -1.7461819946765900e-01 1.2611408531665802e-01</leafValues></_>
    <_>
      <internalNodes>
        0 -1 18848 1507799738 1576017780 -269942796 1571062768
        2135501312 -705363978 -1612713082 1503235553</internalNodes>
      <leafValues>
        -1.6839578747749329e-01 1.2524503469467163e-01</leafValues></_>
    <_>
      <internalNodes>
        0 -1 18275 1950344096 1065547554 -983039568 636876738 1148548797
        2086751718 -319684915 1255165160</internalNodes>
      <leafValues>
        -1.7686842381954193e-01 1.2472638487815857e-01</leafValues></_>
    <_>
      <internalNodes>
        0 -1 25995 -16781529 116354683 -16780300 148045386 1606907255
        779090935 -641731388 -251658512</internalNodes>
      <leafValues>
        -2.1813586354255676e-01 9.7178041934967041e-02</leafValues></_>
    <_>
      <internalNodes>
        0 -1 21359 799747994 -1711210506 -552911623 2099260384 -26267440
        -1167155293 -842049253 -839531053</internalNodes>
      <leafValues>
        -1.3406860828399658e-01 1.6200096905231476e-01</leafValues></_>
    <_>
      <internalNodes>
        0 -1 18659 -934218504 -87004399 -1654669383 -1398692097
        -59582575 -395302587 -562037078 732631003</internalNodes>
      <leafValues>
        -1.3479089736938477e-01 1.5474578738212585e-01</leafValues></_>
    <_>
      <internalNodes>
        0 -1 24604 -1621098635 -743019164 -1242043147 1657528264
        805260599 -644636 -252184992 -1465191500</internalNodes>
      <leafValues>
        -1.7733004689216614e-01 1.2270984798669815e-01</leafValues></_>
    <_>
      <internalNodes>
        0 -1 20670 1392315576 2035706829 782757565 724667120 2010977194
        2012560884 733990669 2088308162</internalNodes>
      <leafValues>
        -1.7408671975135803e-01 1.1918755620718002e-01</leafValues></_>
    <_>
      <internalNodes>
        0 -1 557 1457258308 -1124915913 1739567074 -392220995
        -1317576112 -1338028357 -1086458828 989726587</internalNodes>
      <leafValues>
        -2.0451918244361877e-01 1.0142529755830765e-01</leafValues></_>
    <_>
      <internalNodes>
        0 -1 4989 745907995 376842995 -1108934849 1040252812 1700116389
        2119516005 1969550137 926278438</internalNodes>
      <leafValues>
        -1.7387382686138153e-01 1.1909591406583786e-01</leafValues></_>
    <_>
      <internalNodes>
        0 -1 17664 1152044032 -587577136 -1209276815 -4351492
        -2095935504 -312180955 -1346437186 -1141177922</internalNodes>
      <leafValues>
        -1.0515375435352325e-01 2.0170508325099945e-01</leafValues></_>
    <_>
      <internalNodes>
        0 -1 24969 -2001566672 1055361653 -330101838 -1847172169
        -1359034780 -974140264 -566560540 -1373978884</internalNodes>
      <leafValues>
        -1.6582977771759033e-01 1.1945787072181702e-01</leafValues></_>
    <_>
      <internalNodes>
        0 -1 1470 1071032559 -545305107 1869539021 1490009079 -201334113
        -280101258 -749281353 794600172</internalNodes>
      <leafValues>
        -1.3091890513896942e-01 1.5273870527744293e-01</leafValues></_>
    <_>
      <internalNodes>
        0 -1 18468 -352883680 -1905343030 -1258900144 -110445072
        552879124 1296463385 -442202352 -1569498031</internalNodes>
      <leafValues>
        -2.1122610569000244e-01 9.4969518482685089e-02</leafValues></_>
    <_>
      <internalNodes>
        0 -1 18691 -606897871 -783360006 795834141 -1450841293
        -549456333 -29950050 -16781398 262897595</internalNodes>
      <leafValues>
        -1.0057531297206879e-01 1.9227060675621033e-01</leafValues></_>
    <_>
      <internalNodes>
        0 -1 22875 -1560772096 1243626908 -2063663110 2020765648
        -1426744832 -499730444 213557056 -1461188472</internalNodes>
      <leafValues>
        -2.2253280878067017e-01 8.8763743638992310e-02</leafValues></_>
    <_>
      <internalNodes>
        0 -1 24694 -1374737605 -335107293 2143149493 -2130679135
        -1359250587 -1350533123 219927753 -641148744</internalNodes>
      <leafValues>
        -1.5304650366306305e-01 1.2525463104248047e-01</leafValues></_>
    <_>
      <internalNodes>
        0 -1 17730 -924545900 -671318413 -1634918698 2134351837
        -446591276 -184625187 -194531620 -1346408485</internalNodes>
      <leafValues>
        -8.9857652783393860e-02 2.1458682417869568e-01</leafValues></_>
    <_>
      <internalNodes>
        0 -1 7941 1724345231 1689950713 946826898 2145832110 617049983
        1131343837 1941410817 1369812797</internalNodes>
      <leafValues>
        -1.8393196165561676e-01 1.0571588575839996e-01</leafValues></_>
    <_>
      <internalNodes>
        0 -1 17414 -352321758 149486326 -1151500480 -1443430690 66809279
        838612980 -134359628 -531852033</internalNodes>
      <leafValues>
        -1.9362378120422363e-01 9.9392727017402649e-02</leafValues></_>
    <_>
      <internalNodes>
        0 -1 21735 -257896960 -101532236 -1166115093 -1075011593
        -1114075439 -101155084 -127737958 -1432722965</internalNodes>
      <leafValues>
        -1.0773093998432159e-01 1.7946483194828033e-01</leafValues></_>
    <_>
      <internalNodes>
        0 -1 11746 -51957962 -227234051 -806682827 -282103745 -744112922
        -1514871106 2145255080 730856431</internalNodes>
      <leafValues>
        -1.0732645541429520e-01 1.7649456858634949e-01</leafValues></_>
    <_>
      <internalNodes>
        0 -1 3620 1688578095 839188256 -1644205394 -1162554142
        1962303342 1913946978 1845322600 610541068</internalNodes>
      <leafValues>
        -2.1284340322017670e-01 8.8510461151599884e-02</leafValues></_>
    <_>
      <internalNodes>
        0 -1 22968 2027146975 1441955580 780140539 -244678683 -4743799
        -206045194 -1501053794 -1303250153</internalNodes>
      <leafValues>
        -8.3965398371219635e-02 2.2468847036361694e-01</leafValues></_>
    <_>
      <internalNodes>
        0 -1 16910 -1359075801 -1906116099 -1409286277 1870506838
        -277402345 1138973662 -2022148233 -1971792715</internalNodes>
      <leafValues>
        -1.8951927125453949e-01 1.0396496206521988e-01</leafValues></_>
    <_>
      <internalNodes>
        0 -1 26006 2015866484 -1501712970 -307155904 819261284 326844453
        1987802599 -942574272 -2130911776</internalNodes>
      <leafValues>
        -2.7365714311599731e-01 6.8756796419620514e-02</leafValues></_>
    <_>
      <internalNodes>
        0 -1 11596 1870375086 1946054438 1408187212 934791846 1164242909
        2096495461 1867857738 1158798426</internalNodes>
      <leafValues>
        -1.3342554867267609e-01 1.4455145597457886e-01</leafValues></_>
    <_>
      <internalNodes>
        0 -1 27060 -1938817018 -1440268 274148066 1398436734 2069771328
        -1845200316 -1706435633 1931636538</internalNodes>
      <leafValues>
        -1.8290774524211884e-01 1.0742802917957306e-01</leafValues></_>
    <_>
      <internalNodes>
        0 -1 21973 1541389303 536529918 -1091110956 729661280 1413825023
        -596969482 -1326076463 -2135298086</internalNodes>
      <leafValues>
        -1.1023389548063278e-01 1.7672051489353180e-01</leafValues></_>
    <_>
      <internalNodes>
        0 -1 16126 1649411076 9760560 -1479237836 805059847 -1487527680
        1995767159 329657114 720239390</internalNodes>
      <leafValues>
        -3.2565099000930786e-01 5.9813778847455978e-02</leafValues></_>
    <_>
      <internalNodes>
        0 -1 19560 -836719488 -219251615 1795084694 -237043718
        -562427564 -1116586411 -1082639416 -1280596726</internalNodes>
      <leafValues>
        -1.2479674071073532e-01 1.5572097897529602e-01</leafValues></_>
    <_>
      <internalNodes>
        0 -1 27222 767141939 -1968644448 -103286918 540979836 1065237871
        -1903263889 1396519063 208657596</internalNodes>
      <leafValues>
        -2.0088304579257965e-01 9.7538240253925323e-02</leafValues></_>
    <_>
      <internalNodes>
        0 -1 17972 1925662832 715286330 -1379938345 732330542 -300972667
        2147450827 -1429959931 845376493</internalNodes>
      <leafValues>
        -1.7822243273258209e-01 1.1104056239128113e-01</leafValues></_>
    <_>
      <internalNodes>
        0 -1 16299 1343218818 501411756 272726240 -34739989 1349735088
        1480949509 -247080768 -932584758</internalNodes>
      <leafValues>
        -1.5217329561710358e-01 1.2579433619976044e-01</leafValues></_>
    <_>
      <internalNodes>
        0 -1 2983 2136812588 184319382 1605776678 1646394540 1299465780
        1964480499 -338770432 558361203</internalNodes>
      <leafValues>
        -3.1380131840705872e-01 6.3593506813049316e-02</leafValues></_>
    <_>
      <internalNodes>
        0 -1 26706 -1813550813 -1945212314 -1142956174 1752887226
        -1894777021 705985169 525334245 -1979785828</internalNodes>
      <leafValues>
        -1.7725814878940582e-01 1.1284616589546204e-01</leafValues></_>
    <_>
      <internalNodes>
        0 -1 20605 1256634485 1785083256 1241382293 2113732211
        -1363866189 -1229340805 1577405629 -861321189</internalNodes>
      <leafValues>
        -1.1676998436450958e-01 1.7370311915874481e-01</leafValues></_>
    <_>
      <internalNodes>
        0 -1 22949 40373264 -98390410 -537133058 -118313745 -1124201039
        1072372703 -1967448932 678742340</internalNodes>
      <leafValues>
        -2.6085504889488220e-01 7.1899853646755219e-02</leafValues></_>
    <_>
      <internalNodes>
        0 -1 22535 -56037359 -80437785 -373293743 -33766052 -117912745
        -2359884 -1393045574 -1141692501</internalNodes>
      <leafValues>
        -8.5656955838203430e-02 2.2624221444129944e-01</leafValues></_>
    <_>
      <internalNodes>
        0 -1 12368 -577138883 -677506378 1341017087 1781034666
        1257813693 -167944211 1625738348 1711789614</internalNodes>
      <leafValues>
        -1.2893839180469513e-01 1.5037508308887482e-01</leafValues></_>
    <_>
      <internalNodes>
        0 -1 23420 1114361667 -857572295 -92340496 -1305024528
        -1890622188 -1663766195 -1006651952 -1317797936</internalNodes>
      <leafValues>
        -2.0101782679557800e-01 9.4756819307804108e-02</leafValues></_>
    <_>
      <internalNodes>
        0 -1 16291 -21040222 -1138744 -173246814 -11179195 521983478
        -462829729 1911158755 -70265062</internalNodes>
      <leafValues>
        -8.4829419851303101e-02 2.2352139651775360e-01</leafValues></_>
    <_>
      <internalNodes>
        0 -1 9444 1315011338 611361000 -643372568 -1153380600 1903446933
        812673983 760652603 1400237814</internalNodes>
      <leafValues>
        -1.8246135115623474e-01 1.0456347465515137e-01</leafValues></_>
    <_>
      <internalNodes>
        0 -1 20999 1419104656 1023077970 917282801 -210304 343278763
        485653398 -1057903172 -1435537177</internalNodes>
      <leafValues>
        -1.2451135367155075e-01 1.5259973704814911e-01</leafValues></_>
    <_>
      <internalNodes>
        0 -1 1535 997994469 1824504294 -685298258 -3342507 1465341823
        -1745293897 -1907116378 456136924</internalNodes>
      <leafValues>
        -1.7006844282150269e-01 1.1278708279132843e-01</leafValues></_>
    <_>
      <internalNodes>
        0 -1 22287 -592805755 -18346061 -1212334121 -1413151 -285537067
        1736125951 -872444215 -1436092661</internalNodes>
      <leafValues>
        -1.1990727484226227e-01 1.6040135920047760e-01</leafValues></_>
    <_>
      <internalNodes>
        0 -1 21210 -364008618 -355448232 1844731864 543456 1078210048
        1954153944 -672215808 673357944</internalNodes>
      <leafValues>
        -2.9250586032867432e-01 6.5446250140666962e-02</leafValues></_>
    <_>
      <internalNodes>
        0 -1 23913 2131621408 2048710646 -1409816668 1072685041
        1553219721 2126372718 1342097838 476831560</internalNodes>
      <leafValues>
        -1.4957109093666077e-01 1.3096687197685242e-01</leafValues></_>
    <_>
      <internalNodes>
        0 -1 16515 1811335552 718150983 1056668435 -752674157
        -1399830884 -184676385 1721566633 -1287978870</internalNodes>
      <leafValues>
        -1.2151794880628586e-01 1.5503387153148651e-01</leafValues></_>
    <_>
      <internalNodes>
        0 -1 12705 173910168 957382297 2121186056 -2135265482
        -1837869976 -42110609 1374580583 1716905220</internalNodes>
      <leafValues>
        -1.9487401843070984e-01 9.6519559621810913e-02</leafValues></_>
    <_>
      <internalNodes>
        0 -1 1193 -1001763541 -235844065 -537690190 1417579314
        -104461810 -1297659921 2095955884 -1316620701</internalNodes>
      <leafValues>
        -1.4793251454830170e-01 1.2553215026855469e-01</leafValues></_>
    <_>
      <internalNodes>
        0 -1 24251 -1366197472 -804524311 -16793038 -1227306571
        -1155097951 -948620338 -1759180915 685378872</internalNodes>
      <leafValues>
        -1.8508879840373993e-01 1.0112207382917404e-01</leafValues></_>
    <_>
      <internalNodes>
        0 -1 8899 -1456791032 -1756168468 -358750958 -34796826
        2105525823 1203230466 -522897894 877982800</internalNodes>
      <leafValues>
        -1.6543807089328766e-01 1.1341995745897293e-01</leafValues></_>
    <_>
      <internalNodes>
        0 -1 25014 -1465349594 1061846260 -1695372363 -1677762630
        -2019811740 -1359659468 -1409616927 -1418031152</internalNodes>
      <leafValues>
        -1.6580137610435486e-01 1.1666043102741241e-01</leafValues></_>
    <_>
      <internalNodes>
        0 -1 13401 123749010 -304271642 1858927243 1408346784 680876010
        -813738893 -153830912 1531355146</internalNodes>
      <leafValues>
        -1.7921295762062073e-01 1.0693702101707458e-01</leafValues></_>
    <_>
      <internalNodes>
        0 -1 5130 529099173 -420508683 -630359887 1325284084 -1695761829
        1006304187 -305809613 1154866588</internalNodes>
      <leafValues>
        -1.8381765484809875e-01 1.0519145429134369e-01</leafValues></_>
    <_>
      <internalNodes>
        0 -1 25686 1735372327 1199279829 -2063597901 2003236222
        -277891838 -189284663 -1073762604 -1778665716</internalNodes>
      <leafValues>
        -1.3623917102813721e-01 1.3658031821250916e-01</leafValues></_>
    <_>
      <internalNodes>
        0 -1 15319 -546331612 1966213212 -320397548 -413976 -1944711172
        2077465659 -565867267 1276313774</internalNodes>
      <leafValues>
        -1.3318651914596558e-01 1.4321772754192352e-01</leafValues></_>
    <_>
      <internalNodes>
        0 -1 2009 1853679394 8268934 1311387430 644286440 626161936
        886892151 674247988 16715286</internalNodes>
      <leafValues>
        -3.9759841561317444e-01 4.7385521233081818e-02</leafValues></_>
    <_>
      <internalNodes>
        0 -1 23468 1868511711 2087550709 2080325113 252755185 -430573637
        -277363331 -1515009574 -1987060293</internalNodes>
      <leafValues>
        -7.9295977950096130e-02 2.4365395307540894e-01</leafValues></_>
    <_>
      <internalNodes>
        0 -1 24115 242634074 150151949 -1253343628 842145374 -1077999856
        -1100732650 -1914781852 -26047072</internalNodes>
      <leafValues>
        -2.1646590530872345e-01 8.7743543088436127e-02</leafValues></_>
    <_>
      <internalNodes>
        0 -1 15386 1031081565 1358113519 -1375965439 1305342967
        -1314353233 -1108275488 2141696904 185059118</internalNodes>
      <leafValues>
        -9.7736909985542297e-02 1.9214141368865967e-01</leafValues></_>
    <_>
      <internalNodes>
        0 -1 17425 -933377106 1449066391 -1092606313 2032327227
        -1158361148 -55171532 -453710014 -1159552785</internalNodes>
      <leafValues>
        -1.3985945284366608e-01 1.3477949798107147e-01</leafValues></_>
    <_>
      <internalNodes>
        0 -1 14530 1332531113 -1899173890 -373424285 -572719107
        960361783 1155496819 -943077547 -268857443</internalNodes>
      <leafValues>
        -1.5238253772258759e-01 1.2554803490638733e-01</leafValues></_>
    <_>
      <internalNodes>
        0 -1 26507 1481611778 388908382 -1142659399 732913596 2130583868
        -15057899 -2031745128 971014679</internalNodes>
      <leafValues>
        -1.8131771683692932e-01 1.0446765273809433e-01</leafValues></_>
    <_>
      <internalNodes>
        0 -1 23921 -1712404491 -1075398172 -19206356 -105464136
        -45484786 -270057491 1825943774 597441876</internalNodes>
      <leafValues>
        -1.5116608142852783e-01 1.2868946790695190e-01</leafValues></_>
    <_>
      <internalNodes>
        0 -1 21487 301694526 -1325900066 1610604153 1321565912
        1705262114 -696986252 227404788 140038428</internalNodes>
      <leafValues>
        -1.8656028807163239e-01 1.0277496278285980e-01</leafValues></_>
    <_>
      <internalNodes>
        0 -1 23163 -625965468 297173937 -201339463 -1681415130 -4683643
        -151094908 -268523796 -1371848934</internalNodes>
      <leafValues>
        -1.0840125381946564e-01 1.7340473830699921e-01</leafValues></_>
    <_>
      <internalNodes>
        0 -1 16973 292291764 419605465 342077333 1068445222 -704748111
        -681265250 318082684 711043746</internalNodes>
      <leafValues>
        -1.7673891782760620e-01 1.0469800233840942e-01</leafValues></_>
    <_>
      <internalNodes>
        0 -1 21195 -391910912 583142771 -125969404 1784560742 720641301
        360565108 871688756 -1340893356</internalNodes>
      <leafValues>
        -2.2372332215309143e-01 8.4342889487743378e-02</leafValues></_>
    <_>
      <internalNodes>
        0 -1 26723 -330323181 187236090 601882484 -541262341 62380021
        -1938883627 133133823 212669917</internalNodes>
      <leafValues>
        -1.4735472202301025e-01 1.2793847918510437e-01</leafValues></_>
    <_>
      <internalNodes>
        0 -1 11852 2110394284 28448764 648871456 -1528699653 1197263876
        2071382902 -1356197983 838202871</internalNodes>
      <leafValues>
        -1.9829468429088593e-01 9.2376798391342163e-02</leafValues></_>
    <_>
      <internalNodes>
        0 -1 15997 182202016 -2067157424 733556225 767167257 913598242
        174713726 914830874 984567370</internalNodes>
      <leafValues>
        -2.8217878937721252e-01 6.5266467630863190e-02</leafValues></_>
    <_>
      <internalNodes>
        0 -1 22075 140668220 649608244 788266680 -1295452494 -605016719
        780104029 -17286591 -1821946716</internalNodes>
      <leafValues>
        -2.0965754985809326e-01 8.7567076086997986e-02</leafValues></_>
    <_>
      <internalNodes>
        0 -1 18630 1257816457 -581120675 -282632386 -545264233
        2027687349 -1394082124 -1276593270 -1073805942</internalNodes>
      <leafValues>
        -8.7135508656501770e-02 2.1346874535083771e-01</leafValues></_>
    <_>
      <internalNodes>
        0 -1 20380 1878264060 939675006 -134305096 253902130 617615496
        1031065076 -300782951 671746704</internalNodes>
      <leafValues>
        -2.6298233866691589e-01 7.1456596255302429e-02</leafValues></_>
    <_>
      <internalNodes>
        0 -1 5742 368389928 91427308 -1637028896 1825434602 1929123675
        -455739852 280458548 50604104</internalNodes>
      <leafValues>
        -2.6536321640014648e-01 6.9779627025127411e-02</leafValues></_></weakClassifiers></stage5>
</opencv_storage>
