<?xml version="1.0"?>
<opencv_storage>
<stage1>
  <maxWeakCount>44</maxWeakCount>
  <stageThreshold>-3.1109695434570312e+00</stageThreshold>
  <weakClassifiers>
    <_>
      <internalNodes>
        0 -1 26377 -1 -1 -1 -1 -1 -1 -3 -8708</internalNodes>
      <leafValues>
        -7.3329257965087891e-01 2.0828840136528015e-01</leafValues></_>
    <_>
      <internalNodes>
        0 -1 3947 -218956096 -218955779 -269484049 -1 -193923088
        -218955785 -1 -1</internalNodes>
      <leafValues>
        -5.7624304294586182e-01 3.0654549598693848e-01</leafValues></_>
    <_>
      <internalNodes>
        0 -1 21490 -8405209 -8650881 -8388673 -1 -33603755 -8388737
        -266377 -9</internalNodes>
      <leafValues>
        -3.6636990308761597e-01 3.5215145349502563e-01</leafValues></_>
    <_>
      <internalNodes>
        0 -1 6500 -352326657 -335565057 -1364284689 -1343247617
        2012706807 -34117633 1744267191 1878991871</internalNodes>
      <leafValues>
        -3.2457786798477173e-01 3.2228264212608337e-01</leafValues></_>
    <_>
      <internalNodes>
        0 -1 25134 -139 -143067267 -524289 -72286276 -35339 -4866561
        -805341840 -1918874576</internalNodes>
      <leafValues>
        -3.9834088087081909e-01 2.3461042344570160e-01</leafValues></_>
    <_>
      <internalNodes>
        0 -1 2508 -187170817 -254017537 -22380626 -1599673269 1954021223
        -176697545 1010171663 -256907489</internalNodes>
      <leafValues>
        -2.4138432741165161e-01 3.1830391287803650e-01</leafValues></_>
    <_>
      <internalNodes>
        0 -1 24051 171583537 -1427178122 -33587467 -1157837164
        -1090814604 -17105281 -167772204 -84215820</internalNodes>
      <leafValues>
        -3.1131690740585327e-01 2.4738456308841705e-01</leafValues></_>
    <_>
      <internalNodes>
        0 -1 25239 -1566951501 -1365576194 -2057 -33622024 -1080033795
        -285361163 -1745093635 -302496564</internalNodes>
      <leafValues>
        -2.2817347943782806e-01 2.8166434168815613e-01</leafValues></_>
    <_>
      <internalNodes>
        0 -1 19128 1431168928 420806512 -1342698827 800702389 82838697
        1591629822 -1882894677 585322219</internalNodes>
      <leafValues>
        -2.9461398720741272e-01 2.0721961557865143e-01</leafValues></_>
    <_>
      <internalNodes>
        0 -1 11135 -897643474 842036288 -160289512 874546340 -159417315
        1949581140 -25878736 -11010217</internalNodes>
      <leafValues>
        -2.8603428602218628e-01 2.0592941343784332e-01</leafValues></_>
    <_>
      <internalNodes>
        0 -1 25035 782708017 -1426424599 -1661027404 -1380009068
        -1110507147 -1342702220 -1073765228 -1162280992</internalNodes>
      <leafValues>
        -3.2276558876037598e-01 1.7583028972148895e-01</leafValues></_>
    <_>
      <internalNodes>
        0 -1 27216 -1883295965 -1364303212 -318842144 -807471970
        -1953500559 -1539129384 362770800 -577767984</internalNodes>
      <leafValues>
        -2.8305804729461670e-01 1.9216746091842651e-01</leafValues></_>
    <_>
      <internalNodes>
        0 -1 16204 1348592416 2043207550 -103501516 1576395552
        1080313332 1694299639 -790236738 -857136469</internalNodes>
      <leafValues>
        -2.4117338657379150e-01 2.1029867231845856e-01</leafValues></_>
    <_>
      <internalNodes>
        0 -1 23816 -29373440 -227035201 -1364220124 -1345589442
        1140655616 2146926463 -1430409592 708177215</internalNodes>
      <leafValues>
        -3.0875608325004578e-01 1.4756076037883759e-01</leafValues></_>
    <_>
      <internalNodes>
        0 -1 26890 -1371569117 -1410533670 2124414774 -40960260
        -1074020429 -1366630676 513766901 -838875912</internalNodes>
      <leafValues>
        -2.0539256930351257e-01 2.2065491974353790e-01</leafValues></_>
    <_>
      <internalNodes>
        0 -1 24218 2146940721 -21827760 -545259535 1978563824 1862165941
        -1900782091 226448863 -857086753</internalNodes>
      <leafValues>
        -1.5578089654445648e-01 2.8224271535873413e-01</leafValues></_>
    <_>
      <internalNodes>
        0 -1 24630 603928883 687627686 -19284591 284096308 1006248224
        -1093156993 -405015776 -368378144</internalNodes>
      <leafValues>
        -2.9519671201705933e-01 1.5034818649291992e-01</leafValues></_>
    <_>
      <internalNodes>
        0 -1 7641 -16843020 -253034610 -1342177299 -1427117185
        -404752620 -260737417 -50462962 1730674415</internalNodes>
      <leafValues>
        -2.6812019944190979e-01 1.7095850408077240e-01</leafValues></_>
    <_>
      <internalNodes>
        0 -1 14176 -740301138 1404076002 1877534188 -2048414088
        -707279388 1081558389 -873110016 79917358</internalNodes>
      <leafValues>
        -2.7518510818481445e-01 1.5607395768165588e-01</leafValues></_>
    <_>
      <internalNodes>
        0 -1 22707 213779968 242110036 -1077938316 -1968422994 -71666604
        -16943241 -243269868 -94312640</internalNodes>
      <leafValues>
        -3.7191259860992432e-01 1.1248994618654251e-01</leafValues></_>
    <_>
      <internalNodes>
        0 -1 8221 2139023286 242126762 -1343345416 715894510 1085666741
        921038271 898966564 31821327</internalNodes>
      <leafValues>
        -2.9426848888397217e-01 1.3945999741554260e-01</leafValues></_>
    <_>
      <internalNodes>
        0 -1 26457 1678651184 -1912668162 -85525188 1071972342
        -311082504 -17039379 -8643656 -812849778</internalNodes>
      <leafValues>
        -2.8325411677360535e-01 1.5121775865554810e-01</leafValues></_>
    <_>
      <internalNodes>
        0 -1 17965 1573776302 958262108 -808587331 532390122 -591110239
        -39989379 -1103512424 985334826</internalNodes>
      <leafValues>
        -2.0206996798515320e-01 1.9714935123920441e-01</leafValues></_>
    <_>
      <internalNodes>
        0 -1 26005 -17825945 778755763 -1291849950 1781202922 2113836037
        1457893301 -152177804 -591958030</internalNodes>
      <leafValues>
        -2.9477053880691528e-01 1.3303864002227783e-01</leafValues></_>
    <_>
      <internalNodes>
        0 -1 24269 137888816 2147252069 734003185 699678646 750591417
        -131146 -1346589000 682625552</internalNodes>
      <leafValues>
        -4.1800677776336670e-01 9.1149576008319855e-02</leafValues></_>
    <_>
      <internalNodes>
        0 -1 9234 -76579420 1882207728 -1385238168 -1059000776
        1700228868 -42664187 -290645944 -180893169</internalNodes>
      <leafValues>
        -2.8934445977210999e-01 1.2991288304328918e-01</leafValues></_>
    <_>
      <internalNodes>
        0 -1 21416 -1371623632 974716149 -1074331683 434875389
        -1234182155 -131099 -541114376 -1074066504</internalNodes>
      <leafValues>
        -2.0230516791343689e-01 1.9553266465663910e-01</leafValues></_>
    <_>
      <internalNodes>
        0 -1 18600 -2005332444 -1680593098 955710640 -144802892
        1660761169 -1086538510 -1347143008 -1143264118</internalNodes>
      <leafValues>
        -1.9292640686035156e-01 1.9569423794746399e-01</leafValues></_>
    <_>
      <internalNodes>
        0 -1 23303 -1001588812 217104316 -1472399568 804181408 342168951
        1472036786 -2063737488 -1131352096</internalNodes>
      <leafValues>
        -2.7847746014595032e-01 1.3280370831489563e-01</leafValues></_>
    <_>
      <internalNodes>
        0 -1 15376 -138937164 1440607045 804611712 1845472951 -990906951
        -2131525651 -285296726 1286581387</internalNodes>
      <leafValues>
        -1.6153299808502197e-01 2.2751167416572571e-01</leafValues></_>
    <_>
      <internalNodes>
        0 -1 53 -601394449 840050347 -285427788 -286590746 58012733
        1972748287 871973956 1692657655</internalNodes>
      <leafValues>
        -2.5294905900955200e-01 1.4597149193286896e-01</leafValues></_>
    <_>
      <internalNodes>
        0 -1 23091 -2133324736 -386371615 -1209041579 -639604752
        -1361240515 -533211522 -1073955620 -1880619604</internalNodes>
      <leafValues>
        -2.2763851284980774e-01 1.6309504210948944e-01</leafValues></_>
    <_>
      <internalNodes>
        0 -1 622 -530518976 14493677 -1358286962 -437440898 284209952
        1894964479 884456208 819947070</internalNodes>
      <leafValues>
        -3.8320076465606689e-01 9.5800913870334625e-02</leafValues></_>
    <_>
      <internalNodes>
        0 -1 26377 -1901398480 -1356153692 1828584301 -1348146648
        -1350983839 -1712722064 1036475890 -1931970989</internalNodes>
      <leafValues>
        -2.2369328141212463e-01 1.6182588040828705e-01</leafValues></_>
    <_>
      <internalNodes>
        0 -1 22883 -2015266823 -491749572 -671318415 -341775232
        -1440877387 -54538573 1306462360 -911221479</internalNodes>
      <leafValues>
        -1.8162664771080017e-01 2.1108339726924896e-01</leafValues></_>
    <_>
      <internalNodes>
        0 -1 20671 595538602 -539939144 720171002 789260986 1920281504
        -160301131 774733576 1516350258</internalNodes>
      <leafValues>
        -2.5474885106086731e-01 1.3787537813186646e-01</leafValues></_>
    <_>
      <internalNodes>
        0 -1 25650 -368069849 -830674180 -1078071641 -1166607618
        -848217248 246808544 931047172 -67188560</internalNodes>
      <leafValues>
        -2.2429773211479187e-01 1.5957333147525787e-01</leafValues></_>
    <_>
      <internalNodes>
        0 -1 13782 -128144470 1493345204 -302068877 803957410 1433667473
        2126460927 637124792 1494025995</internalNodes>
      <leafValues>
        -2.0635752379894257e-01 1.7195674777030945e-01</leafValues></_>
    <_>
      <internalNodes>
        0 -1 13923 1141133278 -80159985 1307885488 -1569546646
        -716089488 1463948142 -11045308 -14491214</internalNodes>
      <leafValues>
        -2.7663713693618774e-01 1.2955385446548462e-01</leafValues></_>
    <_>
      <internalNodes>
        0 -1 21925 -2009920464 -1433243666 -1079378127 -629524188
        1857558449 -1947500549 -155191343 -400642352</internalNodes>
      <leafValues>
        -2.4014741182327271e-01 1.4822745323181152e-01</leafValues></_>
    <_>
      <internalNodes>
        0 -1 24747 -1312900297 -17931319 1995964054 -537856034 692781049
        -1120985122 -1481214503 -1348854340</internalNodes>
      <leafValues>
        -1.5393449366092682e-01 2.3225626349449158e-01</leafValues></_>
    <_>
      <internalNodes>
        0 -1 15367 -982143626 1935715219 -546063596 -1241569186
        -329938106 1433808744 -526995462 1913906267</internalNodes>
      <leafValues>
        -1.7509320378303528e-01 2.0925949513912201e-01</leafValues></_>
    <_>
      <internalNodes>
        0 -1 15685 754713389 -353996810 -12462 -811827974 -604113579
        250476534 2127517495 -1100291</internalNodes>
      <leafValues>
        -2.2585932910442352e-01 1.5463013947010040e-01</leafValues></_>
    <_>
      <internalNodes>
        0 -1 25795 1488720944 267239228 -273089675 650030068 939211185
        -151252995 750323356 801012770</internalNodes>
      <leafValues>
        -3.3529883623123169e-01 1.0074049979448318e-01</leafValues></_></weakClassifiers></stage1>
</opencv_storage>
