<?xml version="1.0"?>
<opencv_storage>
<stage4>
  <maxWeakCount>86</maxWeakCount>
  <stageThreshold>-2.6524388790130615e+00</stageThreshold>
  <weakClassifiers>
    <_>
      <internalNodes>
        0 -1 15789 2147483647 -4211779 714936255 1002155967 -1075855425
        -132101 1000315839 1006571451</internalNodes>
      <leafValues>
        -7.4539250135421753e-01 -1.8667005002498627e-01</leafValues></_>
    <_>
      <internalNodes>
        0 -1 24215 -5 -11011083 -8397315 -656400 -1090536003 -271363
        248333789 -572701616</internalNodes>
      <leafValues>
        -4.0442115068435669e-01 1.9727502763271332e-01</leafValues></_>
    <_>
      <internalNodes>
        0 -1 18191 -590553112 1423760852 -491991339 -571098247
        -924791894 -596746498 -1065057 -542130177</internalNodes>
      <leafValues>
        -3.1321391463279724e-01 2.5534838438034058e-01</leafValues></_>
    <_>
      <internalNodes>
        0 -1 14994 -658193248 1439769353 -526350224 401967909 -791547395
        2103583729 -235405637 -143711349</internalNodes>
      <leafValues>
        -2.4563921988010406e-01 2.2385355830192566e-01</leafValues></_>
    <_>
      <internalNodes>
        0 -1 23628 1928544768 -8945825 2092165049 -43034025 1878196224
        -71469219 -1472886772 -33292721</internalNodes>
      <leafValues>
        -3.0706569552421570e-01 1.5909275412559509e-01</leafValues></_>
    <_>
      <internalNodes>
        0 -1 2499 -16778241 -251666433 -172113937 -33833217 -8914177
        -259522665 -193 -5121</internalNodes>
      <leafValues>
        -1.0243526101112366e-01 3.6427858471870422e-01</leafValues></_>
    <_>
      <internalNodes>
        0 -1 14321 -67115473 2002135563 -20321554 716036687 -329642936
        1431577701 -553743350 1886864123</internalNodes>
      <leafValues>
        -1.7238645255565643e-01 2.0517668128013611e-01</leafValues></_>
    <_>
      <internalNodes>
        0 -1 22265 477103985 -18335837 1274019805 -201532553 -1208222212
        -537436417 -1610629124 -1078329096</internalNodes>
      <leafValues>
        -1.7413266003131866e-01 2.0241042971611023e-01</leafValues></_>
    <_>
      <internalNodes>
        0 -1 24027 245255697 719458284 -494945839 -1166869328 -50366668
        -626834 -344204 -1162297616</internalNodes>
      <leafValues>
        -2.6822131872177124e-01 1.2400413304567337e-01</leafValues></_>
    <_>
      <internalNodes>
        0 -1 18601 -231700208 -243728392 -1697096783 -69137200
        -1639075940 -1095602499 -1096495444 -1413800757</internalNodes>
      <leafValues>
        -1.5760868787765503e-01 2.1171827614307404e-01</leafValues></_>
    <_>
      <internalNodes>
        0 -1 19668 209488916 -769127096 2128561024 2064655604
        -1095386076 -1158344743 -1073893700 -1153819398</internalNodes>
      <leafValues>
        -1.7651692032814026e-01 1.6404879093170166e-01</leafValues></_>
    <_>
      <internalNodes>
        0 -1 25236 -1576400527 -1427600799 -755764486 -810484932
        -1891650635 -276890023 1069527541 -1365633796</internalNodes>
      <leafValues>
        -1.9545695185661316e-01 1.4022237062454224e-01</leafValues></_>
    <_>
      <internalNodes>
        0 -1 15192 -201465310 292024225 -1310315776 -743319435
        1969648710 147225382 -210249824 -529399938</internalNodes>
      <leafValues>
        -1.9435621798038483e-01 1.3959261775016785e-01</leafValues></_>
    <_>
      <internalNodes>
        0 -1 11128 -125960193 -223943066 -117904178 -459095314
        -235952697 1425467230 -562698276 1615121994</internalNodes>
      <leafValues>
        -1.7607611417770386e-01 1.7323113977909088e-01</leafValues></_>
    <_>
      <internalNodes>
        0 -1 18481 -236980318 -1313411713 368667040 363314584 1164150271
        -2047514636 -236061824 -2134507537</internalNodes>
      <leafValues>
        -1.6230021417140961e-01 1.6698975861072540e-01</leafValues></_>
    <_>
      <internalNodes>
        0 -1 24215 -13719660 2137714394 -110755982 -328451 1198412006
        -1409287850 -312828554 585342383</internalNodes>
      <leafValues>
        -1.3710908591747284e-01 1.9569203257560730e-01</leafValues></_>
    <_>
      <internalNodes>
        0 -1 27210 -1354763741 -1349606518 -597170544 -52757000
        267122467 154042348 1442706932 -588519980</internalNodes>
      <leafValues>
        -1.9880190491676331e-01 1.3462139666080475e-01</leafValues></_>
    <_>
      <internalNodes>
        0 -1 23127 -1535638512 -654546380 788192759 865097692
        -1096282012 -148083843 -270598484 -1363539659</internalNodes>
      <leafValues>
        -2.0105038583278656e-01 1.2427505105733871e-01</leafValues></_>
    <_>
      <internalNodes>
        0 -1 18191 1668391991 -809261125 808342652 1849051502 844686229
        1790377789 355909607 1810001448</internalNodes>
      <leafValues>
        -1.3085307180881500e-01 1.8998034298419952e-01</leafValues></_>
    <_>
      <internalNodes>
        0 -1 20985 -195234816 1356135903 -1549795404 -1275133954
        1681155498 527892095 699739434 770561418</internalNodes>
      <leafValues>
        -1.9696491956710815e-01 1.2743212282657623e-01</leafValues></_>
    <_>
      <internalNodes>
        0 -1 25569 585080885 -1493426179 -1158677776 -1236475914
        -32549258 512704374 -151062672 -1278805024</internalNodes>
      <leafValues>
        -2.1763728559017181e-01 1.0784464329481125e-01</leafValues></_>
    <_>
      <internalNodes>
        0 -1 26419 1358962208 -101613633 1606352125 2139944270
        1575509500 -100926978 -269846088 -1310544178</internalNodes>
      <leafValues>
        -2.5072166323661804e-01 9.5878750085830688e-02</leafValues></_>
    <_>
      <internalNodes>
        0 -1 11880 1532999432 286309754 1051092520 849607610 1601580356
        1999723573 -100694000 829773695</internalNodes>
      <leafValues>
        -2.1541722118854523e-01 1.0973508656024933e-01</leafValues></_>
    <_>
      <internalNodes>
        0 -1 18119 1501930144 305387451 -1380399944 155701218 1351942649
        -14852289 -307780949 153188866</internalNodes>
      <leafValues>
        -1.9326908886432648e-01 1.1915999650955200e-01</leafValues></_>
    <_>
      <internalNodes>
        0 -1 9031 -859931656 1391761274 1877716969 1853746175 -140182009
        -1317750860 -272909528 1867513727</internalNodes>
      <leafValues>
        -1.7153203487396240e-01 1.3476368784904480e-01</leafValues></_>
    <_>
      <internalNodes>
        0 -1 19353 2121269122 -1650466824 -1350946976 -1880884312
        1148470527 -302022754 -453723344 -1467908736</internalNodes>
      <leafValues>
        -1.5024317800998688e-01 1.5525744855403900e-01</leafValues></_>
    <_>
      <internalNodes>
        0 -1 26726 -1442144269 -1901277466 -320342031 -231932939
        -1088951377 -1481711874 119537391 -1900031747</internalNodes>
      <leafValues>
        -1.2400193512439728e-01 1.8592724204063416e-01</leafValues></_>
    <_>
      <internalNodes>
        0 -1 23259 -2111009760 -1426842000 -1484902444 -1075143052
        -1446232492 -1520472716 -1099368716 -1968688716</internalNodes>
      <leafValues>
        -2.0958007872104645e-01 1.1081995815038681e-01</leafValues></_>
    <_>
      <internalNodes>
        0 -1 19710 607144500 377750901 -416391695 1004498299 317116172
        -1145887155 1023342828 -1413805335</internalNodes>
      <leafValues>
        -1.4279662072658539e-01 1.5539754927158356e-01</leafValues></_>
    <_>
      <internalNodes>
        0 -1 24684 1577042215 2080168757 -51419312 184082686 -21662700
        -1333788712 2001582656 -1164259600</internalNodes>
      <leafValues>
        -1.9091081619262695e-01 1.1973229795694351e-01</leafValues></_>
    <_>
      <internalNodes>
        0 -1 27125 -93131734 -679884771 -363350144 -1723108100
        1107201600 -1680940698 -136260120 -350502245</internalNodes>
      <leafValues>
        -1.1778520047664642e-01 1.8603274226188660e-01</leafValues></_>
    <_>
      <internalNodes>
        0 -1 19822 -530332193 -85263481 -1143115267 -1622233121
        -1074803323 -72351749 -855787275 716389135</internalNodes>
      <leafValues>
        -1.1349753290414810e-01 1.9748596847057343e-01</leafValues></_>
    <_>
      <internalNodes>
        0 -1 22223 -999581773 -731504769 -1695646411 -543137872
        -1963279143 -1354860545 -268493603 -861074021</internalNodes>
      <leafValues>
        -1.1049762368202209e-01 1.9358980655670166e-01</leafValues></_>
    <_>
      <internalNodes>
        0 -1 3300 2138895359 -405014866 -977286326 1843396318
        -1073938513 887999231 1553301343 1474074617</internalNodes>
      <leafValues>
        -1.3246151804924011e-01 1.6308887302875519e-01</leafValues></_>
    <_>
      <internalNodes>
        0 -1 21646 -623590108 -40745668 -537584129 -546858641
        -1009185575 1609772925 -1161985093 -1574028249</internalNodes>
      <leafValues>
        -1.3545873761177063e-01 1.6317622363567352e-01</leafValues></_>
    <_>
      <internalNodes>
        0 -1 14550 -1399206111 -1359036939 -270339 -4617 1605811829
        1876856063 2136866167 -1343351341</internalNodes>
      <leafValues>
        -1.7048223316669464e-01 1.2725846469402313e-01</leafValues></_>
    <_>
      <internalNodes>
        0 -1 2691 1358630573 900443967 -5378306 -267170 -714606401
        1970173045 -17002692 1971822798</internalNodes>
      <leafValues>
        -1.2146876752376556e-01 1.7770950496196747e-01</leafValues></_>
    <_>
      <internalNodes>
        0 -1 19597 -411109377 -218624816 -939890136 672754258
        -2109432184 -95270216 -891359536 -1465144613</internalNodes>
      <leafValues>
        -1.3018596172332764e-01 1.6290956735610962e-01</leafValues></_>
    <_>
      <internalNodes>
        0 -1 24571 -1494777995 258877960 232636287 758929660 -1002655952
        -487694349 1827457328 212900864</internalNodes>
      <leafValues>
        -2.7251127362251282e-01 7.9545803368091583e-02</leafValues></_>
    <_>
      <internalNodes>
        0 -1 18678 -242037728 -42188716 -50434503 -1286393860 -422010948
        -52677473 -48255044 -1141177285</internalNodes>
      <leafValues>
        -1.0096708685159683e-01 2.1970206499099731e-01</leafValues></_>
    <_>
      <internalNodes>
        0 -1 21718 -725625328 271742429 196571043 -2115504630 -694682484
        1978101628 -1364398388 574060889</internalNodes>
      <leafValues>
        -1.4456826448440552e-01 1.4933200180530548e-01</leafValues></_>
    <_>
      <internalNodes>
        0 -1 9441 584655362 -2136174866 -1465374167 44280330 1972839971
        331249299 1709625856 1621828174</internalNodes>
      <leafValues>
        -3.2042893767356873e-01 6.9635570049285889e-02</leafValues></_>
    <_>
      <internalNodes>
        0 -1 16139 -615128959 -1113260737 -941378959 2004208314
        1412835217 1521575725 -841046583 2017523628</internalNodes>
      <leafValues>
        -1.3220210373401642e-01 1.6142097115516663e-01</leafValues></_>
    <_>
      <internalNodes>
        0 -1 26382 -1896623509 -1998045382 850522598 -230254602
        -1088438473 -1958346989 1073686005 -1766140536</internalNodes>
      <leafValues>
        -1.7176708579063416e-01 1.2192741781473160e-01</leafValues></_>
    <_>
      <internalNodes>
        0 -1 22145 45648896 922237280 -286304528 870366844 1916744964
        -1651387279 -1627593708 -1141237600</internalNodes>
      <leafValues>
        -2.0347587764263153e-01 1.0424361377954483e-01</leafValues></_>
    <_>
      <internalNodes>
        0 -1 27070 -617414656 1543964266 -532432854 1370483191
        -386514940 -218343092 -210070854 1392688734</internalNodes>
      <leafValues>
        -1.7529703676700592e-01 1.2060631066560745e-01</leafValues></_>
    <_>
      <internalNodes>
        0 -1 13283 1718560000 -861735642 989759100 774036530 1869706308
        35927922 261906460 1349999699</internalNodes>
      <leafValues>
        -3.2740843296051025e-01 6.4512126147747040e-02</leafValues></_>
    <_>
      <internalNodes>
        0 -1 12758 71673700 -1121812980 -1121617232 435528716 1147528180
        951364381 -331075774 828724499</internalNodes>
      <leafValues>
        -2.0147652924060822e-01 1.0723572969436646e-01</leafValues></_>
    <_>
      <internalNodes>
        0 -1 23955 187679923 -1915295906 -1560578704 -1929615696
        913262070 -1361068194 1845485269 -1394283292</internalNodes>
      <leafValues>
        -1.6859783232212067e-01 1.2672126293182373e-01</leafValues></_>
    <_>
      <internalNodes>
        0 -1 20658 38498371 984771841 1050934983 587385646 935136265
        -8470658 -2034635752 -1306510248</internalNodes>
      <leafValues>
        -1.9490370154380798e-01 1.0872104018926620e-01</leafValues></_>
    <_>
      <internalNodes>
        0 -1 24419 1421559697 2021189310 -1883267643 794817320
        1071451291 243154743 -1527868372 993292030</internalNodes>
      <leafValues>
        -1.4880260825157166e-01 1.3911640644073486e-01</leafValues></_>
    <_>
      <internalNodes>
        0 -1 17419 1641755075 1529875803 1076690773 -1422378197
        -403693108 -734367778 1987323544 1856686714</internalNodes>
      <leafValues>
        -1.4684644341468811e-01 1.4045506715774536e-01</leafValues></_>
    <_>
      <internalNodes>
        0 -1 19590 206045184 708230585 2127028096 -1218416980 -861335356
        -1363853319 -1094928716 -1690608430</internalNodes>
      <leafValues>
        -1.6506035625934601e-01 1.2208912521600723e-01</leafValues></_>
    <_>
      <internalNodes>
        0 -1 18570 -1184567384 -89078003 2147364336 -431816 -1208961663
        -1126469707 -1512263952 -1154232725</internalNodes>
      <leafValues>
        -1.0926514863967896e-01 1.9026605784893036e-01</leafValues></_>
    <_>
      <internalNodes>
        0 -1 350 -839227829 684624871 1794045500 -1511035186 622064508
        1076870393 -487269624 897561238</internalNodes>
      <leafValues>
        -1.8630868196487427e-01 1.1051180213689804e-01</leafValues></_>
    <_>
      <internalNodes>
        0 -1 27223 -1364199897 149720228 1186985524 -889797272
        1068219455 50031590 264099559 -1896889111</internalNodes>
      <leafValues>
        -1.5849557518959045e-01 1.3007141649723053e-01</leafValues></_>
    <_>
      <internalNodes>
        0 -1 580 731655949 16767675 800995054 1524559002 -1162011019
        1981316951 -23757871 878975460</internalNodes>
      <leafValues>
        -2.4636831879615784e-01 7.9354353249073029e-02</leafValues></_>
    <_>
      <internalNodes>
        0 -1 16551 -872118460 535360824 1694332829 957046371 -386431508
        -1689208121 -290633510 606276846</internalNodes>
      <leafValues>
        -1.5109120309352875e-01 1.3034035265445709e-01</leafValues></_>
    <_>
      <internalNodes>
        0 -1 23606 -1472542691 1759574878 1064304095 -2013291745
        -15479276 -155272513 -1423687919 -1575879118</internalNodes>
      <leafValues>
        -1.6288101673126221e-01 1.2215197831392288e-01</leafValues></_>
    <_>
      <internalNodes>
        0 -1 22259 -143710940 1915020074 653590448 -1447384156 711870592
        -1397934030 -1729885747 142139678</internalNodes>
      <leafValues>
        -1.5983371436595917e-01 1.2387770414352417e-01</leafValues></_>
    <_>
      <internalNodes>
        0 -1 15988 -658232740 -678089055 -1495683553 1063462631
        1056368544 -704774340 -1481271666 1941643643</internalNodes>
      <leafValues>
        -1.4574201405048370e-01 1.3492926955223083e-01</leafValues></_>
    <_>
      <internalNodes>
        0 -1 24723 -310647533 118488635 2102109732 -1170678768
        -1092691609 -1104156051 899202480 -1141232452</internalNodes>
      <leafValues>
        -1.5434737503528595e-01 1.3213983178138733e-01</leafValues></_>
    <_>
      <internalNodes>
        0 -1 17316 -1121758 1594088472 -1778604192 2147055216 2130207748
        1050832386 -1074464965 -657790470</internalNodes>
      <leafValues>
        -1.2264236062765121e-01 1.6725155711174011e-01</leafValues></_>
    <_>
      <internalNodes>
        0 -1 25862 -564213234 1373816107 -235441375 25590963 -1904224747
        847164774 -1225279872 576837115</internalNodes>
      <leafValues>
        -1.8818169832229614e-01 1.0288395732641220e-01</leafValues></_>
    <_>
      <internalNodes>
        0 -1 4770 884512473 1006459676 1849010922 247050222 -335852027
        1064302649 -1085605978 319828200</internalNodes>
      <leafValues>
        -1.9586874544620514e-01 9.9206291139125824e-02</leafValues></_>
    <_>
      <internalNodes>
        0 -1 17323 -127480150 1253963438 -285256384 -33897220 1649735908
        127761909 -218973253 -1459653745</internalNodes>
      <leafValues>
        -1.2856084108352661e-01 1.5121462941169739e-01</leafValues></_>
    <_>
      <internalNodes>
        0 -1 1010 -496604722 7458061 -42795166 -1568884092 1646536212
        -1274020545 -2013793792 5156423</internalNodes>
      <leafValues>
        -3.2520234584808350e-01 6.0452524572610855e-02</leafValues></_>
    <_>
      <internalNodes>
        0 -1 18540 -302593552 -258638049 1588803058 -706773852
        -2083512132 1052534679 -1162034508 -1322027209</internalNodes>
      <leafValues>
        -1.2000853568315506e-01 1.6164083778858185e-01</leafValues></_>
    <_>
      <internalNodes>
        0 -1 23991 -546308171 -1200702497 1173076285 -1684275268
        1019527167 1920063430 -589438728 -1366566934</internalNodes>
      <leafValues>
        -8.6564540863037109e-02 2.2359241545200348e-01</leafValues></_>
    <_>
      <internalNodes>
        0 -1 8377 1074759406 1548012247 1051231580 1031077310 1196752239
        405914311 -597069234 964143722</internalNodes>
      <leafValues>
        -1.4699864387512207e-01 1.3316850364208221e-01</leafValues></_>
    <_>
      <internalNodes>
        0 -1 1319 649608888 420543749 -1900183144 -1154220490
        -1159227459 -412648073 500489624 -384629068</internalNodes>
      <leafValues>
        -1.3797484338283539e-01 1.4492094516754150e-01</leafValues></_>
    <_>
      <internalNodes>
        0 -1 22627 675153440 -1359335464 1559723952 -1620415020
        -1127723996 2011099095 812838628 -1948321808</internalNodes>
      <leafValues>
        -2.1577391028404236e-01 9.1098241508007050e-02</leafValues></_>
    <_>
      <internalNodes>
        0 -1 19263 1199520952 458316144 -337768462 397950770 -1455809380
        -21877509 582099660 -1086698101</internalNodes>
      <leafValues>
        -1.5992304682731628e-01 1.2234161794185638e-01</leafValues></_>
    <_>
      <internalNodes>
        0 -1 25647 2137992801 -33360236 -320897934 757228018 122942245
        1290919365 1090112528 229768328</internalNodes>
      <leafValues>
        -2.3302172124385834e-01 8.3389669656753540e-02</leafValues></_>
    <_>
      <internalNodes>
        0 -1 2600 -1316661275 -973264916 1188814470 1625027572
        -114454165 -258878180 1524725303 377000697</internalNodes>
      <leafValues>
        -1.7754289507865906e-01 1.0771312564611435e-01</leafValues></_>
    <_>
      <internalNodes>
        0 -1 20041 -731853260 -10327882 -269246707 -168795427 -436394436
        1000684399 -164140835 -1372953077</internalNodes>
      <leafValues>
        -1.3647727668285370e-01 1.4313322305679321e-01</leafValues></_>
    <_>
      <internalNodes>
        0 -1 16542 1382993621 502624094 -772375231 10742415 -589173074
        -1149767692 -39331638 -1295524302</internalNodes>
      <leafValues>
        -1.0789041966199875e-01 1.7918846011161804e-01</leafValues></_>
    <_>
      <internalNodes>
        0 -1 475 1190306560 83536038 -1890974976 -2115027179 167072608
        116834710 479663360 29063999</internalNodes>
      <leafValues>
        -3.9517346024513245e-01 5.0058495253324509e-02</leafValues></_>
    <_>
      <internalNodes>
        0 -1 27059 581637155 -1954355480 1308312809 -767121692 799941142
        -2001737125 53303215 207512796</internalNodes>
      <leafValues>
        -2.0774435997009277e-01 9.2461325228214264e-02</leafValues></_>
    <_>
      <internalNodes>
        0 -1 23855 -2031056896 -826399632 1122820571 861985887 -42004460
        -77041057 -123865868 -1440071045</internalNodes>
      <leafValues>
        -1.7152577638626099e-01 1.1256129294633865e-01</leafValues></_>
    <_>
      <internalNodes>
        0 -1 17610 1768881444 956042389 -135753803 -2506801 -388721480
        -1465540994 677227672 -1145358936</internalNodes>
      <leafValues>
        -1.0821844637393951e-01 1.8343655765056610e-01</leafValues></_>
    <_>
      <internalNodes>
        0 -1 23607 1488161285 -37847897 2075359740 -177275149 1279692029
        -1151385831 -554240804 -1429192937</internalNodes>
      <leafValues>
        -1.2586750090122223e-01 1.5874956548213959e-01</leafValues></_>
    <_>
      <internalNodes>
        0 -1 21426 -1238325491 1516010861 903802737 1800074111
        -1228198219 -29491723 -684198916 711656585</internalNodes>
      <leafValues>
        -1.5586683154106140e-01 1.2490089237689972e-01</leafValues></_>
    <_>
      <internalNodes>
        0 -1 15767 -765965103 2122230239 1293910518 -271692114
        -688531323 1777643471 -563806220 570892169</internalNodes>
      <leafValues>
        -1.4693740010261536e-01 1.3159875571727753e-01</leafValues></_>
    <_>
      <internalNodes>
        0 -1 18856 994913087 1474103933 665239144 1997924931 2138338986
        -134885644 1035721418 1565046774</internalNodes>
      <leafValues>
        -1.3395117223262787e-01 1.4816918969154358e-01</leafValues></_>
    <_>
      <internalNodes>
        0 -1 17424 -982708050 1217522374 -1393610966 -1608471894
        -1579004288 1920585396 -404308688 988330880</internalNodes>
      <leafValues>
        -2.1950864791870117e-01 9.4817645847797394e-02</leafValues></_></weakClassifiers></stage4>
</opencv_storage>
