<?xml version="1.0"?>
<opencv_storage>
<stage0>
  <maxWeakCount>17</maxWeakCount>
  <stageThreshold>-3.0322656631469727e+00</stageThreshold>
  <weakClassifiers>
    <_>
      <internalNodes>
        0 -1 8502 -188284960 -185532428 -1 -1 -168298511 -201850889 -1
        -1</internalNodes>
      <leafValues>
        -8.4427130222320557e-01 6.6079296171665192e-02</leafValues></_>
    <_>
      <internalNodes>
        0 -1 26056 -9 -1114117 -2097153 -4 -1073741833 -5 -2571 -205584</internalNodes>
      <leafValues>
        -5.2553337812423706e-01 4.9326559901237488e-01</leafValues></_>
    <_>
      <internalNodes>
        0 -1 24579 716058400 210386704 -2097223852 -1396900140
        -1076140172 -295563 -1073809804 -21439280</internalNodes>
      <leafValues>
        -5.8350294828414917e-01 2.9436692595481873e-01</leafValues></_>
    <_>
      <internalNodes>
        0 -1 23713 -990450416 -541786177 -1583026256 -541853700
        1369462032 -100794369 -9644624 -4194305</internalNodes>
      <leafValues>
        -4.4276583194732666e-01 3.0751201510429382e-01</leafValues></_>
    <_>
      <internalNodes>
        0 -1 23315 171051056 720000440 -1074282525 -1161938398
        1048538933 -1083605121 -1081231372 -1157978128</internalNodes>
      <leafValues>
        -4.6474316716194153e-01 2.4989849328994751e-01</leafValues></_>
    <_>
      <internalNodes>
        0 -1 1809 -687866033 805364576 -59310420 -1332547874 -176822507
        1615921005 2088091392 -235405553</internalNodes>
      <leafValues>
        -3.0927675962448120e-01 3.3144214749336243e-01</leafValues></_>
    <_>
      <internalNodes>
        0 -1 26060 707409920 170790432 -1345438256 -970916368 796079632
        -2039677388 -604241936 -1881350928</internalNodes>
      <leafValues>
        -4.2120158672332764e-01 1.9509944319725037e-01</leafValues></_>
    <_>
      <internalNodes>
        0 -1 17974 -687801616 1501604656 721873881 1000024716 67372448
        -2237513 723192233 572983083</internalNodes>
      <leafValues>
        -3.2777166366577148e-01 2.4845953285694122e-01</leafValues></_>
    <_>
      <internalNodes>
        0 -1 25092 246097411 179482233 444562998 810449936 -35276
        -1075003609 -12583068 -84230640</internalNodes>
      <leafValues>
        -3.7243854999542236e-01 2.0188613235950470e-01</leafValues></_>
    <_>
      <internalNodes>
        0 -1 7749 -101189724 -227381454 -1074857970 1592250 -145343211
        2085650212 -823150500 -193466753</internalNodes>
      <leafValues>
        -3.7981683015823364e-01 1.6725416481494904e-01</leafValues></_>
    <_>
      <internalNodes>
        0 -1 25242 -1441057997 -1427460100 -67117069 -605227267
        -1094795267 -1394672140 -1093274115 -1430780488</internalNodes>
      <leafValues>
        -2.3809686303138733e-01 2.7343913912773132e-01</leafValues></_>
    <_>
      <internalNodes>
        0 -1 12648 -794497472 284225382 -438178780 233170183 1970653109
        2145714174 -134744201 1476349815</internalNodes>
      <leafValues>
        -3.1906902790069580e-01 1.9734357297420502e-01</leafValues></_>
    <_>
      <internalNodes>
        0 -1 24287 -1493696507 -35852289 -5121 1073512187 -258888
        -696545 -286372103 -1364181424</internalNodes>
      <leafValues>
        -3.7694475054740906e-01 1.6224493086338043e-01</leafValues></_>
    <_>
      <internalNodes>
        0 -1 16032 1414832256 970567657 -1393448031 766454696 1087374505
        1610550699 -990084952 852175658</internalNodes>
      <leafValues>
        -3.3432820439338684e-01 1.8298634886741638e-01</leafValues></_>
    <_>
      <internalNodes>
        0 -1 19458 -865204728 1286221444 -555748512 -86882464 49615908
        1283256100 -227248368 -261043152</internalNodes>
      <leafValues>
        -3.9675855636596680e-01 1.4597882330417633e-01</leafValues></_>
    <_>
      <internalNodes>
        0 -1 25620 -1559296223 -1365377092 -302104586 -763582640
        -1078037196 -1143046828 -570436092 -85534896</internalNodes>
      <leafValues>
        -3.0358970165252686e-01 1.7264223098754883e-01</leafValues></_>
    <_>
      <internalNodes>
        0 -1 11659 -319918322 -2065638855 -428018556 241183 -143566748
        1628854037 -819474680 1680329595</internalNodes>
      <leafValues>
        -3.4207668900489807e-01 1.4918278157711029e-01</leafValues></_></weakClassifiers></stage0>
</opencv_storage>
