<?xml version="1.0"?>
<opencv_storage>
<stage1>
  <maxWeakCount>31</maxWeakCount>
  <stageThreshold>-2.6026389598846436e+00</stageThreshold>
  <weakClassifiers>
    <_>
      <internalNodes>
        0 -1 7693 -1 -65537 -1 -327681 -1 -65537 -65537 -4521986</internalNodes>
      <leafValues>
        -6.8573045730590820e-01 3.0330401659011841e-01</leafValues></_>
    <_>
      <internalNodes>
        0 -1 85 -20689 599723695 804196111 120524303 -1 -1 -53489
        2147430271</internalNodes>
      <leafValues>
        -5.6380409002304077e-01 2.9302501678466797e-01</leafValues></_>
    <_>
      <internalNodes>
        0 -1 8957 -16777217 -1195835649 -8195 -1365049604 -131587 -1
        -210436 -1365209924</internalNodes>
      <leafValues>
        -4.4203105568885803e-01 2.9782798886299133e-01</leafValues></_>
    <_>
      <internalNodes>
        0 -1 13872 -251660816 -789187120 -4194531 -993530201 -168838219
        -1057112065 -4196449 -8513</internalNodes>
      <leafValues>
        -3.1997942924499512e-01 3.6230155825614929e-01</leafValues></_>
    <_>
      <internalNodes>
        0 -1 21 -1498437697 716107759 -402661889 -286327300 1879048191
        -1346371585 -823132417 -855638273</internalNodes>
      <leafValues>
        -2.5371679663658142e-01 3.8421857357025146e-01</leafValues></_>
    <_>
      <internalNodes>
        0 -1 18533 -269504601 -1931300949 -1477627984 -806393055
        -268591115 -1929856083 1677132881 1164408599</internalNodes>
      <leafValues>
        -3.7259200215339661e-01 2.1876294910907745e-01</leafValues></_>
    <_>
      <internalNodes>
        0 -1 14079 247074673 -1426173982 -67209217 -19337348 -1141107340
        -17104898 -16876108 -16892420</internalNodes>
      <leafValues>
        -3.1409099698066711e-01 2.6717609167098999e-01</leafValues></_>
    <_>
      <internalNodes>
        0 -1 14506 247074425 -49154 2145319903 -98325 -2188 -229673
        -1073955076 -1154470408</internalNodes>
      <leafValues>
        -2.7302342653274536e-01 2.7049654722213745e-01</leafValues></_>
    <_>
      <internalNodes>
        0 -1 1503 -16781313 1861861359 -285216770 -219259170 -4257
        -34605249 -65796 -155713538</internalNodes>
      <leafValues>
        -2.2621674835681915e-01 2.8772222995758057e-01</leafValues></_>
    <_>
      <internalNodes>
        0 -1 20673 -881852433 1102358398 -704712890 -958086610
        1100416544 1089492759 -1649969358 1171776503</internalNodes>
      <leafValues>
        -2.6728358864784241e-01 2.3471765220165253e-01</leafValues></_>
    <_>
      <internalNodes>
        0 -1 9684 1950674160 361279010 2143250198 1025901056 1596198335
        -1617051649 1056900527 1034880029</internalNodes>
      <leafValues>
        -2.7343696355819702e-01 2.2716531157493591e-01</leafValues></_>
    <_>
      <internalNodes>
        0 -1 14240 -1363184073 781099770 -1610777639 -823329090
        -1074842571 -16879706 -136317228 -84396816</internalNodes>
      <leafValues>
        -3.2038319110870361e-01 2.0230261981487274e-01</leafValues></_>
    <_>
      <internalNodes>
        0 -1 17478 78259744 -1903674090 -8413418 -318982156 -1370069471
        -1428914250 -1932635952 -352398208</internalNodes>
      <leafValues>
        -3.5418871045112610e-01 1.4088252186775208e-01</leafValues></_>
    <_>
      <internalNodes>
        0 -1 18181 -797922680 825272097 -1259032042 -772772305 5257646
        -1138458657 687220874 871834031</internalNodes>
      <leafValues>
        -2.6629009842872620e-01 1.9191630184650421e-01</leafValues></_>
    <_>
      <internalNodes>
        0 -1 137 147629856 349220572 -17298156 -2323752 998113278
        -1166934153 1266409301 -269005570</internalNodes>
      <leafValues>
        -3.0309686064720154e-01 1.6920588910579681e-01</leafValues></_>
    <_>
      <internalNodes>
        0 -1 85 589723384 284093302 -822449118 1761062775 -1507563217
        1937686331 -562049542 -2142644234</internalNodes>
      <leafValues>
        -2.4252182245254517e-01 2.1540309488773346e-01</leafValues></_>
    <_>
      <internalNodes>
        0 -1 19679 -1879113816 67672296 -1115808428 -1812793434
        -724269612 137420281 1417434368 -1646789177</internalNodes>
      <leafValues>
        -2.8084209561347961e-01 1.8276500701904297e-01</leafValues></_>
    <_>
      <internalNodes>
        0 -1 4900 -287373613 -52461571 447697407 978747390 -34710528
        -25285294 -83959818 -100471238</internalNodes>
      <leafValues>
        -2.1453329920768738e-01 2.2557291388511658e-01</leafValues></_>
    <_>
      <internalNodes>
        0 -1 22619 -947933406 92329044 -307282526 -1880447100 -992279180
        -2075234567 1241338225 -825759985</internalNodes>
      <leafValues>
        -2.3949053883552551e-01 1.8732278048992157e-01</leafValues></_>
    <_>
      <internalNodes>
        0 -1 12592 1879108098 1880403844 -1090595019 -206657655 21298605
        -9109774 1808278671 738161803</internalNodes>
      <leafValues>
        -2.4759665131568909e-01 1.8789817392826080e-01</leafValues></_>
    <_>
      <internalNodes>
        0 -1 9365 1862201343 968558567 -1627758595 1059613987 2146791540
        -884877 -52916740 -1174387342</internalNodes>
      <leafValues>
        -2.0479151606559753e-01 2.2246393561363220e-01</leafValues></_>
    <_>
      <internalNodes>
        0 -1 7610 1316974319 782233599 -289406987 1761410902 2134322471
        1795028917 -520112396 -151586826</internalNodes>
      <leafValues>
        -2.9959446191787720e-01 1.5846621990203857e-01</leafValues></_>
    <_>
      <internalNodes>
        0 -1 339 1785720450 82226854 -1343205631 -336722424 788264371
        -889258264 -453175766 1172844036</internalNodes>
      <leafValues>
        -3.2125413417816162e-01 1.3435657322406769e-01</leafValues></_>
    <_>
      <internalNodes>
        0 -1 13116 -486613344 1693630390 -34640147 -301994001 -201985596
        -1796182794 -683705577 1207418631</internalNodes>
      <leafValues>
        -2.9135483503341675e-01 1.4263994991779327e-01</leafValues></_>
    <_>
      <internalNodes>
        0 -1 21960 -1434508768 572580880 -990354392 -223839582
        1197688388 1148575206 -286919458 -894528160</internalNodes>
      <leafValues>
        -2.9354575276374817e-01 1.3761436939239502e-01</leafValues></_>
    <_>
      <internalNodes>
        0 -1 7693 -17261449 -17082945 -1090597131 -1095814534 -189342240
        -701105 775493660 -1975186431</internalNodes>
      <leafValues>
        -1.8651883304119110e-01 2.1578396856784821e-01</leafValues></_>
    <_>
      <internalNodes>
        0 -1 24027 -1292121394 270282432 -1896023368 1886443284
        -1075467512 -445319306 -68354390 -1462020881</internalNodes>
      <leafValues>
        -1.7569099366664886e-01 2.2066473960876465e-01</leafValues></_>
    <_>
      <internalNodes>
        0 -1 17814 250038513 -2351943 -67371170 -201556490 -1401244467
        -1163072649 -1141459476 -1142289380</internalNodes>
      <leafValues>
        -1.6708120703697205e-01 2.2991633415222168e-01</leafValues></_>
    <_>
      <internalNodes>
        0 -1 11338 1930477170 1433751568 -966210444 -856895778
        1836367344 -847882960 1655987420 -1464922961</internalNodes>
      <leafValues>
        -2.3062054812908173e-01 1.6508147120475769e-01</leafValues></_>
    <_>
      <internalNodes>
        0 -1 19097 -1209077977 82898842 1844969128 -956453890 337011666
        278997751 1753075434 2130259035</internalNodes>
      <leafValues>
        -2.0997975766658783e-01 1.9067864120006561e-01</leafValues></_>
    <_>
      <internalNodes>
        0 -1 11953 -129085921 -1493276941 -385941761 313696951 268226265
        -16814123 -856158852 -1105040366</internalNodes>
      <leafValues>
        -2.3715451359748840e-01 1.7054927349090576e-01</leafValues></_></weakClassifiers></stage1>
</opencv_storage>
