<?xml version="1.0"?>
<opencv_storage>
<stage4>
  <maxWeakCount>59</maxWeakCount>
  <stageThreshold>-2.3612346649169922e+00</stageThreshold>
  <weakClassifiers>
    <_>
      <internalNodes>
        0 -1 13341 -1 -32769 -1 -98305 -1 -8193 -1 -4521985</internalNodes>
      <leafValues>
        -6.2164467573165894e-01 1.7246387898921967e-01</leafValues></_>
    <_>
      <internalNodes>
        0 -1 11274 -183176108 -178924460 -420544643 -257 -44761740
        -12258000 -205569 -33</internalNodes>
      <leafValues>
        -4.1573584079742432e-01 2.2786712646484375e-01</leafValues></_>
    <_>
      <internalNodes>
        0 -1 4807 -1 -25165825 -17105154 839057022 -257 -16974137
        -554906404 -93257990</internalNodes>
      <leafValues>
        -3.0235797166824341e-01 2.5595623254776001e-01</leafValues></_>
    <_>
      <internalNodes>
        0 -1 18246 -34867728 -254476289 -43393073 1156578943 -680003593
        -1309154817 -1057873 -69</internalNodes>
      <leafValues>
        -2.3225268721580505e-01 2.6275444030761719e-01</leafValues></_>
    <_>
      <internalNodes>
        0 -1 3421 -1364791381 715844266 2146426235 -290562016
        -1308622849 -285343745 -1073758977 -838872833</internalNodes>
      <leafValues>
        -2.7206024527549744e-01 2.1388404071331024e-01</leafValues></_>
    <_>
      <internalNodes>
        0 -1 10996 1951530740 1025606178 1593200505 1000538119
        1465953272 465370622 452924859 1002387379</internalNodes>
      <leafValues>
        -2.2339664399623871e-01 2.2092139720916748e-01</leafValues></_>
    <_>
      <internalNodes>
        0 -1 20075 -1351618681 30390919 1330056577 1304935147 -990411568
        1287923376 -974274080 -570428429</internalNodes>
      <leafValues>
        -1.8259678781032562e-01 2.7493941783905029e-01</leafValues></_>
    <_>
      <internalNodes>
        0 -1 15717 -2096 273857887 -218175572 -1327174177 -33704560
        -235544588 -4199544 -185610257</internalNodes>
      <leafValues>
        -2.1888315677642822e-01 1.8664985895156860e-01</leafValues></_>
    <_>
      <internalNodes>
        0 -1 9086 -604416 -496701906 1877995309 -273813553 -419960860
        -454894091 2012692295 1198522191</internalNodes>
      <leafValues>
        -2.8702086210250854e-01 1.4141458272933960e-01</leafValues></_>
    <_>
      <internalNodes>
        0 -1 13005 -1363200427 -1427132781 -16780033 -285292868
        -1396740331 -404969506 -51724 -16976656</internalNodes>
      <leafValues>
        -2.7134731411933899e-01 1.5028046071529388e-01</leafValues></_>
    <_>
      <internalNodes>
        0 -1 17455 -1024529714 271644462 -329192706 -185532758
        1618083836 276067957 -395036418 -176916990</internalNodes>
      <leafValues>
        -2.3929166793823242e-01 1.6471764445304871e-01</leafValues></_>
    <_>
      <internalNodes>
        0 -1 15668 36964641 -555844515 -16973889 -2196482 -662798444
        -1093763251 -1648576516 -1087886280</internalNodes>
      <leafValues>
        -2.1283423900604248e-01 1.7330656945705414e-01</leafValues></_>
    <_>
      <internalNodes>
        0 -1 36 745451026 318025438 -8496356 -1244092 786430719
        -403177546 -1141375409 -1113732066</internalNodes>
      <leafValues>
        -2.3112043738365173e-01 1.5624497830867767e-01</leafValues></_>
    <_>
      <internalNodes>
        0 -1 16431 780805168 -1439547854 1728019572 -291571728 517755508
        -1367474187 -1074514256 -50801420</internalNodes>
      <leafValues>
        -3.2305198907852173e-01 9.7224310040473938e-02</leafValues></_>
    <_>
      <internalNodes>
        0 -1 20494 -805394942 -1393885278 -302215424 -458849056
        1605439264 74966389 1383530755 1078269699</internalNodes>
      <leafValues>
        -4.1979250311851501e-01 7.9635441303253174e-02</leafValues></_>
    <_>
      <internalNodes>
        0 -1 1541 -293632129 -1304729793 2128019454 992116571 -117440548
        -51153594 -588196642 -82575757</internalNodes>
      <leafValues>
        -1.4205633103847504e-01 2.2954212129116058e-01</leafValues></_>
    <_>
      <internalNodes>
        0 -1 10453 591331155 -1103429922 -335618309 841154128
        -1129271561 -1073955971 1610353784 -366329816</internalNodes>
      <leafValues>
        -2.5328782200813293e-01 1.2820842862129211e-01</leafValues></_>
    <_>
      <internalNodes>
        0 -1 20406 -264964364 -587952786 1001276602 1071950906
        1209343148 -68152907 964584874 724780827</internalNodes>
      <leafValues>
        -1.8626078963279724e-01 1.8221035599708557e-01</leafValues></_>
    <_>
      <internalNodes>
        0 -1 1560 -612693777 -631812497 -923346182 1358888959 -52430336
        -696361403 -1351155974 -76349574</internalNodes>
      <leafValues>
        -1.5003986656665802e-01 2.0956763625144958e-01</leafValues></_>
    <_>
      <internalNodes>
        0 -1 10848 -710748462 -1333082454 1039142516 652617264
        -553149556 -1124601859 -1094775288 163382158</internalNodes>
      <leafValues>
        -2.1970552206039429e-01 1.3853740692138672e-01</leafValues></_>
    <_>
      <internalNodes>
        0 -1 22651 -2015369438 1442443250 -436375808 -982974614
        1173947696 1154963315 1400058506 1642447818</internalNodes>
      <leafValues>
        -2.1735250949859619e-01 1.3828039169311523e-01</leafValues></_>
    <_>
      <internalNodes>
        0 -1 14381 -2001819014 -1893160788 -1437155628 -1075663138
        -855860004 -864747650 1358324740 -1085015741</internalNodes>
      <leafValues>
        -1.9892320036888123e-01 1.4780853688716888e-01</leafValues></_>
    <_>
      <internalNodes>
        0 -1 13341 -734640569 1995370427 1048476891 -627331138
        1824319300 -58818788 2085007612 -1202385320</internalNodes>
      <leafValues>
        -1.6640679538249969e-01 1.7337410151958466e-01</leafValues></_>
    <_>
      <internalNodes>
        0 -1 3906 1314189296 343320233 -285676016 -1041365333 2119464948
        1223950317 2129952252 1845384310</internalNodes>
      <leafValues>
        -2.3034188151359558e-01 1.2569434940814972e-01</leafValues></_>
    <_>
      <internalNodes>
        0 -1 15549 -425218077 -932438282 -818413865 -288473144 259454935
        -22364170 904918997 -23460684</internalNodes>
      <leafValues>
        -1.8562015891075134e-01 1.5653765201568604e-01</leafValues></_>
    <_>
      <internalNodes>
        0 -1 21997 -781718898 -1849384422 -1934820182 -1520304602
        397742236 544654688 1843883690 17267979</internalNodes>
      <leafValues>
        -1.8281196057796478e-01 1.6337555646896362e-01</leafValues></_>
    <_>
      <internalNodes>
        0 -1 13764 -1398766960 -290805832 -302120967 -246608 -1473137191
        -403784195 2121809116 -1074064384</internalNodes>
      <leafValues>
        -1.6842825710773468e-01 1.7769160866737366e-01</leafValues></_>
    <_>
      <internalNodes>
        0 -1 12568 720777053 -1140925061 -131075 -4309033 -120871
        -100892939 -537101428 -2478288</internalNodes>
      <leafValues>
        -2.3176662623882294e-01 1.1820200085639954e-01</leafValues></_>
    <_>
      <internalNodes>
        0 -1 1950 -274079094 -1601265504 1989619762 -101989352
        -269751558 -1901134500 -1277958673 -542131973</internalNodes>
      <leafValues>
        -1.2001920491456985e-01 2.3425513505935669e-01</leafValues></_>
    <_>
      <internalNodes>
        0 -1 20282 1117776522 577824294 1612882630 -802104328 106452037
        609385847 -428476696 -2048470816</internalNodes>
      <leafValues>
        -2.6437252759933472e-01 1.0644657909870148e-01</leafValues></_>
    <_>
      <internalNodes>
        0 -1 17032 2002035330 -251395049 -268976520 -712242994
        -901707601 -988676387 1557989421 590294030</internalNodes>
      <leafValues>
        -2.0880942046642303e-01 1.3230143487453461e-01</leafValues></_>
    <_>
      <internalNodes>
        0 -1 10044 -582778544 387750 -1519661698 3861676 905942773
        -1929577298 1307004949 -589300581</internalNodes>
      <leafValues>
        -2.3999424278736115e-01 1.1620649695396423e-01</leafValues></_>
    <_>
      <internalNodes>
        0 -1 16798 587003248 -1711381141 -10555851 -1679675463
        1210115837 -598151169 1824937212 791808018</internalNodes>
      <leafValues>
        -2.0356220006942749e-01 1.3862705230712891e-01</leafValues></_>
    <_>
      <internalNodes>
        0 -1 14310 -1367464685 -1431421256 2130180832 -364236882
        -281785839 -840089610 1987934065 -85297740</internalNodes>
      <leafValues>
        -2.4697045981884003e-01 1.0838165134191513e-01</leafValues></_>
    <_>
      <internalNodes>
        0 -1 3253 1756325431 -1145493001 1050672891 857240883 -10853020
        -33991050 -411509140 -14659759</internalNodes>
      <leafValues>
        -1.7950089275836945e-01 1.5326160192489624e-01</leafValues></_>
    <_>
      <internalNodes>
        0 -1 19626 -842531335 -2065519968 -51631051 -22492042 345090168
        -1931727628 218498106 390022195</internalNodes>
      <leafValues>
        -1.7702163755893707e-01 1.5287531912326813e-01</leafValues></_>
    <_>
      <internalNodes>
        0 -1 10880 1383579440 544812778 -939586780 240047812 1735825172
        278933495 -11583737 231595356</internalNodes>
      <leafValues>
        -3.1365117430686951e-01 8.2615166902542114e-02</leafValues></_>
    <_>
      <internalNodes>
        0 -1 21702 1364437676 -800015853 1039470553 2037182262 242287752
        205360877 1464667720 1542931755</internalNodes>
      <leafValues>
        -1.7515890300273895e-01 1.5159781277179718e-01</leafValues></_>
    <_>
      <internalNodes>
        0 -1 4770 -16789769 -286315589 1723329130 843775716 -697063898
        -2016116972 -26477691 -80019462</internalNodes>
      <leafValues>
        -1.5302582085132599e-01 1.7656268179416656e-01</leafValues></_>
    <_>
      <internalNodes>
        0 -1 6468 623899635 -47567765 -571574441 -1423598 268170460 -10
        2113889752 -976263697</internalNodes>
      <leafValues>
        -1.1951126158237457e-01 2.2604128718376160e-01</leafValues></_>
    <_>
      <internalNodes>
        0 -1 21300 69659680 2062026294 -1896083917 -621037092
        -1124584015 -1880394443 2112140540 -1146420774</internalNodes>
      <leafValues>
        -1.4355224370956421e-01 1.7788644134998322e-01</leafValues></_>
    <_>
      <internalNodes>
        0 -1 21482 1388308262 6586207 -8933854 1076276902 1443319232
        1351941823 2142752168 838115195</internalNodes>
      <leafValues>
        -2.3273549973964691e-01 1.0994972288608551e-01</leafValues></_>
    <_>
      <internalNodes>
        0 -1 13876 -298701280 -828342734 -285338467 -16882064
        -1502923559 -290996255 896691385 -1074135011</internalNodes>
      <leafValues>
        -1.7691206932067871e-01 1.4404529333114624e-01</leafValues></_>
    <_>
      <internalNodes>
        0 -1 1101 -1906348385 821161726 1786162644 -1416823196
        -270750215 -118513946 -541363132 -109318572</internalNodes>
      <leafValues>
        -1.5668143332004547e-01 1.6394093632698059e-01</leafValues></_>
    <_>
      <internalNodes>
        0 -1 20989 -2014401242 -2093812038 -33645152 1322270666
        875972209 79242743 -1091740655 1156923138</internalNodes>
      <leafValues>
        -2.9728600382804871e-01 8.3934545516967773e-02</leafValues></_>
    <_>
      <internalNodes>
        0 -1 11150 5550626 1692180578 1878847860 1441064431 -1118508690
        1929247861 468498104 1073381891</internalNodes>
      <leafValues>
        -2.4044349789619446e-01 1.0407099127769470e-01</leafValues></_>
    <_>
      <internalNodes>
        0 -1 21072 -193797490 812773351 -357127034 -169935194 1501543882
        612126694 -151718488 -587930130</internalNodes>
      <leafValues>
        -1.3659358024597168e-01 1.8816326558589935e-01</leafValues></_>
    <_>
      <internalNodes>
        0 -1 15095 1309928115 884977501 2095750655 -29991051 2147236720
        -1074004041 -285722564 -556386796</internalNodes>
      <leafValues>
        -1.6189891099929810e-01 1.5832473337650299e-01</leafValues></_>
    <_>
      <internalNodes>
        0 -1 20370 -289889248 -1400233070 -453067054 -288309702
        909846069 -302897209 -1191208557 -1497676566</internalNodes>
      <leafValues>
        -1.8779860436916351e-01 1.3432998955249786e-01</leafValues></_>
    <_>
      <internalNodes>
        0 -1 4860 -830519041 1927171710 1761507535 309517821 -21530624
        1987190624 -67791912 -132991538</internalNodes>
      <leafValues>
        -1.7402999103069305e-01 1.4406648278236389e-01</leafValues></_>
    <_>
      <internalNodes>
        0 -1 16031 1342424744 388024198 2102026036 -35616224 1398629540
        -1078394906 116721453 166028416</internalNodes>
      <leafValues>
        -2.0304253697395325e-01 1.2444578111171722e-01</leafValues></_>
    <_>
      <internalNodes>
        0 -1 9006 1725809213 779546238 -820609025 781086482 1190100789
        -637814793 1979087668 -256477498</internalNodes>
      <leafValues>
        -2.3276007175445557e-01 1.1125072836875916e-01</leafValues></_>
    <_>
      <internalNodes>
        0 -1 405 217329164 535872652 -1477165132 -733692 2055008053
        2147020136 -1107378984 -1727236</internalNodes>
      <leafValues>
        -2.3586367070674896e-01 1.0753744840621948e-01</leafValues></_>
    <_>
      <internalNodes>
        0 -1 44 1439477409 849668334 -269582472 -336722419 1224202235
        -823350296 1306290107 1090279112</internalNodes>
      <leafValues>
        -1.7513784766197205e-01 1.4697486162185669e-01</leafValues></_>
    <_>
      <internalNodes>
        0 -1 0 34111496 134909000 193217728 1470928108 -1558926974
        -1903544976 27956186 13615292</internalNodes>
      <leafValues>
        -2.4391959607601166e-01 1.0525852441787720e-01</leafValues></_>
    <_>
      <internalNodes>
        0 -1 22707 -230765566 -1334130000 -2036019625 -220152267
        2068041284 895877332 -464224084 -2000717617</internalNodes>
      <leafValues>
        -1.6477921605110168e-01 1.5375815331935883e-01</leafValues></_>
    <_>
      <internalNodes>
        0 -1 9442 394209946 -1005262106 -21168259 -215679954 1814943929
        -25296900 1663614952 1912667840</internalNodes>
      <leafValues>
        -1.8754899501800537e-01 1.3323704898357391e-01</leafValues></_>
    <_>
      <internalNodes>
        0 -1 3099 2138554271 505380503 805227740 690028285 -1730219044
        1842830695 -1595647268 -821952989</internalNodes>
      <leafValues>
        -1.5062050521373749e-01 1.6641758382320404e-01</leafValues></_>
    <_>
      <internalNodes>
        0 -1 20535 1847604416 -54393740 -1074799899 -537088460 795262691
        -1900347523 901567452 -1078262359</internalNodes>
      <leafValues>
        -1.3299258053302765e-01 1.8496757745742798e-01</leafValues></_></weakClassifiers></stage4>
</opencv_storage>
