<?xml version="1.0"?>
<opencv_storage>
<stage5>
  <maxWeakCount>68</maxWeakCount>
  <stageThreshold>-2.2896978855133057e+00</stageThreshold>
  <weakClassifiers>
    <_>
      <internalNodes>
        0 -1 12239 -11010049 -12613729 2143231871 2142196639 2136715199
        -16449 1069482923 1069495231</internalNodes>
      <leafValues>
        -6.7805361747741699e-01 -1.2175466865301132e-01</leafValues></_>
    <_>
      <internalNodes>
        0 -1 9275 -1 -65569 -16842753 -1145372673 -50397441 -65537
        -16974338 -1155465218</internalNodes>
      <leafValues>
        -3.5623028874397278e-01 2.3802554607391357e-01</leafValues></_>
    <_>
      <internalNodes>
        0 -1 17193 -200215360 1364321348 1079049488 1362753367
        1968239732 1880442101 1382349051 1409266079</internalNodes>
      <leafValues>
        -3.8049697875976562e-01 1.8771322071552277e-01</leafValues></_>
    <_>
      <internalNodes>
        0 -1 119 203460346 439405310 -262283 -550978120 -17 -1610915843
        -838861057 -1025</internalNodes>
      <leafValues>
        -2.8699043393135071e-01 1.7626944184303284e-01</leafValues></_>
    <_>
      <internalNodes>
        0 -1 19603 -808469622 -2136299358 -376611840 -1385215358
        -1980530432 8697633 89592835 84370435</internalNodes>
      <leafValues>
        -3.1605643033981323e-01 1.5702021121978760e-01</leafValues></_>
    <_>
      <internalNodes>
        0 -1 11589 -285340033 -285282598 -18985025 -285574154
        -1090552972 -24129565 -16990212 -16847628</internalNodes>
      <leafValues>
        -2.2122257947921753e-01 2.1472592651844025e-01</leafValues></_>
    <_>
      <internalNodes>
        0 -1 21109 -144506898 1343289079 -33489462 -467599722 -998910472
        -657164364 -1172260166 807493666</internalNodes>
      <leafValues>
        -2.3979826271533966e-01 1.7628091573715210e-01</leafValues></_>
    <_>
      <internalNodes>
        0 -1 10476 -85786898 -121180418 -223449105 -4113 -998968108
        -523465730 -1645314217 1609555759</internalNodes>
      <leafValues>
        -1.9396656751632690e-01 2.0034846663475037e-01</leafValues></_>
    <_>
      <internalNodes>
        0 -1 7857 -83931393 -83946273 -61475201 989757403 -17336742
        -16810371 -352387090 -29687812</internalNodes>
      <leafValues>
        -1.8127800524234772e-01 2.0525471866130829e-01</leafValues></_>
    <_>
      <internalNodes>
        0 -1 21475 1560280831 374734655 133797598 -354763058 1507792900
        1066358894 2143226626 1650427403</internalNodes>
      <leafValues>
        -2.0212827622890472e-01 1.7330841720104218e-01</leafValues></_>
    <_>
      <internalNodes>
        0 -1 1609 -889213985 -12603601 -1635844353 824244081 1592216287
        -962689 -1159659798 -79595949</internalNodes>
      <leafValues>
        -1.2921380996704102e-01 2.5855663418769836e-01</leafValues></_>
    <_>
      <internalNodes>
        0 -1 15395 -1494746561 -1433653334 -41947141 -352387088
        1835972567 -354107397 -1242134544 -18942504</internalNodes>
      <leafValues>
        -1.8653777241706848e-01 1.8050019443035126e-01</leafValues></_>
    <_>
      <internalNodes>
        0 -1 13839 1381035742 892446337 -2105516164 -139164619
        2145320956 -1174540550 1793932666 1002403535</internalNodes>
      <leafValues>
        -1.8506206572055817e-01 1.7719022929668427e-01</leafValues></_>
    <_>
      <internalNodes>
        0 -1 10584 -89133121 -286879890 1861943038 -353960202 1953914103
        -604504449 1332508244 -59753932</internalNodes>
      <leafValues>
        -2.5722238421440125e-01 1.2006182968616486e-01</leafValues></_>
    <_>
      <internalNodes>
        0 -1 4827 -153100306 -419771138 763292651 -1485843203 -477891948
        1416690103 -1078240433 2139095007</internalNodes>
      <leafValues>
        -1.9344669580459595e-01 1.6200391948223114e-01</leafValues></_>
    <_>
      <internalNodes>
        0 -1 2414 1322184398 991079457 -88314066 -1645255998 494239734
        937545718 -152801314 749491248</internalNodes>
      <leafValues>
        -2.0237149298191071e-01 1.4925216138362885e-01</leafValues></_>
    <_>
      <internalNodes>
        0 -1 15376 -97058818 -797884802 -429596102 -1498582 1950670845
        -63608784 2079673883 2136949775</internalNodes>
      <leafValues>
        -1.4145605266094208e-01 2.0300638675689697e-01</leafValues></_>
    <_>
      <internalNodes>
        0 -1 14030 1848773681 -290147426 -1073824009 -50397626
        1054703104 -2441347 1054752508 -17937672</internalNodes>
      <leafValues>
        -2.0696930587291718e-01 1.4069634675979614e-01</leafValues></_>
    <_>
      <internalNodes>
        0 -1 4615 -756025601 803188730 -16781572 -227737986 2135390071
        -69894713 -197790476 -45746201</internalNodes>
      <leafValues>
        -2.0033809542655945e-01 1.4062011241912842e-01</leafValues></_>
    <_>
      <internalNodes>
        0 -1 20891 -1753242602 84202001 187178256 -1933202210 1422247920
        142996924 1438976208 -927990838</internalNodes>
      <leafValues>
        -2.0403191447257996e-01 1.4077556133270264e-01</leafValues></_>
    <_>
      <internalNodes>
        0 -1 21360 -23528268 -68506208 -436538378 -1279058 -1827624964
        -1930527753 930723065 -1079307032</internalNodes>
      <leafValues>
        -1.2321935594081879e-01 2.2433337569236755e-01</leafValues></_>
    <_>
      <internalNodes>
        0 -1 3230 -276872981 2121744893 1726930543 1886019551 -16818336
        -352620782 1928396532 -81600901</internalNodes>
      <leafValues>
        -1.5864437818527222e-01 1.7016339302062988e-01</leafValues></_>
    <_>
      <internalNodes>
        0 -1 20175 1077987982 273728004 -1405829447 -45820361 376857756
        446723478 1855991470 669467650</internalNodes>
      <leafValues>
        -1.9794937968254089e-01 1.3326013088226318e-01</leafValues></_>
    <_>
      <internalNodes>
        0 -1 5215 1585362468 553549796 1179545092 713956558 -134333392
        -1265192074 -402752765 246183290</internalNodes>
      <leafValues>
        -3.5629513859748840e-01 7.3496803641319275e-02</leafValues></_>
    <_>
      <internalNodes>
        0 -1 24023 133664687 1610611707 1067826944 -1477687326
        1667711988 1144246199 -1411925318 1693558523</internalNodes>
      <leafValues>
        -1.6147415339946747e-01 1.6273373365402222e-01</leafValues></_>
    <_>
      <internalNodes>
        0 -1 12010 1862198741 958086917 -54649001 1060820023 903740500
        -84543658 -588413748 -1084132317</internalNodes>
      <leafValues>
        -1.3035161793231964e-01 2.0084595680236816e-01</leafValues></_>
    <_>
      <internalNodes>
        0 -1 22 68068914 682274022 -306970629 -1343435630 266312187
        -285213698 191358447 1221366932</internalNodes>
      <leafValues>
        -2.6777872443199158e-01 9.7824417054653168e-02</leafValues></_>
    <_>
      <internalNodes>
        0 -1 1583 654117895 308636965 -662905244 855662191 -814779596
        2138659101 -390571168 2132833858</internalNodes>
      <leafValues>
        -2.4306739866733551e-01 1.0609872639179230e-01</leafValues></_>
    <_>
      <internalNodes>
        0 -1 4996 928853749 1009250030 -4301035 1735280334 2121577915
        -117964867 155492027 1934547195</internalNodes>
      <leafValues>
        -1.5312053263187408e-01 1.6305981576442719e-01</leafValues></_>
    <_>
      <internalNodes>
        0 -1 22761 1085773452 -2146762996 1572519936 -1928730878
        1163516296 206664017 1669226410 1259299</internalNodes>
      <leafValues>
        -2.1251741051673889e-01 1.1943895369768143e-01</leafValues></_>
    <_>
      <internalNodes>
        0 -1 16074 -1608514528 -960724024 -2364993 -126064008
        -1942479392 -1097179182 980925885 -1422195452</internalNodes>
      <leafValues>
        -1.8829745054244995e-01 1.3433045148849487e-01</leafValues></_>
    <_>
      <internalNodes>
        0 -1 3206 1895657194 -1565877466 2119068264 734035687 -724727596
        -991051569 1190414400 1079494087</internalNodes>
      <leafValues>
        -2.8586980700492859e-01 8.6316518485546112e-02</leafValues></_>
    <_>
      <internalNodes>
        0 -1 11949 786394839 -285786822 -285416090 1913835045 984479359
        -269563553 -1611204640 -96427020</internalNodes>
      <leafValues>
        -1.9956423342227936e-01 1.2338159233331680e-01</leafValues></_>
    <_>
      <internalNodes>
        0 -1 17842 -233841199 1912258355 -33628426 -187766937 2146955140
        -1075840199 -1158682452 -909253713</internalNodes>
      <leafValues>
        -1.2208405137062073e-01 2.0655244588851929e-01</leafValues></_>
    <_>
      <internalNodes>
        0 -1 27213 -329987 -536881157 1396635481 -100663665 -65569
        -2013348628 1610004463 2071967743</internalNodes>
      <leafValues>
        -7.7908858656883240e-02 3.1536036729812622e-01</leafValues></_>
    <_>
      <internalNodes>
        0 -1 20950 -385957728 -495919447 2130429678 -82314272
        -2001410128 -1897989578 -103226120 -5540384</internalNodes>
      <leafValues>
        -1.2332817912101746e-01 2.0061759650707245e-01</leafValues></_>
    <_>
      <internalNodes>
        0 -1 21966 1593569158 284882466 -1023498574 -764829966
        2120174861 894832450 1977014250 -1047009438</internalNodes>
      <leafValues>
        -1.9078162312507629e-01 1.2628988921642303e-01</leafValues></_>
    <_>
      <internalNodes>
        0 -1 9045 -889222485 710598626 1609490281 -2000879906 976584198
        1055861875 1276622324 -226953248</internalNodes>
      <leafValues>
        -2.2436057031154633e-01 1.0662113130092621e-01</leafValues></_>
    <_>
      <internalNodes>
        0 -1 10907 1141785633 1034596290 -1090864841 -571841721
        960451029 1609478143 225273159 82642277</internalNodes>
      <leafValues>
        -1.9742363691329956e-01 1.2308754771947861e-01</leafValues></_>
    <_>
      <internalNodes>
        0 -1 14320 -568005194 -1369428314 -1229015298 1860626950
        -733677583 -1430315340 149292048 2125414480</internalNodes>
      <leafValues>
        -2.4375565350055695e-01 9.9520415067672729e-02</leafValues></_>
    <_>
      <internalNodes>
        0 -1 16148 1414564494 1964344259 -118428068 -4266380 1591494381
        -1160450073 1941818348 414049286</internalNodes>
      <leafValues>
        -1.6765755414962769e-01 1.4988231658935547e-01</leafValues></_>
    <_>
      <internalNodes>
        0 -1 18859 13332262 22304206 1869220900 -925587164 1899380962
        -1057094147 -1661120532 1895365258</internalNodes>
      <leafValues>
        -2.2090536355972290e-01 1.0869503766298294e-01</leafValues></_>
    <_>
      <internalNodes>
        0 -1 8030 776547073 787363816 -268436651 -327452418 116632949
        213613375 1736441663 -841649033</internalNodes>
      <leafValues>
        -2.2529385983943939e-01 1.0300309211015701e-01</leafValues></_>
    <_>
      <internalNodes>
        0 -1 2069 -17830157 430877354 -172347631 -135356416 -1043358729
        217317374 182780542 1573934962</internalNodes>
      <leafValues>
        -1.3304767012596130e-01 1.8330709636211395e-01</leafValues></_>
    <_>
      <internalNodes>
        0 -1 10859 -1254345072 273264227 -2092520692 1722116799
        -1085250754 1969527514 -699410936 1584770586</internalNodes>
      <leafValues>
        -2.1171931922435760e-01 1.1184499412775040e-01</leafValues></_>
    <_>
      <internalNodes>
        0 -1 21340 -123686512 -625414568 1778318577 -21094810
        -1174887180 -857981076 -1129024040 -1681981256</internalNodes>
      <leafValues>
        -1.3316707313060760e-01 1.8025471270084381e-01</leafValues></_>
    <_>
      <internalNodes>
        0 -1 17550 -291331817 -1426673114 -310378524 -287265098
        -1967447435 -1365803123 1469498276 -18319972</internalNodes>
      <leafValues>
        -1.8862570822238922e-01 1.2461443245410919e-01</leafValues></_>
    <_>
      <internalNodes>
        0 -1 20959 -17841140 383033149 158329388 2133520354 1708514749
        1034270447 1841685806 2043404330</internalNodes>
      <leafValues>
        -1.4765316247940063e-01 1.5645572543144226e-01</leafValues></_>
    <_>
      <internalNodes>
        0 -1 17802 -894027723 -151636022 -1795373265 -72843275
        -274746907 -1159757861 2029516765 -1694887176</internalNodes>
      <leafValues>
        -1.4233750104904175e-01 1.6295588016510010e-01</leafValues></_>
    <_>
      <internalNodes>
        0 -1 17626 -187285508 -1059942529 1643409852 -319829521
        1142276084 -1263141712 2050103859 1576489843</internalNodes>
      <leafValues>
        -2.0212052762508392e-01 1.1324891448020935e-01</leafValues></_>
    <_>
      <internalNodes>
        0 -1 28 47459860 959752054 -1344373132 -1108328836 1055752149
        -37965826 392919901 783355092</internalNodes>
      <leafValues>
        -2.9755380749702454e-01 7.4726775288581848e-02</leafValues></_>
    <_>
      <internalNodes>
        0 -1 23433 1039731499 -746668728 -42733822 -1979958272 67468092
        1155898367 -402694157 1962407662</internalNodes>
      <leafValues>
        -1.6265553236007690e-01 1.3810198009014130e-01</leafValues></_>
    <_>
      <internalNodes>
        0 -1 24035 1576513174 -1652632927 1655065128 87821858 1222299053
        1148089837 1190765706 87519779</internalNodes>
      <leafValues>
        -1.5713484585285187e-01 1.4832910895347595e-01</leafValues></_>
    <_>
      <internalNodes>
        0 -1 1435 1860112143 215310263 -690757638 304258410 1559223364
        175709773 -1099096600 1615918378</internalNodes>
      <leafValues>
        -2.5538846850395203e-01 9.1752879321575165e-02</leafValues></_>
    <_>
      <internalNodes>
        0 -1 13820 -1432311680 -290559936 -2030100623 -16923196
        -2028286023 -1637671201 -1758185251 -1682095087</internalNodes>
      <leafValues>
        -1.5952803194522858e-01 1.4479441940784454e-01</leafValues></_>
    <_>
      <internalNodes>
        0 -1 12503 -323744652 -201747 -406884801 -4309155 1607233501
        -1645339155 -1090749192 -292017068</internalNodes>
      <leafValues>
        -1.8603822588920593e-01 1.2543508410453796e-01</leafValues></_>
    <_>
      <internalNodes>
        0 -1 27190 -44769301 -67363667 -33958230 -136325398 -883494241
        1874193405 -1074020485 511445674</internalNodes>
      <leafValues>
        -1.1521865427494049e-01 1.9993397593498230e-01</leafValues></_>
    <_>
      <internalNodes>
        0 -1 21250 -1474261504 980950640 1601944148 -1728572776
        705081589 -2145232540 -1744976660 -1746267878</internalNodes>
      <leafValues>
        -1.6693085432052612e-01 1.3765428960323334e-01</leafValues></_>
    <_>
      <internalNodes>
        0 -1 19428 2097147010 49719118 1891609284 -227089674 1063666721
        658820134 -566972246 -1049696910</internalNodes>
      <leafValues>
        -2.2388292849063873e-01 1.0203760862350464e-01</leafValues></_>
    <_>
      <internalNodes>
        0 -1 15698 -1440164093 -1711798665 2147385297 -35111309
        -1242585724 -541671527 -1090572920 971797634</internalNodes>
      <leafValues>
        -1.5961910784244537e-01 1.4212259650230408e-01</leafValues></_>
    <_>
      <internalNodes>
        0 -1 201 -1608338526 239117544 1307689060 -1132266256 1065347497
        -1899467183 -1017326486 92526794</internalNodes>
      <leafValues>
        -2.0545475184917450e-01 1.1293229460716248e-01</leafValues></_>
    <_>
      <internalNodes>
        0 -1 10079 1800713462 879089520 -1361281956 -857360146 492074108
        -411814620 505694300 -541111286</internalNodes>
      <leafValues>
        -1.9363018870353699e-01 1.1980255693197250e-01</leafValues></_>
    <_>
      <internalNodes>
        0 -1 22156 1374567786 1280767940 1475826000 -940579738
        1425284101 75223367 1425342802 1085781559</internalNodes>
      <leafValues>
        -2.0504024624824524e-01 1.0956782102584839e-01</leafValues></_>
    <_>
      <internalNodes>
        0 -1 13357 -1506647239 -227401758 -294783361 -41129985
        1989928768 -21055271 -1659477315 -1141358704</internalNodes>
      <leafValues>
        -1.5722633898258209e-01 1.4933073520660400e-01</leafValues></_>
    <_>
      <internalNodes>
        0 -1 22185 1042342016 -1222096864 1807515509 -538289106
        975746737 -293298809 -207749889 -1076948821</internalNodes>
      <leafValues>
        -1.1273806542158127e-01 2.0732109248638153e-01</leafValues></_>
    <_>
      <internalNodes>
        0 -1 7360 1112958615 33632041 -50661763 1524690689 -3202636
        -281153921 1924602188 -5887248</internalNodes>
      <leafValues>
        -1.8640208244323730e-01 1.2400724738836288e-01</leafValues></_>
    <_>
      <internalNodes>
        0 -1 27020 2075523021 -67245413 1171725807 -940591185
        -1074020692 1173330810 -666705 1434136303</internalNodes>
      <leafValues>
        -1.0121150314807892e-01 2.3025137186050415e-01</leafValues></_>
    <_>
      <internalNodes>
        0 -1 18432 204605984 14685986 -956303376 1118088376 1039891540
        -1654826125 -1535814668 -857075472</internalNodes>
      <leafValues>
        -2.9720306396484375e-01 7.8079909086227417e-02</leafValues></_></weakClassifiers></stage5>
</opencv_storage>
