<?xml version="1.0"?>
<opencv_storage>
<stage7>
  <maxWeakCount>86</maxWeakCount>
  <stageThreshold>-2.2222409248352051e+00</stageThreshold>
  <weakClassifiers>
    <_>
      <internalNodes>
        0 -1 7842 -1 -1 -1 -12910593 -4194305 -69633 -16843265 -80543746</internalNodes>
      <leafValues>
        -6.3427942991256714e-01 -1.5742561221122742e-01</leafValues></_>
    <_>
      <internalNodes>
        0 -1 12159 2145255423 -14684225 2145330999 1060051543 -2646609
        -65 263128239 1002381503</internalNodes>
      <leafValues>
        -3.1132581830024719e-01 2.0878545939922333e-01</leafValues></_>
    <_>
      <internalNodes>
        0 -1 10342 -143392769 -9327027 -86418 -3215678 1601568767
        -10431644 -9056437 -12303292</internalNodes>
      <leafValues>
        -1.6716676950454712e-01 2.8120490908622742e-01</leafValues></_>
    <_>
      <internalNodes>
        0 -1 19335 -33554441 -536879109 -704655441 -269488161 -526345
        -726272025 -8197 -263169</internalNodes>
      <leafValues>
        -1.1151616275310516e-01 3.5649138689041138e-01</leafValues></_>
    <_>
      <internalNodes>
        0 -1 1506 -1 -293601361 -38011170 -789250310 -140509249
        -562111627 -4194340 -193855504</internalNodes>
      <leafValues>
        -2.3763284087181091e-01 1.5862652659416199e-01</leafValues></_>
    <_>
      <internalNodes>
        0 -1 9 171052734 1023973236 -1370003945 865665018 -1073759317
        -1084313374 1996487147 -538984709</internalNodes>
      <leafValues>
        -2.0065356791019440e-01 1.8594600260257721e-01</leafValues></_>
    <_>
      <internalNodes>
        0 -1 17192 -265228550 -247339962 811911201 -168174601 1293192383
        964222972 1115622139 465249423</internalNodes>
      <leafValues>
        -1.9473247230052948e-01 1.8386740982532501e-01</leafValues></_>
    <_>
      <internalNodes>
        0 -1 4529 -147326017 573243006 -1427190068 -1427379510 -2366017
        2080323927 -974320568 -1731476408</internalNodes>
      <leafValues>
        -2.2575640678405762e-01 1.4846973121166229e-01</leafValues></_>
    <_>
      <internalNodes>
        0 -1 21281 -995822684 -727664864 -358168784 -574644046
        -591350608 -792685147 -59443205 1001342243</internalNodes>
      <leafValues>
        -1.7702758312225342e-01 1.6599205136299133e-01</leafValues></_>
    <_>
      <internalNodes>
        0 -1 13045 -822208713 -1359299650 -588253217 -823731778
        -1687736555 -1900151299 -281131724 -19991072</internalNodes>
      <leafValues>
        -2.2568869590759277e-01 1.3107158243656158e-01</leafValues></_>
    <_>
      <internalNodes>
        0 -1 12038 247005749 -2935533 -159711233 993165307 -192999612
        -53436 -340099330 -1090493104</internalNodes>
      <leafValues>
        -1.6052061319351196e-01 1.7559492588043213e-01</leafValues></_>
    <_>
      <internalNodes>
        0 -1 21462 -59775035 1880552423 -537200678 -521213989 -714226432
        1966473061 -71385976 -238946309</internalNodes>
      <leafValues>
        -1.4826525747776031e-01 1.8942540884017944e-01</leafValues></_>
    <_>
      <internalNodes>
        0 -1 21325 -523311456 -1062429052 -371774005 -540561206
        -1802979408 -2138270559 665575995 95355171</internalNodes>
      <leafValues>
        -1.8623076379299164e-01 1.4209944009780884e-01</leafValues></_>
    <_>
      <internalNodes>
        0 -1 7046 1582482126 437169314 -223451381 450888290 2122219228
        949411774 2011987294 969373232</internalNodes>
      <leafValues>
        -2.0029416680335999e-01 1.2283515185117722e-01</leafValues></_>
    <_>
      <internalNodes>
        0 -1 16795 -489812297 -155555841 -16781603 -50413617 -1237385235
        -287449665 -469829665 -4561542</internalNodes>
      <leafValues>
        -1.3048055768013000e-01 1.8855318427085876e-01</leafValues></_>
    <_>
      <internalNodes>
        0 -1 3267 1123863758 -1392628242 614360608 736212265 1203570116
        -989995796 -2062248896 1358399427</internalNodes>
      <leafValues>
        -2.6727750897407532e-01 9.9118225276470184e-02</leafValues></_>
    <_>
      <internalNodes>
        0 -1 22655 -622074742 805342724 586588343 -222256385 -1740716020
        -1368942752 -1399541846 -1079773986</internalNodes>
      <leafValues>
        -1.3788267970085144e-01 1.8199715018272400e-01</leafValues></_>
    <_>
      <internalNodes>
        0 -1 7566 46082789 236646399 1853811495 787402506 1151669732
        2124414163 -153627324 -118162316</internalNodes>
      <leafValues>
        -2.6504537463188171e-01 8.8326849043369293e-02</leafValues></_>
    <_>
      <internalNodes>
        0 -1 1641 -411046201 2079289183 -696601098 1399586559 2139053844
        -10680485 -2361513 -13369481</internalNodes>
      <leafValues>
        -1.2864139676094055e-01 1.9046530127525330e-01</leafValues></_>
    <_>
      <internalNodes>
        0 -1 21231 -260243780 -789518814 -580211560 -1115380222
        1954481844 -1187950796 2084339946 186343971</internalNodes>
      <leafValues>
        -1.6481009125709534e-01 1.4141872525215149e-01</leafValues></_>
    <_>
      <internalNodes>
        0 -1 13377 3335217 -1220880390 -1112559617 -269566219
        -1389113135 -1073748291 1694487036 -1395850123</internalNodes>
      <leafValues>
        -1.7457640171051025e-01 1.3542766869068146e-01</leafValues></_>
    <_>
      <internalNodes>
        0 -1 18539 791325602 -2035372038 1199473316 -857034142
        1121268165 -2074085889 1417748550 1147499955</internalNodes>
      <leafValues>
        -3.0033522844314575e-01 7.5914643704891205e-02</leafValues></_>
    <_>
      <internalNodes>
        0 -1 756 -285806874 333819607 -1359843372 -1119157373 -136642561
        284852196 -53182593 -69960848</internalNodes>
      <leafValues>
        -1.3479571044445038e-01 1.6505011916160583e-01</leafValues></_>
    <_>
      <internalNodes>
        0 -1 27185 1566438399 -134348849 526317487 -671096833 -2179589
        -411371769 -70254597 2071834107</internalNodes>
      <leafValues>
        -7.8946821391582489e-02 2.8304505348205566e-01</leafValues></_>
    <_>
      <internalNodes>
        0 -1 15318 674958451 -1493762685 -1889538220 -285838594
        -1124509884 -1350895658 -1629531211 -556870148</internalNodes>
      <leafValues>
        -2.0896497368812561e-01 1.1034706979990005e-01</leafValues></_>
    <_>
      <internalNodes>
        0 -1 21375 170958896 -576310174 1069479671 -164130 802463384
        -1380053059 195294139 -1145109190</internalNodes>
      <leafValues>
        -1.1832179129123688e-01 1.9220164418220520e-01</leafValues></_>
    <_>
      <internalNodes>
        0 -1 20248 -665329522 276014631 -1062969297 -193661237
        2103929100 -1395197132 -1125900582 -14199194</internalNodes>
      <leafValues>
        -1.4877711236476898e-01 1.4455914497375488e-01</leafValues></_>
    <_>
      <internalNodes>
        0 -1 9989 -399856077 -357894224 -555817504 -26413892 -1422770248
        -1412153348 2135848447 -71346715</internalNodes>
      <leafValues>
        -1.3135279715061188e-01 1.5915811061859131e-01</leafValues></_>
    <_>
      <internalNodes>
        0 -1 6408 -627110657 -25350453 -50667798 2029674495 -67634684
        -1430414 -1413550632 -14631298</internalNodes>
      <leafValues>
        -1.3191583752632141e-01 1.5292732417583466e-01</leafValues></_>
    <_>
      <internalNodes>
        0 -1 21775 -462820864 -827631830 -1530996222 -82845784
        -1608465000 -1447755971 -1526860664 -607423232</internalNodes>
      <leafValues>
        -1.2387049943208694e-01 1.6801212728023529e-01</leafValues></_>
    <_>
      <internalNodes>
        0 -1 19430 -916133130 -765395083 -156974546 -1115310521
        -998953544 -1205209408 -1974310150 1047491679</internalNodes>
      <leafValues>
        -1.3668289780616760e-01 1.4735566079616547e-01</leafValues></_>
    <_>
      <internalNodes>
        0 -1 5974 -1075366652 1077846856 -654980356 1692171854
        1742731199 -2031431169 1206059092 1146551875</internalNodes>
      <leafValues>
        -2.9246753454208374e-01 7.0406235754489899e-02</leafValues></_>
    <_>
      <internalNodes>
        0 -1 9207 2144315375 -923900693 -28673510 584776700 1551873223
        -430508195 1398555168 -23527440</internalNodes>
      <leafValues>
        -1.8841125071048737e-01 1.0764499008655548e-01</leafValues></_>
    <_>
      <internalNodes>
        0 -1 13781 -164370752 300197514 1549690391 -1145216 -671795724
        -1127219970 1877093518 493446469</internalNodes>
      <leafValues>
        -1.5122851729393005e-01 1.3754962384700775e-01</leafValues></_>
    <_>
      <internalNodes>
        0 -1 14891 24620592 135130328 -442232735 23746734 58513780
        150663408 867966445 429653643</internalNodes>
      <leafValues>
        -2.1280725300312042e-01 9.2406690120697021e-02</leafValues></_>
    <_>
      <internalNodes>
        0 -1 15241 2088752671 -1187598413 888987134 -1528500618
        2145173664 -1107840969 1052532204 -120848298</internalNodes>
      <leafValues>
        -1.4163395762443542e-01 1.5221279859542847e-01</leafValues></_>
    <_>
      <internalNodes>
        0 -1 15641 785384484 -591505575 -545620357 -141132685
        -2065780392 -37814337 -588753015 -1415572480</internalNodes>
      <leafValues>
        -2.5486183166503906e-01 7.9530924558639526e-02</leafValues></_>
    <_>
      <internalNodes>
        0 -1 21934 1613429278 67142435 -1408434538 632399123 -1930095124
        -865843776 1748249450 84369698</internalNodes>
      <leafValues>
        -1.9395612180233002e-01 1.0689947009086609e-01</leafValues></_>
    <_>
      <internalNodes>
        0 -1 25526 502605579 360181759 1877769416 537717674 467709904
        1978200253 -274343286 619751388</internalNodes>
      <leafValues>
        -1.6599661111831665e-01 1.2121128290891647e-01</leafValues></_>
    <_>
      <internalNodes>
        0 -1 4950 -2099666262 -1566383704 999761346 1434442996
        -1422482782 164295114 -1745160497 1573623036</internalNodes>
      <leafValues>
        -1.5961635112762451e-01 1.2803134322166443e-01</leafValues></_>
    <_>
      <internalNodes>
        0 -1 23475 -420938496 -156966006 -50402272 -771957698
        -1499927344 81810580 -160594946 -1946183253</internalNodes>
      <leafValues>
        -1.0779070109128952e-01 1.8660712242126465e-01</leafValues></_>
    <_>
      <internalNodes>
        0 -1 21307 1609038827 -1517496448 -1354028997 -269489502
        340931709 -1407467844 822019074 1437581443</internalNodes>
      <leafValues>
        -1.2622319161891937e-01 1.5987084805965424e-01</leafValues></_>
    <_>
      <internalNodes>
        0 -1 16011 -2012739280 -2033443932 -570525697 -6670084
        -1154966856 -1359085661 -1623338517 -1967255532</internalNodes>
      <leafValues>
        -1.6844053566455841e-01 1.2050788104534149e-01</leafValues></_>
    <_>
      <internalNodes>
        0 -1 22831 176727040 1422144573 1466915632 -538056974 342791473
        -1040598307 1705542328 -1681981269</internalNodes>
      <leafValues>
        -1.2832021713256836e-01 1.5580306947231293e-01</leafValues></_>
    <_>
      <internalNodes>
        0 -1 1169 -983363713 -1304868997 2124200574 461414014 1467876764
        -557917204 2127762648 -565999550</internalNodes>
      <leafValues>
        -1.4623115956783295e-01 1.4234851300716400e-01</leafValues></_>
    <_>
      <internalNodes>
        0 -1 16550 247396403 707530588 1878970359 -294718608 780095332
        -2086977034 1734300116 -20277960</internalNodes>
      <leafValues>
        -1.9092936813831329e-01 1.0307492315769196e-01</leafValues></_>
    <_>
      <internalNodes>
        0 -1 17059 1021177396 544204016 1690985220 1246378882 1374888229
        88837959 2141657858 253640494</internalNodes>
      <leafValues>
        -3.1942939758300781e-01 6.2395844608545303e-02</leafValues></_>
    <_>
      <internalNodes>
        0 -1 242 1349507779 460238754 1022506023 -135370238 -1879415305
        -2048002305 814432479 -974712713</internalNodes>
      <leafValues>
        -1.1765925586223602e-01 1.7349632084369659e-01</leafValues></_>
    <_>
      <internalNodes>
        0 -1 7942 545415201 -1440051277 1585440597 -1933169551
        -1074268684 -1091643393 1374438452 1290560629</internalNodes>
      <leafValues>
        -2.4640072882175446e-01 8.1925727427005768e-02</leafValues></_>
    <_>
      <internalNodes>
        0 -1 17781 1156381364 -26207253 -1493258445 -1078562049 73144292
        -1762096629 78385528 800727091</internalNodes>
      <leafValues>
        -1.6304896771907806e-01 1.1993864923715591e-01</leafValues></_>
    <_>
      <internalNodes>
        0 -1 13397 2141353939 -1172279498 -537129537 -25685209 669617604
        -471845444 -1342199986 703219079</internalNodes>
      <leafValues>
        -1.2699806690216064e-01 1.5132631361484528e-01</leafValues></_>
    <_>
      <internalNodes>
        0 -1 20450 1692581156 -727565536 1853761272 2086674552 853552357
        -1078251651 -151456359 -1099754342</internalNodes>
      <leafValues>
        -1.3468226790428162e-01 1.4241898059844971e-01</leafValues></_>
    <_>
      <internalNodes>
        0 -1 11975 -84482377 -897860793 -86712773 -93684930 2122263379
        -1103659420 1458900085 -21472174</internalNodes>
      <leafValues>
        -1.7349758744239807e-01 1.1121188849210739e-01</leafValues></_>
    <_>
      <internalNodes>
        0 -1 17093 -170676560 849652640 -1494250562 -43179350
        -1613006915 1568624125 1758874376 1169024396</internalNodes>
      <leafValues>
        -1.5608949959278107e-01 1.2537083029747009e-01</leafValues></_>
    <_>
      <internalNodes>
        0 -1 7935 247204884 1064438836 1575877076 -1547958244 -281188394
        -545261313 -1312265632 230170232</internalNodes>
      <leafValues>
        -3.4510412812232971e-01 5.5447440594434738e-02</leafValues></_>
    <_>
      <internalNodes>
        0 -1 23343 -293605694 275964750 -525424490 -260966161
        -1132540276 304913779 -1298202946 -1151613201</internalNodes>
      <leafValues>
        -1.0423856228590012e-01 1.8673072755336761e-01</leafValues></_>
    <_>
      <internalNodes>
        0 -1 16571 -2050716060 -533926164 -1431779804 1682369830
        1953944836 -773360702 871499526 1431783287</internalNodes>
      <leafValues>
        -3.2624313235282898e-01 6.0931660234928131e-02</leafValues></_>
    <_>
      <internalNodes>
        0 -1 4670 -823145729 1600647022 -889527041 -728322 2067017215
        -555919721 -165190209 -8952457</internalNodes>
      <leafValues>
        -6.9301046431064606e-02 3.1044960021972656e-01</leafValues></_>
    <_>
      <internalNodes>
        0 -1 27053 -149562933 2044460485 58431964 -369131826 -201855025
        2006931582 -1087130625 1465859071</internalNodes>
      <leafValues>
        -8.5502147674560547e-02 2.2564859688282013e-01</leafValues></_>
    <_>
      <internalNodes>
        0 -1 22074 1605968162 -671170594 1315387690 1936895664
        1958495726 683069429 -254945574 1423143919</internalNodes>
      <leafValues>
        -1.3504549860954285e-01 1.5008132159709930e-01</leafValues></_>
    <_>
      <internalNodes>
        0 -1 13349 1553879159 -1158009117 -25363458 -77679011
        -2073191100 -17278059 -307047171 -4546928</internalNodes>
      <leafValues>
        -1.2967559695243835e-01 1.5344591438770294e-01</leafValues></_>
    <_>
      <internalNodes>
        0 -1 16871 -1346410622 578392471 1476292390 553281967 1970765076
        1710576909 -1665159671 28802558</internalNodes>
      <leafValues>
        -2.7463567256927490e-01 7.3240712285041809e-02</leafValues></_>
    <_>
      <internalNodes>
        0 -1 17664 1327530544 -1440038980 -676347914 -1361674964
        1109395344 -857276621 1565869552 -1079371276</internalNodes>
      <leafValues>
        -1.9419817626476288e-01 9.6897579729557037e-02</leafValues></_>
    <_>
      <internalNodes>
        0 -1 19435 -867712338 1884553007 582281874 -57613786 1417044272
        161769364 833959275 1903392090</internalNodes>
      <leafValues>
        -1.9599582254886627e-01 9.8990589380264282e-02</leafValues></_>
    <_>
      <internalNodes>
        0 -1 16307 -790172434 825555797 -1373590690 -1263471870
        2096981752 526709668 2088692046 1069962756</internalNodes>
      <leafValues>
        -1.6563156247138977e-01 1.1547921597957611e-01</leafValues></_>
    <_>
      <internalNodes>
        0 -1 9461 788280113 651159204 776515114 1492089967 -196283134
        -260785170 -297136086 1749816090</internalNodes>
      <leafValues>
        -2.0588260889053345e-01 9.5907419919967651e-02</leafValues></_>
    <_>
      <internalNodes>
        0 -1 26454 -1745539259 -2131121217 -1409567956 -1967943380
        1564471119 964491965 -178389760 359514800</internalNodes>
      <leafValues>
        -1.6869227588176727e-01 1.1476266384124756e-01</leafValues></_>
    <_>
      <internalNodes>
        0 -1 19210 1398590640 291565079 -157750168 -76484002 1299595948
        1033559991 1857840656 -1714526709</internalNodes>
      <leafValues>
        -1.4883179962635040e-01 1.3038976490497589e-01</leafValues></_>
    <_>
      <internalNodes>
        0 -1 23038 -741896819 496005047 -17310834 1124661022 334747573
        79232823 -639943680 1136781073</internalNodes>
      <leafValues>
        -1.4460118114948273e-01 1.2787066400051117e-01</leafValues></_>
    <_>
      <internalNodes>
        0 -1 18678 -1574249804 -465291990 -59482696 -286501972 520760885
        -553907228 1199068152 -1078329288</internalNodes>
      <leafValues>
        -1.6832731664180756e-01 1.1154816299676895e-01</leafValues></_>
    <_>
      <internalNodes>
        0 -1 5472 1335608882 -1422989802 -70164653 -36247840 1868856306
        -1362296852 -1100409612 1607947862</internalNodes>
      <leafValues>
        -1.5183062851428986e-01 1.2443824112415314e-01</leafValues></_>
    <_>
      <internalNodes>
        0 -1 22165 -1603234272 -659014687 -13375504 -139717962
        1065976497 -1096352536 359933375 -1158737473</internalNodes>
      <leafValues>
        -1.1088093370199203e-01 1.7121337354183197e-01</leafValues></_>
    <_>
      <internalNodes>
        0 -1 12513 743975028 726052375 -859936911 -1985176772 2122214484
        -1610629187 -699498788 149313394</internalNodes>
      <leafValues>
        -2.9568278789520264e-01 6.2681920826435089e-02</leafValues></_>
    <_>
      <internalNodes>
        0 -1 399 -861674110 745075368 1970052320 -863111968 -1713439061
        16235462 1090099134 1151020491</internalNodes>
      <leafValues>
        -2.2030542790889740e-01 8.4714725613594055e-02</leafValues></_>
    <_>
      <internalNodes>
        0 -1 27168 -223745 -208019571 -1467783346 -939665969 -1286885397
        -7082005 2069871230 1466637818</internalNodes>
      <leafValues>
        -9.5565997064113617e-02 2.0136167109012604e-01</leafValues></_>
    <_>
      <internalNodes>
        0 -1 24095 -1129397586 -1686623104 2003001278 -169233480
        -1523730996 27536775 2010903736 -1517601862</internalNodes>
      <leafValues>
        -1.0342112183570862e-01 1.8037810921669006e-01</leafValues></_>
    <_>
      <internalNodes>
        0 -1 19422 36324866 548599712 -1266935564 -55247630 125436932
        763107967 2056730069 -1062583247</internalNodes>
      <leafValues>
        -2.6179230213165283e-01 7.3352649807929993e-02</leafValues></_>
    <_>
      <internalNodes>
        0 -1 1580 -621329701 -354582018 -1362825173 269803167 -221378812
        -14989567 -555895980 1526922092</internalNodes>
      <leafValues>
        -1.8333563208580017e-01 1.0417465120553970e-01</leafValues></_>
    <_>
      <internalNodes>
        0 -1 21351 1173769192 1146416860 -734243262 -966021460
        1416890816 210644644 114433495 1366816003</internalNodes>
      <leafValues>
        -1.8505056202411652e-01 9.8972015082836151e-02</leafValues></_>
    <_>
      <internalNodes>
        0 -1 19788 3321345 -83989926 1928478647 -706990635 -1452492988
        1031626988 -2048967196 263730392</internalNodes>
      <leafValues>
        -1.8547989428043365e-01 1.0045399516820908e-01</leafValues></_>
    <_>
      <internalNodes>
        0 -1 17748 1144147186 -357293188 1853290158 -92522894 1864020369
        -1468573764 271996881 -1074264972</internalNodes>
      <leafValues>
        -1.7830668389797211e-01 1.0243181884288788e-01</leafValues></_>
    <_>
      <internalNodes>
        0 -1 20852 1713908516 1216631709 -1094279456 740472356
        1549062912 1152861023 1152232715 887526146</internalNodes>
      <leafValues>
        -2.6731917262077332e-01 6.8688459694385529e-02</leafValues></_>
    <_>
      <internalNodes>
        0 -1 4650 -891083865 107969570 -189991904 44367250 1537035008
        1376527184 1336388672 -758054988</internalNodes>
      <leafValues>
        -2.3937623202800751e-01 7.5382269918918610e-02</leafValues></_>
    <_>
      <internalNodes>
        0 -1 22931 841636907 -2023705058 -139465558 1370449788 267908791
        661267015 390674360 396331503</internalNodes>
      <leafValues>
        -1.2737686932086945e-01 1.5112020075321198e-01</leafValues></_>
    <_>
      <internalNodes>
        0 -1 4998 293414075 1962618410 779939452 -211895770 253572347
        1962671864 794162415 924188362</internalNodes>
      <leafValues>
        -1.1149793118238449e-01 1.6484205424785614e-01</leafValues></_>
    <_>
      <internalNodes>
        0 -1 5943 1266663230 1684012244 -823197744 1156067532
        -1820361933 -1129031920 -272756716 -613397424</internalNodes>
      <leafValues>
        -2.2487592697143555e-01 8.8532872498035431e-02</leafValues></_></weakClassifiers></stage7>
</opencv_storage>
