<?xml version="1.0"?>
<opencv_storage>
<stage8>
  <maxWeakCount>89</maxWeakCount>
  <stageThreshold>-2.1971814632415771e+00</stageThreshold>
  <weakClassifiers>
    <_>
      <internalNodes>
        0 -1 15066 -262867472 -252379649 -168430219 -167772161 -10158145
        -655425 -100663297 -17425</internalNodes>
      <leafValues>
        -6.6414028406143188e-01 -2.4324154853820801e-01</leafValues></_>
    <_>
      <internalNodes>
        0 -1 7880 -4097 -4518021 -65537 989991795 -16785409 -43009
        -3606017 -1155514830</internalNodes>
      <leafValues>
        -2.7996754646301270e-01 2.2120016813278198e-01</leafValues></_>
    <_>
      <internalNodes>
        0 -1 14634 -67242053 -243429377 -392486373 1925120667 -71648453
        -1127244290 -1275131382 992979631</internalNodes>
      <leafValues>
        -2.1944789588451385e-01 2.0761473476886749e-01</leafValues></_>
    <_>
      <internalNodes>
        0 -1 17623 -1048641 -82973041 -404272050 -12567 -779363925
        78362290 1551848451 1594834963</internalNodes>
      <leafValues>
        -1.6195109486579895e-01 2.3584853112697601e-01</leafValues></_>
    <_>
      <internalNodes>
        0 -1 6327 -2628897 -83931137 1788862207 2061172735 -268436001
        -18056123 -2097224 -31784966</internalNodes>
      <leafValues>
        -1.6215254366397858e-01 2.2180362045764923e-01</leafValues></_>
    <_>
      <internalNodes>
        0 -1 9086 -285221122 -295244114 2142232495 -268472369 -185345076
        -454050321 1870102351 1341128655</internalNodes>
      <leafValues>
        -1.3398858904838562e-01 2.4019169807434082e-01</leafValues></_>
    <_>
      <internalNodes>
        0 -1 44 154054306 581480098 1875795730 1743389184 704641023
        -806683734 -270533125 -268599318</internalNodes>
      <leafValues>
        -2.8313109278678894e-01 1.2459918111562729e-01</leafValues></_>
    <_>
      <internalNodes>
        0 -1 12751 -16884651 -1078051073 2147106815 -1343816579
        -50442244 -321 -118802 -352426346</internalNodes>
      <leafValues>
        -1.9260247051715851e-01 1.5233813226222992e-01</leafValues></_>
    <_>
      <internalNodes>
        0 -1 21202 -737542244 -736051678 477539342 -1214205406
        -319816228 -1774815215 -5228310 251881251</internalNodes>
      <leafValues>
        -1.6673043370246887e-01 1.7380847036838531e-01</leafValues></_>
    <_>
      <internalNodes>
        0 -1 11685 582949463 785264566 -671682563 -823198948 696143648
        -1161830401 530281780 -555943692</internalNodes>
      <leafValues>
        -2.6909366250038147e-01 1.0029187053442001e-01</leafValues></_>
    <_>
      <internalNodes>
        0 -1 15540 -2009355610 -2046628822 1601572300 -1348345029
        -593650476 -1933591308 1422262340 91486051</internalNodes>
      <leafValues>
        -2.7342250943183899e-01 9.5663361251354218e-02</leafValues></_>
    <_>
      <internalNodes>
        0 -1 20515 -97463632 -12555312 2146893502 -128776 -1499154436
        -1129341047 -1388775427 -1145369352</internalNodes>
      <leafValues>
        -1.2168373167514801e-01 2.1715064346790314e-01</leafValues></_>
    <_>
      <internalNodes>
        0 -1 22662 -218634610 843771827 1083075754 -252188046 1669298956
        74612465 -554438934 -235154869</internalNodes>
      <leafValues>
        -1.8031080067157745e-01 1.3920943439006805e-01</leafValues></_>
    <_>
      <internalNodes>
        0 -1 1605 -1359370113 -6352007 -118555425 455210875 1606292804
        -37027 -420189094 -82611597</internalNodes>
      <leafValues>
        -1.2552812695503235e-01 1.9418391585350037e-01</leafValues></_>
    <_>
      <internalNodes>
        0 -1 16585 1868966691 -1930813068 -577280538 -420677896
        256312695 -824296509 1190085876 -29461328</internalNodes>
      <leafValues>
        -2.1738664805889130e-01 1.0641711950302124e-01</leafValues></_>
    <_>
      <internalNodes>
        0 -1 20535 -167717648 -577840642 -34603521 -33281 -1441989640
        -1094926347 -1174407169 -1074057729</internalNodes>
      <leafValues>
        -8.2822956144809723e-02 3.0242276191711426e-01</leafValues></_>
    <_>
      <internalNodes>
        0 -1 13657 -710872656 -794630680 -1094766729 -575736158
        -1851436575 -1526727233 -1080088625 149905735</internalNodes>
      <leafValues>
        -1.3717746734619141e-01 1.6192552447319031e-01</leafValues></_>
    <_>
      <internalNodes>
        0 -1 90 -540840666 8099259 -145522962 -254288393 456833919
        536580269 1539178489 1576919039</internalNodes>
      <leafValues>
        -2.7320805191993713e-01 7.9443514347076416e-02</leafValues></_>
    <_>
      <internalNodes>
        0 -1 19710 134237232 -1460139668 -613132546 -18391570 1041795056
        -1887443457 250742480 -1145109057</internalNodes>
      <leafValues>
        -1.5808351337909698e-01 1.3669167459011078e-01</leafValues></_>
    <_>
      <internalNodes>
        0 -1 26968 -69207041 -25655 -1223163955 -536873475 -71631873
        -51402804 -2049 2145120251</internalNodes>
      <leafValues>
        -6.2672711908817291e-02 3.4741896390914917e-01</leafValues></_>
    <_>
      <internalNodes>
        0 -1 3126 -134221905 721406703 1224465650 -1335705906 1777286981
        -127959173 -218704748 -260638748</internalNodes>
      <leafValues>
        -2.5432679057121277e-01 8.7524622678756714e-02</leafValues></_>
    <_>
      <internalNodes>
        0 -1 22106 -992542816 -1870602350 1974364132 2143009792
        812962772 -1262504255 -522137462 565153555</internalNodes>
      <leafValues>
        -1.6426999866962433e-01 1.3728436827659607e-01</leafValues></_>
    <_>
      <internalNodes>
        0 -1 757 1582753526 290844415 754879306 -438566 -2016018604
        274511860 -152674316 -68846488</internalNodes>
      <leafValues>
        -1.3360339403152466e-01 1.6702547669410706e-01</leafValues></_>
    <_>
      <internalNodes>
        0 -1 14079 171444240 -1431412958 2054555025 -288331808
        -1157817276 -1092052020 1852604212 -1359200780</internalNodes>
      <leafValues>
        -3.0532458424568176e-01 7.0458225905895233e-02</leafValues></_>
    <_>
      <internalNodes>
        0 -1 7683 -423953346 653449974 1856958446 -422614277 -151792908
        -1259806735 1727468869 1172657991</internalNodes>
      <leafValues>
        -3.0143967270851135e-01 6.7672893404960632e-02</leafValues></_>
    <_>
      <internalNodes>
        0 -1 20007 1348505248 -1806652765 -21723014 -49241548 1607942031
        1037938682 1610190472 1608458255</internalNodes>
      <leafValues>
        -1.6371230781078339e-01 1.2455435097217560e-01</leafValues></_>
    <_>
      <internalNodes>
        0 -1 3250 -285259525 2080330207 -1369774085 2013937147 -85050762
        -1628808091 -540150305 -78447010</internalNodes>
      <leafValues>
        -1.2767706811428070e-01 1.6406659781932831e-01</leafValues></_>
    <_>
      <internalNodes>
        0 -1 22341 1724361506 41023173 -566583726 1141218826 -2625530
        1086338719 2129498114 1931858694</internalNodes>
      <leafValues>
        -1.8799915909767151e-01 1.0922738909721375e-01</leafValues></_>
    <_>
      <internalNodes>
        0 -1 3904 1989077758 996714112 -19116288 -68629726 1466179518
        720826364 1977745400 1957525494</internalNodes>
      <leafValues>
        -1.4094272255897522e-01 1.4575348794460297e-01</leafValues></_>
    <_>
      <internalNodes>
        0 -1 9011 509542143 241762053 -1132540846 -1534665148 1450658423
        1609268673 -29931724 -35696524</internalNodes>
      <leafValues>
        -2.1259488165378571e-01 1.0750236362218857e-01</leafValues></_>
    <_>
      <internalNodes>
        0 -1 12388 840215200 581471396 -471310794 -376567249 1013222826
        2023583677 437134121 1002058891</internalNodes>
      <leafValues>
        -2.3891662061214447e-01 8.6605682969093323e-02</leafValues></_>
    <_>
      <internalNodes>
        0 -1 24556 226174762 1433794485 -1034374 1170669186 1322583280
        20440503 -1254597974 550532054</internalNodes>
      <leafValues>
        -1.7964664101600647e-01 1.0919653624296188e-01</leafValues></_>
    <_>
      <internalNodes>
        0 -1 23899 1413590688 1433532310 604272210 354490090 553387416
        838173662 1981353262 549970674</internalNodes>
      <leafValues>
        -1.6112123429775238e-01 1.2260423600673676e-01</leafValues></_>
    <_>
      <internalNodes>
        0 -1 21141 -728765778 551870950 1155721834 -219613467 1567563535
        442676022 1190035624 -983042301</internalNodes>
      <leafValues>
        -1.9853213429450989e-01 9.9594824016094208e-02</leafValues></_>
    <_>
      <internalNodes>
        0 -1 1650 -1968442240 -494872472 1147121728 1374026176
        -1572164113 -1966413716 1063244954 1430513898</internalNodes>
      <leafValues>
        -1.4891090989112854e-01 1.3415926694869995e-01</leafValues></_>
    <_>
      <internalNodes>
        0 -1 15669 583822561 -1758174799 -84025537 523251573 2122542677
        -71401605 2046377208 990910480</internalNodes>
      <leafValues>
        -1.5640535950660706e-01 1.2983043491840363e-01</leafValues></_>
    <_>
      <internalNodes>
        0 -1 22100 -332602236 -89888640 844555436 -549706032 -1797111896
        -288850762 -1154367570 -1413795813</internalNodes>
      <leafValues>
        -1.0629714280366898e-01 1.8577654659748077e-01</leafValues></_>
    <_>
      <internalNodes>
        0 -1 13245 -91296921 -431216721 -1099839636 -520609794 694351039
        -1204428813 283538896 -4687888</internalNodes>
      <leafValues>
        -1.7117950320243835e-01 1.2082410603761673e-01</leafValues></_>
    <_>
      <internalNodes>
        0 -1 18979 -1141903809 233830334 -444468 1240578703 1256293090
        1370668790 -59416711 2025570087</internalNodes>
      <leafValues>
        -1.2248191237449646e-01 1.6505251824855804e-01</leafValues></_>
    <_>
      <internalNodes>
        0 -1 14856 -1442138704 -55699508 -550145513 -537043232
        1067096793 -1879048194 431332331 -1074066324</internalNodes>
      <leafValues>
        -1.1061006039381027e-01 1.7866508662700653e-01</leafValues></_>
    <_>
      <internalNodes>
        0 -1 17514 246033970 -1564578477 -1636303454 -889655694
        532618757 -1431396656 703902932 -995327520</internalNodes>
      <leafValues>
        -2.5733935832977295e-01 7.7521473169326782e-02</leafValues></_>
    <_>
      <internalNodes>
        0 -1 6332 779488290 -1183292043 -320963401 -1216819849
        2094576736 -2200372 -579010948 -1442812076</internalNodes>
      <leafValues>
        -2.3047037422657013e-01 8.3726122975349426e-02</leafValues></_>
    <_>
      <internalNodes>
        0 -1 3398 2034210596 13334167 -345368540 552242926 -2084998556
        87310335 -394438980 -1775948878</internalNodes>
      <leafValues>
        -2.5179186463356018e-01 7.5096495449542999e-02</leafValues></_>
    <_>
      <internalNodes>
        0 -1 13101 -166817857 -538088963 -1125849409 -539001105
        -790306594 -254683820 1982858623 -71346849</internalNodes>
      <leafValues>
        -7.5935013592243195e-02 2.6511353254318237e-01</leafValues></_>
    <_>
      <internalNodes>
        0 -1 18468 -332773888 -2111525710 -1363497358 -520563463
        215419972 -1529213198 -1612770124 -994130768</internalNodes>
      <leafValues>
        -2.2284734249114990e-01 8.9644916355609894e-02</leafValues></_>
    <_>
      <internalNodes>
        0 -1 13402 595013691 334291631 -378610169 -386967940 -166335318
        -42926860 2051314090 4507304</internalNodes>
      <leafValues>
        -1.5813666582107544e-01 1.2269010394811630e-01</leafValues></_>
    <_>
      <internalNodes>
        0 -1 12773 1712389358 806619480 -31180208 -991109952 1494513014
        744854006 880743764 2077061632</internalNodes>
      <leafValues>
        -2.2545158863067627e-01 9.2132575809955597e-02</leafValues></_>
    <_>
      <internalNodes>
        0 -1 21746 1280434816 2021192592 -836244914 2132065537
        1165230568 672517339 1726360142 779027458</internalNodes>
      <leafValues>
        -1.8852537870407104e-01 1.0726706683635712e-01</leafValues></_>
    <_>
      <internalNodes>
        0 -1 11852 -1079034341 -1910257423 -27361579 -24973632
        -2074340388 1164377206 216942676 -606905338</internalNodes>
      <leafValues>
        -1.5459801256656647e-01 1.2073671072721481e-01</leafValues></_>
    <_>
      <internalNodes>
        0 -1 5500 644132798 553198598 -293032108 -2114187323 1932802036
        -377553248 2144625756 495929512</internalNodes>
      <leafValues>
        -2.1795555949211121e-01 8.7124466896057129e-02</leafValues></_>
    <_>
      <internalNodes>
        0 -1 23415 -931077970 -58672128 -1330108100 1906911360
        -1166302996 -1277763707 -1173752150 -610581317</internalNodes>
      <leafValues>
        -9.1736517846584320e-02 2.1007093787193298e-01</leafValues></_>
    <_>
      <internalNodes>
        0 -1 5072 1471148723 -5574741 -101910221 -65989 -1150569028
        -1343225857 -1443077635 -839040641</internalNodes>
      <leafValues>
        -7.9804912209510803e-02 2.3954732716083527e-01</leafValues></_>
    <_>
      <internalNodes>
        0 -1 27048 -36161089 -84650245 -340820085 1986777073 1657274319
        -400257041 1736441438 1432923099</internalNodes>
      <leafValues>
        -1.1594252288341522e-01 1.6152471303939819e-01</leafValues></_>
    <_>
      <internalNodes>
        0 -1 4600 1201661935 50216122 782629444 8157182 -548805621
        1110390274 532330032 -268249788</internalNodes>
      <leafValues>
        -2.1341772377490997e-01 8.7864115834236145e-02</leafValues></_>
    <_>
      <internalNodes>
        0 -1 1547 2079842047 -553123902 -562368771 -6193425 -696301428
        -1376885179 -83951890 -14459333</internalNodes>
      <leafValues>
        -7.0060126483440399e-02 2.7544569969177246e-01</leafValues></_>
    <_>
      <internalNodes>
        0 -1 18832 -233315853 318421943 2143251630 614399279 -16799868
        2033592765 -335565138 903920175</internalNodes>
      <leafValues>
        -1.3379946351051331e-01 1.4875148236751556e-01</leafValues></_>
    <_>
      <internalNodes>
        0 -1 300 -2113693534 -830031432 870086272 -1247826440
        -1460668512 -926614548 64673518 122658282</internalNodes>
      <leafValues>
        -1.5425778925418854e-01 1.2326563149690628e-01</leafValues></_>
    <_>
      <internalNodes>
        0 -1 16841 580136209 -1911885954 1987098475 -1897500801
        -1493511931 -1410478729 774928685 -1974658547</internalNodes>
      <leafValues>
        -2.0192441344261169e-01 9.2935338616371155e-02</leafValues></_>
    <_>
      <internalNodes>
        0 -1 20565 -431423696 -739344414 -461229 -1155076 800626565
        -326215756 761605610 -1077996290</internalNodes>
      <leafValues>
        -9.8158255219459534e-02 1.9517590105533600e-01</leafValues></_>
    <_>
      <internalNodes>
        0 -1 18511 1890221520 -198003174 -1134264642 -67052494 473823165
        -1132638844 1025796350 -563970289</internalNodes>
      <leafValues>
        -1.3327516615390778e-01 1.3913796842098236e-01</leafValues></_>
    <_>
      <internalNodes>
        0 -1 21331 1308472098 1300167072 -1118046702 -945773056
        1206012990 6581991 83232519 1167314067</internalNodes>
      <leafValues>
        -1.7459388077259064e-01 1.0661062598228455e-01</leafValues></_>
    <_>
      <internalNodes>
        0 -1 13328 418285621 -1730668173 -825428491 -1088226681
        238003208 -1209139265 -931799756 -1473248207</internalNodes>
      <leafValues>
        -1.9309753179550171e-01 9.7067043185234070e-02</leafValues></_>
    <_>
      <internalNodes>
        0 -1 22795 705345056 -1868518362 -1900083014 -96888262
        1558691200 -911726848 -1208746840 -1700069238</internalNodes>
      <leafValues>
        -1.3281685113906860e-01 1.3778601586818695e-01</leafValues></_>
    <_>
      <internalNodes>
        0 -1 6280 1750051427 -356897941 -2038499639 1914857120
        1146572517 514084647 -934521836 -97454557</internalNodes>
      <leafValues>
        -2.0835621654987335e-01 9.1204956173896790e-02</leafValues></_>
    <_>
      <internalNodes>
        0 -1 19692 -668946188 -1158742816 -177200 -7070734 710555640
        -403779859 1052652728 -1141369671</internalNodes>
      <leafValues>
        -1.2682384252548218e-01 1.4940592646598816e-01</leafValues></_>
    <_>
      <internalNodes>
        0 -1 27210 463744749 -915423811 -1607652546 -53506069 -214240705
        125566864 926416766 1463615721</internalNodes>
      <leafValues>
        -1.4405336976051331e-01 1.2819921970367432e-01</leafValues></_>
    <_>
      <internalNodes>
        0 -1 17407 2130700292 279115200 2058412572 -186712138 -681743034
        728593494 -50897442 -168493770</internalNodes>
      <leafValues>
        -1.6810137033462524e-01 1.0722658783197403e-01</leafValues></_>
    <_>
      <internalNodes>
        0 -1 19055 -377967200 -1744706174 -302404586 -610622814
        1608453037 857208763 1598622477 1308581892</internalNodes>
      <leafValues>
        -1.6428862512111664e-01 1.1075079441070557e-01</leafValues></_>
    <_>
      <internalNodes>
        0 -1 21990 -997004790 -2106528968 1727292575 -926358279
        -1919052660 756215094 737142447 -1916811781</internalNodes>
      <leafValues>
        -1.2937971949577332e-01 1.4672866463661194e-01</leafValues></_>
    <_>
      <internalNodes>
        0 -1 13398 -1184180333 -205830305 2137795538 -1126015661
        935270031 -53879 -1074972788 233618062</internalNodes>
      <leafValues>
        -1.2148036062717438e-01 1.5287621319293976e-01</leafValues></_>
    <_>
      <internalNodes>
        0 -1 27125 360831991 1475975156 -537396280 2139723263 -245105731
        -16670 1834727246 455706100</internalNodes>
      <leafValues>
        -1.0942769050598145e-01 1.6447678208351135e-01</leafValues></_>
    <_>
      <internalNodes>
        0 -1 16130 -402094944 -326468626 -17099777 -2196099 -1101367568
        -302022785 2067052479 -1081143267</internalNodes>
      <leafValues>
        -1.1117155104875565e-01 1.6156224906444550e-01</leafValues></_>
    <_>
      <internalNodes>
        0 -1 8133 839262368 464186921 -288456905 -403961310 116676068
        246996712 1291781156 1694247103</internalNodes>
      <leafValues>
        -1.9770789146423340e-01 8.9105948805809021e-02</leafValues></_>
    <_>
      <internalNodes>
        0 -1 14734 783549456 939408891 -76920843 800726078 -107069452
        -137399736 1969905132 719068212</internalNodes>
      <leafValues>
        -4.5822018384933472e-01 3.8442101329565048e-02</leafValues></_>
    <_>
      <internalNodes>
        0 -1 24005 545694286 1028662839 988548887 286907734 1307608268
        300875621 1322831854 68399138</internalNodes>
      <leafValues>
        -1.5850354731082916e-01 1.1434990167617798e-01</leafValues></_>
    <_>
      <internalNodes>
        0 -1 15465 1773797414 -1509409110 -289430003 -355534348
        795176741 -338920744 1459033200 -565422864</internalNodes>
      <leafValues>
        -2.4028196930885315e-01 7.5508624315261841e-02</leafValues></_>
    <_>
      <internalNodes>
        0 -1 19346 1514138254 -1858954686 -290320338 -572053318
        -60015224 757387252 -337613173 -572243382</internalNodes>
      <leafValues>
        -1.2023321539163589e-01 1.5325115621089935e-01</leafValues></_>
    <_>
      <internalNodes>
        0 -1 16287 -1065391872 -1536037034 -406405810 1850142659
        -450026634 1889951557 -85629179 19295639</internalNodes>
      <leafValues>
        -2.9890862107276917e-01 6.0987744480371475e-02</leafValues></_>
    <_>
      <internalNodes>
        0 -1 3337 803186556 440970956 -17138828 -248116660 -1690189828
        -353256457 1691735053 2114787404</internalNodes>
      <leafValues>
        -1.8018129467964172e-01 9.9340587854385376e-02</leafValues></_>
    <_>
      <internalNodes>
        0 -1 9668 1583625970 41871928 -222532239 -495293208 1304493048
        242674858 754469976 464472738</internalNodes>
      <leafValues>
        -1.9393189251422882e-01 9.6528522670269012e-02</leafValues></_>
    <_>
      <internalNodes>
        0 -1 16195 1412745876 296763186 183413567 -1620780056 2108971632
        852487153 -1745453463 -877430968</internalNodes>
      <leafValues>
        -1.4326563477516174e-01 1.2640577554702759e-01</leafValues></_>
    <_>
      <internalNodes>
        0 -1 23052 166416290 287375230 -59775544 1751151092 1161535409
        1097686847 2091724378 1357992582</internalNodes>
      <leafValues>
        -1.8112052977085114e-01 9.8180301487445831e-02</leafValues></_>
    <_>
      <internalNodes>
        0 -1 6965 -129241885 -605100056 510021115 -562205852 1017412338
        -1800612648 1039612255 1289450875</internalNodes>
      <leafValues>
        -1.1199700832366943e-01 1.6131815314292908e-01</leafValues></_>
    <_>
      <internalNodes>
        0 -1 7468 -293984803 776970031 -17863046 721036283 2101308884
        -631526058 1609987156 -63679408</internalNodes>
      <leafValues>
        -2.1322435140609741e-01 8.6926251649856567e-02</leafValues></_>
    <_>
      <internalNodes>
        0 -1 26 141897250 926191228 -134357129 -1116142576 -816536085
        -269442434 -185674959 258231848</internalNodes>
      <leafValues>
        -2.1714524924755096e-01 8.5603453218936920e-02</leafValues></_>
    <_>
      <internalNodes>
        0 -1 20500 1183770504 -582990905 782540282 -5345470 1679111456
        -2006730313 135530018 1034896395</internalNodes>
      <leafValues>
        -1.6254808008670807e-01 1.1247600615024567e-01</leafValues></_>
    <_>
      <internalNodes>
        0 -1 19248 -493818876 -2009438680 -1448213275 -333461 1980672132
        -1426349359 2088226237 -2034543548</internalNodes>
      <leafValues>
        -1.3682816922664642e-01 1.3518273830413818e-01</leafValues></_>
    <_>
      <internalNodes>
        0 -1 12984 -1287963846 -324290642 1760360132 -184747284
        -489448642 15318518 100618241 1419224308</internalNodes>
      <leafValues>
        -2.0655380189418793e-01 8.9790366590023041e-02</leafValues></_>
    <_>
      <internalNodes>
        0 -1 1640 213581827 788472697 551442402 7933368 -274054060
        1458186066 1662783958 2064829556</internalNodes>
      <leafValues>
        -2.3894283175468445e-01 7.6924741268157959e-02</leafValues></_></weakClassifiers></stage8>
</opencv_storage>
