<?xml version="1.0"?>
<opencv_storage>
<stage3>
  <maxWeakCount>51</maxWeakCount>
  <stageThreshold>-2.4608027935028076e+00</stageThreshold>
  <weakClassifiers>
    <_>
      <internalNodes>
        0 -1 9298 -1 -1 -1 -65537 -1 -1 -1 -4521986</internalNodes>
      <leafValues>
        -6.5376228094100952e-01 1.3137558102607727e-01</leafValues></_>
    <_>
      <internalNodes>
        0 -1 13469 2147483583 2136843991 -4250337 992940823 -8405073
        -16385 1069220491 1002373803</internalNodes>
      <leafValues>
        -3.8453435897827148e-01 2.8213244676589966e-01</leafValues></_>
    <_>
      <internalNodes>
        0 -1 513 -285282562 15789810 -319627812 -318968098 -131075
        -33554433 -8193 -257</internalNodes>
      <leafValues>
        -3.4192997217178345e-01 2.5455468893051147e-01</leafValues></_>
    <_>
      <internalNodes>
        0 -1 16238 -167772171 -185073665 -8193 -974127105 -134744073
        -168298505 -4161 -1</internalNodes>
      <leafValues>
        -1.7702162265777588e-01 4.2697346210479736e-01</leafValues></_>
    <_>
      <internalNodes>
        0 -1 10690 2126409727 2147168119 -65537 993017719 -46604548
        -16875684 -50537220 -1474274254</internalNodes>
      <leafValues>
        -2.3162667453289032e-01 2.7149584889411926e-01</leafValues></_>
    <_>
      <internalNodes>
        0 -1 14205 -1896465579 -1426149397 -1076363265 -361828354
        -1090552203 -554836233 -17012748 -16846604</internalNodes>
      <leafValues>
        -2.7159747481346130e-01 2.2299320995807648e-01</leafValues></_>
    <_>
      <internalNodes>
        0 -1 15453 -268435457 -1880100945 -303563604 -269489941
        -2016411762 8977319 1170686208 1095228675</internalNodes>
      <leafValues>
        -2.6828348636627197e-01 1.9408352673053741e-01</leafValues></_>
    <_>
      <internalNodes>
        0 -1 91 -135537118 586117101 -8407134 -1494231041 -402653185
        -131081 -268435473 -524289</internalNodes>
      <leafValues>
        -2.8065565228462219e-01 1.7953541874885559e-01</leafValues></_>
    <_>
      <internalNodes>
        0 -1 8459 1585310975 2074863246 -50430081 -5296640 1962172412
        536674300 1958640991 1973778277</internalNodes>
      <leafValues>
        -1.8831937015056610e-01 2.5987401604652405e-01</leafValues></_>
    <_>
      <internalNodes>
        0 -1 7788 -537133185 -352387073 -262147 -755040262 2100262741
        1983365111 2113368304 -252380972</internalNodes>
      <leafValues>
        -2.6844874024391174e-01 1.6659283638000488e-01</leafValues></_>
    <_>
      <internalNodes>
        0 -1 19227 -731517696 1347746695 -135530715 -522863650
        1702102304 74579775 334261515 2079325962</internalNodes>
      <leafValues>
        -3.0913650989532471e-01 1.3957516849040985e-01</leafValues></_>
    <_>
      <internalNodes>
        0 -1 14121 -1372445389 975878110 -85139603 -86048794 -1094766156
        -1208486146 -100624 -84084492</internalNodes>
      <leafValues>
        -2.2213195264339447e-01 1.8091331422328949e-01</leafValues></_>
    <_>
      <internalNodes>
        0 -1 21998 -997202258 -2002211154 -1364398838 -1920278494
        14124476 616422964 -1540857302 2302466</internalNodes>
      <leafValues>
        -2.7344778180122375e-01 1.4241303503513336e-01</leafValues></_>
    <_>
      <internalNodes>
        0 -1 20489 -1031886298 -1529827350 -576814336 -303218940
        500516147 15761338 1370838562 1199045379</internalNodes>
      <leafValues>
        -3.3366414904594421e-01 1.1223821341991425e-01</leafValues></_>
    <_>
      <internalNodes>
        0 -1 7878 712115287 2134663039 1031679999 1002209279 -162246384
        -229519 -34038306 -1154470606</internalNodes>
      <leafValues>
        -2.2249498963356018e-01 1.7146387696266174e-01</leafValues></_>
    <_>
      <internalNodes>
        0 -1 11837 -1361056001 -1392607426 2143287255 -354238610
        -1156073517 -1082472483 -686427664 -22086428</internalNodes>
      <leafValues>
        -2.0803003013134003e-01 1.8318079411983490e-01</leafValues></_>
    <_>
      <internalNodes>
        0 -1 18180 -698047828 996180481 -1242520050 -34199007 1156059052
        662368255 1742539534 153960462</internalNodes>
      <leafValues>
        -2.3936879634857178e-01 1.5470777451992035e-01</leafValues></_>
    <_>
      <internalNodes>
        0 -1 7 16125950 -6643758 -268435489 -11602994 -16417 -1075659266
        -262145 -24914</internalNodes>
      <leafValues>
        -2.0191754400730133e-01 1.8122385442256927e-01</leafValues></_>
    <_>
      <internalNodes>
        0 -1 11280 1884356338 282389998 -1359069635 938444476 1950662127
        -319490051 687355327 973023232</internalNodes>
      <leafValues>
        -2.0344200730323792e-01 1.7759448289871216e-01</leafValues></_>
    <_>
      <internalNodes>
        0 -1 15465 666511923 -1364548958 -20972876 -825296132 -282937691
        -824295466 1466791668 -18197264</internalNodes>
      <leafValues>
        -2.3561367392539978e-01 1.4454743266105652e-01</leafValues></_>
    <_>
      <internalNodes>
        0 -1 19822 -234167424 284226423 -21071958 1621812583 -177364732
        1967514615 -1073889400 -1599488198</internalNodes>
      <leafValues>
        -2.3469816148281097e-01 1.4950352907180786e-01</leafValues></_>
    <_>
      <internalNodes>
        0 -1 1470 -889205009 -83926827 677356778 -219217958 -1140863424
        1678431794 -402722374 -84213762</internalNodes>
      <leafValues>
        -1.5252858400344849e-01 2.1734157204627991e-01</leafValues></_>
    <_>
      <internalNodes>
        0 -1 1683 135169056 9088554 -554299632 -2014557184 183490033
        -1344626952 248346084 1087656160</internalNodes>
      <leafValues>
        -4.0124267339706421e-01 8.2048892974853516e-02</leafValues></_>
    <_>
      <internalNodes>
        0 -1 22165 -467083104 -122151696 2101278704 -580056660
        -1185092620 -1935213064 -1778451011 -1146420806</internalNodes>
      <leafValues>
        -1.3591347634792328e-01 2.4374736845493317e-01</leafValues></_>
    <_>
      <internalNodes>
        0 -1 19150 -268701881 1100797882 -270582870 -839057938
        1942422483 -1851439369 2055031398 -16827661</internalNodes>
      <leafValues>
        -1.7636761069297791e-01 1.8106113374233246e-01</leafValues></_>
    <_>
      <internalNodes>
        0 -1 15185 772670480 -1399169632 -1191936014 -587294468
        -1141693872 -922785986 1056191476 -23432020</internalNodes>
      <leafValues>
        -2.7235236763954163e-01 1.1814118921756744e-01</leafValues></_>
    <_>
      <internalNodes>
        0 -1 22185 1008776368 1516800896 2147450485 -105976132
        -1766279184 209780112 968824219 -1073802086</internalNodes>
      <leafValues>
        -1.4365202188491821e-01 2.2503706812858582e-01</leafValues></_>
    <_>
      <internalNodes>
        0 -1 17808 -1766176651 -8507451 2142953471 -114760 -1087406084
        -281575495 -1611516227 -1079488264</internalNodes>
      <leafValues>
        -1.5774941444396973e-01 1.8819764256477356e-01</leafValues></_>
    <_>
      <internalNodes>
        0 -1 18446 -121443666 1946460758 1986270232 -429883808
        -730376783 1965323748 -396138662 71788055</internalNodes>
      <leafValues>
        -2.4576775729656219e-01 1.2534245848655701e-01</leafValues></_>
    <_>
      <internalNodes>
        0 -1 4579 -1348372809 715322267 787410652 984776414 -2656100
        267878231 -2066199488 -2008852414</internalNodes>
      <leafValues>
        -2.5316914916038513e-01 1.1794369667768478e-01</leafValues></_>
    <_>
      <internalNodes>
        0 -1 16291 -830585808 -1627750568 -83954435 -19993116 805207841
        -1700880548 2096385432 -52535096</internalNodes>
      <leafValues>
        -1.8795734643936157e-01 1.5842063724994659e-01</leafValues></_>
    <_>
      <internalNodes>
        0 -1 6637 2083186611 -173347082 -138518667 -139559056
        -1746108993 -38863362 -1350691828 -303345547</internalNodes>
      <leafValues>
        -1.2670084834098816e-01 2.3662368953227997e-01</leafValues></_>
    <_>
      <internalNodes>
        0 -1 5087 626896568 553561334 2094857300 -679957524 492107256
        1951528946 1696887960 1698975742</internalNodes>
      <leafValues>
        -2.5428986549377441e-01 1.2184988707304001e-01</leafValues></_>
    <_>
      <internalNodes>
        0 -1 15030 -475355338 7126958 -817976146 -991908103 853042449
        1459085022 1558004849 -973734369</internalNodes>
      <leafValues>
        -2.7006858587265015e-01 1.0460071265697479e-01</leafValues></_>
    <_>
      <internalNodes>
        0 -1 15318 681519153 -1572163678 2138795866 -856131596 438721905
        -1887504430 318600821 -590031376</internalNodes>
      <leafValues>
        -2.9235333204269409e-01 1.0045251995325089e-01</leafValues></_>
    <_>
      <internalNodes>
        0 -1 3194 1996480223 381148847 1056882430 -1692237981 -375931240
        -1932308874 -104543028 -10399485</internalNodes>
      <leafValues>
        -1.3671647012233734e-01 2.1776223182678223e-01</leafValues></_>
    <_>
      <internalNodes>
        0 -1 16526 -240912402 -797819281 -2080183584 -538703318
        1695867320 1568034131 2117157914 2068929542</internalNodes>
      <leafValues>
        -1.8323905766010284e-01 1.5830484032630920e-01</leafValues></_>
    <_>
      <internalNodes>
        0 -1 13701 -2042971983 -420568166 -558555920 -210244 -1934314011
        -42027523 -28019301 -286583644</internalNodes>
      <leafValues>
        -1.4904865622520447e-01 1.9241024553775787e-01</leafValues></_>
    <_>
      <internalNodes>
        0 -1 6390 -25467393 -755286485 1593834223 1917480447 -524395518
        -1147257068 -598870408 -618987650</internalNodes>
      <leafValues>
        -1.5151157975196838e-01 1.9281238317489624e-01</leafValues></_>
    <_>
      <internalNodes>
        0 -1 20659 -783035964 1013494903 -268439884 3407518 1950295829
        905336757 -71400190 1110540939</internalNodes>
      <leafValues>
        -2.2329083085060120e-01 1.3299511373043060e-01</leafValues></_>
    <_>
      <internalNodes>
        0 -1 13121 2129647348 1694433205 -55581457 1870654123
        -1577719884 -186288140 1744750959 1870659367</internalNodes>
      <leafValues>
        -1.6850891709327698e-01 1.7039720714092255e-01</leafValues></_>
    <_>
      <internalNodes>
        0 -1 26 82128678 921733884 -1074856080 -1084748268 737541631
        -302125057 1255069544 -1461105652</internalNodes>
      <leafValues>
        -2.5859516859054565e-01 1.0986026376485825e-01</leafValues></_>
    <_>
      <internalNodes>
        0 -1 513 336443205 473738837 -1244889967 466292437 1853159408
        -1560875788 -688071220 -1272164620</internalNodes>
      <leafValues>
        -1.7617553472518921e-01 1.6014395654201508e-01</leafValues></_>
    <_>
      <internalNodes>
        0 -1 2856 -822106577 721414959 -419895366 713747774 528436164
        1224195957 -184719648 -595921039</internalNodes>
      <leafValues>
        -2.4286895990371704e-01 1.2114037573337555e-01</leafValues></_>
    <_>
      <internalNodes>
        0 -1 22713 -83890518 809828080 -1394606366 350869447 351534925
        1383125878 1576531338 -777554945</internalNodes>
      <leafValues>
        -1.8516397476196289e-01 1.5488532185554504e-01</leafValues></_>
    <_>
      <internalNodes>
        0 -1 100 -1433669470 -1534163768 1937552065 1427083504
        -1678056757 -2040546974 402576634 1338736878</internalNodes>
      <leafValues>
        -1.6905061900615692e-01 1.7006613314151764e-01</leafValues></_>
    <_>
      <internalNodes>
        0 -1 19668 -1434448336 -1934873888 -1161888324 -91341372
        266615733 -1402982672 2107250388 -1141303916</internalNodes>
      <leafValues>
        -2.2439980506896973e-01 1.2949649989604950e-01</leafValues></_>
    <_>
      <internalNodes>
        0 -1 14947 -691214686 1422733388 -1460395520 -1293103427
        -864777029 1014487412 -1343284808 469578251</internalNodes>
      <leafValues>
        -2.0287834107875824e-01 1.3736870884895325e-01</leafValues></_>
    <_>
      <internalNodes>
        0 -1 19659 -1208089626 665054114 1870325824 -1346447774
        1622417060 216299300 14877729 12019731</internalNodes>
      <leafValues>
        -2.7352404594421387e-01 1.0049414634704590e-01</leafValues></_>
    <_>
      <internalNodes>
        0 -1 13721 -737614684 -1184846303 536018839 -1110921694
        1605899736 -1342242817 1073098783 436039741</internalNodes>
      <leafValues>
        -1.8073706328868866e-01 1.4774239063262939e-01</leafValues></_>
    <_>
      <internalNodes>
        0 -1 11771 988701557 788522605 -65967 -1431904538 1147174524
        -16943362 -446408124 -92519344</internalNodes>
      <leafValues>
        -2.4775329232215881e-01 1.1211463063955307e-01</leafValues></_></weakClassifiers></stage3>
</opencv_storage>
