<?xml version="1.0"?>
<opencv_storage>
<stage9>
  <maxWeakCount>97</maxWeakCount>
  <stageThreshold>-2.1845021247863770e+00</stageThreshold>
  <weakClassifiers>
    <_>
      <internalNodes>
        0 -1 6669 -2260993 -1069313 533135679 262998015 -2695169
        -2097153 2130657215 2143240159</internalNodes>
      <leafValues>
        -6.5103524923324585e-01 -2.3894456028938293e-01</leafValues></_>
    <_>
      <internalNodes>
        0 -1 6334 -1 -16777217 -92610849 -1167919489 -52441889
        -553863169 -655700740 -32441090</internalNodes>
      <leafValues>
        -3.3230251073837280e-01 1.3530391454696655e-01</leafValues></_>
    <_>
      <internalNodes>
        0 -1 14182 -713885697 -143529089 -537858354 -3871164 -178927618
        -163293871 -146389430 2000962628</internalNodes>
      <leafValues>
        -2.2389486432075500e-01 2.1437738835811615e-01</leafValues></_>
    <_>
      <internalNodes>
        0 -1 19516 -202375317 -1343308821 -268589470 -810555870
        -892627185 205108992 1727092595 1191704355</internalNodes>
      <leafValues>
        -2.1996352076530457e-01 1.5169298648834229e-01</leafValues></_>
    <_>
      <internalNodes>
        0 -1 1681 -437260381 -1597444402 -32897 -286367194 -1448607745
        -287637505 -604636417 -855654148</internalNodes>
      <leafValues>
        -1.9564257562160492e-01 1.7119252681732178e-01</leafValues></_>
    <_>
      <internalNodes>
        0 -1 11219 -244010892 1358815908 -1268721323 -704777473
        -264202928 -1271173008 -1679499809 -542384689</internalNodes>
      <leafValues>
        -2.0555479824542999e-01 1.6053090989589691e-01</leafValues></_>
    <_>
      <internalNodes>
        0 -1 22101 1208021232 -775381088 -562635052 -577849616
        -789000712 -570763139 733519355 -1142214149</internalNodes>
      <leafValues>
        -1.4655974507331848e-01 1.9617702066898346e-01</leafValues></_>
    <_>
      <internalNodes>
        0 -1 9378 -285520769 -539002385 -25231617 -604015617 -419056
        -2621597 -92340486 -15536325</internalNodes>
      <leafValues>
        -1.1171247065067291e-01 2.4030236899852753e-01</leafValues></_>
    <_>
      <internalNodes>
        0 -1 22557 -673206358 22627319 -1376985168 -2049984594
        1439499728 -992182212 -106955269 -270535685</internalNodes>
      <leafValues>
        -1.3451273739337921e-01 1.9298614561557770e-01</leafValues></_>
    <_>
      <internalNodes>
        0 -1 19211 1212205774 963681622 -1461417424 -185550861 116665788
        1037592308 2054824698 650849710</internalNodes>
      <leafValues>
        -2.0230968296527863e-01 1.1762434989213943e-01</leafValues></_>
    <_>
      <internalNodes>
        0 -1 11725 -297888161 651884174 1832370047 -824246529 1045640434
        -1298203221 -10796 -16977680</internalNodes>
      <leafValues>
        -1.8520095944404602e-01 1.2153875082731247e-01</leafValues></_>
    <_>
      <internalNodes>
        0 -1 2946 -285311026 -288428610 -1481707571 -303059857
        -1963606060 -789383174 130710343 1199527519</internalNodes>
      <leafValues>
        -2.0663557946681976e-01 1.1220833659172058e-01</leafValues></_>
    <_>
      <internalNodes>
        0 -1 21657 1565633180 1891020455 -1621497287 -39671806
        1559574693 536341677 1543440394 454885891</internalNodes>
      <leafValues>
        -1.8593025207519531e-01 1.2090280652046204e-01</leafValues></_>
    <_>
      <internalNodes>
        0 -1 23595 -1067473 -473957377 1584100458 552068863 -142675129
        1937747551 -1208026294 2077751039</internalNodes>
      <leafValues>
        -1.4192131161689758e-01 1.5817643702030182e-01</leafValues></_>
    <_>
      <internalNodes>
        0 -1 3257 -878850309 -80792145 2121973627 989918833 2130167548
        -1751952 -185442594 -83669421</internalNodes>
      <leafValues>
        -1.0768431425094604e-01 2.0356790721416473e-01</leafValues></_>
    <_>
      <internalNodes>
        0 -1 10076 1381289678 326495588 -721932540 -1565759807
        1979467260 665119124 1861107260 1053782052</internalNodes>
      <leafValues>
        -1.9137750566005707e-01 1.1496534198522568e-01</leafValues></_>
    <_>
      <internalNodes>
        0 -1 219 238425323 990957559 1004426740 -75846150 -1762068033
        1576887005 1094708217 -2107337</internalNodes>
      <leafValues>
        -1.6799443960189819e-01 1.3026665151119232e-01</leafValues></_>
    <_>
      <internalNodes>
        0 -1 22863 -98373184 -789931482 -1879089198 -169530416
        -1409549081 -1997882185 936245163 -1680927301</internalNodes>
      <leafValues>
        -9.1336183249950409e-02 2.3470941185951233e-01</leafValues></_>
    <_>
      <internalNodes>
        0 -1 10581 -427838481 -822199566 -1308627205 -1569140954
        1201336530 1184258422 2006573028 -133629292</internalNodes>
      <leafValues>
        -2.0230929553508759e-01 1.0538326948881149e-01</leafValues></_>
    <_>
      <internalNodes>
        0 -1 420 2129587762 289794810 1827950378 -74956024 535289840
        2490098 -353083572 -843031352</internalNodes>
      <leafValues>
        -1.4115232229232788e-01 1.5172708034515381e-01</leafValues></_>
    <_>
      <internalNodes>
        0 -1 23315 -623121782 270145081 543991974 1885456126 -35732468
        1728511092 -356712710 -932456257</internalNodes>
      <leafValues>
        -1.3209800422191620e-01 1.5525160729885101e-01</leafValues></_>
    <_>
      <internalNodes>
        0 -1 10747 10671873 243985193 -1879130785 -1344230027 156078517
        -540141846 234714545 -1379054223</internalNodes>
      <leafValues>
        -1.8619059026241302e-01 1.0942079871892929e-01</leafValues></_>
    <_>
      <internalNodes>
        0 -1 1988 1479013491 -772870230 653184807 -202496926 616527091
        1219820510 2078230207 1439462909</internalNodes>
      <leafValues>
        -1.0933911055326462e-01 1.8275177478790283e-01</leafValues></_>
    <_>
      <internalNodes>
        0 -1 15430 -1699233997 -902895126 -640155659 -830843912
        -76136462 -881173518 367981781 -589630212</internalNodes>
      <leafValues>
        -1.5947778522968292e-01 1.2635260820388794e-01</leafValues></_>
    <_>
      <internalNodes>
        0 -1 20347 -188223870 -805257482 1613035170 896806450
        -1871605332 -1259045386 1813810383 1048007431</internalNodes>
      <leafValues>
        -1.4961500465869904e-01 1.3581062853336334e-01</leafValues></_>
    <_>
      <internalNodes>
        0 -1 17697 -420562061 -477173012 -89202945 -169876314
        -1169383472 -1711954796 1564884771 999248391</internalNodes>
      <leafValues>
        -1.4287865161895752e-01 1.4295455813407898e-01</leafValues></_>
    <_>
      <internalNodes>
        0 -1 8845 1994385151 1002405691 -16844035 -1095697050 -33655299
        -2146307 -4296774 -67705072</internalNodes>
      <leafValues>
        -1.0826241225004196e-01 1.8532088398933411e-01</leafValues></_>
    <_>
      <internalNodes>
        0 -1 14236 -83891596 -428671109 -1074565521 1873749221
        -234887179 -1244332618 -2140289 2080235519</internalNodes>
      <leafValues>
        -1.2504242360591888e-01 1.6118749976158142e-01</leafValues></_>
    <_>
      <internalNodes>
        0 -1 17478 177874690 -1568621130 2122214436 -319097360
        1061643316 -1413812698 209597492 -2130819868</internalNodes>
      <leafValues>
        -2.8624323010444641e-01 6.6726990044116974e-02</leafValues></_>
    <_>
      <internalNodes>
        0 -1 17189 1363772064 414362537 -739148183 -584588606 1087312012
        184307175 2012311050 426107919</internalNodes>
      <leafValues>
        -1.6437782347202301e-01 1.1791939288377762e-01</leafValues></_>
    <_>
      <internalNodes>
        0 -1 15739 1694487700 11797487 -662737246 105669268 217301873
        1003962109 2013156608 3992157</internalNodes>
      <leafValues>
        -2.8421750664710999e-01 6.6078588366508484e-02</leafValues></_>
    <_>
      <internalNodes>
        0 -1 7884 2129570814 996669181 -1224804417 -1124023487
        -975254820 -1845700811 -588341620 -1358830557</internalNodes>
      <leafValues>
        -1.0887424647808075e-01 1.8171393871307373e-01</leafValues></_>
    <_>
      <internalNodes>
        0 -1 12501 -1406622416 -290525600 494508176 -54592044
        -1095205456 -1078006276 858936287 -323503</internalNodes>
      <leafValues>
        -1.4593444764614105e-01 1.2994299829006195e-01</leafValues></_>
    <_>
      <internalNodes>
        0 -1 22229 130958862 -1348884041 -160118910 -1442775840
        352125405 1079494591 -1317906465 1421957067</internalNodes>
      <leafValues>
        -1.7845600843429565e-01 1.0484552383422852e-01</leafValues></_>
    <_>
      <internalNodes>
        0 -1 19560 -64029918 -830808780 -1276445700 -289915928
        -269967131 -1363130961 1945697514 -553962309</internalNodes>
      <leafValues>
        -1.1057822406291962e-01 1.7253124713897705e-01</leafValues></_>
    <_>
      <internalNodes>
        0 -1 1530 -551565585 1918045035 -620901266 1383750395 -541091064
        -25338611 -1083721990 -82642309</internalNodes>
      <leafValues>
        -1.1414857208728790e-01 1.6532826423645020e-01</leafValues></_>
    <_>
      <internalNodes>
        0 -1 22075 -2102883840 1377307872 841327862 -793236840
        -1497589832 -1445693648 1990303996 -1598421958</internalNodes>
      <leafValues>
        -1.5510171651840210e-01 1.2141607701778412e-01</leafValues></_>
    <_>
      <internalNodes>
        0 -1 9377 -268581330 -2042712070 1729080032 766357486
        -1845553340 -992084524 -241334496 1425491559</internalNodes>
      <leafValues>
        -2.6700437068939209e-01 7.1313820779323578e-02</leafValues></_>
    <_>
      <internalNodes>
        0 -1 1313 -1997558285 -2001203449 -1409417545 -1391434062
        -152102657 -286494786 -50701104 -836745648</internalNodes>
      <leafValues>
        -1.9741316139698029e-01 9.8474003374576569e-02</leafValues></_>
    <_>
      <internalNodes>
        0 -1 26883 1909805823 -2657039 1634719982 -537921539 -33621265
        -1211487253 -77818885 1531816111</internalNodes>
      <leafValues>
        -8.4724724292755127e-02 2.2905136644840240e-01</leafValues></_>
    <_>
      <internalNodes>
        0 -1 18757 -833827724 -56215004 -153194801 -103450 -1243201940
        -268902441 -1940189569 -1079356365</internalNodes>
      <leafValues>
        -1.4219973981380463e-01 1.3698455691337585e-01</leafValues></_>
    <_>
      <internalNodes>
        0 -1 18540 -58062816 -1977075130 -223151578 -26725424
        -1182128779 -356371155 -2063665792 -21342740</internalNodes>
      <leafValues>
        -1.8037328124046326e-01 1.0174698382616043e-01</leafValues></_>
    <_>
      <internalNodes>
        0 -1 22847 1895085744 -798349692 -4214764 -101853024 -1238960495
        -2134317362 603452922 -1145359173</internalNodes>
      <leafValues>
        -9.3793988227844238e-02 1.9880421459674835e-01</leafValues></_>
    <_>
      <internalNodes>
        0 -1 14533 -2135261183 965383863 -1883373697 -706597289
        365921485 -1342702097 -925926196 74195557</internalNodes>
      <leafValues>
        -2.0195630192756653e-01 9.1198354959487915e-02</leafValues></_>
    <_>
      <internalNodes>
        0 -1 23391 -1025333586 -115830992 -85132230 -1872136507
        -1498695540 854390101 984327851 -2118421313</internalNodes>
      <leafValues>
        -1.0703023523092270e-01 1.7161802947521210e-01</leafValues></_>
    <_>
      <internalNodes>
        0 -1 12021 -927069677 -755098133 -1294174611 2146621439 -6601408
        -67554483 2146990932 -1154822864</internalNodes>
      <leafValues>
        -1.4880706369876862e-01 1.2272256612777710e-01</leafValues></_>
    <_>
      <internalNodes>
        0 -1 12250 1063070884 886792228 -1002828989 1089415915 -64947413
        -1855398780 -356164725 1256991423</internalNodes>
      <leafValues>
        -1.7864325642585754e-01 1.0134552419185638e-01</leafValues></_>
    <_>
      <internalNodes>
        0 -1 17831 -289867739 -1369387777 1291725035 -522425361 -8402684
        -313545473 -27593633 -1423767009</internalNodes>
      <leafValues>
        -1.3616767525672913e-01 1.3261187076568604e-01</leafValues></_>
    <_>
      <internalNodes>
        0 -1 15249 813938603 1044686644 -1380256802 -68291056 1897182648
        -1085192912 2020888596 -305282912</internalNodes>
      <leafValues>
        -1.3683782517910004e-01 1.3535027205944061e-01</leafValues></_>
    <_>
      <internalNodes>
        0 -1 19494 -1230461438 -1345674376 -433177033 -333437768
        785142566 -1096021130 -23126 -2066874146</internalNodes>
      <leafValues>
        -1.6294853389263153e-01 1.1672715097665787e-01</leafValues></_>
    <_>
      <internalNodes>
        0 -1 7561 1794967495 786313215 -134824838 575053630 1305374676
        325940213 2032327536 -20383888</internalNodes>
      <leafValues>
        -2.0362159609794617e-01 8.9658327400684357e-02</leafValues></_>
    <_>
      <internalNodes>
        0 -1 22875 -50802400 -200351550 528412379 -1213444 -2012479570
        234153927 -940956485 -1075113541</internalNodes>
      <leafValues>
        -8.6156874895095825e-02 2.2067548334598541e-01</leafValues></_>
    <_>
      <internalNodes>
        0 -1 13595 1342722256 -248889182 2006368153 -8472542 862930848
        -1074955781 1711149826 82665542</internalNodes>
      <leafValues>
        -1.6950048506259918e-01 1.0853802412748337e-01</leafValues></_>
    <_>
      <internalNodes>
        0 -1 27025 -107366417 -36716546 -1759766 1843261359 -6317105
        -402654231 2064316799 426360027</internalNodes>
      <leafValues>
        -9.7743786871433258e-02 1.9285765290260315e-01</leafValues></_>
    <_>
      <internalNodes>
        0 -1 13932 -1565638032 -1426444304 -1159318537 -257731004
        522600374 -704875049 -1233897479 -1346555536</internalNodes>
      <leafValues>
        -1.6650792956352234e-01 1.0747999697923660e-01</leafValues></_>
    <_>
      <internalNodes>
        0 -1 24551 399327035 361954227 -1041357328 -1115933088
        1085738653 503070142 1224541456 1153554370</internalNodes>
      <leafValues>
        -1.5075734257698059e-01 1.1654763668775558e-01</leafValues></_>
    <_>
      <internalNodes>
        0 -1 0 -877952662 413700098 1000932544 -706374476 -1419593042
        260969944 -476923922 1271777983</internalNodes>
      <leafValues>
        -1.2019613385200500e-01 1.4761419594287872e-01</leafValues></_>
    <_>
      <internalNodes>
        0 -1 22755 -1435973632 -660070120 -256990044 -1779618756
        439136348 -1653465237 -1595494984 -1343290181</internalNodes>
      <leafValues>
        -1.1849848926067352e-01 1.4656093716621399e-01</leafValues></_>
    <_>
      <internalNodes>
        0 -1 11770 -558938309 -1934691609 1994178082 -294994580
        1672364902 -876182587 650601588 -48597380</internalNodes>
      <leafValues>
        -2.0551133155822754e-01 8.4790803492069244e-02</leafValues></_>
    <_>
      <internalNodes>
        0 -1 612 1783557311 596239074 2022481699 764038154 2000975806
        2097084786 1924554712 1961851864</internalNodes>
      <leafValues>
        -1.6424776613712311e-01 1.0680150985717773e-01</leafValues></_>
    <_>
      <internalNodes>
        0 -1 20051 -267867986 2004880382 -1801426341 -250042826
        1610378156 486211244 1316866106 1531954310</internalNodes>
      <leafValues>
        -1.2769575417041779e-01 1.3607682287693024e-01</leafValues></_>
    <_>
      <internalNodes>
        0 -1 9360 -1024505621 -673190091 -1304596625 519991295
        -1091049147 -6333598 1618796404 -16711696</internalNodes>
      <leafValues>
        -1.4756451547145844e-01 1.1880236864089966e-01</leafValues></_>
    <_>
      <internalNodes>
        0 -1 1229 991018815 -1694821381 451460829 -49058049 -18371945
        -1979842721 368835803 -615445822</internalNodes>
      <leafValues>
        -7.4460066854953766e-02 2.3522433638572693e-01</leafValues></_>
    <_>
      <internalNodes>
        0 -1 22690 -456207474 -528419215 -405766546 -2080052924
        1081894684 1295447544 -907651574 827357047</internalNodes>
      <leafValues>
        -1.9250303506851196e-01 8.9313246309757233e-02</leafValues></_>
    <_>
      <internalNodes>
        0 -1 19566 -995826248 271210996 -1366242744 2097444494
        1374185388 -3934025 1935201312 722107399</internalNodes>
      <leafValues>
        -1.6987691819667816e-01 1.0073289275169373e-01</leafValues></_>
    <_>
      <internalNodes>
        0 -1 16032 374385848 1425049188 -541673962 -1258878946
        1616186872 1922693116 1929267247 99476006</internalNodes>
      <leafValues>
        -1.8793787062168121e-01 9.3481503427028656e-02</leafValues></_>
    <_>
      <internalNodes>
        0 -1 12356 796124710 7800802 -319918450 1090071498 972107876
        818997142 2017333584 2029217420</internalNodes>
      <leafValues>
        -2.3318570852279663e-01 7.3193959891796112e-02</leafValues></_>
    <_>
      <internalNodes>
        0 -1 6273 -1501624081 1827661967 41857636 542043754 -159420414
        1156133698 1358951744 1348521088</internalNodes>
      <leafValues>
        -2.9262641072273254e-01 5.8955069631338120e-02</leafValues></_>
    <_>
      <internalNodes>
        0 -1 16370 -31087598 1385743164 -507861442 1692937228 23479732
        -1594864662 1962292005 773803372</internalNodes>
      <leafValues>
        -2.0523741841316223e-01 8.2174569368362427e-02</leafValues></_>
    <_>
      <internalNodes>
        0 -1 22307 1270304550 426047319 1870118250 -1370056066
        2013123728 12219735 -1278371444 837005310</internalNodes>
      <leafValues>
        -1.5986391901969910e-01 1.0735636949539185e-01</leafValues></_>
    <_>
      <internalNodes>
        0 -1 20085 -668286720 -727270998 -1090520065 -537854472
        1752420736 -1669873825 -1687620162 -1410378587</internalNodes>
      <leafValues>
        -1.0320247709751129e-01 1.6777938604354858e-01</leafValues></_>
    <_>
      <internalNodes>
        0 -1 2336 1995761662 469043183 -285844772 1609330351 1044506356
        -849478740 -90292755 2111470820</internalNodes>
      <leafValues>
        -1.2875804305076599e-01 1.3716496527194977e-01</leafValues></_>
    <_>
      <internalNodes>
        0 -1 10745 -1893613789 -1529422289 -641866377 -287367793
        -272679114 -97583105 -340328865 -853896681</internalNodes>
      <leafValues>
        -1.5807132422924042e-01 1.1335907876491547e-01</leafValues></_>
    <_>
      <internalNodes>
        0 -1 10762 254222906 1849685094 -289425615 -42539826 1465200043
        -635835850 722317544 2013976046</internalNodes>
      <leafValues>
        -1.6275323927402496e-01 1.0969713330268860e-01</leafValues></_>
    <_>
      <internalNodes>
        0 -1 18720 204473344 -422425398 -248124947 -553884996 784646033
        -1092789766 402535666 -1151720368</internalNodes>
      <leafValues>
        -1.7816226184368134e-01 9.8547354340553284e-02</leafValues></_>
    <_>
      <internalNodes>
        0 -1 22815 1848424488 -667019982 1878322102 -70355792
        -1600749316 2091709294 -1715087426 -1677781685</internalNodes>
      <leafValues>
        -1.0288094729185104e-01 1.7586584389209747e-01</leafValues></_>
    <_>
      <internalNodes>
        0 -1 21326 187098035 548199484 2069167717 -76548092 652522519
        71498978 -1914743773 1431160519</internalNodes>
      <leafValues>
        -1.4663673937320709e-01 1.1936619877815247e-01</leafValues></_>
    <_>
      <internalNodes>
        0 -1 27060 905771979 -135418728 -539238869 1392221322 2109603339
        669196243 1597456174 1462582201</internalNodes>
      <leafValues>
        -1.2719298899173737e-01 1.3262082636356354e-01</leafValues></_>
    <_>
      <internalNodes>
        0 -1 20165 -331694078 -1976901646 -184750539 -706872356
        -1602246664 142439398 -159977016 -303624191</internalNodes>
      <leafValues>
        -1.1778807640075684e-01 1.4126256108283997e-01</leafValues></_>
    <_>
      <internalNodes>
        0 -1 24074 1258826500 -336655394 -290751196 389044816 147591078
        16560587 -709539917 26194</internalNodes>
      <leafValues>
        -2.0647622644901276e-01 8.2473397254943848e-02</leafValues></_>
    <_>
      <internalNodes>
        0 -1 15612 -427930569 -285473140 -50335819 -1090724332 981409909
        -1935875217 650657605 -79034952</internalNodes>
      <leafValues>
        -1.6118460893630981e-01 1.0518216341733932e-01</leafValues></_>
    <_>
      <internalNodes>
        0 -1 17649 -223545348 -192481378 -1124145462 -186603986
        1075077524 -1868228436 -1369170914 536687963</internalNodes>
      <leafValues>
        -1.4207488298416138e-01 1.2290037423372269e-01</leafValues></_>
    <_>
      <internalNodes>
        0 -1 899 83607167 275175037 -1468203070 -39781132 1054539752
        -55381860 -84836356 -78943139</internalNodes>
      <leafValues>
        -1.2419361621141434e-01 1.3928011059761047e-01</leafValues></_>
    <_>
      <internalNodes>
        0 -1 20877 1265141992 2099298238 -655316230 -283984708
        1833265337 -1732596293 715516633 1026466178</internalNodes>
      <leafValues>
        -1.4256575703620911e-01 1.1922857910394669e-01</leafValues></_>
    <_>
      <internalNodes>
        0 -1 16159 -1469308416 78444414 1289288029 1619524485 425755984
        359138600 217357599 58167839</internalNodes>
      <leafValues>
        -2.5328987836837769e-01 6.7488133907318115e-02</leafValues></_>
    <_>
      <internalNodes>
        0 -1 15102 1417209518 894760498 1651697422 -214637370 -730836028
        -1393495964 -128647352 -1209244076</internalNodes>
      <leafValues>
        -1.3103015720844269e-01 1.3200245797634125e-01</leafValues></_>
    <_>
      <internalNodes>
        0 -1 26895 1738290315 -893856553 -2107706405 -932719906
        -421009198 1665380411 1935259422 375716601</internalNodes>
      <leafValues>
        -1.5676219761371613e-01 1.0917414724826813e-01</leafValues></_>
    <_>
      <internalNodes>
        0 -1 23455 1726137868 -721618932 1859300432 -243192074
        1677569172 -622821770 2071594170 -1980802877</internalNodes>
      <leafValues>
        -1.0832794755697250e-01 1.5666972100734711e-01</leafValues></_>
    <_>
      <internalNodes>
        0 -1 26470 195637005 -1544261187 2139037326 -959630871
        1167490565 248657917 -588393900 1420588992</internalNodes>
      <leafValues>
        -2.1180529892444611e-01 8.1152930855751038e-02</leafValues></_>
    <_>
      <internalNodes>
        0 -1 14492 1991122684 -1124959316 -601452737 656598285
        -1251240651 -1764361497 -991022036 -1459530685</internalNodes>
      <leafValues>
        -1.3262215256690979e-01 1.3030569255352020e-01</leafValues></_>
    <_>
      <internalNodes>
        0 -1 3194 887073599 923786270 2063515391 -8143265 -1852332392
        -822649522 -83969810 -614372349</internalNodes>
      <leafValues>
        -8.3286873996257782e-02 2.0267783105373383e-01</leafValues></_>
    <_>
      <internalNodes>
        0 -1 10485 -962614033 -353436690 -1224754309 -1897646113
        1136127443 -342569309 -773523716 -422665020</internalNodes>
      <leafValues>
        -1.5497183799743652e-01 1.1837869882583618e-01</leafValues></_>
    <_>
      <internalNodes>
        0 -1 1620 -71325489 -614527109 -1304975374 1398530045 -2397696
        -203989213 -48432134 -12386449</internalNodes>
      <leafValues>
        -8.6899101734161377e-02 1.9626757502555847e-01</leafValues></_>
    <_>
      <internalNodes>
        0 -1 21165 -29692416 -2098682192 -401906570 318355196 742370756
        1061032804 -1613830194 -2001795880</internalNodes>
      <leafValues>
        -1.3764180243015289e-01 1.2133929878473282e-01</leafValues></_>
    <_>
      <internalNodes>
        0 -1 3120 -67375121 -83889217 1287060064 -755245601 2105007007
        -1001488633 -571933016 -78908421</internalNodes>
      <leafValues>
        -7.5145758688449860e-02 2.2734943032264709e-01</leafValues></_>
    <_>
      <internalNodes>
        0 -1 23421 314298126 -1783712156 335265616 -309477792 1585024440
        -1669629585 520043514 74273851</internalNodes>
      <leafValues>
        -1.2779618799686432e-01 1.3195423781871796e-01</leafValues></_>
    <_>
      <internalNodes>
        0 -1 4119 2129546491 494702447 -1090641923 -1243731401
        -579949319 -1351631105 -6754316 2078301988</internalNodes>
      <leafValues>
        -1.1638526618480682e-01 1.4437727630138397e-01</leafValues></_></weakClassifiers></stage9>
</opencv_storage>
