<?xml version="1.0"?>
<opencv_storage>
<stage1>
  <maxWeakCount>28</maxWeakCount>
  <stageThreshold>-2.6912903785705566e+00</stageThreshold>
  <weakClassifiers>
    <_>
      <internalNodes>
        0 -1 26377 -1 -1 -1 -1 -1 -1 -3 -8708</internalNodes>
      <leafValues>
        -6.7845916748046875e-01 2.7886185050010681e-01</leafValues></_>
    <_>
      <internalNodes>
        0 -1 12563 -723189824 -793706508 -65596 -262145 -137101328
        -134873097 -524321 -524289</internalNodes>
      <leafValues>
        -5.7244646549224854e-01 2.9241675138473511e-01</leafValues></_>
    <_>
      <internalNodes>
        0 -1 12592 -522131744 -659473 -454906283 -805310545 1951790581
        -34211849 -235538441 -6161</internalNodes>
      <leafValues>
        -3.8271927833557129e-01 3.1254544854164124e-01</leafValues></_>
    <_>
      <internalNodes>
        0 -1 24051 782184243 -1361118221 -131081 -285282306 -268730763
        -17104897 -176 -84215820</internalNodes>
      <leafValues>
        -3.7499088048934937e-01 2.9212164878845215e-01</leafValues></_>
    <_>
      <internalNodes>
        0 -1 21490 -16601 -262145 -8388609 -2049 2146907989 -8388993
        -69834 -8913033</internalNodes>
      <leafValues>
        -2.8664785623550415e-01 3.3929920196533203e-01</leafValues></_>
    <_>
      <internalNodes>
        0 -1 3559 -16777377 -258949594 -38338594 -1301086465 -680048863
        -262865033 -42600177 -50331681</internalNodes>
      <leafValues>
        -2.5440478324890137e-01 3.2687655091285706e-01</leafValues></_>
    <_>
      <internalNodes>
        0 -1 24247 -1472317579 -1127440401 -10616839 -33759780
        -1073823747 -1090598537 -1073745923 -1929901904</internalNodes>
      <leafValues>
        -2.9946431517601013e-01 2.7587181329727173e-01</leafValues></_>
    <_>
      <internalNodes>
        0 -1 22707 210633232 251539292 -285213200 -1158873170 -260416156
        -824354945 -117768236 -18156304</internalNodes>
      <leafValues>
        -3.6598953604698181e-01 1.9471974670886993e-01</leafValues></_>
    <_>
      <internalNodes>
        0 -1 18093 1414326432 295235576 715827389 599363581 1106708864
        503304183 7016331 552797114</internalNodes>
      <leafValues>
        -3.6010017991065979e-01 2.0210456848144531e-01</leafValues></_>
    <_>
      <internalNodes>
        0 -1 26034 -1146093773 -1393660946 -134219818 -117506182
        -1216387275 -288883404 -134219919 -117910032</internalNodes>
      <leafValues>
        -2.9627561569213867e-01 2.0414392650127411e-01</leafValues></_>
    <_>
      <internalNodes>
        0 -1 9193 -281825490 570867447 -277942674 3124938 -77711616
        1951563111 -486687478 1141866319</internalNodes>
      <leafValues>
        -4.5247626304626465e-01 1.3609293103218079e-01</leafValues></_>
    <_>
      <internalNodes>
        0 -1 23091 -1999500220 -50582341 -30462499 -604217454 2126386208
        -604581890 -4416048 -1430780512</internalNodes>
      <leafValues>
        -3.1350395083427429e-01 1.8662914633750916e-01</leafValues></_>
    <_>
      <internalNodes>
        0 -1 3464 -8650753 -469975041 -810571126 -1356517718 1825456053
        1970862079 662119680 1340559187</internalNodes>
      <leafValues>
        -2.7938979864120483e-01 2.0497226715087891e-01</leafValues></_>
    <_>
      <internalNodes>
        0 -1 26888 -1375748173 -1364481048 1945630709 -1262864 268434851
        -810549558 2012984817 -807412516</internalNodes>
      <leafValues>
        -2.0471493899822235e-01 2.7467077970504761e-01</leafValues></_>
    <_>
      <internalNodes>
        0 -1 23745 1929348096 -134512705 -1346400380 -1343492190
        1465721088 2147319039 -1347869560 754314574</internalNodes>
      <leafValues>
        -3.3420598506927490e-01 1.5649251639842987e-01</leafValues></_>
    <_>
      <internalNodes>
        0 -1 25074 -1896944077 -1394192410 1792407285 -20119692
        -1227055808 -276840577 -138348972 -23544880</internalNodes>
      <leafValues>
        -2.5987228751182556e-01 2.0274896919727325e-01</leafValues></_>
    <_>
      <internalNodes>
        0 -1 15242 -181170944 922939246 1207893364 -575026992 74540773
        1680146429 1100311624 134433826</internalNodes>
      <leafValues>
        -2.9812568426132202e-01 1.7283686995506287e-01</leafValues></_>
    <_>
      <internalNodes>
        0 -1 27220 -1432643421 -2098278676 -12619407 -319883076
        1071379431 -1360004234 1409283573 -840968976</internalNodes>
      <leafValues>
        -2.3116074502468109e-01 2.0872437953948975e-01</leafValues></_>
    <_>
      <internalNodes>
        0 -1 22655 640287265 685639520 -344473615 -1100452104 670856788
        -1079034004 -1284262944 -22233872</internalNodes>
      <leafValues>
        -3.1225129961967468e-01 1.5395538508892059e-01</leafValues></_>
    <_>
      <internalNodes>
        0 -1 8967 -137386098 2054664071 -1364152604 538617482
        -1518373852 1685103733 -9445524 1951915102</internalNodes>
      <leafValues>
        -3.1585213541984558e-01 1.4288859069347382e-01</leafValues></_>
    <_>
      <internalNodes>
        0 -1 26377 716928800 -1895236428 -285475595 -1078661648
        -1342326223 -1946566668 800483254 -1931976109</internalNodes>
      <leafValues>
        -2.5015234947204590e-01 1.8191924691200256e-01</leafValues></_>
    <_>
      <internalNodes>
        0 -1 26476 1732523568 -713394188 -671781003 -5963780 2029878772
        -1291 -2328132 -285413928</internalNodes>
      <leafValues>
        -3.4284359216690063e-01 1.3975766301155090e-01</leafValues></_>
    <_>
      <internalNodes>
        0 -1 18182 1350848768 356298168 -1599830572 1234774756 2360748
        949761772 -487433295 700384123</internalNodes>
      <leafValues>
        -3.4281659126281738e-01 1.3011513650417328e-01</leafValues></_>
    <_>
      <internalNodes>
        0 -1 25217 -289444043 -823084368 -134217995 -167838476 649927861
        804763620 230624733 -856079140</internalNodes>
      <leafValues>
        -2.3046903312206268e-01 1.9422902166843414e-01</leafValues></_>
    <_>
      <internalNodes>
        0 -1 12915 -25171226 1705963468 -30250364 -136945718 1910797670
        635764716 -688392590 -138939145</internalNodes>
      <leafValues>
        -2.5006365776062012e-01 1.7459487915039062e-01</leafValues></_>
    <_>
      <internalNodes>
        0 -1 8378 -352345201 673245117 -1149223506 -1640841218
        2004311900 1358183006 -1709884660 494272306</internalNodes>
      <leafValues>
        -2.3026216030120850e-01 1.8667763471603394e-01</leafValues></_>
    <_>
      <internalNodes>
        0 -1 24921 -2068308975 -2462186 -151540761 -1275315467
        -568179120 -9011759 -1109213284 -1433863212</internalNodes>
      <leafValues>
        -2.2087690234184265e-01 1.8398745357990265e-01</leafValues></_>
    <_>
      <internalNodes>
        0 -1 20576 -8536267 -704584907 -136327823 -274491144 628578101
        -95358985 1304237241 -1930738661</internalNodes>
      <leafValues>
        -1.6509738564491272e-01 2.4386157095432281e-01</leafValues></_></weakClassifiers></stage1>
</opencv_storage>
