<?xml version="1.0"?>
<opencv_storage>
<stage6>
  <maxWeakCount>88</maxWeakCount>
  <stageThreshold>-2.2704379558563232e+00</stageThreshold>
  <weakClassifiers>
    <_>
      <internalNodes>
        0 -1 15848 -67110913 -20497 -1342197761 999264171 -2113537
        -16961 -1159741445 1003948939</internalNodes>
      <leafValues>
        -6.5319490432739258e-01 -1.7591004073619843e-01</leafValues></_>
    <_>
      <internalNodes>
        0 -1 26056 -262145 -277 -2097153 -5 -1073741825 -268764165
        -1342179339 -805446412</internalNodes>
      <leafValues>
        -2.9975327849388123e-01 2.3216353356838226e-01</leafValues></_>
    <_>
      <internalNodes>
        0 -1 17533 -704643073 -709099593 -33554552 -1918263634
        -520290897 -2000683382 -318902358 -2004292728</internalNodes>
      <leafValues>
        -2.0125326514244080e-01 2.9326078295707703e-01</leafValues></_>
    <_>
      <internalNodes>
        0 -1 11268 -85999890 1915758082 1679205897 -1474236714 -25277601
        1984975951 -8946049 -134218369</internalNodes>
      <leafValues>
        -2.1153734624385834e-01 1.9805659353733063e-01</leafValues></_>
    <_>
      <internalNodes>
        0 -1 18608 -77603105 1330661459 -1357985806 35856955 -876655926
        -1082702593 -269817142 179030699</internalNodes>
      <leafValues>
        -1.6982945799827576e-01 2.2245724499225616e-01</leafValues></_>
    <_>
      <internalNodes>
        0 -1 21492 2037858372 -134292737 -834674947 -9225229 2105212928
        -1048771 -1372115448 -83804297</internalNodes>
      <leafValues>
        -2.4873505532741547e-01 1.6616694629192352e-01</leafValues></_>
    <_>
      <internalNodes>
        0 -1 25056 -1902125261 -1372955210 -218120523 -4261892
        -1090846985 -33898769 -1342183692 -1074135052</internalNodes>
      <leafValues>
        -1.7647571861743927e-01 1.8900811672210693e-01</leafValues></_>
    <_>
      <internalNodes>
        0 -1 24252 788072211 673906666 -545570817 -1102906412
        -1392656897 -1359023169 163401981 -1934082024</internalNodes>
      <leafValues>
        -1.6559623181819916e-01 1.9202356040477753e-01</leafValues></_>
    <_>
      <internalNodes>
        0 -1 4646 -1208484874 -612925505 -43524147 2146435023 -150997004
        -176685209 -604115185 1601167231</internalNodes>
      <leafValues>
        -1.2884078919887543e-01 2.4817973375320435e-01</leafValues></_>
    <_>
      <internalNodes>
        0 -1 16291 -4200542 789231904 1956787232 -36340896 1297049059
        267343091 -692326173 -7342113</internalNodes>
      <leafValues>
        -1.4777964353561401e-01 1.9813439249992371e-01</leafValues></_>
    <_>
      <internalNodes>
        0 -1 15366 1397812220 1970590878 -209720108 -100949856
        -444281504 -1162688193 -923186998 183453839</internalNodes>
      <leafValues>
        -1.6424056887626648e-01 1.6398712992668152e-01</leafValues></_>
    <_>
      <internalNodes>
        0 -1 24115 -1368969889 -1562723053 -1806705057 851066606
        -1430812159 -1090978025 -35717548 -93126704</internalNodes>
      <leafValues>
        -2.1502175927162170e-01 1.2103722244501114e-01</leafValues></_>
    <_>
      <internalNodes>
        0 -1 20943 -562047872 271822325 687825637 -1582989625 -992508280
        1966728818 581831304 585628895</internalNodes>
      <leafValues>
        -1.8212996423244476e-01 1.4674107730388641e-01</leafValues></_>
    <_>
      <internalNodes>
        0 -1 10944 -498061710 -1099780489 -889127104 -553058305
        -462193152 -282034310 1578390278 -1089489449</internalNodes>
      <leafValues>
        -2.6644191145896912e-01 9.5712058246135712e-02</leafValues></_>
    <_>
      <internalNodes>
        0 -1 16093 1549119616 486647621 -1531936528 191865123 -792688512
        -579531339 -260468352 285942411</internalNodes>
      <leafValues>
        -2.1573516726493835e-01 1.1053997278213501e-01</leafValues></_>
    <_>
      <internalNodes>
        0 -1 24699 -276824173 1459027894 -721422478 706914936
        -1343228058 -1078527015 -939526160 -1997230384</internalNodes>
      <leafValues>
        -2.1490935981273651e-01 1.1250238865613937e-01</leafValues></_>
    <_>
      <internalNodes>
        0 -1 4827 1425669086 -1028622935 -312607487 -269494857
        -223351948 1708260565 -545587441 188726890</internalNodes>
      <leafValues>
        -1.6527064144611359e-01 1.5264280140399933e-01</leafValues></_>
    <_>
      <internalNodes>
        0 -1 20535 1219534068 -555869067 -839496451 -646160420 -33641408
        -67231787 -1161889132 -1145434648</internalNodes>
      <leafValues>
        -1.5192839503288269e-01 1.6062475740909576e-01</leafValues></_>
    <_>
      <internalNodes>
        0 -1 23883 1142717184 -1795631140 -1363485440 -1498940420
        2016703539 1213658741 -1223388135 -1143824662</internalNodes>
      <leafValues>
        -2.5486710667610168e-01 8.6177088320255280e-02</leafValues></_>
    <_>
      <internalNodes>
        0 -1 25730 -268456669 709820382 2138797041 -301990152
        -1395672129 -1362690145 1105024255 -928000769</internalNodes>
      <leafValues>
        -1.1182268708944321e-01 2.0660282671451569e-01</leafValues></_>
    <_>
      <internalNodes>
        0 -1 17586 1567681524 1544614104 1006366224 -1074835760
        -319664987 -1129952338 -361313368 180299979</internalNodes>
      <leafValues>
        -1.6116793453693390e-01 1.3973520696163177e-01</leafValues></_>
    <_>
      <internalNodes>
        0 -1 22707 212730117 243150284 -18350544 178421678 -575122412
        2147450357 -71377408 -94327356</internalNodes>
      <leafValues>
        -2.8599268198013306e-01 8.2152545452117920e-02</leafValues></_>
    <_>
      <internalNodes>
        0 -1 12439 -573768017 -263011122 -400128982 -494342942
        -228350571 2121891103 -456669572 1648491075</internalNodes>
      <leafValues>
        -1.5888084471225739e-01 1.3896058499813080e-01</leafValues></_>
    <_>
      <internalNodes>
        0 -1 20182 1513081250 -1129381982 264743989 -1917453472
        1316430510 -104065282 -1461715219 675577089</internalNodes>
      <leafValues>
        -1.5994723141193390e-01 1.3364593684673309e-01</leafValues></_>
    <_>
      <internalNodes>
        0 -1 27080 -11862006 -573631486 1616908836 -650444042 2010644544
        -183743156 -766326686 2031330898</internalNodes>
      <leafValues>
        -2.0374093949794769e-01 1.0866454988718033e-01</leafValues></_>
    <_>
      <internalNodes>
        0 -1 19422 -823144958 1320050562 -1528040895 -575453286
        1618430004 1390050556 -524840416 -1205601485</internalNodes>
      <leafValues>
        -1.7700554430484772e-01 1.2041955441236496e-01</leafValues></_>
    <_>
      <internalNodes>
        0 -1 22431 -1159590383 -654569993 1073716049 536671740
        -1707534252 -1078501921 -293884231 -1414920708</internalNodes>
      <leafValues>
        -1.5426483750343323e-01 1.3595816493034363e-01</leafValues></_>
    <_>
      <internalNodes>
        0 -1 18702 -862665040 2001475231 -67166499 2104964828
        -1359286592 -1097369331 -1460425812 -1145368977</internalNodes>
      <leafValues>
        -9.7500473260879517e-02 2.1003340184688568e-01</leafValues></_>
    <_>
      <internalNodes>
        0 -1 4830 939391979 -4202499 -69694722 1875885821 -402786305
        400865014 -49 527818489</internalNodes>
      <leafValues>
        -1.1112986505031586e-01 1.8446183204650879e-01</leafValues></_>
    <_>
      <internalNodes>
        0 -1 23435 786631173 1010789695 1852489694 850067447 -1367405740
        -1078233987 -84366284 -1149568268</internalNodes>
      <leafValues>
        -1.9114701449871063e-01 1.0682608932256699e-01</leafValues></_>
    <_>
      <internalNodes>
        0 -1 5832 1853828520 1599600445 -1056981803 34650812 -536992740
        456654709 -1309688864 813035218</internalNodes>
      <leafValues>
        -1.9716337323188782e-01 1.0167501121759415e-01</leafValues></_>
    <_>
      <internalNodes>
        0 -1 26892 -1153433669 -1086128148 -671121763 -1180195
        -1492451349 -1362429225 1056688125 -843086596</internalNodes>
      <leafValues>
        -9.9068768322467804e-02 2.0603646337985992e-01</leafValues></_>
    <_>
      <internalNodes>
        0 -1 18179 1348781184 813869952 -1474673270 631824043 1181945220
        2146533180 -287933304 1111848587</internalNodes>
      <leafValues>
        -2.0161895453929901e-01 9.8396398127079010e-02</leafValues></_>
    <_>
      <internalNodes>
        0 -1 18821 -290525437 -286605410 534225341 803192937 2085047157
        -818176129 -1350590639 -381987565</internalNodes>
      <leafValues>
        -1.4713574945926666e-01 1.4023220539093018e-01</leafValues></_>
    <_>
      <internalNodes>
        0 -1 20085 1143606272 1425295622 -42680475 -134942875 2038314084
        -445424267 -355669093 -1431696174</internalNodes>
      <leafValues>
        -1.5282459557056427e-01 1.3044656813144684e-01</leafValues></_>
    <_>
      <internalNodes>
        0 -1 27199 -114302425 -431042698 1558628192 1514438830
        1811756917 1682300472 662693488 -739522576</internalNodes>
      <leafValues>
        -1.8318229913711548e-01 1.0763505101203918e-01</leafValues></_>
    <_>
      <internalNodes>
        0 -1 24492 1507850227 -1090585615 499043221 -1346371728
        1176437179 2004770165 -1381106515 -1368797814</internalNodes>
      <leafValues>
        -9.6264265477657318e-02 2.1631057560443878e-01</leafValues></_>
    <_>
      <internalNodes>
        0 -1 18678 -925055760 -571462316 -4194625 -76438283 -1831666000
        -361793851 -1078280200 -1145372229</internalNodes>
      <leafValues>
        -8.9313663542270660e-02 2.2280484437942505e-01</leafValues></_>
    <_>
      <internalNodes>
        0 -1 3792 1068837823 1837022055 -177566745 2113562123 1644119423
        1700093294 -377635340 1414068124</internalNodes>
      <leafValues>
        -1.5861362218856812e-01 1.3060559332370758e-01</leafValues></_>
    <_>
      <internalNodes>
        0 -1 19345 -421534814 730246538 -1778388304 1564827607 630539981
        752630365 -134225991 -358845505</internalNodes>
      <leafValues>
        -1.4087483286857605e-01 1.3857559859752655e-01</leafValues></_>
    <_>
      <internalNodes>
        0 -1 17478 -725619200 -842306652 -709874352 -42002652
        -1739570124 -318873739 -219099886 -264537077</internalNodes>
      <leafValues>
        -1.4234752953052521e-01 1.3863493502140045e-01</leafValues></_>
    <_>
      <internalNodes>
        0 -1 17491 1936979944 891476588 1639784224 -1917358142
        -521669224 -1721008131 -318904032 -1984960637</internalNodes>
      <leafValues>
        -1.4572818577289581e-01 1.3496944308280945e-01</leafValues></_>
    <_>
      <internalNodes>
        0 -1 22229 -2460744 -1221399248 2146428661 -69031758 -625074797
        -1503133706 -1935700581 -1996492401</internalNodes>
      <leafValues>
        -9.8780661821365356e-02 2.0187494158744812e-01</leafValues></_>
    <_>
      <internalNodes>
        0 -1 24050 1806640437 1558179645 784256880 -274661914
        -1393208047 1853292103 -579503696 -939487062</internalNodes>
      <leafValues>
        -1.9651855528354645e-01 1.0515150427818298e-01</leafValues></_>
    <_>
      <internalNodes>
        0 -1 15319 1563666276 -172342398 -1344008200 -934196 -1937177103
        -339042953 -1407963747 673384495</internalNodes>
      <leafValues>
        -1.4727668464183807e-01 1.3738545775413513e-01</leafValues></_>
    <_>
      <internalNodes>
        0 -1 4335 955723503 1027551028 1920853694 -1179848002 1567974909
        -146413136 -458197732 1371848004</internalNodes>
      <leafValues>
        -1.4749129116535187e-01 1.3391479849815369e-01</leafValues></_>
    <_>
      <internalNodes>
        0 -1 23027 1891290259 -1083453521 -18292737 996237099 -14947
        -8388610 -1360224883 -1435313577</internalNodes>
      <leafValues>
        -1.0739181935787201e-01 1.8371698260307312e-01</leafValues></_>
    <_>
      <internalNodes>
        0 -1 1460 2063320586 1082191343 -28377334 68118255 2087066929
        1726280503 -356517340 1156838447</internalNodes>
      <leafValues>
        -3.3168363571166992e-01 5.9460796415805817e-02</leafValues></_>
    <_>
      <internalNodes>
        0 -1 18654 1582890128 -596606992 2025814008 -109570308
        -2098153024 -126501516 -1080898628 -1145370629</internalNodes>
      <leafValues>
        -1.0731491446495056e-01 1.8650694191455841e-01</leafValues></_>
    <_>
      <internalNodes>
        0 -1 22165 145886224 1013199537 -1998798900 414244260
        -1684489660 1029158205 -1410158768 -1465902940</internalNodes>
      <leafValues>
        -2.6057335734367371e-01 7.6376013457775116e-02</leafValues></_>
    <_>
      <internalNodes>
        0 -1 22370 529534000 779245497 -1410966672 802844604 -1192622184
        2113764861 -1910452807 247008472</internalNodes>
      <leafValues>
        -3.0605342984199524e-01 6.2408201396465302e-02</leafValues></_>
    <_>
      <internalNodes>
        0 -1 20985 -597688688 -723722273 -962692692 -1141506228
        1685348394 494204785 161825834 1051237130</internalNodes>
      <leafValues>
        -1.6075693070888519e-01 1.1881372332572937e-01</leafValues></_>
    <_>
      <internalNodes>
        0 -1 5417 -1896896885 -1973373003 705494700 -1074220610
        1967622221 1398031446 2002160924 2136313258</internalNodes>
      <leafValues>
        -1.5652956068515778e-01 1.2287268787622452e-01</leafValues></_>
    <_>
      <internalNodes>
        0 -1 12640 1681143840 1467387424 -1919599230 -270988152
        1148642804 -235176074 -993710214 73735698</internalNodes>
      <leafValues>
        -2.0608189702033997e-01 9.0912573039531708e-02</leafValues></_>
    <_>
      <internalNodes>
        0 -1 26489 1372564539 -176197594 1794158297 962592658 -503903088
        -42459193 -1544755576 -1974207849</internalNodes>
      <leafValues>
        -1.1581583321094513e-01 1.5971557796001434e-01</leafValues></_>
    <_>
      <internalNodes>
        0 -1 25662 -947944663 1971744511 -1399865384 1307115499
        -134437050 762056184 -69218539 -84738188</internalNodes>
      <leafValues>
        -1.6244377195835114e-01 1.1508239060640335e-01</leafValues></_>
    <_>
      <internalNodes>
        0 -1 25525 1436548784 1325334518 -985749452 -1343255896
        821307321 1002765621 888026333 -198902578</internalNodes>
      <leafValues>
        -1.3117772340774536e-01 1.4650271832942963e-01</leafValues></_>
    <_>
      <internalNodes>
        0 -1 13470 616769232 -304289073 -1491013519 -1886402013
        1909473185 -396896769 440783617 2005902091</internalNodes>
      <leafValues>
        -1.8711487948894501e-01 9.9269516766071320e-02</leafValues></_>
    <_>
      <internalNodes>
        0 -1 17677 -687886796 483678192 603264001 679456483 -910630653
        -1871657232 -1630537846 803956523</internalNodes>
      <leafValues>
        -1.4855758845806122e-01 1.2447416037321091e-01</leafValues></_>
    <_>
      <internalNodes>
        0 -1 7992 -160708010 -168680612 -588260628 -272764929 801048517
        -319718057 871869909 1062538693</internalNodes>
      <leafValues>
        -1.4938837289810181e-01 1.2546376883983612e-01</leafValues></_>
    <_>
      <internalNodes>
        0 -1 21268 1048543231 1681480931 2123094706 2126592 -795490381
        929591077 1336721776 -859181606</internalNodes>
      <leafValues>
        -1.5312497317790985e-01 1.2103718519210815e-01</leafValues></_>
    <_>
      <internalNodes>
        0 -1 20621 42750805 1722676735 -169920675 -1155366977 -867295300
        -1934181250 -788711940 1281492012</internalNodes>
      <leafValues>
        -1.4048914611339569e-01 1.3105924427509308e-01</leafValues></_>
    <_>
      <internalNodes>
        0 -1 20646 239052829 -358441346 -1900022379 1822677900
        1734886673 -82068763 -289944571 -1977060333</internalNodes>
      <leafValues>
        -1.8869124352931976e-01 9.8236344754695892e-02</leafValues></_>
    <_>
      <internalNodes>
        0 -1 19560 -291486588 -626115263 2109609142 -67379788 -697299688
        -1119160867 1006403488 -1275126782</internalNodes>
      <leafValues>
        -1.2647262215614319e-01 1.4371293783187866e-01</leafValues></_>
    <_>
      <internalNodes>
        0 -1 13286 -5769728 -1821458633 250605608 -1339396242 2138918156
        -579543065 -596896433 1425502275</internalNodes>
      <leafValues>
        -1.9428798556327820e-01 9.5923691987991333e-02</leafValues></_>
    <_>
      <internalNodes>
        0 -1 22240 -2064196939 255031934 -320110640 91959267 687856241
        -1494958731 1027582448 -1157947920</internalNodes>
      <leafValues>
        -1.4668805897235870e-01 1.2605412304401398e-01</leafValues></_>
    <_>
      <internalNodes>
        0 -1 17229 1556466594 959510698 -1594113488 771221088 1347751061
        1815508340 -1111064632 1228264074</internalNodes>
      <leafValues>
        -1.5592880547046661e-01 1.1751446127891541e-01</leafValues></_>
    <_>
      <internalNodes>
        0 -1 17857 1542127758 501034656 -2090683274 1494857400
        -1381739808 -939789466 2128185236 1560642132</internalNodes>
      <leafValues>
        -1.6804416477680206e-01 1.1091634631156921e-01</leafValues></_>
    <_>
      <internalNodes>
        0 -1 14929 2102718258 1060690673 -444735216 1877788336
        2128412085 2138913590 1230489740 1480705028</internalNodes>
      <leafValues>
        -1.3994175195693970e-01 1.3072201609611511e-01</leafValues></_>
    <_>
      <internalNodes>
        0 -1 26706 -1091626109 245524294 -606079408 -352550980 265022727
        -1434341799 524810149 -906192428</internalNodes>
      <leafValues>
        -1.9133889675140381e-01 9.6970669925212860e-02</leafValues></_>
    <_>
      <internalNodes>
        0 -1 18892 -1303952185 -420581138 1006368767 -270250034
        -335559479 -1868885 -1493725543 716517135</internalNodes>
      <leafValues>
        -1.2253252416849136e-01 1.4929153025150299e-01</leafValues></_>
    <_>
      <internalNodes>
        0 -1 15267 964538333 97994621 -177229831 575202493 -1240201968
        1475862517 -538796672 -227297038</internalNodes>
      <leafValues>
        -1.3528117537498474e-01 1.3721838593482971e-01</leafValues></_>
    <_>
      <internalNodes>
        0 -1 20910 -421992920 -539863070 -51052553 425768185 -1457968752
        -136429903 -1417937249 -1431632661</internalNodes>
      <leafValues>
        -1.0161676257848740e-01 1.8126164376735687e-01</leafValues></_>
    <_>
      <internalNodes>
        0 -1 24729 -432047089 -1903219506 -1414004941 -382207654
        -1746420953 -2013561264 1912338912 -1360140036</internalNodes>
      <leafValues>
        -1.4043150842189789e-01 1.2957993149757385e-01</leafValues></_>
    <_>
      <internalNodes>
        0 -1 24330 706752816 971536117 536795485 737705084 1828654513
        -37761323 -1399874072 590529010</internalNodes>
      <leafValues>
        -2.6848864555358887e-01 6.7061692476272583e-02</leafValues></_>
    <_>
      <internalNodes>
        0 -1 22387 -501752623 327055359 -1355813507 -1555171392
        -956435828 1999888347 -1360009507 576847708</internalNodes>
      <leafValues>
        -1.0922302305698395e-01 1.7321100831031799e-01</leafValues></_>
    <_>
      <internalNodes>
        0 -1 24993 -826288864 -1153495915 -1415954474 1031012334
        804143172 -1359556481 -121986368 -1168462883</internalNodes>
      <leafValues>
        -1.4022852480411530e-01 1.3497276604175568e-01</leafValues></_>
    <_>
      <internalNodes>
        0 -1 10532 1626681260 541095668 1056881280 -2102303062
        -822764500 58086420 -1526821632 811688187</internalNodes>
      <leafValues>
        -2.4181994795799255e-01 7.7300332486629486e-02</leafValues></_>
    <_>
      <internalNodes>
        0 -1 14530 1794901793 780423847 -1345331358 -271196432 461320471
        1172232823 397664116 1203250057</internalNodes>
      <leafValues>
        -2.3846411705017090e-01 7.4505396187305450e-02</leafValues></_>
    <_>
      <internalNodes>
        0 -1 17580 -387554232 1911961972 1030482537 -43333551 -772231784
        -1087074953 1001239228 -1145107446</internalNodes>
      <leafValues>
        -1.0381530225276947e-01 1.7617787420749664e-01</leafValues></_>
    <_>
      <internalNodes>
        0 -1 20575 -360710245 1145829323 2147374737 -945312141 264184707
        -17591893 1438377115 -1933848181</internalNodes>
      <leafValues>
        -8.3129405975341797e-02 2.1123245358467102e-01</leafValues></_>
    <_>
      <internalNodes>
        0 -1 19590 -231456512 639528326 1071103808 -1261408666 -5732460
        741629811 -1343148103 -1084544790</internalNodes>
      <leafValues>
        -1.3474945724010468e-01 1.3463041186332703e-01</leafValues></_>
    <_>
      <internalNodes>
        0 -1 3601 200875439 43891439 -1915418048 173964216 -1881909165
        640515940 1072764774 323508300</internalNodes>
      <leafValues>
        -2.2991649806499481e-01 8.0103427171707153e-02</leafValues></_>
    <_>
      <internalNodes>
        0 -1 27117 -596860416 2111657082 -118505370 -746850381
        -1529469952 1968335680 -1093806392 856317035</internalNodes>
      <leafValues>
        -1.5919493138790131e-01 1.1281178891658783e-01</leafValues></_>
    <_>
      <internalNodes>
        0 -1 21360 404786304 1052134837 -1696075798 954757032
        -1629512954 -1495460004 -2030327168 -1434772340</internalNodes>
      <leafValues>
        -1.7051026225090027e-01 1.0733039677143097e-01</leafValues></_>
    <_>
      <internalNodes>
        0 -1 20175 1511649585 -1648825616 -1845667855 -1879191016
        -462135074 -18976779 -54145473 -1360134430</internalNodes>
      <leafValues>
        -1.0939208418130875e-01 1.6765871644020081e-01</leafValues></_>
    <_>
      <internalNodes>
        0 -1 7958 93845258 -1438925784 -273768488 2015153832 1366782228
        1070677501 359709478 911574966</internalNodes>
      <leafValues>
        -1.8371392786502838e-01 9.7351856529712677e-02</leafValues></_>
    <_>
      <internalNodes>
        0 -1 16298 -538512758 -100896921 -1812597424 -33800645
        2066700204 1300195087 1674832846 -125829809</internalNodes>
      <leafValues>
        -9.9644921720027924e-02 1.8533179163932800e-01</leafValues></_></weakClassifiers></stage6>
</opencv_storage>
