<?xml version="1.0"?>
<opencv_storage>
<stage3>
  <maxWeakCount>51</maxWeakCount>
  <stageThreshold>-2.4989771842956543e+00</stageThreshold>
  <weakClassifiers>
    <_>
      <internalNodes>
        0 -1 25236 -1 -1 -1 -3 -1073741825 -257 -1073741827 -8708</internalNodes>
      <leafValues>
        -6.4235609769821167e-01 2.1204979717731476e-01</leafValues></_>
    <_>
      <internalNodes>
        0 -1 16924 2145386495 1073720831 800829375 1068437423 -72369221
        -8197 717164459 1001325499</internalNodes>
      <leafValues>
        -4.1146031022071838e-01 2.8188276290893555e-01</leafValues></_>
    <_>
      <internalNodes>
        0 -1 24109 -1 -65539 -100794376 -5579332 -2138635 -1577025
        -33598096 -576136032</internalNodes>
      <leafValues>
        -3.9007475972175598e-01 2.5820761919021606e-01</leafValues></_>
    <_>
      <internalNodes>
        0 -1 695 -513 -253755777 -81 -1 -145227777 -197656577 -225 -1</internalNodes>
      <leafValues>
        -1.4973683655261993e-01 5.2759110927581787e-01</leafValues></_>
    <_>
      <internalNodes>
        0 -1 27066 2146910001 -32769 -537139201 -1025 -1098499
        -538607746 -257 -1105</internalNodes>
      <leafValues>
        -2.1754826605319977e-01 3.1504219770431519e-01</leafValues></_>
    <_>
      <internalNodes>
        0 -1 16102 -725302080 1440561140 69747349 463414955 -255789688
        -285820939 -168455777 2146382827</internalNodes>
      <leafValues>
        -2.4713887274265289e-01 2.4487538635730743e-01</leafValues></_>
    <_>
      <internalNodes>
        0 -1 24027 672010033 -1436385348 -352537611 -1101078860
        -1729134827 -1141408257 -69206159 -84214064</internalNodes>
      <leafValues>
        -3.2131266593933105e-01 1.7573504149913788e-01</leafValues></_>
    <_>
      <internalNodes>
        0 -1 11743 -1053393 -186257673 -1398280690 2354859 -76034492
        -160152460 -546914741 1617391403</internalNodes>
      <leafValues>
        -2.8021454811096191e-01 1.6946230828762054e-01</leafValues></_>
    <_>
      <internalNodes>
        0 -1 12077 -161024810 -85266498 -1118212 -1669394 -679572011
        -252608523 -754978315 -135984433</internalNodes>
      <leafValues>
        -1.9952346384525299e-01 2.4268960952758789e-01</leafValues></_>
    <_>
      <internalNodes>
        0 -1 25734 -1430634697 -1431910744 -135407659 -1141211916
        -1073766401 -5244929 -268438023 -337717768</internalNodes>
      <leafValues>
        -1.8395626544952393e-01 2.5235486030578613e-01</leafValues></_>
    <_>
      <internalNodes>
        0 -1 18984 1501514240 1507157983 805219616 131924021 1568093952
        -680501256 730793480 967919403</internalNodes>
      <leafValues>
        -3.9785012602806091e-01 1.1359798163175583e-01</leafValues></_>
    <_>
      <internalNodes>
        0 -1 25569 -1432376523 -1498894378 -1398801712 -1225851082
        -12589196 -1363155114 -405080204 -19072336</internalNodes>
      <leafValues>
        -2.5709983706474304e-01 1.6842217743396759e-01</leafValues></_>
    <_>
      <internalNodes>
        0 -1 17556 -546178188 502291433 -101238400 968457904 -1619194420
        213138093 -1996551800 161423531</internalNodes>
      <leafValues>
        -2.1176484227180481e-01 1.9780303537845612e-01</leafValues></_>
    <_>
      <internalNodes>
        0 -1 26038 -1430393065 253951857 -826557069 -1437943900
        -1358971099 -1363148805 -1912744459 -1979853580</internalNodes>
      <leafValues>
        -2.5015777349472046e-01 1.5659166872501373e-01</leafValues></_>
    <_>
      <internalNodes>
        0 -1 14037 -134484190 1332112235 -1544836254 -136447856
        1476360039 1162705917 2013263587 -3706113</internalNodes>
      <leafValues>
        -2.1338595449924469e-01 1.7183785140514374e-01</leafValues></_>
    <_>
      <internalNodes>
        0 -1 22535 -392131548 -232036 -687940107 -1614509314 -1229975984
        -2378059 -1360994888 -1432353372</internalNodes>
      <leafValues>
        -2.0256949961185455e-01 1.7973959445953369e-01</leafValues></_>
    <_>
      <internalNodes>
        0 -1 6938 -966890166 -365890953 1877016072 -2145339526
        1999978006 -982501583 -11070382 -42468329</internalNodes>
      <leafValues>
        -3.2949993014335632e-01 1.0580551624298096e-01</leafValues></_>
    <_>
      <internalNodes>
        0 -1 19179 1284308384 1570012592 -1381309260 666872624
        1355581105 2097149949 -1498641237 1005146027</internalNodes>
      <leafValues>
        -2.3996970057487488e-01 1.5463717281818390e-01</leafValues></_>
    <_>
      <internalNodes>
        0 -1 23583 742038261 -1094942723 -32769 -33816579 -1098975259
        -1964130829 -1644249091 -272691972</internalNodes>
      <leafValues>
        -1.4338661730289459e-01 2.5478208065032959e-01</leafValues></_>
    <_>
      <internalNodes>
        0 -1 23491 -495040964 2029034901 -17138018 276626796 -1153493424
        -1627422875 -335627148 -1162158940</internalNodes>
      <leafValues>
        -2.4198749661445618e-01 1.4433504641056061e-01</leafValues></_>
    <_>
      <internalNodes>
        0 -1 23941 1870656802 921894895 -1884324080 -1409351948
        1282436751 1589051389 -423652184 -286524706</internalNodes>
      <leafValues>
        -1.8067492544651031e-01 1.9734124839305878e-01</leafValues></_>
    <_>
      <internalNodes>
        0 -1 15289 -773341310 1454568698 1895119968 234204812 1500904833
        16011125 -2116711424 14767395</internalNodes>
      <leafValues>
        -2.8292682766914368e-01 1.2133425474166870e-01</leafValues></_>
    <_>
      <internalNodes>
        0 -1 25236 -1441780463 -1373607388 -873472012 -979321062
        -849349835 -1351815861 -549588750 -1937218025</internalNodes>
      <leafValues>
        -2.0093154907226562e-01 1.6085697710514069e-01</leafValues></_>
    <_>
      <internalNodes>
        0 -1 17611 -699341484 1030809071 -16784 -68039048 -283058692
        -80097669 -285628936 -1145110309</internalNodes>
      <leafValues>
        -1.3988409936428070e-01 2.3416402935981750e-01</leafValues></_>
    <_>
      <internalNodes>
        0 -1 27210 -1347701213 -1886476374 754415328 -301990406
        800847671 -1418789004 1433268469 -691014156</internalNodes>
      <leafValues>
        -1.9857482612133026e-01 1.6774827241897583e-01</leafValues></_>
    <_>
      <internalNodes>
        0 -1 23391 -1371570177 -117564084 -17727763 -92868870 922435088
        -101683207 -50514060 -215285776</internalNodes>
      <leafValues>
        -1.9084008038043976e-01 1.6709648072719574e-01</leafValues></_>
    <_>
      <internalNodes>
        0 -1 14377 -690314706 1947233276 -1602589964 -1604261420
        2104905000 1685090137 -3625976 1951617039</internalNodes>
      <leafValues>
        -2.6198056340217590e-01 1.2181205302476883e-01</leafValues></_>
    <_>
      <internalNodes>
        0 -1 25548 1476343601 419354590 -1178665131 -1631782016
        1727024385 -59990292 -168174276 -40314692</internalNodes>
      <leafValues>
        -2.2573460638523102e-01 1.4393708109855652e-01</leafValues></_>
    <_>
      <internalNodes>
        0 -1 21629 -256130040 847216479 783986649 -1411252416 1449094536
        897548123 -1429807460 577960523</internalNodes>
      <leafValues>
        -2.1428640186786652e-01 1.5286214649677277e-01</leafValues></_>
    <_>
      <internalNodes>
        0 -1 16023 -175594864 532326952 -327374920 792373472 1505080729
        2139062157 -998669159 237184426</internalNodes>
      <leafValues>
        -2.1725809574127197e-01 1.4427793025970459e-01</leafValues></_>
    <_>
      <internalNodes>
        0 -1 4354 -705250516 611396583 -53559806 552515630 2003267412
        1999756325 -1749074428 608652874</internalNodes>
      <leafValues>
        -3.9012739062309265e-01 8.1280797719955444e-02</leafValues></_>
    <_>
      <internalNodes>
        0 -1 21340 211333424 -1648594980 -554443023 -69665428
        -1753354688 -1427877891 -1671512396 -1145567844</internalNodes>
      <leafValues>
        -2.0288372039794922e-01 1.6281419992446899e-01</leafValues></_>
    <_>
      <internalNodes>
        0 -1 21461 247333941 -1440047442 -587260491 -415367233
        -1090708155 -1074298882 -420270735 -2012145093</internalNodes>
      <leafValues>
        -2.3761346936225891e-01 1.2795142829418182e-01</leafValues></_>
    <_>
      <internalNodes>
        0 -1 18755 -17825934 -735904280 -2700 -102698960 -411478577
        -327024717 1422677321 -862981029</internalNodes>
      <leafValues>
        -1.6451005637645721e-01 1.8911634385585785e-01</leafValues></_>
    <_>
      <internalNodes>
        0 -1 18432 -703870464 -894704864 -738558656 -1628640 1348945172
        -2065286668 1970638916 -129786099</internalNodes>
      <leafValues>
        -2.0500661432743073e-01 1.5375599265098572e-01</leafValues></_>
    <_>
      <internalNodes>
        0 -1 17456 1370881316 1969286014 -1778519024 1835265706
        561364925 1350025213 -117588470 -2008944662</internalNodes>
      <leafValues>
        -1.8265154957771301e-01 1.6584385931491852e-01</leafValues></_>
    <_>
      <internalNodes>
        0 -1 27053 -1089766349 -2106798486 -84410512 -706793488
        -1684257289 -1419313362 267909111 -909126200</internalNodes>
      <leafValues>
        -1.5627869963645935e-01 1.8629248440265656e-01</leafValues></_>
    <_>
      <internalNodes>
        0 -1 1744 -302073166 -824387841 -1882461426 -291439386 820450611
        1124015995 1241459456 2138404703</internalNodes>
      <leafValues>
        -2.8054314851760864e-01 1.0672821104526520e-01</leafValues></_>
    <_>
      <internalNodes>
        0 -1 23127 -1393557488 486026750 -1325436681 1400174044
        -1226163136 -71921767 -1904279560 -1365768988</internalNodes>
      <leafValues>
        -2.2688034176826477e-01 1.2668426334857941e-01</leafValues></_>
    <_>
      <internalNodes>
        0 -1 14211 -592255930 1038285710 2012900264 1602726058
        1735429348 -142160861 -346566933 538395167</internalNodes>
      <leafValues>
        -1.7665749788284302e-01 1.6662344336509705e-01</leafValues></_>
    <_>
      <internalNodes>
        0 -1 312 931934031 -302514179 -1384135666 -1426134066 1874812789
        2003009390 -538165643 821342056</internalNodes>
      <leafValues>
        -2.4613429605960846e-01 1.2134415656328201e-01</leafValues></_>
    <_>
      <internalNodes>
        0 -1 24218 2126248891 -10289288 -9634059 -571298063 1274960287
        -1162420873 -864338737 -925899521</internalNodes>
      <leafValues>
        -1.0203769803047180e-01 2.9193812608718872e-01</leafValues></_>
    <_>
      <internalNodes>
        0 -1 25620 -1505810673 -1465061450 -524297 1891270618 -138513548
        -1426115520 -1073748396 -87104320</internalNodes>
      <leafValues>
        -2.2012066841125488e-01 1.3089910149574280e-01</leafValues></_>
    <_>
      <internalNodes>
        0 -1 4683 -269017420 2029322167 -6291571 782745599 -1493765820
        -707461132 -67453106 2117062635</internalNodes>
      <leafValues>
        -1.9157460331916809e-01 1.4761462807655334e-01</leafValues></_>
    <_>
      <internalNodes>
        0 -1 20931 1223491072 -1996984324 -1137036427 184204148
        1480879520 1324112630 1072660752 787443568</internalNodes>
      <leafValues>
        -3.2725796103477478e-01 8.6987182497978210e-02</leafValues></_>
    <_>
      <internalNodes>
        0 -1 14695 1059433126 -511924501 1733161719 200255722 350625792
        -539105435 1929818899 998187530</internalNodes>
      <leafValues>
        -2.3656977713108063e-01 1.1809225380420685e-01</leafValues></_>
    <_>
      <internalNodes>
        0 -1 6465 -269031131 -1964576794 -3183252 -814859284 1316846703
        671078399 1122203505 933623429</internalNodes>
      <leafValues>
        -2.9081544280052185e-01 9.5273077487945557e-02</leafValues></_>
    <_>
      <internalNodes>
        0 -1 21395 -1460360399 521436976 -1141113551 1025567045
        -1074321671 -268574754 -1124376643 682445896</internalNodes>
      <leafValues>
        -2.0753701031208038e-01 1.3519191741943359e-01</leafValues></_>
    <_>
      <internalNodes>
        0 -1 27060 -624750590 -70118262 448900852 1935408222 -2090920192
        -1831831228 1178794958 2134626235</internalNodes>
      <leafValues>
        -1.7002861201763153e-01 1.7050606012344360e-01</leafValues></_>
    <_>
      <internalNodes>
        0 -1 25458 1437586865 842911742 -1427521551 805273583 1966955691
        1572681599 -1531236456 -1396979969</internalNodes>
      <leafValues>
        -1.3340783119201660e-01 2.2964039444923401e-01</leafValues></_>
    <_>
      <internalNodes>
        0 -1 22607 1589378963 -1886741532 -336103660 -541409324
        477647084 -90788099 -403771468 -1473482792</internalNodes>
      <leafValues>
        -1.4501826465129852e-01 1.9323620200157166e-01</leafValues></_></weakClassifiers></stage3>
</opencv_storage>
