<?xml version="1.0"?>
<opencv_storage>
<stage8>
  <maxWeakCount>106</maxWeakCount>
  <stageThreshold>-2.1974904537200928e+00</stageThreshold>
  <weakClassifiers>
    <_>
      <internalNodes>
        0 -1 16486 -603979777 -524801 -42078243 -1913652049 -1
        -1124466691 -318903126 145605033</internalNodes>
      <leafValues>
        -6.3541024923324585e-01 -1.9372567534446716e-01</leafValues></_>
    <_>
      <internalNodes>
        0 -1 15799 937410495 -570569291 705408815 1000591359 -33554517
        -2098181 322911519 1067175935</internalNodes>
      <leafValues>
        -3.1105765700340271e-01 1.6718150675296783e-01</leafValues></_>
    <_>
      <internalNodes>
        0 -1 24214 -8257 -13119721 -542113805 -14492880 -1073741833
        -131358 -704649775 -570698256</internalNodes>
      <leafValues>
        -2.4151107668876648e-01 2.1506221592426300e-01</leafValues></_>
    <_>
      <internalNodes>
        0 -1 9116 -1310986 -17630476 -8933859 -2110109707 -212353033
        -210745353 -1572913 2071156223</internalNodes>
      <leafValues>
        -2.1875986456871033e-01 1.7109356820583344e-01</leafValues></_>
    <_>
      <internalNodes>
        0 -1 9520 -524297 -820533521 -1351900627 791390762 1945630499
        301430546 -441456734 1874830127</internalNodes>
      <leafValues>
        -1.4654040336608887e-01 2.1498942375183105e-01</leafValues></_>
    <_>
      <internalNodes>
        0 -1 25731 -1146126477 -4464677 -545261065 -515 -1086390273
        -4097 -1380197377 -1073750531</internalNodes>
      <leafValues>
        -1.0196625441312790e-01 2.9199624061584473e-01</leafValues></_>
    <_>
      <internalNodes>
        0 -1 17288 -708444172 -778460432 1156335132 -9708623 -2134846558
        -1739571660 -474939426 839006906</internalNodes>
      <leafValues>
        -1.7443673312664032e-01 1.6675190627574921e-01</leafValues></_>
    <_>
      <internalNodes>
        0 -1 25298 1785660931 2139079391 -295719297 -537166325
        1743716352 -69208512 -1360818680 -128857493</internalNodes>
      <leafValues>
        -2.3703069984912872e-01 1.1406961828470230e-01</leafValues></_>
    <_>
      <internalNodes>
        0 -1 19677 -629145967 1527891732 -553782895 1301538699
        1572716315 -65683461 -1363148886 195784123</internalNodes>
      <leafValues>
        -1.1832065135240555e-01 2.1329556405544281e-01</leafValues></_>
    <_>
      <internalNodes>
        0 -1 16340 -268382 -810877312 -193724368 -34242896 1157395701
        143027695 1978000596 -45221923</internalNodes>
      <leafValues>
        -1.4635090529918671e-01 1.6715295612812042e-01</leafValues></_>
    <_>
      <internalNodes>
        0 -1 25243 717032503 34536498 -671548457 782531838 619552703
        -1096192065 218043901 -2000830216</internalNodes>
      <leafValues>
        -1.5624871850013733e-01 1.4432968199253082e-01</leafValues></_>
    <_>
      <internalNodes>
        0 -1 24399 -860863403 -536982283 978778621 535897595 -830958572
        -614203521 -12931400 -1430634497</internalNodes>
      <leafValues>
        -1.3537792861461639e-01 1.6177436709403992e-01</leafValues></_>
    <_>
      <internalNodes>
        0 -1 21941 1565523952 -2103775250 -1531381932 -335743056
        1423249855 -1126383144 -320527536 -522649616</internalNodes>
      <leafValues>
        -1.8985472619533539e-01 1.1112678796052933e-01</leafValues></_>
    <_>
      <internalNodes>
        0 -1 14253 -4217265 1648674927 -67380192 1242136315 -17740220
        1515536757 -9449726 1883762635</internalNodes>
      <leafValues>
        -1.8218310177326202e-01 1.2161120772361755e-01</leafValues></_>
    <_>
      <internalNodes>
        0 -1 20550 145785040 417082749 -21299521 492445304 -1360279604
        -272697546 -1090598232 -1431683848</internalNodes>
      <leafValues>
        -1.5641190111637115e-01 1.3182081282138824e-01</leafValues></_>
    <_>
      <internalNodes>
        0 -1 15799 -249212815 691621816 -1140860228 -953151569 938814740
        -696436231 -287848734 -801038254</internalNodes>
      <leafValues>
        -1.2272427231073380e-01 1.6685104370117188e-01</leafValues></_>
    <_>
      <internalNodes>
        0 -1 22503 -426720107 -235869131 -215041 -68641379 -1162573092
        -1079058441 -587662594 -1431698001</internalNodes>
      <leafValues>
        -1.0354780405759811e-01 2.0956465601921082e-01</leafValues></_>
    <_>
      <internalNodes>
        0 -1 22257 -142610640 -1121650838 922236912 2007416801
        -588788062 -1171146973 217929949 -2003962849</internalNodes>
      <leafValues>
        -1.2544356286525726e-01 1.5806190669536591e-01</leafValues></_>
    <_>
      <internalNodes>
        0 -1 24645 -1363164153 953562439 427813855 944438995 1861368949
        -1275363563 -1226086864 -84215072</internalNodes>
      <leafValues>
        -1.8394084274768829e-01 1.0764070600271225e-01</leafValues></_>
    <_>
      <internalNodes>
        0 -1 9026 1327955892 -143079430 2147473199 -838860801 -423630940
        -168495113 805170952 1867509419</internalNodes>
      <leafValues>
        -1.1139223724603653e-01 1.7399182915687561e-01</leafValues></_>
    <_>
      <internalNodes>
        0 -1 12644 -939061570 1495281668 -302373538 849389244 1825660508
        2057866286 -1501794754 -126484514</internalNodes>
      <leafValues>
        -1.5527604520320892e-01 1.2403640151023865e-01</leafValues></_>
    <_>
      <internalNodes>
        0 -1 20657 -18098465 -626335873 -964692997 -144966681 -378545011
        -919730 -1363150163 -1361055905</internalNodes>
      <leafValues>
        -7.9502068459987640e-02 2.4801358580589294e-01</leafValues></_>
    <_>
      <internalNodes>
        0 -1 10746 1848045351 1760214830 2147184450 -36852484 666724351
        120911572 1925935716 1373591551</internalNodes>
      <leafValues>
        -1.6567863523960114e-01 1.1331577599048615e-01</leafValues></_>
    <_>
      <internalNodes>
        0 -1 20026 492634800 477129648 -1363486496 662663957 1353515953
        1988067186 984203305 872090779</internalNodes>
      <leafValues>
        -2.1760798990726471e-01 8.5220880806446075e-02</leafValues></_>
    <_>
      <internalNodes>
        0 -1 26715 -406087389 115857846 1538228081 -36241432 1270869939
        -1895826451 223174109 -856828418</internalNodes>
      <leafValues>
        -1.1736943572759628e-01 1.5626765787601471e-01</leafValues></_>
    <_>
      <internalNodes>
        0 -1 25620 1246715651 1793978342 -55590985 1392276318 803153713
        -1409680030 -1678772620 -352400928</internalNodes>
      <leafValues>
        -1.8499273061752319e-01 9.7653135657310486e-02</leafValues></_>
    <_>
      <internalNodes>
        0 -1 20865 -99956143 -689795593 -352356945 -1107610649 -97258756
        -1074315265 -1074790437 -1342501393</internalNodes>
      <leafValues>
        -7.2591826319694519e-02 2.5691279768943787e-01</leafValues></_>
    <_>
      <internalNodes>
        0 -1 21135 -1066414975 -1372160542 -50858400 -3342672 1374918772
        -1092679757 -487325980 -359535948</internalNodes>
      <leafValues>
        -1.3062949478626251e-01 1.3343921303749084e-01</leafValues></_>
    <_>
      <internalNodes>
        0 -1 15401 1307879750 1363188658 -1879331303 2070767824
        -406516027 -1102002012 -359805746 182927883</internalNodes>
      <leafValues>
        -1.3722091913223267e-01 1.2995630502700806e-01</leafValues></_>
    <_>
      <internalNodes>
        0 -1 1065 819653389 310321023 1316912396 -1598931282 1959263796
        1927248782 -694427836 -730925205</internalNodes>
      <leafValues>
        -2.2362419962882996e-01 7.9951189458370209e-02</leafValues></_>
    <_>
      <internalNodes>
        0 -1 21639 1991577480 2134781813 -1413566811 1038469117
        1911387273 -243957797 764250120 530868764</internalNodes>
      <leafValues>
        -1.7170128226280212e-01 1.0622230172157288e-01</leafValues></_>
    <_>
      <internalNodes>
        0 -1 19600 -536872457 368566173 -100697104 2113142775 1167034189
        -1381130779 -595791904 -1999765505</internalNodes>
      <leafValues>
        -1.0453312844038010e-01 1.7460523545742035e-01</leafValues></_>
    <_>
      <internalNodes>
        0 -1 27168 -385880542 -1163230552 -1971328000 -1620182360
        266239763 442988401 1693406788 -403706153</internalNodes>
      <leafValues>
        -1.6537879407405853e-01 1.0865712910890579e-01</leafValues></_>
    <_>
      <internalNodes>
        0 -1 13253 -135842262 453017436 1089358466 884717121 -749641980
        1716843744 -287377364 1911890527</internalNodes>
      <leafValues>
        -1.7643012106418610e-01 1.0029779374599457e-01</leafValues></_>
    <_>
      <internalNodes>
        0 -1 14868 -799999966 406365021 1026881905 1028234931 1576320441
        -17411533 -1404204631 237703083</internalNodes>
      <leafValues>
        -1.4351554214954376e-01 1.2026892602443695e-01</leafValues></_>
    <_>
      <internalNodes>
        0 -1 20636 -1439038447 -857067585 1559854073 -847600715
        997530977 -1489240417 -1342923243 -1943202785</internalNodes>
      <leafValues>
        -1.8253394961357117e-01 9.6448667347431183e-02</leafValues></_>
    <_>
      <internalNodes>
        0 -1 18180 1414015136 305195160 -2030606877 636868000 1487668651
        1959755260 -303768387 1778867082</internalNodes>
      <leafValues>
        -1.8815565109252930e-01 9.1865845024585724e-02</leafValues></_>
    <_>
      <internalNodes>
        0 -1 6435 886963695 569243086 1968640906 738161132 2013262938
        293533304 1064891255 1500283565</internalNodes>
      <leafValues>
        -1.6400568187236786e-01 1.0943122953176498e-01</leafValues></_>
    <_>
      <internalNodes>
        0 -1 17442 -119802624 1177468800 -60594688 -38647534 1348605744
        -1917322937 -487195648 -129800169</internalNodes>
      <leafValues>
        -1.5868832170963287e-01 1.1097646504640579e-01</leafValues></_>
    <_>
      <internalNodes>
        0 -1 17688 -462386624 -740799122 -18700554 -75625218 -2076050540
        -154775604 -1343553793 -1080341297</internalNodes>
      <leafValues>
        -9.3701332807540894e-02 1.8545630574226379e-01</leafValues></_>
    <_>
      <internalNodes>
        0 -1 1218 -1397933123 -1253754391 2029845806 -1616003104
        1592982991 -19573711 44830280 1014016632</internalNodes>
      <leafValues>
        -1.2437772005796432e-01 1.3890111446380615e-01</leafValues></_>
    <_>
      <internalNodes>
        0 -1 14614 2049221786 -1727290385 1218051315 -359945014
        508934585 -663302186 -716589671 2064485258</internalNodes>
      <leafValues>
        -1.2749689817428589e-01 1.3517206907272339e-01</leafValues></_>
    <_>
      <internalNodes>
        0 -1 11257 2054360078 2046701066 -1916944972 -416964623
        1506148335 -1107574841 -1129284034 -857376240</internalNodes>
      <leafValues>
        -1.2252732366323471e-01 1.3831599056720734e-01</leafValues></_>
    <_>
      <internalNodes>
        0 -1 3147 -4194306 -462491718 -1174410323 703414115 -1342177595
        -1227032634 -524531 1849679599</internalNodes>
      <leafValues>
        -1.1053653061389923e-01 1.5502600371837616e-01</leafValues></_>
    <_>
      <internalNodes>
        0 -1 24051 786304823 -1912047095 -151159249 976022995 1761244276
        -17039497 -118047711 -99432464</internalNodes>
      <leafValues>
        -2.1079500019550323e-01 8.4411099553108215e-02</leafValues></_>
    <_>
      <internalNodes>
        0 -1 25482 1481374643 1048379310 696773524 -1349129336 773080255
        2138857301 904702863 1073151391</internalNodes>
      <leafValues>
        -9.9903799593448639e-02 1.7195507884025574e-01</leafValues></_>
    <_>
      <internalNodes>
        0 -1 25667 -176184405 410664927 704156855 -1775602602
        -1384814841 -1922051073 1172010372 -1446456128</internalNodes>
      <leafValues>
        -1.8400397896766663e-01 9.5068447291851044e-02</leafValues></_>
    <_>
      <internalNodes>
        0 -1 20950 -938423264 -596114968 -541132311 -772743956
        2088199268 -786569 -285933618 -1435802513</internalNodes>
      <leafValues>
        -1.1698937416076660e-01 1.4750821888446808e-01</leafValues></_>
    <_>
      <internalNodes>
        0 -1 22523 1498464180 467320668 -1959143755 -1142490188
        1155796648 -730973388 -893936 802705358</internalNodes>
      <leafValues>
        -1.6572560369968414e-01 1.0316328704357147e-01</leafValues></_>
    <_>
      <internalNodes>
        0 -1 8823 1088030215 -80003249 -180289986 -264836289 2049341002
        -113246273 2097612958 -244323189</internalNodes>
      <leafValues>
        -1.1935187876224518e-01 1.4307758212089539e-01</leafValues></_>
    <_>
      <internalNodes>
        0 -1 15914 1892028661 -1150407746 -1093402916 -1347420538
        2061306901 1946023410 -273163612 2048329352</internalNodes>
      <leafValues>
        -1.4714780449867249e-01 1.1239652335643768e-01</leafValues></_>
    <_>
      <internalNodes>
        0 -1 20591 743763796 -1679671727 -92555531 798653101 -16839000
        -1613776065 -1472217667 -1157669799</internalNodes>
      <leafValues>
        -1.4058490097522736e-01 1.1746595799922943e-01</leafValues></_>
    <_>
      <internalNodes>
        0 -1 10698 -538972666 837447574 -856290708 44489635 -1880350908
        605191478 1979467807 1154709075</internalNodes>
      <leafValues>
        -2.1656022965908051e-01 7.4953943490982056e-02</leafValues></_>
    <_>
      <internalNodes>
        0 -1 27213 -150228061 -810897822 1727619746 -51249810 919335739
        -825429316 1563414960 -572533252</internalNodes>
      <leafValues>
        -1.2376018613576889e-01 1.3606932759284973e-01</leafValues></_>
    <_>
      <internalNodes>
        0 -1 18600 -593313248 -1779560909 1927740448 -775956328
        -1224886055 -1090775489 1055239132 -1082447649</internalNodes>
      <leafValues>
        -9.3090675771236420e-02 1.7599476873874664e-01</leafValues></_>
    <_>
      <internalNodes>
        0 -1 3230 834191069 -270290003 -470124818 -1008758787 -9445506
        1688849258 2003156595 407956892</internalNodes>
      <leafValues>
        -1.5468826889991760e-01 1.1024312674999237e-01</leafValues></_>
    <_>
      <internalNodes>
        0 -1 27060 -833093594 -204333360 1749216482 962310572 1731991104
        1515197504 1214313418 1899744895</internalNodes>
      <leafValues>
        -1.5747456252574921e-01 1.0357617586851120e-01</leafValues></_>
    <_>
      <internalNodes>
        0 -1 17408 1390664482 1239969418 902890240 -1107722827
        1683472226 -1204572168 -1403912700 -1402100021</internalNodes>
      <leafValues>
        -1.4785927534103394e-01 1.1218898743391037e-01</leafValues></_>
    <_>
      <internalNodes>
        0 -1 18639 1860365136 -133954344 788239616 -1595193799 -42543231
        -1710227164 -1178800240 707760299</internalNodes>
      <leafValues>
        -1.6985189914703369e-01 9.4779387116432190e-02</leafValues></_>
    <_>
      <internalNodes>
        0 -1 24048 -1140863039 1465626358 1747647432 -1910327590
        1081426866 1786019060 -1787555512 -1065290344</internalNodes>
      <leafValues>
        -1.5525354444980621e-01 1.0410042852163315e-01</leafValues></_>
    <_>
      <internalNodes>
        0 -1 23919 -1397047248 -1732373458 467579253 1073486584
        721291605 -145441426 -84222220 -1964450396</internalNodes>
      <leafValues>
        -1.6015872359275818e-01 1.0253803431987762e-01</leafValues></_>
    <_>
      <internalNodes>
        0 -1 19132 205732370 1080827116 1115717457 1270384929 7654816
        643882514 1666241945 530264559</internalNodes>
      <leafValues>
        -1.9041311740875244e-01 9.1641612350940704e-02</leafValues></_>
    <_>
      <internalNodes>
        0 -1 20620 710175232 -569372773 292486747 -12681385 -1580384356
        -1210187787 651056505 996278360</internalNodes>
      <leafValues>
        -1.6949783265590668e-01 9.6429787576198578e-02</leafValues></_>
    <_>
      <internalNodes>
        0 -1 17220 -9387390 -200203920 -872487246 -67935199 -598437946
        1884497437 -1276642674 -1436912017</internalNodes>
      <leafValues>
        -9.5062419772148132e-02 1.7437870800495148e-01</leafValues></_>
    <_>
      <internalNodes>
        0 -1 24155 1325380383 146324991 -545263330 816375698 -17853172
        -1596959380 -319045936 -1527260202</internalNodes>
      <leafValues>
        -1.7081044614315033e-01 9.7936742007732391e-02</leafValues></_>
    <_>
      <internalNodes>
        0 -1 3548 1620295401 -1807391036 -1254707218 -1155073445
        897315383 -46813836 640729902 930543527</internalNodes>
      <leafValues>
        -1.3253262639045715e-01 1.2118322402238846e-01</leafValues></_>
    <_>
      <internalNodes>
        0 -1 16431 -78200032 -842357494 662050337 -680296923 -1473608440
        -321508987 1794442291 -651152293</internalNodes>
      <leafValues>
        -1.3303686678409576e-01 1.2274049967527390e-01</leafValues></_>
    <_>
      <internalNodes>
        0 -1 20878 1303442720 -1348291927 199171753 -1175728144
        349455789 -107532 -659298415 564862899</internalNodes>
      <leafValues>
        -1.7796581983566284e-01 9.2152923345565796e-02</leafValues></_>
    <_>
      <internalNodes>
        0 -1 25489 1051369393 -1082163907 1924839421 997783548
        -1661392387 -117868475 -1073924387 -1099249191</internalNodes>
      <leafValues>
        -1.3055752217769623e-01 1.2361421436071396e-01</leafValues></_>
    <_>
      <internalNodes>
        0 -1 22535 -1935636476 -1222339610 -1468021547 -1176598171
        -554398396 -19170467 -18616919 -1430566985</internalNodes>
      <leafValues>
        -1.2177149951457977e-01 1.3151612877845764e-01</leafValues></_>
    <_>
      <internalNodes>
        0 -1 17830 -1450414205 -290824245 -1074143449 -1077019026
        -216205 1778023389 -956698316 -579297947</internalNodes>
      <leafValues>
        -1.5152174234390259e-01 1.0547094047069550e-01</leafValues></_>
    <_>
      <internalNodes>
        0 -1 10976 2125106479 1379055151 934234796 -231824317 1945841646
        1392157631 -538061442 1883631178</internalNodes>
      <leafValues>
        -1.2558904290199280e-01 1.3116149604320526e-01</leafValues></_>
    <_>
      <internalNodes>
        0 -1 15416 -419441487 1977416149 250596737 -1879062833
        -1241514525 -185073934 -1073742440 725457595</internalNodes>
      <leafValues>
        -9.1076210141181946e-02 1.7879521846771240e-01</leafValues></_>
    <_>
      <internalNodes>
        0 -1 16843 1348633255 509775502 -110920835 -242614642
        -1980791635 2059321319 -295627940 37973135</internalNodes>
      <leafValues>
        -1.2475224584341049e-01 1.2703470885753632e-01</leafValues></_>
    <_>
      <internalNodes>
        0 -1 13432 779290895 -355873034 -20158460 -896144376 781400682
        -1826102283 191774068 912372564</internalNodes>
      <leafValues>
        -1.6979880630970001e-01 9.6460677683353424e-02</leafValues></_>
    <_>
      <internalNodes>
        0 -1 20382 477342570 -316152018 -54530182 30074736 -1239985826
        -1197905050 -201654796 -801675589</internalNodes>
      <leafValues>
        -1.6323368251323700e-01 9.9034018814563751e-02</leafValues></_>
    <_>
      <internalNodes>
        0 -1 23990 17759488 74222190 1140632624 -2031821104 1087771744
        547449581 1818642964 544004068</internalNodes>
      <leafValues>
        -3.5382217168807983e-01 4.3790582567453384e-02</leafValues></_>
    <_>
      <internalNodes>
        0 -1 16329 1415364605 1373048817 -1451122689 -1488431129
        -413043714 -201656844 1045822186 -93716806</internalNodes>
      <leafValues>
        -7.3104046285152435e-02 2.2072851657867432e-01</leafValues></_>
    <_>
      <internalNodes>
        0 -1 19710 -18560612 -2353563 -286322703 2046633067 -1141010471
        -8686211 -1082615313 -1145369413</internalNodes>
      <leafValues>
        -6.9246374070644379e-02 2.2473958134651184e-01</leafValues></_>
    <_>
      <internalNodes>
        0 -1 884 796737415 -1532171913 -2042723702 -455430342 -470462593
        880016296 -371753715 1171567212</internalNodes>
      <leafValues>
        -1.6693919897079468e-01 9.6732363104820251e-02</leafValues></_>
    <_>
      <internalNodes>
        0 -1 18738 -132460924 401345757 -285249602 -1141420041
        -146387736 -276864882 -788788 -1098966273</internalNodes>
      <leafValues>
        -8.8367588818073273e-02 1.8178668618202209e-01</leafValues></_>
    <_>
      <internalNodes>
        0 -1 9251 -2025735000 1077951284 -391292724 -1616136396
        1903504700 1982135413 -1596879936 1896199536</internalNodes>
      <leafValues>
        -1.7108376324176788e-01 9.4233989715576172e-02</leafValues></_>
    <_>
      <internalNodes>
        0 -1 26065 -1397770454 -1431660862 953894553 -123536566
        729808443 -299434037 1164395957 -1931676324</internalNodes>
      <leafValues>
        -1.8445850908756256e-01 8.8277377188205719e-02</leafValues></_>
    <_>
      <internalNodes>
        0 -1 23475 -2070243037 408891005 -1342702876 -1843331266
        2013205764 -4358283 -940098972 -1163198996</internalNodes>
      <leafValues>
        -1.6838632524013519e-01 9.6356898546218872e-02</leafValues></_>
    <_>
      <internalNodes>
        0 -1 19127 -194755408 884633528 -1351750312 -83239512
        -1040612967 993807724 -1359664216 2136329370</internalNodes>
      <leafValues>
        -1.2294340878725052e-01 1.3155893981456757e-01</leafValues></_>
    <_>
      <internalNodes>
        0 -1 1470 718351083 2147460300 2125393548 149829878 -619195457
        1725715932 -749077211 17846348</internalNodes>
      <leafValues>
        -1.9056741893291473e-01 8.5115313529968262e-02</leafValues></_>
    <_>
      <internalNodes>
        0 -1 16857 149098002 -845575013 1072595449 420207713 -167782654
        -588433161 -120144128 348902640</internalNodes>
      <leafValues>
        -1.6963563859462738e-01 9.5303751528263092e-02</leafValues></_>
    <_>
      <internalNodes>
        0 -1 19620 2127619948 892618169 2130599504 -256346168
        -1511744107 -1098924097 -1342247270 -1149564738</internalNodes>
      <leafValues>
        -1.0354530811309814e-01 1.5530902147293091e-01</leafValues></_>
    <_>
      <internalNodes>
        0 -1 20282 -700711262 682289114 351056786 291176438 1148609532
        213470079 -43515946 -123210813</internalNodes>
      <leafValues>
        -1.4338254928588867e-01 1.1241785436868668e-01</leafValues></_>
    <_>
      <internalNodes>
        0 -1 25316 -1058814951 -152516221 -1965584705 -1143087435
        -22820727 2080347186 -353068199 577779989</internalNodes>
      <leafValues>
        -1.1803157627582550e-01 1.3829581439495087e-01</leafValues></_>
    <_>
      <internalNodes>
        0 -1 26622 -5250782 -2106019994 -355540960 -1091703846
        2147419725 1090479006 1962893988 1996415932</internalNodes>
      <leafValues>
        -2.0029491186141968e-01 7.8092887997627258e-02</leafValues></_>
    <_>
      <internalNodes>
        0 -1 17935 721299460 1225859485 145272332 586417753 1061646848
        -313204164 161388290 941099251</internalNodes>
      <leafValues>
        -3.1342563033103943e-01 4.8601921647787094e-02</leafValues></_>
    <_>
      <internalNodes>
        0 -1 22614 1440283571 -1077238804 -302025803 -811763738
        1731661996 -32227851 -1665340168 -531632554</internalNodes>
      <leafValues>
        -8.9736558496952057e-02 1.7967705428600311e-01</leafValues></_>
    <_>
      <internalNodes>
        0 -1 24218 1874754492 -358420672 -1653899663 -537363216
        1274564038 -1098937867 1282786763 -868097641</internalNodes>
      <leafValues>
        -1.1000624299049377e-01 1.4302432537078857e-01</leafValues></_>
    <_>
      <internalNodes>
        0 -1 17514 -123098112 -580182099 -122326695 -9185579 -18245124
        -307028299 -1460028002 -1141171153</internalNodes>
      <leafValues>
        -7.3311343789100647e-02 2.1115244925022125e-01</leafValues></_>
    <_>
      <internalNodes>
        0 -1 12916 963095206 1063443178 -38326868 -942603214 -238653720
        -395000843 -861074848 1080384221</internalNodes>
      <leafValues>
        -1.5085387229919434e-01 1.0828489810228348e-01</leafValues></_>
    <_>
      <internalNodes>
        0 -1 13672 -525160542 418685472 1885255185 1243901796 -125931454
        -243930284 -957369321 -608198178</internalNodes>
      <leafValues>
        -1.7245325446128845e-01 9.6272282302379608e-02</leafValues></_>
    <_>
      <internalNodes>
        0 -1 26000 163654435 -1428559814 716925756 543341038 -1109448858
        1355533426 -738298624 1108671892</internalNodes>
      <leafValues>
        -2.7799403667449951e-01 5.7847678661346436e-02</leafValues></_>
    <_>
      <internalNodes>
        0 -1 3968 1225525165 2068459425 644918879 -140591410 2097020413
        1967434613 -89132404 -466295788</internalNodes>
      <leafValues>
        -1.0642079263925552e-01 1.5233011543750763e-01</leafValues></_>
    <_>
      <internalNodes>
        0 -1 18134 2080316411 -105338399 661917624 689577369 1107963134
        -819555592 -1154595631 -1621651525</internalNodes>
      <leafValues>
        -8.9477919042110443e-02 1.7391383647918701e-01</leafValues></_>
    <_>
      <internalNodes>
        0 -1 25440 -1929769968 1029179860 841871986 -1854050840
        -1933704108 -585174684 -764362808 -1441127396</internalNodes>
      <leafValues>
        -1.7162147164344788e-01 9.0785197913646698e-02</leafValues></_>
    <_>
      <internalNodes>
        0 -1 27220 -1682216701 787141866 1927242341 -875644678 710603742
        137091568 327038452 233821692</internalNodes>
      <leafValues>
        -1.6077627241611481e-01 9.6019797027111053e-02</leafValues></_>
    <_>
      <internalNodes>
        0 -1 2218 -1697297082 -491665793 1609755978 -802641404 857839153
        271742269 2041722704 1042707317</internalNodes>
      <leafValues>
        -2.3584298789501190e-01 6.6242448985576630e-02</leafValues></_>
    <_>
      <internalNodes>
        0 -1 18266 -161165694 1478683646 -143168582 1968419434
        1098138787 -1238350509 -58787095 1778279975</internalNodes>
      <leafValues>
        -1.2005471438169479e-01 1.3169856369495392e-01</leafValues></_>
    <_>
      <internalNodes>
        0 -1 16139 1568137603 -1179193729 2113860545 1560404704
        1559565997 2025399131 1271697051 2020343308</internalNodes>
      <leafValues>
        -1.0879547148942947e-01 1.4889615774154663e-01</leafValues></_>
    <_>
      <internalNodes>
        0 -1 26087 538196496 503096686 -1167966217 200566660 1073495400
        -77772497 -1124818120 641223680</internalNodes>
      <leafValues>
        -3.7526351213455200e-01 4.2112275958061218e-02</leafValues></_></weakClassifiers></stage8>
</opencv_storage>
