<?xml version="1.0"?>
<opencv_storage>
<stage7>
  <maxWeakCount>127</maxWeakCount>
  <stageThreshold>-2.0572385787963867e+00</stageThreshold>
  <weakClassifiers>
    <_>
      <internalNodes>
        0 -1 11350 -1561386185 -55457 603792175 -22609 -1950371905 -1
        -1409307729 -5201</internalNodes>
      <leafValues>
        -4.3507152795791626e-01 3.0136457085609436e-01</leafValues></_>
    <_>
      <internalNodes>
        0 -1 3392 -1034 -65 -17383428 -1 -3 -528385 -3 -20481</internalNodes>
      <leafValues>
        -2.0257478952407837e-01 3.7491589784622192e-01</leafValues></_>
    <_>
      <internalNodes>
        0 -1 14897 -185271564 -705378828 4202741 -639655697 -268386305
        -30870017 895853307 -23809</internalNodes>
      <leafValues>
        -2.7038887143135071e-01 2.0555441081523895e-01</leafValues></_>
    <_>
      <internalNodes>
        0 -1 11930 -536936705 -8392705 -1704263937 993193983 -51328772
        -369409 -628039682 -14483457</internalNodes>
      <leafValues>
        -1.4941965043544769e-01 3.0872541666030884e-01</leafValues></_>
    <_>
      <internalNodes>
        0 -1 21376 209718320 263872376 -1413480449 -1073804035 465182205
        -4196355 1073373119 -1073791233</internalNodes>
      <leafValues>
        -2.4315154552459717e-01 1.4454361796379089e-01</leafValues></_>
    <_>
      <internalNodes>
        0 -1 23434 -1 -289472769 -20784 -81069848 -587203077 -840962057
        -1058062144 -718799630</internalNodes>
      <leafValues>
        -1.3706482946872711e-01 2.5000306963920593e-01</leafValues></_>
    <_>
      <internalNodes>
        0 -1 9667 -12193908 2072390575 -40965 1069498283 -11143683
        -134228737 -16921560 800030635</internalNodes>
      <leafValues>
        -2.0175498723983765e-01 1.4921015501022339e-01</leafValues></_>
    <_>
      <internalNodes>
        0 -1 16203 1944054666 896595831 -50535808 -34288926 1421633501
        -135102585 -136447284 -253301110</internalNodes>
      <leafValues>
        -1.4914774894714355e-01 1.9921264052391052e-01</leafValues></_>
    <_>
      <internalNodes>
        0 -1 1861 -273682513 783204590 -1376797770 -386994962 1879042047
        91224047 1203762775 1173354239</internalNodes>
      <leafValues>
        -1.8555708229541779e-01 1.6005350649356842e-01</leafValues></_>
    <_>
      <internalNodes>
        0 -1 11350 1594924744 604429222 -596246831 50354800 2130336320
        1212441141 1438932568 117743172</internalNodes>
      <leafValues>
        -2.3277772963047028e-01 1.1355494707822800e-01</leafValues></_>
    <_>
      <internalNodes>
        0 -1 19668 -598672140 -33796099 -32769 -180737 -1162035459
        -196643 -1209287685 -1078257478</internalNodes>
      <leafValues>
        -8.7358683347702026e-02 3.0107599496841431e-01</leafValues></_>
    <_>
      <internalNodes>
        0 -1 19692 -621478668 -536977409 -2097153 -49153 -1074987044
        -245763 -16385 -1078247425</internalNodes>
      <leafValues>
        -9.9290154874324799e-02 2.9839381575584412e-01</leafValues></_>
    <_>
      <internalNodes>
        0 -1 9050 1861182959 -17825793 -16781590 -219250722 1602191215
        2004877167 1979184756 -143426570</internalNodes>
      <leafValues>
        -1.7351704835891724e-01 1.5796372294425964e-01</leafValues></_>
    <_>
      <internalNodes>
        0 -1 15695 1824493375 -293670913 -34472449 -285413507 -350371979
        -539296023 -6623900 -33751044</internalNodes>
      <leafValues>
        -1.7793564498424530e-01 1.4294654130935669e-01</leafValues></_>
    <_>
      <internalNodes>
        0 -1 21045 1660939951 837876638 -285807435 -136974864 1962165757
        -101965889 -51024897 -653955165</internalNodes>
      <leafValues>
        -1.2851922214031219e-01 1.9500797986984253e-01</leafValues></_>
    <_>
      <internalNodes>
        0 -1 11786 1389805528 -184760588 -538255587 -71438593 -590021132
        -789535532 -11178165 1608482683</internalNodes>
      <leafValues>
        -1.2606894969940186e-01 1.8402977287769318e-01</leafValues></_>
    <_>
      <internalNodes>
        0 -1 23567 -1968247247 -1464948062 -1615069483 -1107886340
        -1681936709 -1891902289 402519493 -1879057924</internalNodes>
      <leafValues>
        -1.4264185726642609e-01 1.5469121932983398e-01</leafValues></_>
    <_>
      <internalNodes>
        0 -1 19200 -823481564 -321862044 -554194394 -386611047
        -159469980 -29430925 -17236169 -352328313</internalNodes>
      <leafValues>
        -1.4593859016895294e-01 1.4934606850147247e-01</leafValues></_>
    <_>
      <internalNodes>
        0 -1 19822 -1574304397 -17940625 -1346453569 415652735
        -1979741119 -1090662465 -822265395 -325027054</internalNodes>
      <leafValues>
        -1.5969848632812500e-01 1.3320709764957428e-01</leafValues></_>
    <_>
      <internalNodes>
        0 -1 21375 -185535248 -9677068 -742490699 -69419280 -1090519811
        -2233366 -1073758821 -1073803010</internalNodes>
      <leafValues>
        -9.2452809214591980e-02 2.2789785265922546e-01</leafValues></_>
    <_>
      <internalNodes>
        0 -1 26471 -83900633 1617297183 -69551642 1616898910 2004182528
        1448521319 49267720 1648488194</internalNodes>
      <leafValues>
        -1.7828397452831268e-01 1.1547371745109558e-01</leafValues></_>
    <_>
      <internalNodes>
        0 -1 15052 -210567534 1146419701 -285962988 -171573491
        -707746208 155971388 -184743630 -775978485</internalNodes>
      <leafValues>
        -1.5491160750389099e-01 1.2826587259769440e-01</leafValues></_>
    <_>
      <internalNodes>
        0 -1 12021 -83948825 -2158729 -824389945 2021547007 -51037628
        -315943330 -214763804 -13959204</internalNodes>
      <leafValues>
        -1.2522661685943604e-01 1.5328688919544220e-01</leafValues></_>
    <_>
      <internalNodes>
        0 -1 26054 -109053533 772724683 -24123984 -872415244 -1343326321
        231669231 1474290901 1172832251</internalNodes>
      <leafValues>
        -1.5382331609725952e-01 1.2034937739372253e-01</leafValues></_>
    <_>
      <internalNodes>
        0 -1 21320 -2044686576 -5239564 -335937 -67369668 -1346847856
        -1277887043 -1077168134 -1078263590</internalNodes>
      <leafValues>
        -1.1172579228878021e-01 1.7072941362857819e-01</leafValues></_>
    <_>
      <internalNodes>
        0 -1 12708 1904207654 833680305 -1393562089 -577110026
        1430521052 -1078759433 -353992871 -2000334578</internalNodes>
      <leafValues>
        -1.3256713747978210e-01 1.3753379881381989e-01</leafValues></_>
    <_>
      <internalNodes>
        0 -1 12045 -1884635209 -890330972 -4461579 -268472324
        -1090519051 -276697093 926791669 -605055015</internalNodes>
      <leafValues>
        -1.0926694422960281e-01 1.6321502625942230e-01</leafValues></_>
    <_>
      <internalNodes>
        0 -1 21329 -798497648 -601166832 83591560 17409736 1171254970
        280118832 330821546 596596107</internalNodes>
      <leafValues>
        -1.4569441974163055e-01 1.2109859287738800e-01</leafValues></_>
    <_>
      <internalNodes>
        0 -1 12058 1612875025 -89227333 -67290129 -5626093 -287576619 -9
        -1896878932 784663559</internalNodes>
      <leafValues>
        -1.4219996333122253e-01 1.2319651991128922e-01</leafValues></_>
    <_>
      <internalNodes>
        0 -1 22250 -1903817199 -1098061582 -201658891 -1695131152
        -1078010155 -1950433362 -1354809419 -1612049924</internalNodes>
      <leafValues>
        -1.4907796680927277e-01 1.1564401537179947e-01</leafValues></_>
    <_>
      <internalNodes>
        0 -1 11716 -1560859788 -331962436 1831583295 -487676178
        -148391500 -245064800 -932996350 657442631</internalNodes>
      <leafValues>
        -1.8265609443187714e-01 9.4432055950164795e-02</leafValues></_>
    <_>
      <internalNodes>
        0 -1 20347 -706219218 -672078467 -1442944290 -1075314769
        1429697909 -1780408539 -1529009204 161432651</internalNodes>
      <leafValues>
        -1.2702137231826782e-01 1.3826321065425873e-01</leafValues></_>
    <_>
      <internalNodes>
        0 -1 18275 1934879886 454094770 -385945881 497214127 1702446495
        -1266979074 -430158164 15036483</internalNodes>
      <leafValues>
        -1.5244655311107635e-01 1.1315815895795822e-01</leafValues></_>
    <_>
      <internalNodes>
        0 -1 12065 1864904245 -286610322 -1375750913 -334317890
        -1418105035 -839926564 -1212190347 -889266972</internalNodes>
      <leafValues>
        -1.6762226819992065e-01 1.0167144984006882e-01</leafValues></_>
    <_>
      <internalNodes>
        0 -1 3392 -1291876823 943609127 -1208635485 968142325 91701174
        547176117 -975742026 -2048655505</internalNodes>
      <leafValues>
        -1.2123116850852966e-01 1.3908176124095917e-01</leafValues></_>
    <_>
      <internalNodes>
        0 -1 22417 1479079596 -229572613 -286003972 338226786 1574948139
        -136450056 1874658313 860054574</internalNodes>
      <leafValues>
        -1.6533170640468597e-01 1.0929496586322784e-01</leafValues></_>
    <_>
      <internalNodes>
        0 -1 28 -530911714 1345358506 -289484995 -115323384 1751857663
        544454243 -466522520 1096910898</internalNodes>
      <leafValues>
        -1.5525339543819427e-01 1.0503618419170380e-01</leafValues></_>
    <_>
      <internalNodes>
        0 -1 24597 447614469 2122218159 2055175159 813456378 -815079500
        -176720035 -12586028 -211108614</internalNodes>
      <leafValues>
        -1.2783116102218628e-01 1.2806139886379242e-01</leafValues></_>
    <_>
      <internalNodes>
        0 -1 14565 673186736 587132149 538229757 705143517 1366327065
        -310674083 1163925043 1197908105</internalNodes>
      <leafValues>
        -2.0304296910762787e-01 7.6523549854755402e-02</leafValues></_>
    <_>
      <internalNodes>
        0 -1 13764 -869219083 -163255320 -86032961 -167919876
        -1171343624 -272962566 -1628053761 -1162340151</internalNodes>
      <leafValues>
        -9.2611230909824371e-02 1.6985127329826355e-01</leafValues></_>
    <_>
      <internalNodes>
        0 -1 26844 -1407486 1324100974 -1395660128 606273234 618628864
        6192993 1719137600 1081274346</internalNodes>
      <leafValues>
        -2.3140402138233185e-01 6.7015953361988068e-02</leafValues></_>
    <_>
      <internalNodes>
        0 -1 18798 1929249729 2143253487 2147480435 -67469569
        -1074171083 -1480778641 921662909 -1080418888</internalNodes>
      <leafValues>
        -1.1415627598762512e-01 1.3760045170783997e-01</leafValues></_>
    <_>
      <internalNodes>
        0 -1 19884 -707139659 -946624939 -184893441 2141832938
        -822825027 -272957505 939511425 1471909002</internalNodes>
      <leafValues>
        -9.9939174950122833e-02 1.5764786303043365e-01</leafValues></_>
    <_>
      <internalNodes>
        0 -1 17416 1573643182 556884267 -1597194500 -453595449
        -1862959747 -722412649 -436373980 609090383</internalNodes>
      <leafValues>
        -1.4846985042095184e-01 1.0521002858877182e-01</leafValues></_>
    <_>
      <internalNodes>
        0 -1 23715 -1722147567 -388188778 1556081655 -1677733889
        -1179798444 -279708581 -1108279365 -1153786371</internalNodes>
      <leafValues>
        -1.0929361730813980e-01 1.4247848093509674e-01</leafValues></_>
    <_>
      <internalNodes>
        0 -1 22185 -727391088 -549962306 -744494140 -1294620 -1893749339
        -271712868 -1409705474 -1079049730</internalNodes>
      <leafValues>
        -8.7157644331455231e-02 1.7546844482421875e-01</leafValues></_>
    <_>
      <internalNodes>
        0 -1 16608 -161168143 -462125122 -563172613 -299373408
        -451875073 -1988758459 -723696445 1074025601</internalNodes>
      <leafValues>
        -1.5091361105442047e-01 1.0148820281028748e-01</leafValues></_>
    <_>
      <internalNodes>
        0 -1 2900 -16781777 1726463674 -2031191328 -253821202 -281314025
        1112418117 1939597266 2004809200</internalNodes>
      <leafValues>
        -1.4683701097965240e-01 1.0468698292970657e-01</leafValues></_>
    <_>
      <internalNodes>
        0 -1 13892 -243276313 300271570 -1394803241 -33559905 1448412396
        -1141162339 2099666894 -1191742861</internalNodes>
      <leafValues>
        -8.1154324114322662e-02 1.8554314970970154e-01</leafValues></_>
    <_>
      <internalNodes>
        0 -1 25503 2145380623 1532886014 -1360941551 -37749800
        1962895261 72605278 -1082656632 -134873410</internalNodes>
      <leafValues>
        -8.5779316723346710e-02 1.7337098717689514e-01</leafValues></_>
    <_>
      <internalNodes>
        0 -1 24760 -408429217 -75571337 -230715393 1182654206 -269099436
        -9980300 -18874470 -68485141</internalNodes>
      <leafValues>
        -8.9757658541202545e-02 1.6856931149959564e-01</leafValues></_>
    <_>
      <internalNodes>
        0 -1 18720 787481664 385492856 -16893420 887504243 519576276
        -327221412 -91212584 -1145426694</internalNodes>
      <leafValues>
        -1.5765981376171112e-01 9.3594945967197418e-02</leafValues></_>
    <_>
      <internalNodes>
        0 -1 9451 1047995165 -1512181769 -189153455 1216735989 227179427
        777797493 1588525610 1541187594</internalNodes>
      <leafValues>
        -1.3298903405666351e-01 1.1299650371074677e-01</leafValues></_>
    <_>
      <internalNodes>
        0 -1 14457 1588285091 -218732935 -298158858 1445101487
        -1104474620 1246715144 -10038188 -80069296</internalNodes>
      <leafValues>
        -1.4480593800544739e-01 1.0588920116424561e-01</leafValues></_>
    <_>
      <internalNodes>
        0 -1 22215 -1104487104 -1465880648 536778418 -2135377964
        490381045 -1346839396 618305520 -1885450824</internalNodes>
      <leafValues>
        -1.5357424318790436e-01 9.6875809133052826e-02</leafValues></_>
    <_>
      <internalNodes>
        0 -1 2060 -426005841 -70733842 -289010089 -169202516 1306367235
        1145960431 -973715744 144664357</internalNodes>
      <leafValues>
        -1.3358314335346222e-01 1.1045690625905991e-01</leafValues></_>
    <_>
      <internalNodes>
        0 -1 20636 -1096100271 -825741541 -420266017 749660651
        -285370027 -10601601 -864198863 -1409861855</internalNodes>
      <leafValues>
        -1.2887528538703918e-01 1.1219006031751633e-01</leafValues></_>
    <_>
      <internalNodes>
        0 -1 19620 -1139239584 -936628586 -1464238545 1396314364
        -1494373196 -334618976 1837946844 -1074061125</internalNodes>
      <leafValues>
        -1.0410548001527786e-01 1.3934066891670227e-01</leafValues></_>
    <_>
      <internalNodes>
        0 -1 20425 -1057454592 -829522548 2074962926 -790089860
        1052216324 -1389615599 -1745095184 -1678048008</internalNodes>
      <leafValues>
        -1.4148855209350586e-01 1.0306267440319061e-01</leafValues></_>
    <_>
      <internalNodes>
        0 -1 20014 1881268996 277386126 1174237093 -39519318 1348815557
        334724951 -25854262 1757902534</internalNodes>
      <leafValues>
        -1.3740921020507812e-01 1.0632626712322235e-01</leafValues></_>
    <_>
      <internalNodes>
        0 -1 4800 -2104657 -623416341 716721202 309524190 -138095285
        1515157262 1980493276 2001469435</internalNodes>
      <leafValues>
        -1.0523954033851624e-01 1.3870237767696381e-01</leafValues></_>
    <_>
      <internalNodes>
        0 -1 13005 -2005709789 -18174478 1005010608 -228134402
        -1409601549 -1001685703 2008929765 -1157753352</internalNodes>
      <leafValues>
        -1.2445589154958725e-01 1.1762377619743347e-01</leafValues></_>
    <_>
      <internalNodes>
        0 -1 15366 -734597484 296791324 -1093374570 413165314 1479805988
        409019760 1864568324 318981126</internalNodes>
      <leafValues>
        -2.0022171735763550e-01 7.2875842452049255e-02</leafValues></_>
    <_>
      <internalNodes>
        0 -1 25725 -1434809677 -273888544 2054413348 2011867860
        792056758 -1937052820 259258021 1240191416</internalNodes>
      <leafValues>
        -1.3347645103931427e-01 1.0885491967201233e-01</leafValues></_>
    <_>
      <internalNodes>
        0 -1 23434 -835230688 -235356572 -303092039 212195610 1979537332
        914646653 1576121659 176185865</internalNodes>
      <leafValues>
        -1.4086243510246277e-01 1.0286590456962585e-01</leafValues></_>
    <_>
      <internalNodes>
        0 -1 18821 -1471275979 1816670197 805305735 -909358455
        -1083413423 -345899398 -1116626 -366214137</internalNodes>
      <leafValues>
        -1.4286904036998749e-01 1.0095725208520889e-01</leafValues></_>
    <_>
      <internalNodes>
        0 -1 19644 1586500336 -198689090 1333719799 -67262979
        -1098088880 -1091629069 -67959331 -1087696453</internalNodes>
      <leafValues>
        -9.5514349639415741e-02 1.5117223560810089e-01</leafValues></_>
    <_>
      <internalNodes>
        0 -1 27210 -29697873 -492127078 1645637728 -639107736 530968491
        46036844 929015267 90165499</internalNodes>
      <leafValues>
        -1.0605547577142715e-01 1.3313676416873932e-01</leafValues></_>
    <_>
      <internalNodes>
        0 -1 2747 -51894977 2075879283 -97861641 993259218 1842781629
        -646752171 -303165252 -580792632</internalNodes>
      <leafValues>
        -9.3588359653949738e-02 1.5508909523487091e-01</leafValues></_>
    <_>
      <internalNodes>
        0 -1 9171 -722997619 -831893905 -352523990 1659272934
        -1101070580 1719361372 2003425168 2000355069</internalNodes>
      <leafValues>
        -1.4308904111385345e-01 9.9016264081001282e-02</leafValues></_>
    <_>
      <internalNodes>
        0 -1 16146 -800594005 301776861 -93716608 -1851365182 1985472457
        812822005 -214304052 955744115</internalNodes>
      <leafValues>
        -1.2058746814727783e-01 1.1795106530189514e-01</leafValues></_>
    <_>
      <internalNodes>
        0 -1 20671 737897016 1701454906 -1362183205 674269194 -613450982
        594670901 897184082 1899735570</internalNodes>
      <leafValues>
        -1.7953321337699890e-01 7.9547859728336334e-02</leafValues></_>
    <_>
      <internalNodes>
        0 -1 7366 1854359462 810939614 178768150 -1309489506 2134185789
        904227829 -17957540 1100304977</internalNodes>
      <leafValues>
        -1.5360231697559357e-01 9.0173579752445221e-02</leafValues></_>
    <_>
      <internalNodes>
        0 -1 8700 -2132373676 1087286878 800589114 -387175698 592848772
        -1411250318 -1346325760 1095249708</internalNodes>
      <leafValues>
        -1.9322010874748230e-01 7.2081968188285828e-02</leafValues></_>
    <_>
      <internalNodes>
        0 -1 4982 1183803411 -290838906 -1216496481 2142522676
        -352349739 1797783291 1441226005 -906005011</internalNodes>
      <leafValues>
        -1.2261172384023666e-01 1.1531899869441986e-01</leafValues></_>
    <_>
      <internalNodes>
        0 -1 15337 1566420108 1511043796 536809458 -840817066 -587883112
        976262110 -1938687166 189601611</internalNodes>
      <leafValues>
        -1.4963257312774658e-01 9.7135104238986969e-02</leafValues></_>
    <_>
      <internalNodes>
        0 -1 24095 1526071810 452337591 1677262096 978994746 653722756
        250964741 -2072121104 -1155902214</internalNodes>
      <leafValues>
        -1.4268818497657776e-01 9.7443781793117523e-02</leafValues></_>
    <_>
      <internalNodes>
        0 -1 8400 6291984 613024084 -1601926608 538192430 8396549
        205946326 -2136461271 1565852524</internalNodes>
      <leafValues>
        -2.9647520184516907e-01 4.7351561486721039e-02</leafValues></_>
    <_>
      <internalNodes>
        0 -1 22265 -1835016191 -1075293599 1340863201 2126446461
        -138759379 -1545830623 995227372 532286972</internalNodes>
      <leafValues>
        -1.3056512176990509e-01 1.0575529932975769e-01</leafValues></_>
    <_>
      <internalNodes>
        0 -1 20173 2067464070 820411873 -18486654 -1654196796 1685549037
        -1813584464 1811173631 -1796778297</internalNodes>
      <leafValues>
        -1.0559952259063721e-01 1.3322302699089050e-01</leafValues></_>
    <_>
      <internalNodes>
        0 -1 21862 -631255378 448706038 -847319134 -1242181654
        2018862079 -1107663884 1832221663 -1378781225</internalNodes>
      <leafValues>
        -9.7923368215560913e-02 1.4621222019195557e-01</leafValues></_>
    <_>
      <internalNodes>
        0 -1 20340 -761150432 -2000802500 2130585252 -453214273
        -1252747739 -1095247003 -1143491018 -1715495542</internalNodes>
      <leafValues>
        -1.2651470303535461e-01 1.1308377236127853e-01</leafValues></_>
    <_>
      <internalNodes>
        0 -1 13749 -189484976 -1467431680 -381109195 -1346764747
        585678609 -2010873985 452204040 1427412865</internalNodes>
      <leafValues>
        -1.6398259997367859e-01 8.7987631559371948e-02</leafValues></_>
    <_>
      <internalNodes>
        0 -1 6435 -1342704961 -292847996 -1313377510 -687420 -272714821
        -1028746272 2003269107 -673193733</internalNodes>
      <leafValues>
        -8.2628630101680756e-02 1.6922564804553986e-01</leafValues></_>
    <_>
      <internalNodes>
        0 -1 23027 -659377019 -1089673881 649854463 447642663 -348289911
        -671109573 -1897546611 -1371474173</internalNodes>
      <leafValues>
        -1.0896394401788712e-01 1.2860760092735291e-01</leafValues></_>
    <_>
      <internalNodes>
        0 -1 15711 1001074206 29208260 617130868 1404546288 272645411
        -457651891 1692915762 1345684384</internalNodes>
      <leafValues>
        -1.6424886882305145e-01 8.5645236074924469e-02</leafValues></_>
    <_>
      <internalNodes>
        0 -1 5642 -185083908 -1780211008 1710510711 -1347505420
        1962196415 -1309196972 -1383221861 720331792</internalNodes>
      <leafValues>
        -1.0956402868032455e-01 1.2664270401000977e-01</leafValues></_>
    <_>
      <internalNodes>
        0 -1 14611 1555587735 -320176133 -1380110851 -285455643
        -13265067 -336699628 -306208915 -1414921463</internalNodes>
      <leafValues>
        -1.1087459325790405e-01 1.2631323933601379e-01</leafValues></_>
    <_>
      <internalNodes>
        0 -1 1465 -50863258 -109905036 -1418547668 -1423888405
        -2024287788 -1389327529 -688399934 -776619325</internalNodes>
      <leafValues>
        -1.2281100451946259e-01 1.1490052193403244e-01</leafValues></_>
    <_>
      <internalNodes>
        0 -1 22259 1826785058 791036852 805038288 -1062803390 767231279
        81657081 1157480521 1156052651</internalNodes>
      <leafValues>
        -1.8232311308383942e-01 7.6147265732288361e-02</leafValues></_>
    <_>
      <internalNodes>
        0 -1 23127 -257949003 -556086531 919524091 -2286229 -1129796472
        -1075064964 -1080185153 -1342482987</internalNodes>
      <leafValues>
        -8.0336660146713257e-02 1.7382995784282684e-01</leafValues></_>
    <_>
      <internalNodes>
        0 -1 26905 -363132374 -237580037 682289670 1384112886 1985651280
        -146123456 -364658825 1346632990</internalNodes>
      <leafValues>
        -1.4796032011508942e-01 9.4767838716506958e-02</leafValues></_>
    <_>
      <internalNodes>
        0 -1 13349 -21014877 -69263622 578804338 2008833787 -1279357267
        -608998022 1602196477 -5583620</internalNodes>
      <leafValues>
        -8.0802790820598602e-02 1.7471207678318024e-01</leafValues></_>
    <_>
      <internalNodes>
        0 -1 22875 -1440679760 260330736 -285425190 452017400 794549484
        -1344373167 452431578 -1347480326</internalNodes>
      <leafValues>
        -1.1235156655311584e-01 1.2713004648685455e-01</leafValues></_>
    <_>
      <internalNodes>
        0 -1 23934 2038425127 653524719 804892529 -1376518177 653200573
        2102818870 701995904 -1580146849</internalNodes>
      <leafValues>
        -1.2243666499853134e-01 1.1359229683876038e-01</leafValues></_>
    <_>
      <internalNodes>
        0 -1 20071 947938544 1140860933 -863918297 -387578612 657474052
        -601851140 -161320581 992627674</internalNodes>
      <leafValues>
        -1.8881288170814514e-01 7.4922680854797363e-02</leafValues></_>
    <_>
      <internalNodes>
        0 -1 20223 -744362622 1079365268 -1564315360 -57813338
        1079295926 -403688911 -1242276916 2133943998</internalNodes>
      <leafValues>
        -1.3012877106666565e-01 1.0626814514398575e-01</leafValues></_>
    <_>
      <internalNodes>
        0 -1 21979 1357889286 15858140 232750464 477666530 1356035335
        -168728620 -1245729992 810903405</internalNodes>
      <leafValues>
        -1.9253174960613251e-01 7.1655444800853729e-02</leafValues></_>
    <_>
      <internalNodes>
        0 -1 23475 -2104342752 246165250 -19071888 -668042780
        -1915870288 -1467012848 -1342516800 -1148220934</internalNodes>
      <leafValues>
        -1.3149802386760712e-01 1.0612372308969498e-01</leafValues></_>
    <_>
      <internalNodes>
        0 -1 1650 -272388693 -1360077144 1620522996 1876295628
        -1489043765 -2091950207 660337303 1196807308</internalNodes>
      <leafValues>
        -1.2459539622068405e-01 1.0887425392866135e-01</leafValues></_>
    <_>
      <internalNodes>
        0 -1 10553 -434975763 -635022585 1656097522 -126419290
        -600559337 -1293427200 852843172 859774325</internalNodes>
      <leafValues>
        -1.5198545157909393e-01 8.8125146925449371e-02</leafValues></_>
    <_>
      <internalNodes>
        0 -1 16022 -2075777662 -1835736013 -139190349 936169050
        1979649165 -134776897 -501380920 684159620</internalNodes>
      <leafValues>
        -1.7352463304996490e-01 7.8964568674564362e-02</leafValues></_>
    <_>
      <internalNodes>
        0 -1 20885 1358867852 -1844252912 -572522500 -485495200
        1240205109 -1178763265 -404232819 1426383958</internalNodes>
      <leafValues>
        -1.3086032867431641e-01 1.0295131057500839e-01</leafValues></_>
    <_>
      <internalNodes>
        0 -1 20535 706871808 2083264178 -1907495966 1044139512
        -1299399995 -399450512 905788848 -1690693592</internalNodes>
      <leafValues>
        -1.7000006139278412e-01 7.9226531088352203e-02</leafValues></_>
    <_>
      <internalNodes>
        0 -1 16712 1282394747 1812135506 1658742389 -1331449899
        1157371412 504659636 2124182561 -15787245</internalNodes>
      <leafValues>
        -1.1591517925262451e-01 1.2158966064453125e-01</leafValues></_>
    <_>
      <internalNodes>
        0 -1 19962 1447046660 1446653542 1775533866 2091577000
        -386037979 2004971495 -474101602 15033890</internalNodes>
      <leafValues>
        -1.7474132776260376e-01 7.6596766710281372e-02</leafValues></_>
    <_>
      <internalNodes>
        0 -1 13884 2112873858 -1851742965 2003299277 1576369394
        -1122562419 -1124262603 -25854770 -1467779245</internalNodes>
      <leafValues>
        -8.8880687952041626e-02 1.5423470735549927e-01</leafValues></_>
    <_>
      <internalNodes>
        0 -1 9689 15643065 316401816 -1635763815 -637930949 1734417408
        1786391962 -817446983 -1008193662</internalNodes>
      <leafValues>
        -1.1755546182394028e-01 1.1471886187791824e-01</leafValues></_>
    <_>
      <internalNodes>
        0 -1 14163 238987010 -290661725 -1466286171 1660876540 733136865
        -1992558835 129484220 -721541900</internalNodes>
      <leafValues>
        -1.4954586327075958e-01 9.3821682035923004e-02</leafValues></_>
    <_>
      <internalNodes>
        0 -1 13599 -1423080278 1387620005 -419515134 815490063
        -430638033 2021602676 857927179 288296618</internalNodes>
      <leafValues>
        -1.3169007003307343e-01 1.0335060954093933e-01</leafValues></_>
    <_>
      <internalNodes>
        0 -1 7506 15509716 -278431774 1923392716 1349937700 1466374464
        -1436634341 -1327749632 1084746499</internalNodes>
      <leafValues>
        -2.1421979367733002e-01 6.3658230006694794e-02</leafValues></_>
    <_>
      <internalNodes>
        0 -1 27020 -16832861 1810705471 -2017797550 -1871708826
        -1351422458 1181801250 -202644000 1465647004</internalNodes>
      <leafValues>
        -1.3341584801673889e-01 1.0130610316991806e-01</leafValues></_>
    <_>
      <internalNodes>
        0 -1 9941 -263717172 1889594324 1538260836 -235865147 1953986389
        -1588330569 -1090179846 141950823</internalNodes>
      <leafValues>
        -1.1851947009563446e-01 1.1353303492069244e-01</leafValues></_>
    <_>
      <internalNodes>
        0 -1 17010 738462865 -292804950 -97026181 -2634498 -1917075603
        -1078199799 1073733839 -1618317827</internalNodes>
      <leafValues>
        -1.1065545678138733e-01 1.2684121727943420e-01</leafValues></_>
    <_>
      <internalNodes>
        0 -1 21942 1093985278 760532064 267334366 -1601818216 1152205998
        -520804995 344484190 1214577664</internalNodes>
      <leafValues>
        -1.5823780000209808e-01 8.6026102304458618e-02</leafValues></_>
    <_>
      <internalNodes>
        0 -1 18600 -21183648 -528347354 -72387715 2029714746 149995005
        -1884934595 1959048856 -1287977734</internalNodes>
      <leafValues>
        -1.0904687643051147e-01 1.2620297074317932e-01</leafValues></_>
    <_>
      <internalNodes>
        0 -1 1790 -303371007 -290803925 -538972382 -328683802 1794334503
        1182792695 1961292820 1680111314</internalNodes>
      <leafValues>
        -2.8583285212516785e-01 4.7591965645551682e-02</leafValues></_>
    <_>
      <internalNodes>
        0 -1 22165 -88832848 -2337952 -440402137 -541312786 -1946964580
        -1210124316 -1078084625 -1348528849</internalNodes>
      <leafValues>
        -7.8971505165100098e-02 1.7577666044235229e-01</leafValues></_>
    <_>
      <internalNodes>
        0 -1 16748 -1764094727 -1652619603 1072682937 1073567576
        -1095186755 -134352914 -1493764242 -1355068399</internalNodes>
      <leafValues>
        -1.1832342296838760e-01 1.1802141368389130e-01</leafValues></_>
    <_>
      <internalNodes>
        0 -1 97 817038894 1232832110 -285402620 -254083345 1167428622
        1681351924 -578824828 7675764</internalNodes>
      <leafValues>
        -1.7064464092254639e-01 7.9997219145298004e-02</leafValues></_>
    <_>
      <internalNodes>
        0 -1 7893 -1687204117 -1614857363 477453032 307918847 -654384052
        1860267854 -87360304 1527971704</internalNodes>
      <leafValues>
        -1.3429944217205048e-01 1.0036829859018326e-01</leafValues></_>
    <_>
      <internalNodes>
        0 -1 7038 2114907816 843378226 -355145188 -1074910672 2095414772
        -1260589069 -319492111 1508729333</internalNodes>
      <leafValues>
        -1.2907131016254425e-01 1.0633792728185654e-01</leafValues></_>
    <_>
      <internalNodes>
        0 -1 26211 115902224 66072575 -1393773000 -1216232782 1351025700
        360073078 66482985 874687142</internalNodes>
      <leafValues>
        -1.9472581148147583e-01 6.8761177361011505e-02</leafValues></_>
    <_>
      <internalNodes>
        0 -1 4448 282986159 576955279 -12689876 -1607270462 -487176803
        1280800556 -421213068 -780871616</internalNodes>
      <leafValues>
        -1.5602141618728638e-01 8.4713608026504517e-02</leafValues></_>
    <_>
      <internalNodes>
        0 -1 22831 1243667600 -655475140 867073900 -608279043 1058969796
        -1392611625 -1745563740 -1342468881</internalNodes>
      <leafValues>
        -9.5669396221637726e-02 1.3856111466884613e-01</leafValues></_>
    <_>
      <internalNodes>
        0 -1 14351 1795075744 -184899165 -595666555 -907162001
        -1485042432 -135149641 1993231114 1067145053</internalNodes>
      <leafValues>
        -1.2335415929555893e-01 1.0965912789106369e-01</leafValues></_>
    <_>
      <internalNodes>
        0 -1 6559 975222972 -380195329 -939827848 1784687871 735551775
        -981602817 -1660949376 1739882666</internalNodes>
      <leafValues>
        -1.3902305066585541e-01 9.7938954830169678e-02</leafValues></_></weakClassifiers></stage7>
</opencv_storage>
