<?xml version="1.0"?>
<opencv_storage>
<stage1>
  <maxWeakCount>47</maxWeakCount>
  <stageThreshold>-2.4686303138732910e+00</stageThreshold>
  <weakClassifiers>
    <_>
      <internalNodes>
        0 -1 11289 -800001808 -704643585 4207445 -570577921 -786433 -1
        -541697 -17409</internalNodes>
      <leafValues>
        -6.0345762968063354e-01 4.4841304421424866e-01</leafValues></_>
    <_>
      <internalNodes>
        0 -1 9629 -134368257 -23297 -1579868101 -1346428357 -268451905
        -1 -1962999237 -1342231617</internalNodes>
      <leafValues>
        -3.1765517592430115e-01 4.6720945835113525e-01</leafValues></_>
    <_>
      <internalNodes>
        0 -1 1690 -268439569 -286326785 -1 -285278210 -1 1342177279 -1
        -1</internalNodes>
      <leafValues>
        -2.8973397612571716e-01 3.9125749468803406e-01</leafValues></_>
    <_>
      <internalNodes>
        0 -1 20610 -1090748555 -16998914 -1025 -327684 -1077937163
        -196617 -65540 -1078457104</internalNodes>
      <leafValues>
        -2.5971853733062744e-01 3.5336437821388245e-01</leafValues></_>
    <_>
      <internalNodes>
        0 -1 25617 -9 -269490177 -268435552 -285282306 -939526235
        1157102580 -168332032 -974657545</internalNodes>
      <leafValues>
        -2.8060388565063477e-01 2.8431725502014160e-01</leafValues></_>
    <_>
      <internalNodes>
        0 -1 524 -17629478 -265228750 -555160400 -635389766 -596254896
        -260778156 -46793316 -524289</internalNodes>
      <leafValues>
        -2.5665575265884399e-01 2.8192979097366333e-01</leafValues></_>
    <_>
      <internalNodes>
        0 -1 20495 134233392 -7333708 -65547 -33784580 -1108296208
        -460804 -1074201096 -1078459208</internalNodes>
      <leafValues>
        -2.3899349570274353e-01 2.5268873572349548e-01</leafValues></_>
    <_>
      <internalNodes>
        0 -1 24771 -6393 2071920511 -83890305 1627291647 -169724
        2104999799 -16777472 -209977473</internalNodes>
      <leafValues>
        -2.3415912687778473e-01 2.4177718162536621e-01</leafValues></_>
    <_>
      <internalNodes>
        0 -1 20182 1626861231 934473647 -270602753 -262494 1156924925
        2109177855 -557057 -557085</internalNodes>
      <leafValues>
        -1.5725933015346527e-01 3.2378983497619629e-01</leafValues></_>
    <_>
      <internalNodes>
        0 -1 23055 204998704 -285723672 -1088552961 -16990211
        -1077405436 -2167984 -1073941196 -1093133068</internalNodes>
      <leafValues>
        -3.2016688585281372e-01 1.5268422663211823e-01</leafValues></_>
    <_>
      <internalNodes>
        0 -1 4781 -163066368 2138368563 -761073922 805486330 1145455636
        -550019721 -520683810 -260833281</internalNodes>
      <leafValues>
        -2.5302994251251221e-01 1.9437253475189209e-01</leafValues></_>
    <_>
      <internalNodes>
        0 -1 23583 -1105264975 -1427178696 -2231339 -98828 -1077936139
        -1897006082 -1052235 -336644</internalNodes>
      <leafValues>
        -1.7799115180969238e-01 2.6832756400108337e-01</leafValues></_>
    <_>
      <internalNodes>
        0 -1 11202 1953889748 1359081732 -56181292 -23935 1347464928
        -59375623 -1314869810 227525775</internalNodes>
      <leafValues>
        -2.2156290709972382e-01 2.1344192326068878e-01</leafValues></_>
    <_>
      <internalNodes>
        0 -1 11289 1873776399 2052081370 -6444870 -1560912242 -532892240
        1351668216 875087800 -583143669</internalNodes>
      <leafValues>
        -1.7296709120273590e-01 2.7171424031257629e-01</leafValues></_>
    <_>
      <internalNodes>
        0 -1 1682 -894505074 -286593042 -41040 -1430240 741330933
        1182064639 133525861 -940083211</internalNodes>
      <leafValues>
        -2.5492253899574280e-01 1.8148224055767059e-01</leafValues></_>
    <_>
      <internalNodes>
        0 -1 17330 1994909615 867665815 -137242 -1118240 2004313855
        939489271 -2 -132124</internalNodes>
      <leafValues>
        -1.5474295616149902e-01 2.7773278951644897e-01</leafValues></_>
    <_>
      <internalNodes>
        0 -1 21390 4144 -2105002128 1052572669 -1090642476 960243516
        -1090618213 1006515957 -1078260552</internalNodes>
      <leafValues>
        -2.5704252719879150e-01 1.6171264648437500e-01</leafValues></_>
    <_>
      <internalNodes>
        0 -1 9629 -2012165072 -1976251529 1996000245 1752010695
        -1702863021 -834979177 1973664676 1596955467</internalNodes>
      <leafValues>
        -2.4644185602664948e-01 1.6636037826538086e-01</leafValues></_>
    <_>
      <internalNodes>
        0 -1 15685 686304563 -1359696641 -262145 -327256356 2147450741
        -268437059 -1294027407 -1359151676</internalNodes>
      <leafValues>
        -2.5003680586814880e-01 1.5793247520923615e-01</leafValues></_>
    <_>
      <internalNodes>
        0 -1 20162 1348796336 1079312125 -1933296319 -587334957
        1087866272 1356136181 -940299766 2048653195</internalNodes>
      <leafValues>
        -2.5125089287757874e-01 1.6002795100212097e-01</leafValues></_>
    <_>
      <internalNodes>
        0 -1 21360 -1174350864 -1127715080 -1311243 -67354884
        -1279476300 -1359044891 1073657853 -1078262616</internalNodes>
      <leafValues>
        -1.6412739455699921e-01 2.3827771842479706e-01</leafValues></_>
    <_>
      <internalNodes>
        0 -1 13947 1911547687 829472575 -285216985 -1074659433
        1960076797 2062843839 -327793 -1327137298</internalNodes>
      <leafValues>
        -1.5254275500774384e-01 2.4516731500625610e-01</leafValues></_>
    <_>
      <internalNodes>
        0 -1 1147 -25172401 1114628012 -354419088 -487921750 -43556075
        1350037364 -604520080 2004346404</internalNodes>
      <leafValues>
        -2.4072730541229248e-01 1.5183551609516144e-01</leafValues></_>
    <_>
      <internalNodes>
        0 -1 24750 -1972502479 -286262145 520021755 -763445682 -4770032
        -836258444 -31719426 -1148518658</internalNodes>
      <leafValues>
        -1.7566823959350586e-01 1.9968768954277039e-01</leafValues></_>
    <_>
      <internalNodes>
        0 -1 12298 1962985396 -1159690335 -11393 -1081399361 -44071491
        -838863371 -119714564 732891563</internalNodes>
      <leafValues>
        -1.9698189198970795e-01 1.8525868654251099e-01</leafValues></_>
    <_>
      <internalNodes>
        0 -1 20424 -319832072 -870143872 -1934628864 -2103253366
        352249072 -1947926660 26170370 67357698</internalNodes>
      <leafValues>
        -3.0772662162780762e-01 1.1371389776468277e-01</leafValues></_>
    <_>
      <internalNodes>
        0 -1 19710 -1543240704 -1774313544 -1090765314 1962809854
        1056448228 -54100482 1069291248 -1074129758</internalNodes>
      <leafValues>
        -2.2708436846733093e-01 1.5026289224624634e-01</leafValues></_>
    <_>
      <internalNodes>
        0 -1 1660 -806645969 -286347346 -1073748112 -277881104
        -1083840713 1178056674 -134375664 -134785803</internalNodes>
      <leafValues>
        -2.1150220930576324e-01 1.6368800401687622e-01</leafValues></_>
    <_>
      <internalNodes>
        0 -1 19266 1348855044 829458309 -289799021 -1251620959
        1625649661 1015150061 -371300689 631532458</internalNodes>
      <leafValues>
        -2.1868611872196198e-01 1.6048735380172729e-01</leafValues></_>
    <_>
      <internalNodes>
        0 -1 24372 -1372583884 -620867619 872132337 -122120972 -12659692
        -226465 -1090601544 -1097329224</internalNodes>
      <leafValues>
        -2.0749266445636749e-01 1.6118772327899933e-01</leafValues></_>
    <_>
      <internalNodes>
        0 -1 26539 -536892669 650117047 -402706520 586100706 1981114113
        1179876956 -1242082256 577238635</internalNodes>
      <leafValues>
        -2.5643801689147949e-01 1.2395186722278595e-01</leafValues></_>
    <_>
      <internalNodes>
        0 -1 16816 -1405222315 -67762946 -1837196297 -885027 -1178705476
        -360882337 -135219716 -4555272</internalNodes>
      <leafValues>
        -1.4617900550365448e-01 2.2198991477489471e-01</leafValues></_>
    <_>
      <internalNodes>
        0 -1 1187 -134750725 -85524529 398598922 547596394 -214569084
        -990462081 -1218456576 -186389793</internalNodes>
      <leafValues>
        -1.7570568621158600e-01 1.7772977054119110e-01</leafValues></_>
    <_>
      <internalNodes>
        0 -1 5562 -725553376 903114481 666287506 -270913806 1951760245
        2012676087 -1932659429 636449869</internalNodes>
      <leafValues>
        -2.2841146588325500e-01 1.4165621995925903e-01</leafValues></_>
    <_>
      <internalNodes>
        0 -1 25731 -1288241629 -1416749074 1247280567 -71376706
        -1073941581 -1485833492 938997668 -3489292</internalNodes>
      <leafValues>
        -1.5294480323791504e-01 2.0095296204090118e-01</leafValues></_>
    <_>
      <internalNodes>
        0 -1 22521 1440525700 489750456 -1257556 -1391215198 285159081
        771616126 -1514329032 878979686</internalNodes>
      <leafValues>
        -2.3040774464607239e-01 1.3302457332611084e-01</leafValues></_>
    <_>
      <internalNodes>
        0 -1 17641 -652419115 -222626514 1073233919 -168280593
        -554160392 -1695355331 -72299048 -4518117</internalNodes>
      <leafValues>
        -1.1935128271579742e-01 2.5451284646987915e-01</leafValues></_>
    <_>
      <internalNodes>
        0 -1 19820 -336165337 -968905221 -524941 -464599186 -622796
        -69746693 -556073115 -88938889</internalNodes>
      <leafValues>
        -1.9899876415729523e-01 1.5322193503379822e-01</leafValues></_>
    <_>
      <internalNodes>
        0 -1 14992 1524932778 357625751 -38982223 1035281980 1473466024
        2127911927 -538694518 921075206</internalNodes>
      <leafValues>
        -1.9995084404945374e-01 1.4761014282703400e-01</leafValues></_>
    <_>
      <internalNodes>
        0 -1 13377 -1937103343 -290783372 -1073776673 -135479854
        668845552 -271066629 165520413 -1397945263</internalNodes>
      <leafValues>
        -2.0615296065807343e-01 1.4508411288261414e-01</leafValues></_>
    <_>
      <internalNodes>
        0 -1 19590 640680996 -358862480 -1344439812 -84394792
        -1500072188 -1419367308 1073282488 -1145429846</internalNodes>
      <leafValues>
        -2.0064525306224823e-01 1.5427643060684204e-01</leafValues></_>
    <_>
      <internalNodes>
        0 -1 18600 -553841116 -205639706 2080355067 1542599988
        -1547878955 -1879081097 -1090709824 -67435462</internalNodes>
      <leafValues>
        -1.4183840155601501e-01 2.1452085673809052e-01</leafValues></_>
    <_>
      <internalNodes>
        0 -1 4703 -290525662 -98056641 -366703954 -1561679122 -898145244
        1366805010 1928476480 542315623</internalNodes>
      <leafValues>
        -3.4830734133720398e-01 8.4869660437107086e-02</leafValues></_>
    <_>
      <internalNodes>
        0 -1 20425 -1532197888 -1936949828 -272676890 -1627632968
        -1136820332 -1897107682 519875776 -1611000584</internalNodes>
      <leafValues>
        -2.1932600438594818e-01 1.3713470101356506e-01</leafValues></_>
    <_>
      <internalNodes>
        0 -1 26838 -816935904 -993231578 1791454850 1626164388
        1467979284 1618130265 -134228208 1358102526</internalNodes>
      <leafValues>
        -2.6081296801567078e-01 1.0756428539752960e-01</leafValues></_>
    <_>
      <internalNodes>
        0 -1 22200 -1878499168 1084390844 -50414089 -1778638664
        1056882591 -813717527 -539437570 -1346697042</internalNodes>
      <leafValues>
        -1.4196619391441345e-01 1.9773633778095245e-01</leafValues></_>
    <_>
      <internalNodes>
        0 -1 26396 -1297536893 -1429290754 1059320304 -151322722
        -1141130345 -1909544074 -202967819 -543263556</internalNodes>
      <leafValues>
        -1.5984158217906952e-01 1.7492774128913879e-01</leafValues></_></weakClassifiers></stage1>
</opencv_storage>
