<?xml version="1.0"?>
<opencv_storage>
<stage3>
  <maxWeakCount>76</maxWeakCount>
  <stageThreshold>-2.2856426239013672e+00</stageThreshold>
  <weakClassifiers>
    <_>
      <internalNodes>
        0 -1 10939 -17409 -20481 -134370629 -21829 -16449 -16385
        -68179269 -21845</internalNodes>
      <leafValues>
        -4.1524958610534668e-01 6.1320167779922485e-01</leafValues></_>
    <_>
      <internalNodes>
        0 -1 13800 -254742288 -704805419 273948721 -167927617
        -1308573761 -262145 -206193733 -21585</internalNodes>
      <leafValues>
        -3.5285502672195435e-01 3.3781701326370239e-01</leafValues></_>
    <_>
      <internalNodes>
        0 -1 12229 -8523841 -1321915631 -1 1002113595 -21073 -1 -30582
        985335978</internalNodes>
      <leafValues>
        -2.6558575034141541e-01 2.9329842329025269e-01</leafValues></_>
    <_>
      <internalNodes>
        0 -1 1212 -16777217 1887432559 -16843138 551747306 -129
        1954021175 -4098 -252182545</internalNodes>
      <leafValues>
        -2.2331973910331726e-01 3.0696779489517212e-01</leafValues></_>
    <_>
      <internalNodes>
        0 -1 19245 -186843424 -724437121 -196815616 -573309089
        -185076576 -793313545 -1358956022 -5244017</internalNodes>
      <leafValues>
        -2.8097000718116760e-01 1.9181148707866669e-01</leafValues></_>
    <_>
      <internalNodes>
        0 -1 19782 649363317 -16884481 -1 -16879617 -1073742859 -1146946
        -131076 -1078444808</internalNodes>
      <leafValues>
        -2.0975543558597565e-01 2.4631696939468384e-01</leafValues></_>
    <_>
      <internalNodes>
        0 -1 10939 805334192 18509840 1217688948 35673924 1074809457
        -854497264 70340934 187651924</internalNodes>
      <leafValues>
        -3.4534355998039246e-01 1.4510965347290039e-01</leafValues></_>
    <_>
      <internalNodes>
        0 -1 9405 -1342197825 -1896940306 -4203529 -1282 -1073741825
        -810550273 -134220809 -513</internalNodes>
      <leafValues>
        -1.0390254855155945e-01 3.8132700324058533e-01</leafValues></_>
    <_>
      <internalNodes>
        0 -1 24278 -16792059 1597464447 -1358959361 -260574338
        -285242364 1551879285 -1392670584 -530056369</internalNodes>
      <leafValues>
        -2.0586968958377838e-01 2.1686005592346191e-01</leafValues></_>
    <_>
      <internalNodes>
        0 -1 19668 -30376460 -33792513 -1 -246308 -1078657091 -3
        -1078149448 -1078327112</internalNodes>
      <leafValues>
        -1.5528354048728943e-01 2.7429622411727905e-01</leafValues></_>
    <_>
      <internalNodes>
        0 -1 26650 -4313 -1439696022 -1342177630 578744238 -136839353
        635172849 -134221024 -251658242</internalNodes>
      <leafValues>
        -2.0664142072200775e-01 1.9644315540790558e-01</leafValues></_>
    <_>
      <internalNodes>
        0 -1 20142 1928851119 833678757 -2126294 -1108627806 1089539581
        972126719 -285905222 771055714</internalNodes>
      <leafValues>
        -2.1769042313098907e-01 1.8413574993610382e-01</leafValues></_>
    <_>
      <internalNodes>
        0 -1 19692 674236784 -17007654 -2593 -1140884001 -1075036716
        -1078182055 -1073856527 -1078260357</internalNodes>
      <leafValues>
        -1.6233578324317932e-01 2.2019924223423004e-01</leafValues></_>
    <_>
      <internalNodes>
        0 -1 22882 -478154878 134937344 -1065356016 -576458256
        -1908425813 213501887 1174393985 -979370753</internalNodes>
      <leafValues>
        -2.0230659842491150e-01 1.6566246747970581e-01</leafValues></_>
    <_>
      <internalNodes>
        0 -1 10609 -16822761 -12628385 -1365840646 -231719186 1281641492
        -583117514 -730571528 -32309378</internalNodes>
      <leafValues>
        -1.8326541781425476e-01 1.7791666090488434e-01</leafValues></_>
    <_>
      <internalNodes>
        0 -1 16840 -1493293263 -1361379332 -1 -285573130 -272680073
        -570426633 -185483 -352789516</internalNodes>
      <leafValues>
        -2.1662989258766174e-01 1.4682653546333313e-01</leafValues></_>
    <_>
      <internalNodes>
        0 -1 10008 1348859364 864125349 -1131229292 -1247555670
        1903544821 -1141244420 -324147970 696592123</internalNodes>
      <leafValues>
        -1.8894782662391663e-01 1.6432005167007446e-01</leafValues></_>
    <_>
      <internalNodes>
        0 -1 17285 1912465327 354549407 -156898387 -4338066 1413902335
        989718517 -487194642 -103810394</internalNodes>
      <leafValues>
        -1.2093109637498856e-01 2.4791724979877472e-01</leafValues></_>
    <_>
      <internalNodes>
        0 -1 11 -269484113 -420548612 -131275 -437325830 1744549815
        1171128055 -672147660 1172304119</internalNodes>
      <leafValues>
        -1.6674265265464783e-01 1.7409189045429230e-01</leafValues></_>
    <_>
      <internalNodes>
        0 -1 17842 772416273 -725469185 -268436033 -1213416525 -18895147
        -121634881 -88737556 -1092277497</internalNodes>
      <leafValues>
        -1.6065137088298798e-01 1.7818893492221832e-01</leafValues></_>
    <_>
      <internalNodes>
        0 -1 20476 -957546508 -690442500 -1464008769 -285298716
        -1890518180 -16843011 -1342688092 -1426125766</internalNodes>
      <leafValues>
        -1.7159311473369598e-01 1.6593772172927856e-01</leafValues></_>
    <_>
      <internalNodes>
        0 -1 3117 -185073714 -755040273 1738927405 -271621169 -143261759
        -238723659 -67813877 1741422459</internalNodes>
      <leafValues>
        -1.6337583959102631e-01 1.7461413145065308e-01</leafValues></_>
    <_>
      <internalNodes>
        0 -1 27003 -339753181 -319885329 -363403744 -219503940
        -135072189 1175453523 -1291848124 -193005638</internalNodes>
      <leafValues>
        -1.7511112987995148e-01 1.5774863958358765e-01</leafValues></_>
    <_>
      <internalNodes>
        0 -1 3522 -1062295805 -693981278 -570476554 -1136094 4978661
        1113961910 -860981500 -991476218</internalNodes>
      <leafValues>
        -1.7975169420242310e-01 1.4972543716430664e-01</leafValues></_>
    <_>
      <internalNodes>
        0 -1 25265 -958460369 1988054395 1876868798 -2097484050
        -152174847 1987727231 -336593928 1929367291</internalNodes>
      <leafValues>
        -2.0597980916500092e-01 1.2995439767837524e-01</leafValues></_>
    <_>
      <internalNodes>
        0 -1 21794 -801046554 1890643890 -1430639844 -13308158
        1617184191 -19126277 -1259573269 993024282</internalNodes>
      <leafValues>
        -1.6836535930633545e-01 1.5667273104190826e-01</leafValues></_>
    <_>
      <internalNodes>
        0 -1 10042 1153741524 -664673285 364953565 -1058962229 885233072
        -975962197 -247232478 -816862645</internalNodes>
      <leafValues>
        -2.0446979999542236e-01 1.3059437274932861e-01</leafValues></_>
    <_>
      <internalNodes>
        0 -1 14079 204350769 -1427439952 -1092120991 -84099590 197476129
        -268439138 -1342494220 -1879304720</internalNodes>
      <leafValues>
        -2.2331647574901581e-01 1.1829375475645065e-01</leafValues></_>
    <_>
      <internalNodes>
        0 -1 18581 -194712448 1419025584 1708039928 -439507302
        1886430900 942727344 140519978 23544287</internalNodes>
      <leafValues>
        -2.0620766282081604e-01 1.2443917989730835e-01</leafValues></_>
    <_>
      <internalNodes>
        0 -1 23751 -1360388815 -51740692 -1090593793 -620994579
        -1157710736 -16973857 -5210180 -1374156396</internalNodes>
      <leafValues>
        -1.8417575955390930e-01 1.3927985727787018e-01</leafValues></_>
    <_>
      <internalNodes>
        0 -1 16306 1107289862 886505278 -725287132 -35987830 1078268397
        -1602718170 -109716088 -455645242</internalNodes>
      <leafValues>
        -1.7540851235389709e-01 1.4357839524745941e-01</leafValues></_>
    <_>
      <internalNodes>
        0 -1 3730 1531112354 1978851680 -404708806 702622369 1717630883
        1911810006 -1461651681 2147336174</internalNodes>
      <leafValues>
        -1.6052566468715668e-01 1.5662752091884613e-01</leafValues></_>
    <_>
      <internalNodes>
        0 -1 25458 2128604419 333115391 -806363232 -1477192838
        1442534540 1509529461 -1459638644 402124782</internalNodes>
      <leafValues>
        -1.4591848850250244e-01 1.6725039482116699e-01</leafValues></_>
    <_>
      <internalNodes>
        0 -1 14730 -1439039227 -1369922292 -169364489 -4449580
        -1099174443 -270862626 -1479950603 -1145538075</internalNodes>
      <leafValues>
        -1.6710320115089417e-01 1.4956244826316833e-01</leafValues></_>
    <_>
      <internalNodes>
        0 -1 22875 -1909404368 -1373225052 -37777451 -4571148
        -1451582484 -1511006246 468909744 -1347480344</internalNodes>
      <leafValues>
        -1.5740257501602173e-01 1.5584006905555725e-01</leafValues></_>
    <_>
      <internalNodes>
        0 -1 2939 -170461229 1943534550 -21831030 14909570 -647628800
        -1804339233 -238383552 -792203577</internalNodes>
      <leafValues>
        -1.8224945664405823e-01 1.3304834067821503e-01</leafValues></_>
    <_>
      <internalNodes>
        0 -1 17808 -521518531 -2396161 -855646209 -69435441 -1073964779
        -268566666 -1074086179 -80080452</internalNodes>
      <leafValues>
        -1.2317126244306564e-01 1.9831599295139313e-01</leafValues></_>
    <_>
      <internalNodes>
        0 -1 25140 184429331 251559271 -1242586378 -1426530710
        -1090573343 -1886423169 -1514221388 -1426154502</internalNodes>
      <leafValues>
        -1.7041638493537903e-01 1.4000900089740753e-01</leafValues></_>
    <_>
      <internalNodes>
        0 -1 13800 1877946127 1792195614 -305794146 -1947795576
        -272908192 555787165 678072366 18201486</internalNodes>
      <leafValues>
        -1.3547338545322418e-01 1.6757285594940186e-01</leafValues></_>
    <_>
      <internalNodes>
        0 -1 14915 -465422572 -1061883916 581718805 -496193699
        -214795472 -235637691 1861105424 -1481018513</internalNodes>
      <leafValues>
        -2.4378053843975067e-01 9.4486184418201447e-02</leafValues></_>
    <_>
      <internalNodes>
        0 -1 13837 1415040678 825683889 -318903808 837070544 1551123597
        2113754623 -566768504 816152364</internalNodes>
      <leafValues>
        -1.8618246912956238e-01 1.2130599468946457e-01</leafValues></_>
    <_>
      <internalNodes>
        0 -1 18720 452199492 415115040 2129934254 855256306 242891844
        -6352909 518805200 -1074128390</internalNodes>
      <leafValues>
        -1.9993114471435547e-01 1.1261369287967682e-01</leafValues></_>
    <_>
      <internalNodes>
        0 -1 25176 -805312349 139390510 1442572544 -1992896958 603451303
        3029814 369070464 9414134</internalNodes>
      <leafValues>
        -2.1732273697853088e-01 1.0375829786062241e-01</leafValues></_>
    <_>
      <internalNodes>
        0 -1 20535 -1975473520 -1094961824 -1367572489 -1090909442
        -1760784436 -1415917588 -1111510274 -1078260484</internalNodes>
      <leafValues>
        -1.3813829421997070e-01 1.6178740561008453e-01</leafValues></_>
    <_>
      <internalNodes>
        0 -1 9515 -353382609 -290543130 -82473 -294207760 1811916599
        -300982581 -146802876 -302383673</internalNodes>
      <leafValues>
        -1.8189266324043274e-01 1.1972520500421524e-01</leafValues></_>
    <_>
      <internalNodes>
        0 -1 14761 1944201872 1299194501 -180035724 -475026849 6992319
        1316343677 1970051619 2011664011</internalNodes>
      <leafValues>
        -1.7820024490356445e-01 1.2722693383693695e-01</leafValues></_>
    <_>
      <internalNodes>
        0 -1 4862 -358101493 -579109569 -423965446 -761077585 1182483727
        1024933723 2146728678 1987313514</internalNodes>
      <leafValues>
        -1.7510038614273071e-01 1.2400414794683456e-01</leafValues></_>
    <_>
      <internalNodes>
        0 -1 22816 -566960844 -35111740 1605823861 -135480208
        -1126781956 -1349929439 -4341830 -1409602069</internalNodes>
      <leafValues>
        -1.1579404771327972e-01 1.8777620792388916e-01</leafValues></_>
    <_>
      <internalNodes>
        0 -1 19355 1950714054 1901107509 -332614610 -354240534
        1952730597 -134973834 -386646052 1767924770</internalNodes>
      <leafValues>
        -1.8902942538261414e-01 1.1581607162952423e-01</leafValues></_>
    <_>
      <internalNodes>
        0 -1 11388 1350559399 825293297 -16888013 -34611073 1416971511
        -42043393 -87237284 -1446685433</internalNodes>
      <leafValues>
        -1.1677829176187515e-01 1.8797625601291656e-01</leafValues></_>
    <_>
      <internalNodes>
        0 -1 22295 -360798161 1321082783 -1146093569 -463489281
        -72911087 2055206525 -1140867329 1262419387</internalNodes>
      <leafValues>
        -1.6094188392162323e-01 1.3359597325325012e-01</leafValues></_>
    <_>
      <internalNodes>
        0 -1 18678 1410604416 1491613528 2126502737 -101948756
        -1448298924 -1611104268 -1075169340 -1146413688</internalNodes>
      <leafValues>
        -1.4807169139385223e-01 1.4978499710559845e-01</leafValues></_>
    <_>
      <internalNodes>
        0 -1 2061 -492655094 69775359 -319100154 -1288828246 1164396343
        141261823 -475175820 829318690</internalNodes>
      <leafValues>
        -2.3514483869075775e-01 9.0280137956142426e-02</leafValues></_>
    <_>
      <internalNodes>
        0 -1 24491 2096754181 1066924031 -1916809331 -167903233
        1207852732 477364085 -2035548280 -453678097</internalNodes>
      <leafValues>
        -1.1622915416955948e-01 1.8590521812438965e-01</leafValues></_>
    <_>
      <internalNodes>
        0 -1 22287 1677853717 -6262929 2134792959 -1779941857 -270546607
        2070904503 -1494428336 139480320</internalNodes>
      <leafValues>
        -2.2439986467361450e-01 9.4177544116973877e-02</leafValues></_>
    <_>
      <internalNodes>
        0 -1 17550 -836858714 -453104194 -830474795 -229967250
        -227974732 -1466011817 -852771404 -214215430</internalNodes>
      <leafValues>
        -1.3956598937511444e-01 1.5369077026844025e-01</leafValues></_>
    <_>
      <internalNodes>
        0 -1 18964 2093019057 -720261319 -34738369 1168190177 -992149569
        -573246465 -570447858 2079295627</internalNodes>
      <leafValues>
        -1.1475721746683121e-01 1.8392124772071838e-01</leafValues></_>
    <_>
      <internalNodes>
        0 -1 21487 293288510 1076948542 -42012673 1074175598 -722864158
        318502191 2145447586 1381289630</internalNodes>
      <leafValues>
        -1.6576583683490753e-01 1.2771415710449219e-01</leafValues></_>
    <_>
      <internalNodes>
        0 -1 24233 -358654 -885739610 -1092623566 720370366 1331844107
        78624717 -1317030688 1154743787</internalNodes>
      <leafValues>
        -2.6694339513778687e-01 7.7800683677196503e-02</leafValues></_>
    <_>
      <internalNodes>
        0 -1 4009 -286638252 821749594 -1385290931 -1354191170
        -402669775 -1112003080 -235954388 2113281543</internalNodes>
      <leafValues>
        -1.7015622556209564e-01 1.2204679101705551e-01</leafValues></_>
    <_>
      <internalNodes>
        0 -1 19560 -927686620 -2131085682 -1141194834 -1101371304
        -1418353484 2076250043 -1140935256 -1616247636</internalNodes>
      <leafValues>
        -1.6039165854454041e-01 1.2461858987808228e-01</leafValues></_>
    <_>
      <internalNodes>
        0 -1 21275 782245668 816080926 -8982786 285083000 -1482344459
        1044201260 1610081712 -1682230086</internalNodes>
      <leafValues>
        -1.6141638159751892e-01 1.2870588898658752e-01</leafValues></_>
    <_>
      <internalNodes>
        0 -1 1212 -520100346 -1889085073 1114296235 -601026586
        1513292673 -235111812 1578259712 2131546624</internalNodes>
      <leafValues>
        -1.7271530628204346e-01 1.1595366895198822e-01</leafValues></_>
    <_>
      <internalNodes>
        0 -1 11869 -31537521 -88117338 -621586962 1928232170 1331099246
        1064189541 1739643348 -77983768</internalNodes>
      <leafValues>
        -1.3292749226093292e-01 1.5165182948112488e-01</leafValues></_>
    <_>
      <internalNodes>
        0 -1 7823 -185088356 2147023669 -222630340 322091691 -18469668
        -579064710 1711078872 -551294869</internalNodes>
      <leafValues>
        -1.1779856681823730e-01 1.7363220453262329e-01</leafValues></_>
    <_>
      <internalNodes>
        0 -1 23522 -182524364 -601182236 -274791151 -322389808
        1760984497 -2002338827 -922987496 -775436909</internalNodes>
      <leafValues>
        -1.4900320768356323e-01 1.3161870837211609e-01</leafValues></_>
    <_>
      <internalNodes>
        0 -1 20725 139339313 -1938168836 1778203631 1255955693 -82555084
        1817179422 -1900128426 -1679141383</internalNodes>
      <leafValues>
        -1.8496371805667877e-01 1.0606965422630310e-01</leafValues></_>
    <_>
      <internalNodes>
        0 -1 20183 1366812422 824245143 -827166948 -46667198 1692484860
        -18141449 -1561568290 1183022483</internalNodes>
      <leafValues>
        -1.4764006435871124e-01 1.3418212532997131e-01</leafValues></_>
    <_>
      <internalNodes>
        0 -1 13604 1625202980 1886293311 2113912823 654215880 -545784055
        -249086209 -1342208895 1890011214</internalNodes>
      <leafValues>
        -1.8323390185832977e-01 1.1017438024282455e-01</leafValues></_>
    <_>
      <internalNodes>
        0 -1 6636 -307616253 -286602360 -1346420865 -1078412032
        -332628891 -386490370 267212045 1291089748</internalNodes>
      <leafValues>
        -1.7951959371566772e-01 1.1239732056856155e-01</leafValues></_>
    <_>
      <internalNodes>
        0 -1 11175 -319716332 -1526780648 -1344393460 1832134591
        -2769646 684752883 1760319241 113180295</internalNodes>
      <leafValues>
        -2.1489757299423218e-01 9.2125967144966125e-02</leafValues></_>
    <_>
      <internalNodes>
        0 -1 21415 243553333 -1207035594 -16814723 -76580099 -1116733963
        -1680287329 -1619077975 -1074126676</internalNodes>
      <leafValues>
        -1.2504002451896667e-01 1.5928678214550018e-01</leafValues></_>
    <_>
      <internalNodes>
        0 -1 11325 -107584345 836812236 -352603410 1039200151 307126443
        1064523573 -1906868514 148995831</internalNodes>
      <leafValues>
        -1.3880848884582520e-01 1.4662297070026398e-01</leafValues></_>
    <_>
      <internalNodes>
        0 -1 27015 -621829600 -320935636 -137038816 -489755040
        -2022341868 138729893 -159516992 341092556</internalNodes>
      <leafValues>
        -2.2953900694847107e-01 8.5942640900611877e-02</leafValues></_>
    <_>
      <internalNodes>
        0 -1 5694 1180557859 965929713 -151097576 -278761760 1523542007
        377330687 -402888834 1971812048</internalNodes>
      <leafValues>
        -1.5549789369106293e-01 1.2684263288974762e-01</leafValues></_>
    <_>
      <internalNodes>
        0 -1 21320 -863440976 1168690188 -29124 -1216423564 -1912627232
        -1561020611 -1074112533 -1078256438</internalNodes>
      <leafValues>
        -1.1047856509685516e-01 1.7700578272342682e-01</leafValues></_></weakClassifiers></stage3>
</opencv_storage>
