<?xml version="1.0"?>
<opencv_storage>
<stage6>
  <maxWeakCount>117</maxWeakCount>
  <stageThreshold>-2.1047947406768799e+00</stageThreshold>
  <weakClassifiers>
    <_>
      <internalNodes>
        0 -1 13739 -21569 -8409281 -134241621 -4216149 -872435777 -16385
        -30038 -1078642</internalNodes>
      <leafValues>
        -4.1555824875831604e-01 3.6201584339141846e-01</leafValues></_>
    <_>
      <internalNodes>
        0 -1 10919 -2752513 -1321865227 -282949 1002113683 -20561
        -131073 -1077958006 1002146475</internalNodes>
      <leafValues>
        -2.5076398253440857e-01 2.9045477509498596e-01</leafValues></_>
    <_>
      <internalNodes>
        0 -1 19197 -52626220 -704774145 -43713187 -262305 -639634304
        -185336905 -1269 -1057</internalNodes>
      <leafValues>
        -2.6141524314880371e-01 2.4617125093936920e-01</leafValues></_>
    <_>
      <internalNodes>
        0 -1 19788 -21037059 -237569 -1 -98305 -16451 -327746 -3
        -1078322952</internalNodes>
      <leafValues>
        -1.5681876242160797e-01 3.2381233572959900e-01</leafValues></_>
    <_>
      <internalNodes>
        0 -1 1672 -269488209 -1498746962 -1074790913 -286382942
        1341128703 71748607 1174403071 -974138113</internalNodes>
      <leafValues>
        -2.1116541326045990e-01 1.9636562466621399e-01</leafValues></_>
    <_>
      <internalNodes>
        0 -1 20551 204473392 -1661054991 1054652415 1073690593 511319292
        -1075841107 800735231 -1342230785</internalNodes>
      <leafValues>
        -1.9697767496109009e-01 2.1350857615470886e-01</leafValues></_>
    <_>
      <internalNodes>
        0 -1 13739 2127424 522485248 291331956 828437876 919493325
        1333356861 66942301 1595703273</internalNodes>
      <leafValues>
        -2.5287482142448425e-01 1.1874764412641525e-01</leafValues></_>
    <_>
      <internalNodes>
        0 -1 25286 -15347 -679518849 -1459634433 1928068991 -1074033664
        1935671119 -1157652992 -209977505</internalNodes>
      <leafValues>
        -1.2792237102985382e-01 2.3995339870452881e-01</leafValues></_>
    <_>
      <internalNodes>
        0 -1 21360 -1633103632 -229387 -327683 -8963 -1094729731
        -1073812739 -1077952773 -1145105157</internalNodes>
      <leafValues>
        -1.4411999285221100e-01 2.4720318615436554e-01</leafValues></_>
    <_>
      <internalNodes>
        0 -1 1323 -262537 -278825 2130371258 -232594718 -25168092
        -13174925 -831160246 -715665697</internalNodes>
      <leafValues>
        -1.4090150594711304e-01 2.1108950674533844e-01</leafValues></_>
    <_>
      <internalNodes>
        0 -1 20182 1475866555 890371503 -2101709 -1062272 1425098239
        -1867783 -557057 -70942813</internalNodes>
      <leafValues>
        -1.2469320744276047e-01 2.3800119757652283e-01</leafValues></_>
    <_>
      <internalNodes>
        0 -1 9882 -715786252 268480032 -681249419 891662991 -247070859
        2037808309 -358039554 464471694</internalNodes>
      <leafValues>
        -1.8936945497989655e-01 1.3863764703273773e-01</leafValues></_>
    <_>
      <internalNodes>
        0 -1 24214 -68161613 -2046099550 1828705232 -2060453392
        -1962946641 -1901404173 1171736016 -973081093</internalNodes>
      <leafValues>
        -1.5795473754405975e-01 1.6877558827400208e-01</leafValues></_>
    <_>
      <internalNodes>
        0 -1 20495 72883568 -16766756 1862172539 -33800708 -1152598064
        -239623 -1076314632 -1078261286</internalNodes>
      <leafValues>
        -1.4629772305488586e-01 1.7226758599281311e-01</leafValues></_>
    <_>
      <internalNodes>
        0 -1 15685 720056123 -286212609 -143071297 -285213505
        -1610629513 -805307393 -1075921033 -21304067</internalNodes>
      <leafValues>
        -1.7166651785373688e-01 1.5055319666862488e-01</leafValues></_>
    <_>
      <internalNodes>
        0 -1 21340 -558825744 -35111684 -65857 -538153732 -1242171403
        -68690441 -1073744897 -1409605377</internalNodes>
      <leafValues>
        -9.9778816103935242e-02 2.4492850899696350e-01</leafValues></_>
    <_>
      <internalNodes>
        0 -1 22823 1694301440 1113888 -169487104 278986544 1375586188
        67386369 -150997552 12579839</internalNodes>
      <leafValues>
        -2.9333692789077759e-01 8.2318641245365143e-02</leafValues></_>
    <_>
      <internalNodes>
        0 -1 17242 2130705142 1153300708 -401284044 -990514193
        1649693776 963656739 1985347383 -34083221</internalNodes>
      <leafValues>
        -1.4842587709426880e-01 1.5686024725437164e-01</leafValues></_>
    <_>
      <internalNodes>
        0 -1 10669 -19968337 -2266371 -260114241 1920925695 -421563826
        2001155942 -459810 -12911874</internalNodes>
      <leafValues>
        -1.1560323089361191e-01 1.9316859543323517e-01</leafValues></_>
    <_>
      <internalNodes>
        0 -1 19601 -704711180 -724553292 -1343844788 -974421879
        1951720880 -1876942608 -426460181 722192379</internalNodes>
      <leafValues>
        -1.3967685401439667e-01 1.6146236658096313e-01</leafValues></_>
    <_>
      <internalNodes>
        0 -1 23091 -2111832044 -486794308 -1569720321 -604211276
        -1080361388 -75621778 -1090715656 -1079507824</internalNodes>
      <leafValues>
        -1.7848604917526245e-01 1.1850284785032272e-01</leafValues></_>
    <_>
      <internalNodes>
        0 -1 9775 -119490224 -1997765540 -437245475 -328365483
        -1163729136 -21437411 -81479887 -684090401</internalNodes>
      <leafValues>
        -1.6387927532196045e-01 1.3121284544467926e-01</leafValues></_>
    <_>
      <internalNodes>
        0 -1 17237 1375202188 387102615 -84084438 366342114 1416956089
        816805365 1901456904 549943108</internalNodes>
      <leafValues>
        -1.9047856330871582e-01 1.0802850127220154e-01</leafValues></_>
    <_>
      <internalNodes>
        0 -1 25106 -1845762251 551727955 -1081118080 1290578632
        1946154887 1182137842 -170396544 1086386922</internalNodes>
      <leafValues>
        -1.9281843304634094e-01 1.0357411205768585e-01</leafValues></_>
    <_>
      <internalNodes>
        0 -1 6080 -419445841 -75768065 -319029574 -218955778 1610542151
        1970720615 -771787324 -143395225</internalNodes>
      <leafValues>
        -1.4355278015136719e-01 1.3623596727848053e-01</leafValues></_>
    <_>
      <internalNodes>
        0 -1 20550 -569312048 -52802563 -1090880528 2010996735
        -1158889504 -1128367179 938120884 -1073795346</internalNodes>
      <leafValues>
        -1.0672717541456223e-01 1.9062684476375580e-01</leafValues></_>
    <_>
      <internalNodes>
        0 -1 22915 -1935740127 -1565517320 -220342319 -1092815432
        801101497 -1410405214 868204493 -1901423368</internalNodes>
      <leafValues>
        -1.4642584323883057e-01 1.3155265152454376e-01</leafValues></_>
    <_>
      <internalNodes>
        0 -1 1660 -303067217 -286326802 -1055376 -2097231 -77071425
        132102058 -168044719 1476255719</internalNodes>
      <leafValues>
        -1.4495661854743958e-01 1.3019226491451263e-01</leafValues></_>
    <_>
      <internalNodes>
        0 -1 16725 -1073608656 -8511977 1055574770 989492046 406457364
        -61443 1051211262 -1153813186</internalNodes>
      <leafValues>
        -1.5943017601966858e-01 1.1823858320713043e-01</leafValues></_>
    <_>
      <internalNodes>
        0 -1 825 1725950639 835383087 -352440438 -68489670 1742176255
        81162231 -134251148 -135397867</internalNodes>
      <leafValues>
        -1.2237089127302170e-01 1.5062907338142395e-01</leafValues></_>
    <_>
      <internalNodes>
        0 -1 2253 -489697586 -151327834 -27283794 -943052798 1530872511
        1699119101 -352255315 1974435758</internalNodes>
      <leafValues>
        -1.5878042578697205e-01 1.1752322316169739e-01</leafValues></_>
    <_>
      <internalNodes>
        0 -1 19821 -1427504041 -357269633 -46680065 -286339161 -275884
        -17301633 -843288741 -618637377</internalNodes>
      <leafValues>
        -1.3756325840950012e-01 1.3470900058746338e-01</leafValues></_>
    <_>
      <internalNodes>
        0 -1 11753 -1329546670 -4002133 1438646803 -533871955 -227158001
        -391862204 -153861632 1141228291</internalNodes>
      <leafValues>
        -2.0075672864913940e-01 9.3651860952377319e-02</leafValues></_>
    <_>
      <internalNodes>
        0 -1 15948 680001552 -1398395416 838662131 -36148748 -1079756076
        -68258472 -1073974279 -1431820848</internalNodes>
      <leafValues>
        -1.8880750238895416e-01 9.4772107899188995e-02</leafValues></_>
    <_>
      <internalNodes>
        0 -1 22056 -722155816 345026320 -1713537220 -2053075296 14944428
        219809028 875335562 184616331</internalNodes>
      <leafValues>
        -1.6879053413867950e-01 1.0813125222921371e-01</leafValues></_>
    <_>
      <internalNodes>
        0 -1 14045 1912596358 282328895 -23265619 -101583908 1969644989
        -791285825 -437271602 -1328198641</internalNodes>
      <leafValues>
        -1.2018896639347076e-01 1.4545540511608124e-01</leafValues></_>
    <_>
      <internalNodes>
        0 -1 19197 -1016891605 678618060 1913447906 1565652468
        1920019327 2080110104 1046480064 1917550386</internalNodes>
      <leafValues>
        -1.1676521599292755e-01 1.4985677599906921e-01</leafValues></_>
    <_>
      <internalNodes>
        0 -1 21792 282570624 329903028 1877093990 -1113496144 2146725053
        -1149892627 -185258481 671116427</internalNodes>
      <leafValues>
        -1.6752628982067108e-01 1.0749928653240204e-01</leafValues></_>
    <_>
      <internalNodes>
        0 -1 10919 943361712 1146401631 -1636139050 -463012918
        1316246810 91571711 1450874175 -1000456390</internalNodes>
      <leafValues>
        -1.4527119696140289e-01 1.2386918812990189e-01</leafValues></_>
    <_>
      <internalNodes>
        0 -1 20125 -827536348 -1930648108 -1351352478 -1024923770
        -97389051 -3721263 -134629561 -1292962429</internalNodes>
      <leafValues>
        -1.4394353330135345e-01 1.2672145664691925e-01</leafValues></_>
    <_>
      <internalNodes>
        0 -1 10317 -1365857293 -827658322 -1368531202 -218325026
        -1342593315 -135364810 -1759054187 -338508</internalNodes>
      <leafValues>
        -1.2288964539766312e-01 1.4185138046741486e-01</leafValues></_>
    <_>
      <internalNodes>
        0 -1 25357 -134248960 1226491723 -1512676188 -523960898
        -704660598 745896719 800958088 858866366</internalNodes>
      <leafValues>
        -1.5403826534748077e-01 1.1096770316362381e-01</leafValues></_>
    <_>
      <internalNodes>
        0 -1 22295 -562083555 -287364675 -872419585 -1367529609
        -336104123 -81330305 -4195468 -1969030170</internalNodes>
      <leafValues>
        -1.5309771895408630e-01 1.1534191668033600e-01</leafValues></_>
    <_>
      <internalNodes>
        0 -1 17581 -554370380 -1657139980 -1728620931 1013711124
        -1775235016 -1108190959 1814571778 1051926539</internalNodes>
      <leafValues>
        -1.6186335682868958e-01 1.0853406041860580e-01</leafValues></_>
    <_>
      <internalNodes>
        0 -1 12574 2088182432 498623900 1056813054 -1108811233
        2107313850 -1610662409 -26067204 150821921</internalNodes>
      <leafValues>
        -1.6516381502151489e-01 1.0341258347034454e-01</leafValues></_>
    <_>
      <internalNodes>
        0 -1 22200 -1375669904 -561086728 251319760 -1175972104
        -1300578735 -1349830675 535197685 -1409346376</internalNodes>
      <leafValues>
        -1.3477082550525665e-01 1.2592594325542450e-01</leafValues></_>
    <_>
      <internalNodes>
        0 -1 26895 2069847151 -67171304 205486702 1120653998 -67492352
        1996627014 -84084198 1918091211</internalNodes>
      <leafValues>
        -1.4301140606403351e-01 1.1816068738698959e-01</leafValues></_>
    <_>
      <internalNodes>
        0 -1 17856 2132356795 -879251859 -1077938437 1673259150 1374115
        -722468877 372618395 2069873338</internalNodes>
      <leafValues>
        -1.1566194146871567e-01 1.4457072317600250e-01</leafValues></_>
    <_>
      <internalNodes>
        0 -1 12946 614797360 1089874488 -302371028 -389142632 -688553708
        -168723534 -16778460 633726791</internalNodes>
      <leafValues>
        -2.4392575025558472e-01 6.8044148385524750e-02</leafValues></_>
    <_>
      <internalNodes>
        0 -1 390 -1490506846 -2031162702 -2144340894 -688078112 -4458837
        106361665 133640982 1474158036</internalNodes>
      <leafValues>
        -1.7324131727218628e-01 9.4087667763233185e-02</leafValues></_>
    <_>
      <internalNodes>
        0 -1 15613 -625341359 -576778569 -276923019 2145265661
        -856801032 -98306 -553879812 -15044805</internalNodes>
      <leafValues>
        -1.2063011527061462e-01 1.3599561154842377e-01</leafValues></_>
    <_>
      <internalNodes>
        0 -1 19944 -186796044 -738156422 -1090569607 -390395248
        -19023955 -986842249 1996433963 1608231051</internalNodes>
      <leafValues>
        -1.1600330471992493e-01 1.4351429045200348e-01</leafValues></_>
    <_>
      <internalNodes>
        0 -1 17831 -1441789903 -1929728034 805240703 -375591553
        -1073799599 -1632714579 -1117950207 -279634616</internalNodes>
      <leafValues>
        -1.6851645708084106e-01 9.7041271626949310e-02</leafValues></_>
    <_>
      <internalNodes>
        0 -1 14176 1390541814 280011442 1570129526 -672041358 1413776508
        -726539921 -269144470 453990159</internalNodes>
      <leafValues>
        -1.2727250158786774e-01 1.2726899981498718e-01</leafValues></_>
    <_>
      <internalNodes>
        0 -1 23735 -990132347 -760874213 536290749 -1207996626
        -428345971 2092953389 -1396725079 586672967</internalNodes>
      <leafValues>
        -1.0445044934749603e-01 1.5442435443401337e-01</leafValues></_>
    <_>
      <internalNodes>
        0 -1 18276 1616176910 305304962 -391451075 -1521729760
        1895124217 -172811280 -187730776 835150598</internalNodes>
      <leafValues>
        -1.6483247280120850e-01 9.6068404614925385e-02</leafValues></_>
    <_>
      <internalNodes>
        0 -1 13445 -1502410973 -836457496 -1086654601 -357537292
        -1410646669 -806424602 396092759 -1974170172</internalNodes>
      <leafValues>
        -1.7895610630512238e-01 9.0230941772460938e-02</leafValues></_>
    <_>
      <internalNodes>
        0 -1 7942 1218904353 -24987098 -8929793 -13077710 763309525
        -1276187409 67100037 1507619892</internalNodes>
      <leafValues>
        -1.4671395719051361e-01 1.1164359003305435e-01</leafValues></_>
    <_>
      <internalNodes>
        0 -1 3183 -2767253 1610460855 -1090586004 -218236947 743953736
        527326033 1190129598 1936965610</internalNodes>
      <leafValues>
        -1.2573343515396118e-01 1.3049465417861938e-01</leafValues></_>
    <_>
      <internalNodes>
        0 -1 22617 1935126526 -978210116 -1166755468 -561161991
        1618274223 -445252625 -1914216753 262241450</internalNodes>
      <leafValues>
        -1.0971618443727493e-01 1.4389467239379883e-01</leafValues></_>
    <_>
      <internalNodes>
        0 -1 4109 -781237556 -1043794196 -68370808 -1188917458
        1649669569 1433900839 -119690096 -503973394</internalNodes>
      <leafValues>
        -1.6157512366771698e-01 1.0358135402202606e-01</leafValues></_>
    <_>
      <internalNodes>
        0 -1 6295 -1565546494 41215147 979559427 544172073 1414939396
        1425306611 -1275074813 1147008835</internalNodes>
      <leafValues>
        -2.8559878468513489e-01 5.8611746877431870e-02</leafValues></_>
    <_>
      <internalNodes>
        0 -1 17712 -791638608 -50432299 -1099245097 -553691137
        -1393914684 -305367175 -1345143108 -1146420022</internalNodes>
      <leafValues>
        -9.3687623739242554e-02 1.6955733299255371e-01</leafValues></_>
    <_>
      <internalNodes>
        0 -1 18678 -266548084 -589015183 2134899454 -67215112
        -1691869732 -810012940 -1092829192 -1079310886</internalNodes>
      <leafValues>
        -9.6512548625469208e-02 1.6659373044967651e-01</leafValues></_>
    <_>
      <internalNodes>
        0 -1 24615 111675424 178031711 -562643248 980295902 -1242915372
        -1921034922 -20924492 -234212868</internalNodes>
      <leafValues>
        -1.7635393142700195e-01 8.8386818766593933e-02</leafValues></_>
    <_>
      <internalNodes>
        0 -1 20323 -229121790 1346427829 -1145766012 -645599318
        1358254481 -1248842393 -1519030586 -1946059001</internalNodes>
      <leafValues>
        -1.5153107047080994e-01 1.0233739018440247e-01</leafValues></_>
    <_>
      <internalNodes>
        0 -1 13399 315361156 -377813793 1700020093 1646406871 -72009843
        -310973059 469571849 2028113033</internalNodes>
      <leafValues>
        -1.6198003292083740e-01 9.4631977379322052e-02</leafValues></_>
    <_>
      <internalNodes>
        0 -1 26373 -562045311 54783943 -34603276 1476148706 -621953025
        215678879 368809396 1441642127</internalNodes>
      <leafValues>
        -1.2880375981330872e-01 1.1787512898445129e-01</leafValues></_>
    <_>
      <internalNodes>
        0 -1 3710 -152049729 -70848525 -573223401 -35475680 2029768111
        -805318657 -42631890 -319984338</internalNodes>
      <leafValues>
        -7.7336303889751434e-02 1.9627031683921814e-01</leafValues></_>
    <_>
      <internalNodes>
        0 -1 13357 576127523 1035693311 -363184490 2077171195 2124834308
        1185826368 -136518174 318913960</internalNodes>
      <leafValues>
        -1.6003793478012085e-01 9.6046231687068939e-02</leafValues></_>
    <_>
      <internalNodes>
        0 -1 22145 -1037128544 -397783054 1610317141 -336697884
        -1968324780 91534325 -1526745910 -1615129496</internalNodes>
      <leafValues>
        -1.2054569274187088e-01 1.2455119192600250e-01</leafValues></_>
    <_>
      <internalNodes>
        0 -1 7413 1613644290 35847840 1790305572 -127793452 2081126144
        319979314 1307801428 1953842724</internalNodes>
      <leafValues>
        -3.1181159615516663e-01 4.7769818454980850e-02</leafValues></_>
    <_>
      <internalNodes>
        0 -1 16074 -898593567 -786805459 510109499 -75637455 -1096749895
        -1364513902 -5004338 -1159055881</internalNodes>
      <leafValues>
        -8.4431417286396027e-02 1.7606487870216370e-01</leafValues></_>
    <_>
      <internalNodes>
        0 -1 26413 2121764103 1408592255 2043658215 576316223 1602192016
        2145086817 -2013469048 1917895553</internalNodes>
      <leafValues>
        -1.2551704049110413e-01 1.1946085840463638e-01</leafValues></_>
    <_>
      <internalNodes>
        0 -1 0 -1355814407 -1603274784 -1649962240 -806929324
        -1514143790 37484224 939189671 1105196669</internalNodes>
      <leafValues>
        -1.3291938602924347e-01 1.1528989672660828e-01</leafValues></_>
    <_>
      <internalNodes>
        0 -1 24219 -1698699645 -2086897862 2090549216 -1802863372
        180080012 -1560375779 536716245 -1881154308</internalNodes>
      <leafValues>
        -1.1991277337074280e-01 1.2669593095779419e-01</leafValues></_>
    <_>
      <internalNodes>
        0 -1 22898 -211096784 2044000174 300875249 -41014182 1003442103
        -2093025867 -1881186853 -989334389</internalNodes>
      <leafValues>
        -9.4828650355339050e-02 1.5662345290184021e-01</leafValues></_>
    <_>
      <internalNodes>
        0 -1 22297 -902168569 -1092737025 -360759426 -1494473098
        -557981183 2036334400 -1430914600 694773939</internalNodes>
      <leafValues>
        -1.5117436647415161e-01 9.9188916385173798e-02</leafValues></_>
    <_>
      <internalNodes>
        0 -1 20535 -53206800 -21183303 511534064 -247312 -1098596892
        -67700819 -1132616454 -1078249249</internalNodes>
      <leafValues>
        -9.1583400964736938e-02 1.6354109346866608e-01</leafValues></_>
    <_>
      <internalNodes>
        0 -1 7857 -1101149533 -5277841 -1560612922 1392168671 1850651724
        2121031037 -1476395270 -146080300</internalNodes>
      <leafValues>
        -1.0332193970680237e-01 1.4323525130748749e-01</leafValues></_>
    <_>
      <internalNodes>
        0 -1 22432 -66926799 -104880754 -1073848997 -605038661 405711199
        -564302084 -1160074085 -1360132541</internalNodes>
      <leafValues>
        -9.9988780915737152e-02 1.4908209443092346e-01</leafValues></_>
    <_>
      <internalNodes>
        0 -1 4995 576883984 1676716782 -807428359 681658909 156697913
        -44140547 -1520098536 2109581482</internalNodes>
      <leafValues>
        -1.7215619981288910e-01 8.5325852036476135e-02</leafValues></_>
    <_>
      <internalNodes>
        0 -1 18630 -994681548 -491761718 -1094582277 -85053752 -6929196
        -1476519111 -1225222150 -2417985</internalNodes>
      <leafValues>
        -1.0121539980173111e-01 1.4716342091560364e-01</leafValues></_>
    <_>
      <internalNodes>
        0 -1 1932 -1604184234 -93573121 -316174550 1864543270 611800509
        88498423 1306246144 1148675095</internalNodes>
      <leafValues>
        -1.7805249989032745e-01 8.4211140871047974e-02</leafValues></_>
    <_>
      <internalNodes>
        0 -1 13248 310298272 1528892019 -1168745438 813334258 67325516
        376074111 477124340 1061627756</internalNodes>
      <leafValues>
        -1.8921868503093719e-01 7.8778602182865143e-02</leafValues></_>
    <_>
      <internalNodes>
        0 -1 26855 -663781374 -356611034 1828038144 1386914518 119252836
        1314231365 -212150464 566992</internalNodes>
      <leafValues>
        -2.3154395818710327e-01 6.3130564987659454e-02</leafValues></_>
    <_>
      <internalNodes>
        0 -1 14984 1144439458 414247857 -17011831 -1148064471 1978484385
        -1090560182 -180334710 541677571</internalNodes>
      <leafValues>
        -1.4919008314609528e-01 9.7997307777404785e-02</leafValues></_>
    <_>
      <internalNodes>
        0 -1 14169 1622073378 539680698 -680350490 -1800996230 884936162
        -1868478772 368457077 -1049553510</internalNodes>
      <leafValues>
        -1.8676175177097321e-01 7.9853311181068420e-02</leafValues></_>
    <_>
      <internalNodes>
        0 -1 9485 -1968589149 -286344474 938177495 -34783248 -1075084165
        1315028912 1476394960 1737463005</internalNodes>
      <leafValues>
        -1.2255483865737915e-01 1.2116537243127823e-01</leafValues></_>
    <_>
      <internalNodes>
        0 -1 24741 -1509228015 229305520 -2004934239 15495124
        -1436812758 81951294 531559844 1472919036</internalNodes>
      <leafValues>
        -1.8005849421024323e-01 8.2961559295654297e-02</leafValues></_>
    <_>
      <internalNodes>
        0 -1 8871 1890654513 1894756139 -1283484679 -263668396
        -387034818 -1112147043 -186675072 -857436844</internalNodes>
      <leafValues>
        -1.2616032361984253e-01 1.1828385293483734e-01</leafValues></_>
    <_>
      <internalNodes>
        0 -1 14275 539664416 -1643245768 -557990146 -254923014 457442845
        -1973256606 242447504 -1082964648</internalNodes>
      <leafValues>
        -1.5915890038013458e-01 9.4980172812938690e-02</leafValues></_>
    <_>
      <internalNodes>
        0 -1 23508 -47129728 2074660978 -1379994655 -1685181268
        260420749 -1079329099 1034925486 -1651565397</internalNodes>
      <leafValues>
        -1.0092494636774063e-01 1.4639836549758911e-01</leafValues></_>
    <_>
      <internalNodes>
        0 -1 5064 104474112 1130893263 1067417393 229379940 234122017
        1156868030 1476343328 822095778</internalNodes>
      <leafValues>
        -2.4764502048492432e-01 5.9563092887401581e-02</leafValues></_>
    <_>
      <internalNodes>
        0 -1 3271 947347978 1869065487 -245662127 1376955998 -1339329703
        1499164509 -138676682 1930219347</internalNodes>
      <leafValues>
        -1.7855930328369141e-01 8.1340253353118896e-02</leafValues></_>
    <_>
      <internalNodes>
        0 -1 24514 -1071256032 614513647 -462541004 -1509989170 7127445
        -1178697870 -2046827516 542178602</internalNodes>
      <leafValues>
        -1.9044992327690125e-01 7.7336266636848450e-02</leafValues></_>
    <_>
      <internalNodes>
        0 -1 17756 -573654023 1550720677 1869110733 -1213563059
        -541299099 -869123276 -309442273 -1995753421</internalNodes>
      <leafValues>
        -9.8921500146389008e-02 1.4607682824134827e-01</leafValues></_>
    <_>
      <internalNodes>
        0 -1 15049 1080485280 1024517954 -531233232 -1728645416
        1347028220 -1804583339 1959611144 4934922</internalNodes>
      <leafValues>
        -1.7990042269229889e-01 8.0534391105175018e-02</leafValues></_>
    <_>
      <internalNodes>
        0 -1 23415 1254164496 -893751520 -1091634262 1915895804
        -1369497060 -1488839420 -1325535596 -1151602550</internalNodes>
      <leafValues>
        -1.3619995117187500e-01 1.0718739032745361e-01</leafValues></_>
    <_>
      <internalNodes>
        0 -1 22887 -1736252368 848453412 -1075389728 -537109284
        -1449247256 -1484458627 935257557 -1141167937</internalNodes>
      <leafValues>
        -1.0924862325191498e-01 1.3386256992816925e-01</leafValues></_>
    <_>
      <internalNodes>
        0 -1 10629 -646552853 200100671 720567006 1925742310 1054252106
        -1118408942 -1270976778 -217923874</internalNodes>
      <leafValues>
        -1.1826218664646149e-01 1.2502673268318176e-01</leafValues></_>
    <_>
      <internalNodes>
        0 -1 18903 1082664726 992880559 -40485123 1546152490 1170024227
        -580722889 1005543296 1688915651</internalNodes>
      <leafValues>
        -1.6519702970981598e-01 8.8788934051990509e-02</leafValues></_>
    <_>
      <internalNodes>
        0 -1 24309 1895204540 1160965988 -1363280673 -26030102
        -269625457 2011352365 -1113331572 966870562</internalNodes>
      <leafValues>
        -1.2581193447113037e-01 1.1923916637897491e-01</leafValues></_>
    <_>
      <internalNodes>
        0 -1 14905 -1400621040 -523337524 -1560796865 -46167751
        -32329360 -1588110475 994588206 531343017</internalNodes>
      <leafValues>
        -1.7559549212455750e-01 8.5146084427833557e-02</leafValues></_>
    <_>
      <internalNodes>
        0 -1 19910 -1416756699 -897783449 653848563 1120626666
        -1390115056 -303137194 -2034493945 -818256783</internalNodes>
      <leafValues>
        -1.5950323641300201e-01 9.0755119919776917e-02</leafValues></_>
    <_>
      <internalNodes>
        0 -1 22125 -1128354320 -559252752 -1342899219 -77752332
        -1352732275 -1359301539 -1485980184 -1141115653</internalNodes>
      <leafValues>
        -8.0537460744380951e-02 1.8822243809700012e-01</leafValues></_>
    <_>
      <internalNodes>
        0 -1 19828 497156242 1382844481 801046360 1366597576 779269350
        -915450585 237065212 1480660428</internalNodes>
      <leafValues>
        -1.8157047033309937e-01 8.3161696791648865e-02</leafValues></_>
    <_>
      <internalNodes>
        0 -1 27133 -656563676 -417674214 -923401622 1392491254
        1073717774 1146322752 -227347767 861372667</internalNodes>
      <leafValues>
        -1.2814526259899139e-01 1.1526566743850708e-01</leafValues></_>
    <_>
      <internalNodes>
        0 -1 20050 -230239067 -1749158261 -1073856765 -108135230
        -631706449 -2031226883 -23727217 -389548414</internalNodes>
      <leafValues>
        -7.5554162263870239e-02 1.9216325879096985e-01</leafValues></_>
    <_>
      <internalNodes>
        0 -1 25179 1935584560 1280622058 -554860558 150470308
        -1086980353 -1914012118 -135940108 -1852175208</internalNodes>
      <leafValues>
        -1.3756258785724640e-01 1.0651110112667084e-01</leafValues></_>
    <_>
      <internalNodes>
        0 -1 10717 -1145106707 1675585581 -285511533 -629615521
        -268931322 662621713 -25239590 995805532</internalNodes>
      <leafValues>
        -1.3011980056762695e-01 1.0928814113140106e-01</leafValues></_>
    <_>
      <internalNodes>
        0 -1 12314 1894984343 -265883723 872394719 850292556 1127452460
        -1078231043 -1082161527 1977991809</internalNodes>
      <leafValues>
        -1.1820175498723984e-01 1.1959929764270782e-01</leafValues></_>
    <_>
      <internalNodes>
        0 -1 14589 -500750931 179977770 -1966295059 -337124995
        2052543763 1689778642 -26253017 -34460755</internalNodes>
      <leafValues>
        -1.1182070523500443e-01 1.3062705099582672e-01</leafValues></_>
    <_>
      <internalNodes>
        0 -1 25335 -1130455915 -202290177 -1157875557 -204216868
        -1074021312 -566271190 -286344518 -1149575861</internalNodes>
      <leafValues>
        -8.1948705017566681e-02 1.7995645105838776e-01</leafValues></_>
    <_>
      <internalNodes>
        0 -1 1099 -890346238 583330934 1862051690 548179686 1105540868
        1635105637 -163111900 71595092</internalNodes>
      <leafValues>
        -3.9605703949928284e-01 3.6578010767698288e-02</leafValues></_>
    <_>
      <internalNodes>
        0 -1 23591 43975457 -2026997271 -1090623456 -1972338823
        -1347469889 -1910032794 468345021 465247724</internalNodes>
      <leafValues>
        -1.4600822329521179e-01 9.8189018666744232e-02</leafValues></_>
    <_>
      <internalNodes>
        0 -1 23538 2088695008 470167169 2139055744 2035396070 611442091
        -1915235178 1056892917 -2065720901</internalNodes>
      <leafValues>
        -1.1635180562734604e-01 1.2640936672687531e-01</leafValues></_></weakClassifiers></stage6>
</opencv_storage>
